vec0 -0.9248551726341248 -0.13487346470355988 0.5919016599655151 1.1644865274429321 -0.6146271228790283 0.02508251927793026 -0.4204765558242798 -1.0701056718826294 -2.4865005016326904 -1.2967453002929688 -0.6359235644340515 0.5689582228660583 -1.681477665901184 0.4932146668434143 -1.2265056371688843 0.144670769572258 0.9192081093788147 -0.5641615390777588 -0.9648052453994751 -0.36675402522087097 0.26656991243362427 1.3370062112808228 0.5292137861251831 -0.035694561898708344 1.60451340675354 -1.1689733266830444 -0.16994833946228027 0.21840500831604004 1.7847487926483154 0.9456017017364502 0.563136100769043 0.46981388330459595 1.508948802947998 -0.27915847301483154 -0.73224937915802 0.3899015486240387 -1.8990665674209595 0.7202862501144409 -0.7948159575462341 0.8806840181350708 0.7313781380653381 0.7895825505256653 1.1027660369873047 0.025266272947192192 1.1608182191848755 0.5644159913063049 -0.39197880029678345 -0.7607246041297913 1.9387683868408203 -1.883510947227478 -1.8402130603790283 0.5760111808776855 -2.0239012241363525 -0.3557831346988678 -1.7496553659439087 -0.5281655192375183 -0.18379971385002136 -0.44659653306007385 -1.0048139095306396 0.6323345303535461 -1.1558939218521118 1.67775559425354 0.32833704352378845 -0.4594501256942749 -0.0291129220277071 -0.1916469782590866 1.1454811096191406 -1.1930267810821533 -0.23919320106506348 -0.05733248218894005 -1.0327383279800415 0.9007880091667175 0.7349703311920166 0.45768603682518005 2.7471494674682617 -0.5454415082931519 1.7440757751464844 -1.9686741828918457 0.26525431871414185 -0.8092871904373169 1.2091269493103027 -0.36517444252967834 0.4529178738594055 -1.9270422458648682 0.029824959114193916 1.3956584930419922 0.5953331589698792 -0.13313455879688263 0.7557550072669983 -0.23826923966407776 -0.6405113935470581 -0.35526803135871887 -1.0807301998138428 0.19863754510879517 1.7862461805343628 0.3700866103172302 0.9088347554206848 -0.28972116112709045 0.3715707063674927 0.871719479560852 0.7701537609100342 -0.17027094960212708 0.1729872226715088 0.46175286173820496 1.4183263778686523 -1.0316814184188843 -0.9696523547172546 0.3779745399951935 0.021834850311279297 -0.42138540744781494 0.2976658046245575 -0.42822062969207764 0.5273965001106262 0.298661470413208 -0.3222917914390564 -0.46974486112594604 -0.6380537748336792 -0.9973961114883423 0.2876187860965729 -0.9293751120567322 -0.4923987090587616 0.4070552587509155 -1.0979095697402954 1.5960915088653564 -0.6458258628845215 -2.494316577911377 -0.29262763261795044 0.11117982864379883 1.2423219680786133 -0.4207979738712311 -0.5913616418838501 -0.36393409967422485 -0.5905619859695435 -0.04448627680540085 -1.1444940567016602 -0.6087326407432556 -1.4641072750091553 0.41797563433647156 0.3115081191062927 0.12524013221263885 0.527739942073822 -0.422883003950119 0.6280280351638794 0.2940911650657654 -1.4089378118515015 -0.15581434965133667 -1.3854597806930542 0.5695288777351379 0.6530908942222595 0.042265117168426514 -0.6998246908187866 1.5169498920440674 -0.23142439126968384 0.17641012370586395 -0.14963683485984802 1.2104454040527344 1.5106120109558105 -0.9079951047897339 0.12966717779636383 -0.15980374813079834 0.9121304750442505 -1.3714882135391235 -0.7722260355949402 1.5687636137008667 0.10833089053630829 0.1545810103416443 0.09263395518064499 0.47026586532592773 -0.5152878761291504 1.6663886308670044 1.605176568031311 1.0403996706008911 0.20663151144981384 -0.40520039200782776 -0.7505216002464294 0.7997099161148071 -0.4476313292980194 0.35761451721191406 -0.70805823802948 1.513669490814209 -1.4463708400726318 1.7924120426177979 0.7331447005271912 -0.3515210747718811 0.36463257670402527 -1.1517910957336426 1.6676572561264038 -0.9673155546188354 0.9822884202003479 -0.6464076042175293 0.9347655773162842 0.06918854266405106 1.5706779956817627 -0.33674630522727966 0.5385900139808655 0.5144639611244202 1.0167871713638306 0.14629627764225006 0.33559146523475647 0.6923609375953674 
vec1 0.38248908519744873 -0.7208027243614197 0.7342998385429382 1.7451763153076172 1.0951342582702637 0.5239842534065247 -0.9213071465492249 1.2866253852844238 -0.9025430679321289 -0.830650806427002 0.07334565371274948 -1.1460789442062378 0.4970311224460602 -0.6960952877998352 0.2548144459724426 -0.23325422406196594 -0.9922541379928589 -2.0209577083587646 0.6390792727470398 0.1344296783208847 -0.2049046754837036 -0.2982422113418579 0.7595183849334717 -1.016440510749817 3.4138619899749756 -1.2649911642074585 0.5978751182556152 -0.34554430842399597 0.8131388425827026 1.2401751279830933 -1.356242060661316 2.388282537460327 -0.1396724283695221 -0.3429582118988037 -1.4283063411712646 -0.19778507947921753 0.563567578792572 -0.7737312316894531 -1.027675747871399 -1.715954065322876 -0.7280482053756714 1.702085256576538 1.422386646270752 0.9436338543891907 0.28559061884880066 0.19708776473999023 0.8809439539909363 0.5792276263237 0.953414261341095 -0.07556835561990738 -1.3132305145263672 -0.04552047327160835 -0.05407611280679703 -1.4470696449279785 -0.6831362843513489 0.610908567905426 0.6208608746528625 -0.11481373757123947 -1.3385428190231323 0.411649227142334 0.5598750114440918 -0.8582444190979004 0.29936134815216064 0.03953395038843155 -0.7398431301116943 0.6037192940711975 -1.5169179439544678 -0.10855468362569809 -0.6267861723899841 -0.3802781403064728 -1.0106322765350342 0.9995797872543335 -1.9825770854949951 0.362942099571228 1.5610469579696655 0.22069482505321503 -0.06902159750461578 -1.8718678951263428 0.0042047961615026 -1.6950639486312866 0.016272887587547302 -0.5508095622062683 -1.2174935340881348 -0.6055818200111389 0.7150845527648926 0.9708865284919739 -2.464099168777466 -1.3688905239105225 2.542062997817993 -1.8025628328323364 -0.4712965786457062 -1.2228808403015137 -2.548830270767212 2.131098985671997 -0.40834173560142517 1.78988778591156 0.2518593966960907 0.29083311557769775 -0.3953186869621277 0.6264672875404358 1.6742173433303833 -0.828995943069458 -0.3121926188468933 0.37707385420799255 0.8704031109809875 -0.6589510440826416 -0.7995437979698181 -0.46678146719932556 0.6815176010131836 -0.10831352323293686 -0.387145459651947 -0.5244173407554626 -0.20425225794315338 1.2513437271118164 -0.12483292073011398 -0.3613014817237854 0.1994761824607849 -0.4399459958076477 -0.7814972996711731 0.7196210026741028 -2.255284309387207 -0.4956010580062866 -0.3029125928878784 0.054121773689985275 -0.49180710315704346 -1.1697098016738892 -0.31592556834220886 1.399124026298523 0.6026416420936584 1.1882997751235962 -0.4483809173107147 0.1857888400554657 -0.7879080176353455 -0.7459495663642883 0.8359495401382446 1.1365015506744385 -0.8383939266204834 0.43963679671287537 -0.2556469142436981 -0.7786425948143005 -0.06009368970990181 -1.0741101503372192 0.16358549892902374 1.2473920583724976 0.36878904700279236 -1.01832115650177 -1.1128798723220825 -0.6530060172080994 0.30433064699172974 -0.7399013638496399 -0.38424572348594666 0.487179696559906 -0.879260241985321 0.4726148247718811 -0.3512643873691559 1.0499982833862305 1.2315661907196045 0.5370132327079773 -1.6372811794281006 0.3061598539352417 0.9901031851768494 -1.7210979461669922 0.24433930218219757 0.41386157274246216 0.2015106976032257 0.3643529713153839 -0.374399870634079 1.3818031549453735 0.25843438506126404 -0.6750498414039612 -0.12035097926855087 1.0555857419967651 1.9042128324508667 0.9266822338104248 -1.5164380073547363 -1.0137990713119507 -1.4587827920913696 -1.1624468564987183 -0.7243592739105225 1.5533628463745117 -0.7280826568603516 0.7262741923332214 2.1765408515930176 1.1127562522888184 -0.0235995315015316 -2.9139411449432373 1.0837346315383911 -0.44451454281806946 1.8597276210784912 -1.3571419715881348 -0.7753511667251587 0.4087654948234558 0.7423152327537537 -0.09885416179895401 -0.3946903645992279 -0.3350198566913605 1.8540688753128052 0.8672774434089661 -0.5727141499519348 0.14869679510593414 
vec2 -0.41421931982040405 -1.746964454650879 -1.2089738845825195 0.9748812317848206 -0.8160626888275146 1.176822304725647 0.20371697843074799 1.0068620443344116 0.5751590132713318 0.5978192687034607 -1.6343032121658325 -0.11812160909175873 0.9329389333724976 -0.3427269458770752 -0.34631261229515076 0.35881274938583374 0.460952490568161 -0.34960004687309265 -0.35888829827308655 -0.055983155965805054 0.07077427953481674 2.5732553005218506 0.25375697016716003 0.3319114148616791 2.563002586364746 -0.6173033118247986 0.48713985085487366 0.2808080315589905 -0.5990737080574036 0.5004156231880188 -1.1883516311645508 0.2424595206975937 -0.1458805352449417 0.48245587944984436 1.0631606578826904 1.522191047668457 0.4882957935333252 0.2564440369606018 -0.9294488430023193 2.020430564880371 -0.33540982007980347 0.6155009865760803 0.8872316479682922 -0.6425716280937195 0.8491050004959106 0.5488228797912598 -0.41783222556114197 -0.9895999431610107 0.4135998785495758 0.40702539682388306 -2.4050421714782715 -0.1602735072374344 0.5083932876586914 1.6748714447021484 0.1740814447402954 -0.058988697826862335 -0.13964760303497314 -0.5037704706192017 -1.5526628494262695 -0.06253060698509216 -2.3062522411346436 -0.17033277451992035 -0.15352606773376465 1.3157719373703003 1.6758863925933838 -1.3719710111618042 0.1341787427663803 0.5667388439178467 2.0192031860351562 0.3714258372783661 -0.25228431820869446 0.7175997495651245 -1.3770781755447388 1.2781829833984375 0.5046443343162537 2.0985023975372314 1.6542540788650513 0.29208993911743164 -0.29507583379745483 -1.2948052883148193 0.5137312412261963 -1.5949554443359375 -0.4373683035373688 -0.01586025021970272 1.3256738185882568 1.262510061264038 -0.8449475765228271 -0.8250564932823181 0.5539888739585876 -0.19879204034805298 -0.364217609167099 -0.15586566925048828 -0.8719083070755005 0.019762422889471054 0.5880414843559265 -0.2656233310699463 0.8072525858879089 -0.9662055969238281 1.8860641717910767 0.6509358882904053 2.319115400314331 1.5748951435089111 -0.788468599319458 1.4015311002731323 1.5262185335159302 0.687276303768158 0.35284966230392456 0.965592086315155 2.2256646156311035 -0.22460991144180298 -0.9643995761871338 2.0487821102142334 1.4734333753585815 -1.4434807300567627 -1.014141321182251 -0.48092323541641235 0.06806650757789612 0.28625011444091797 -0.3385365605354309 -1.2030085325241089 -0.00672360323369503 2.3174076080322266 1.2393189668655396 -0.2644234299659729 0.2834469676017761 -0.4401709735393524 0.1341002881526947 0.7955335974693298 -1.3049355745315552 -0.49209633469581604 -0.4235457479953766 1.5785260200500488 0.5256922245025635 0.24061734974384308 -1.5684887170791626 -0.8614516258239746 -0.7830308079719543 0.8214011192321777 0.4450094699859619 -0.14636407792568207 -0.06277799606323242 -0.009861846454441547 -0.6281668543815613 -0.13001251220703125 -0.8264920115470886 -0.9590223431587219 -1.9060189723968506 -0.5702436566352844 -0.9536299705505371 0.29218822717666626 0.09002090245485306 0.7241334915161133 -0.2954708933830261 2.0760295391082764 -1.7396645545959473 -0.31499961018562317 1.1636266708374023 -0.24185088276863098 -0.38624680042266846 -0.3721635937690735 0.8114500045776367 -0.5883949398994446 -0.7253866791725159 2.8919332027435303 -0.6784914135932922 -0.5965656042098999 0.4599418640136719 -1.047972321510315 -0.824880063533783 0.6449759602546692 -0.06454072892665863 0.4928809404373169 1.8061808347702026 0.5981053709983826 -0.7716276049613953 -0.5990157723426819 -0.7630529999732971 0.1482011377811432 0.28923237323760986 0.6978020071983337 0.2882075309753418 1.537909746170044 0.5166856050491333 -0.6040890216827393 1.4065203666687012 -0.15980474650859833 0.33199039101600647 1.1498134136199951 1.567501187324524 -0.07923600822687149 -0.36445242166519165 1.1265610456466675 1.7529866695404053 0.08173484355211258 0.7770707011222839 0.711392879486084 0.20586775243282318 1.9778133630752563 -0.5313778519630432 -1.1722054481506348 
vec3 -0.28692594170570374 -1.305227279663086 -0.5335578322410583 0.10370973497629166 1.607121229171753 0.8242536187171936 -0.5155551433563232 -0.020169438794255257 -1.1396292448043823 -0.8582655787467957 0.08792713284492493 1.6715108156204224 2.759577989578247 -0.5557669997215271 -0.35012564063072205 -0.9410895705223083 0.2193928211927414 0.27187368273735046 -0.8950173854827881 -0.7966257333755493 0.9627621173858643 0.45688748359680176 0.42322245240211487 0.4567089080810547 -0.4515782594680786 -1.2138944864273071 1.2634843587875366 -0.7336325645446777 -0.2297840416431427 1.9729429483413696 0.14560984075069427 1.6486505270004272 -0.6260762810707092 -0.312518447637558 -0.09103941172361374 0.8182329535484314 0.6686690449714661 1.9709452390670776 -0.4965153634548187 -1.5675543546676636 -0.8451911211013794 0.08338026702404022 1.7161589860916138 -1.1718806028366089 -0.7264423370361328 0.34900087118148804 0.4639434516429901 -0.10658619552850723 0.12410815805196762 0.4114004075527191 -0.9316723346710205 0.3059566617012024 -0.2462666779756546 0.7462867498397827 1.161260962486267 0.38664934039115906 0.0010312424274161458 0.632116436958313 -1.2681777477264404 1.5187711715698242 0.4085959494113922 1.3463213443756104 -0.9701962471008301 -0.8491038084030151 -0.6633436679840088 -0.3774612247943878 0.019960997626185417 0.3373708426952362 -0.37085774540901184 -0.26137620210647583 -0.6430949568748474 1.6662870645523071 0.22172334790229797 -0.5248165726661682 -0.3463563323020935 -0.9328302145004272 0.558921217918396 -0.8955913782119751 0.681837260723114 -0.9312984347343445 0.4027646780014038 -0.07527375966310501 -0.24473389983177185 -0.40778598189353943 0.14247512817382812 2.536559581756592 -0.367101788520813 -0.11934107542037964 0.4298519194126129 -0.18138037621974945 -1.9467763900756836 -0.6803053021430969 -1.5137457847595215 1.2855221033096313 1.5535551309585571 0.7618314027786255 0.014579934999346733 -1.8539586067199707 0.1023171991109848 0.39765042066574097 -0.5366233587265015 -0.5347932577133179 -0.23433606326580048 -1.2625652551651 0.08552145212888718 1.6877636909484863 -1.0891497135162354 1.6919052600860596 1.7976003885269165 -0.650242269039154 -0.4149525761604309 0.26121923327445984 0.2526610195636749 -1.1806391477584839 0.1921081393957138 0.010175703093409538 -1.2170624732971191 -0.29320579767227173 -0.6185241937637329 -1.3552663326263428 -2.0377137660980225 0.028965596109628677 -1.551977515220642 0.823732316493988 -0.18898139894008636 -0.9026926159858704 -0.6804183125495911 -0.27937188744544983 -1.8917261362075806 -0.5823502540588379 -0.2733868956565857 0.7636019587516785 0.6433754563331604 -2.10630202293396 -0.3345099091529846 -0.4268711805343628 -0.5019792914390564 2.078148365020752 0.3892320692539215 0.1725609004497528 -0.11176747828722 -0.35729771852493286 0.9252368807792664 0.5620976686477661 -0.8135806918144226 0.23586004972457886 0.42885804176330566 -1.088888168334961 0.2396252602338791 -0.9667695164680481 -1.4349666833877563 1.4449349641799927 -1.0089600086212158 1.0598618984222412 -0.5093275904655457 0.022071724757552147 2.5225260257720947 -0.4579100012779236 -1.389181137084961 0.13516120612621307 -0.06960403919219971 0.15218324959278107 0.20239846408367157 0.6357651948928833 -0.3370857238769531 -0.27352166175842285 0.894477367401123 0.17643216252326965 -0.2391488254070282 0.45656847953796387 1.043976902961731 0.07126924395561218 -0.28954270482063293 -0.2879216969013214 -0.21728463470935822 0.16440701484680176 -1.158630132675171 -1.3886550664901733 -0.4584914445877075 1.4920920133590698 -0.040329188108444214 1.4492582082748413 -0.23785583674907684 0.9393848180770874 0.02491389960050583 -0.40548571944236755 0.5261768102645874 -0.012546502985060215 0.10011552274227142 -1.593005657196045 -1.7479811906814575 -0.23806801438331604 1.5130892992019653 0.770894467830658 -1.1486321687698364 0.35970404744148254 0.3837060332298279 0.8083181977272034 0.08977290987968445 -0.49327540397644043 
vec4 0.12265915423631668 -0.23674319684505463 1.571014404296875 -1.2325503826141357 0.7882909178733826 2.0113730430603027 -0.06719068437814713 2.3950607776641846 -0.189152330160141 1.2103910446166992 -0.6402360796928406 -1.1104387044906616 -0.21326661109924316 -0.8389668464660645 0.08222843706607819 -0.4948694705963135 -0.29819798469543457 -1.0930696725845337 -1.100512981414795 0.0508856438100338 0.20617909729480743 1.745718002319336 -1.6411058902740479 0.001663865172304213 -0.9068697094917297 -0.012408486567437649 0.7477961182594299 -0.013527076691389084 -0.17799986898899078 2.12709641456604 -2.1909279823303223 0.8967967629432678 -0.2842761278152466 -0.1546606719493866 -0.1725933998823166 -1.6587529182434082 1.7024445533752441 0.15714523196220398 -2.047736406326294 0.07315938174724579 1.6990865468978882 -0.6701713800430298 0.9382027983665466 2.955599308013916 -0.4924064576625824 2.0664827823638916 -0.2618538737297058 2.105712652206421 0.08983052521944046 -0.29074627161026 -0.7841746807098389 -0.6142124533653259 -0.31988418102264404 -0.035240210592746735 0.4609268605709076 2.4345202445983887 -1.0624189376831055 -0.7778288722038269 0.9105708599090576 -0.3559421896934509 0.5571166276931763 -0.49205178022384644 -0.9327733516693115 -0.35121577978134155 0.3362067937850952 -0.727376401424408 0.8623340725898743 0.34972861409187317 0.5622802972793579 -0.8084171414375305 0.48503273725509644 -0.6257850527763367 -0.3278706669807434 -0.7340233325958252 -0.08479326218366623 -0.5736548900604248 -0.3805546760559082 -1.1137750148773193 -0.705424964427948 -0.17311418056488037 1.5596002340316772 -0.3634220063686371 -0.6327180862426758 -0.21501877903938293 1.038135290145874 1.9082030057907104 -1.2527261972427368 -0.5437002778053284 1.1191482543945312 0.6906633973121643 -0.04471487179398537 -0.7620143890380859 -0.03575410321354866 0.6733366250991821 1.1464494466781616 1.9062315225601196 0.6954628825187683 0.1465235948562622 1.565449595451355 0.6277537941932678 -0.4806043207645416 -0.1230965182185173 -1.089792013168335 0.6266969442367554 0.32613641023635864 -0.2988651990890503 0.054014187306165695 -0.1502242237329483 1.3332968950271606 1.8066422939300537 -1.1528525352478027 1.493261456489563 -0.3423849046230316 0.09766075015068054 0.3777059018611908 -0.21289032697677612 1.5195040702819824 -0.29501405358314514 0.0480513796210289 -0.6504267454147339 0.8479668498039246 -0.909554123878479 -1.5786042213439941 -0.8796700239181519 0.919122576713562 -2.2101011276245117 -1.5308548212051392 0.360164612531662 -0.8662646412849426 -0.6753956079483032 -0.36586132645606995 0.7020363807678223 0.7397012710571289 0.36006826162338257 -0.3511730432510376 0.19751110672950745 -0.7944261431694031 0.8739925026893616 -0.2571225166320801 -0.23857787251472473 -0.2378130853176117 -0.66762375831604 -0.5806201696395874 0.12234600633382797 0.3031214475631714 -0.47328028082847595 -0.10119597613811493 -1.346117615699768 -1.439503788948059 -0.10652662813663483 0.2913440763950348 -0.4197273552417755 -2.0650854110717773 0.18602949380874634 -1.1411925554275513 1.626630187034607 0.9893434643745422 0.94420325756073 0.3624837398529053 -1.2811781167984009 1.6217049360275269 -0.2763711214065552 1.3910272121429443 1.2889562845230103 -0.058553632348775864 -0.1139463260769844 0.03724794462323189 -1.019088864326477 -0.4396628737449646 1.2587047815322876 -1.759743332862854 -0.6559925079345703 2.0500175952911377 0.7509803771972656 0.9947333931922913 -0.035787034779787064 -0.3726480305194855 -0.606124222278595 -0.11072897166013718 0.9188203811645508 -0.6836198568344116 2.1790425777435303 0.6103529930114746 0.32347404956817627 -0.1767469346523285 -1.727787971496582 0.4979023039340973 0.4356659948825836 -0.20246824622154236 0.2742794156074524 -0.704016387462616 -0.4525327980518341 2.041590690612793 1.681679129600525 0.5769652128219604 -0.13790595531463623 -1.1869826316833496 0.9519029259681702 -0.3539520800113678 0.27982622385025024 
vec5 -0.007988328114151955 -1.3561071157455444 0.9309102892875671 0.19251424074172974 1.0906485319137573 1.2689125537872314 -1.84943687915802 1.4803974628448486 -1.5927042961120605 1.5530047416687012 -1.468432903289795 0.719295859336853 0.8315154910087585 -1.307474136352539 -1.6242351531982422 -0.7665588855743408 -3.0138468742370605 -1.1532056331634521 -2.0260026454925537 -1.60595703125 -0.33698251843452454 1.5288034677505493 0.1457517147064209 -2.272857666015625 1.5806454420089722 0.6622053980827332 0.945123016834259 -1.5651320219039917 0.3095985949039459 2.065657138824463 0.0910319909453392 1.0943602323532104 0.9056565165519714 -0.595039427280426 -0.37121689319610596 -0.04025006666779518 -0.43757957220077515 0.12761786580085754 -1.6711150407791138 -1.2158935070037842 0.5935865044593811 1.0733641386032104 -0.02562868967652321 1.3211652040481567 0.2624289095401764 1.7903594970703125 -1.0157390832901 0.4361115097999573 -0.3604159951210022 1.2354358434677124 -0.8597824573516846 -0.16386984288692474 -0.5993222594261169 -0.2778971195220947 -0.31334513425827026 -0.2678947448730469 0.16929294168949127 0.37821024656295776 -0.5180078744888306 -0.9108774662017822 -1.8772237300872803 -0.36740952730178833 -0.615470290184021 -0.3117952048778534 0.6984679698944092 0.5564519166946411 -0.7435095310211182 -0.14493510127067566 0.30696573853492737 -0.2615342140197754 -0.830336332321167 -0.2533036470413208 0.4287869930267334 -1.0539103746414185 0.6545431613922119 0.7638482451438904 0.5870203971862793 -0.4814966917037964 -0.9042200446128845 0.19011983275413513 0.40521666407585144 -1.516668438911438 -0.04802714288234711 0.10842931270599365 2.374647617340088 0.9410390257835388 0.403832346200943 -0.3666689991950989 -0.6927869319915771 -0.11931619048118591 -0.41775888204574585 -1.2621476650238037 -1.3034809827804565 -0.5827335715293884 1.5970829725265503 0.8892231583595276 0.7233943939208984 -0.5701656937599182 0.7829491496086121 0.332283616065979 -0.40394240617752075 -0.02869439497590065 0.40332087874412537 -0.33111193776130676 3.1745307445526123 -1.0373446941375732 1.3918265104293823 1.538540005683899 0.8147283792495728 0.5449987053871155 1.325120449066162 0.21564358472824097 0.622189462184906 1.1604583263397217 0.9669404029846191 -0.4018172323703766 -0.37946486473083496 0.45938044786453247 0.03086213208734989 1.484075665473938 -1.4029937982559204 -0.2228224277496338 -0.23015163838863373 -0.9017816185951233 1.2889690399169922 -0.27382442355155945 0.1244869977235794 0.014483529143035412 1.398138403892517 -0.5743526816368103 0.09697801619768143 -0.7117156982421875 0.5517645478248596 -0.6815301775932312 1.2977381944656372 0.6949028968811035 -1.458411455154419 1.7353256940841675 0.10855907946825027 0.6771859526634216 0.41834449768066406 2.0487935543060303 -0.47224363684654236 -0.5075939297676086 -1.1525943279266357 -0.33441686630249023 -1.2830842733383179 -1.4065864086151123 0.17971062660217285 -0.26273685693740845 -0.12778840959072113 0.7066323757171631 -1.1591577529907227 2.2865610122680664 -1.5257748365402222 -0.1178852841258049 2.21604061126709 -0.6557967662811279 -0.12903855741024017 0.28259187936782837 1.2037783861160278 -1.7777312994003296 -0.39447349309921265 0.9634320139884949 -0.6682490110397339 0.16626422107219696 -1.0041812658309937 -0.8318619728088379 -0.7810488343238831 1.8794450759887695 -1.530791163444519 0.8511351943016052 0.3141094446182251 0.9088761806488037 1.2141129970550537 0.19014602899551392 -0.8955100178718567 0.6512455344200134 -0.28220075368881226 -0.03982969745993614 1.3791837692260742 1.0349891185760498 0.1156684011220932 -2.1668026447296143 2.0734782218933105 0.1556168645620346 -1.7889164686203003 -0.47596636414527893 0.8137460947036743 -0.7484312653541565 -0.8833990693092346 -0.603276252746582 0.7534452080726624 -0.783175528049469 0.8932563662528992 -2.4706664085388184 1.9768898487091064 0.7664535641670227 0.5015234351158142 -0.5330711007118225 
vec6 -1.729888677597046 -0.18353866040706635 0.39475497603416443 1.1646385192871094 0.5788277983665466 -0.5304744243621826 0.050749439746141434 1.1216347217559814 -0.635657548904419 0.5864620208740234 1.070803165435791 0.4611765146255493 0.00038426154060289264 -0.1862243264913559 0.49153241515159607 0.28332048654556274 -0.3515939712524414 0.3914916217327118 -0.2560778856277466 -0.19901829957962036 -1.8217933177947998 1.994705319404602 0.8713106513023376 -2.2940473556518555 1.3312382698059082 -2.011882781982422 0.1958785355091095 1.4385854005813599 -0.2819617688655853 0.9213116765022278 0.18469096720218658 1.0184789896011353 0.02994726225733757 -0.1473228931427002 -0.44100359082221985 -0.3404673933982849 -0.35621705651283264 0.45516493916511536 0.24550066888332367 -3.1896355152130127 0.1811615526676178 1.1550376415252686 0.5352557301521301 -0.027028629556298256 0.49950897693634033 0.24830035865306854 0.20692336559295654 0.4195139706134796 -0.3597700893878937 -0.35626912117004395 -0.23971940577030182 -1.7435060739517212 -0.636522650718689 1.2558168172836304 -0.8654127717018127 0.770666778087616 0.373569130897522 0.1721162348985672 -0.9600732922554016 -0.20493941009044647 0.6496332287788391 -1.4876829385757446 -1.0439393520355225 -1.5660737752914429 1.1318262815475464 -0.6923645734786987 0.5012638568878174 -0.5142043232917786 0.6599127650260925 -0.47958630323410034 0.12210417538881302 0.37776994705200195 0.12213134765625 1.2516058683395386 0.7580991387367249 -0.6285706162452698 1.453851342201233 -2.293045997619629 0.8313361406326294 -0.3702867925167084 0.6225382685661316 -0.017185211181640625 0.7782936692237854 -0.11244118958711624 1.3088741302490234 2.153921127319336 -1.2465322017669678 -0.32842782139778137 0.6273748874664307 -0.3309319317340851 -2.0765480995178223 -0.481680691242218 -0.14428551495075226 2.0422523021698 0.46713632345199585 1.2626439332962036 -1.241815447807312 -1.8182679414749146 1.0009950399398804 -0.6365736722946167 0.4077180325984955 0.6403183937072754 -0.026650752872228622 0.497521311044693 0.41174614429473877 -0.2137206643819809 0.15033455193042755 0.3564169108867645 0.995079755783081 -0.5745495557785034 -0.20088881254196167 0.023917675018310547 0.7589332461357117 0.0180292259901762 -1.9715158939361572 -0.08417386561632156 -0.598953902721405 1.4106732606887817 0.5344285368919373 -0.75462806224823 -0.32061585783958435 1.1029828786849976 0.6796804070472717 0.4339233636856079 0.7577831745147705 -2.4882283210754395 -0.28939491510391235 -0.6458107829093933 1.9645435810089111 0.7684561610221863 1.3842090368270874 1.0249063968658447 -0.727540135383606 -0.719619631767273 -1.0383319854736328 1.1494501829147339 -1.7425127029418945 1.234981656074524 -0.26389458775520325 -1.9224942922592163 1.5296356678009033 -0.27410224080085754 0.6802499890327454 0.4750508666038513 0.5874562859535217 -0.1597076803445816 -0.9910895824432373 0.8870642781257629 0.815613329410553 0.5298759341239929 -0.7241570949554443 1.40565025806427 -0.9401867985725403 0.6791667938232422 0.30650007724761963 0.7507774829864502 0.707460880279541 0.42064613103866577 -1.054624319076538 -1.364949107170105 -0.09235072135925293 0.7930765151977539 -0.6396073698997498 1.6121419668197632 -0.1986118108034134 -0.09272798895835876 -1.9550161361694336 -0.6121317744255066 -0.48346075415611267 0.37458303570747375 0.23936046659946442 -0.6595571637153625 1.0176703929901123 1.8193256855010986 -0.4031801223754883 -0.5172260403633118 -1.6646891832351685 0.2641873061656952 -0.42901894450187683 1.1231954097747803 0.6888859272003174 0.6937062740325928 -0.02364197187125683 1.4092857837677002 -0.7639981508255005 -1.8629860877990723 0.6271054148674011 -0.05121812969446182 1.4816876649856567 -1.1427857875823975 -0.49924811720848083 -0.3602328598499298 0.16204790771007538 0.020321445539593697 -0.7222119569778442 -1.439068078994751 2.2943966388702393 2.129875421524048 0.28157275915145874 -1.5716463327407837 
vec7 0.42569419741630554 -1.1510967016220093 0.7371128797531128 0.964404284954071 -1.0751246213912964 1.6104055643081665 0.2294262945652008 -0.11762655526399612 -0.4197845160961151 -1.2210348844528198 -0.9091523885726929 0.7427952885627747 1.8591004610061646 -1.0120247602462769 -1.0144582986831665 0.6596603393554688 0.21184584498405457 0.5207011103630066 0.7073307633399963 -0.245219886302948 0.7819793224334717 0.8548634648323059 -0.6302168369293213 -0.9445564150810242 1.2916340827941895 -0.7406779527664185 0.23078352212905884 0.07932336628437042 0.11668460816144943 0.7495922446250916 0.20019559562206268 -1.0599766969680786 -0.09002231061458588 0.19178983569145203 -1.9796217679977417 -1.1394380331039429 0.2978166341781616 0.37747153639793396 -2.8658390045166016 -1.27561354637146 -0.21931923925876617 -0.08869531750679016 0.0776715949177742 0.38471803069114685 -0.5854523777961731 0.03351685404777527 0.5030447840690613 -0.6537206172943115 -1.024950623512268 0.3345070481300354 0.0713207870721817 -0.4033227264881134 -1.657252550125122 -0.08628684282302856 -1.3250259160995483 -0.7530213594436646 -0.878910481929779 -1.187854290008545 -0.7380377650260925 -1.9457039833068848 -0.38296645879745483 -0.5107108950614929 -1.4066513776779175 -0.1844722181558609 -0.46286532282829285 -0.31701019406318665 0.4019283056259155 -0.3311072587966919 0.11491096764802933 0.9124546051025391 -0.9007569551467896 -1.721062421798706 -0.065656378865242 0.44080668687820435 2.8405072689056396 0.040278442203998566 0.13775427639484406 -1.494328498840332 -0.4301406443119049 -0.2087608277797699 0.9664918184280396 -0.5392857789993286 -0.8198114037513733 -1.7850133180618286 1.5233205556869507 -0.7445094585418701 0.45711103081703186 -0.2682725787162781 0.6093757748603821 -0.2858213186264038 -0.5701777338981628 -1.3184150457382202 -0.4180844724178314 1.0389328002929688 1.1326948404312134 0.8539949059486389 -0.6697725653648376 1.152858018875122 1.180424451828003 0.28007546067237854 1.0304570198059082 0.2562659978866577 -0.3651309907436371 0.39501407742500305 0.17387470602989197 -0.04290511831641197 0.16371837258338928 0.8839967250823975 0.37661054730415344 -0.17291155457496643 -0.7186964750289917 0.19911745190620422 1.4519968032836914 0.5968446731567383 0.4060876667499542 -0.5012639164924622 0.6694748401641846 -0.465892493724823 -1.6709827184677124 -1.5804431438446045 -0.9789398908615112 -0.10637373477220535 -0.6445468664169312 0.441191166639328 1.9629861116409302 -0.5162287354469299 -0.5955524444580078 1.1405792236328125 -0.23624365031719208 -0.34189537167549133 -2.006910562515259 1.448075294494629 0.47140124440193176 -0.4437272250652313 0.923145592212677 -0.39354076981544495 -1.6854794025421143 1.8250912427902222 1.0207253694534302 -1.096757173538208 0.19679765403270721 0.0934862419962883 -1.5369257926940918 -0.3589618504047394 0.12186432629823685 0.07496345788240433 0.35864320397377014 -2.5876972675323486 -0.09923281520605087 0.3434266746044159 -0.3317528963088989 0.0885322317481041 -0.8508469462394714 0.7137901186943054 -0.6079263091087341 -0.18002083897590637 1.673490047454834 -1.1548049449920654 -0.19629141688346863 0.4710051119327545 0.12125971913337708 -0.08024485409259796 0.9232296943664551 -0.4294489920139313 -0.500917911529541 0.04064208269119263 -0.003556536976248026 0.2411189079284668 -0.7404752969741821 0.5132408142089844 -2.327394485473633 0.334679514169693 0.3966004550457001 0.25144466757774353 0.7404476404190063 -0.45307591557502747 -0.49101659655570984 -0.7021307349205017 0.10262519866228104 1.5259439945220947 0.4717843532562256 0.7251869440078735 -0.537909984588623 -0.1877581626176834 1.5241098403930664 -0.42216262221336365 0.11603143066167831 0.2830790877342224 2.018205404281616 -0.2747619152069092 0.28344303369522095 1.467965841293335 0.6742854118347168 0.7619691491127014 1.3246030807495117 -1.1844080686569214 -1.0787911415100098 2.2628324031829834 -0.3493455648422241 -0.48629525303840637 
vec8 0.9853899478912354 -2.1717615127563477 -0.6077794432640076 1.4709365367889404 -0.3842967450618744 0.6554998755455017 -0.3325579762458801 1.2383164167404175 -1.559285283088684 0.7773796916007996 0.2937840521335602 -0.8826515674591064 -0.03235601261258125 -0.027672726660966873 -0.42307114601135254 1.5556436777114868 -0.2230217307806015 0.6927608251571655 -1.3575206995010376 -0.6818717122077942 -0.3510577380657196 -0.37906819581985474 -0.4075944721698761 0.6449409127235413 0.134193554520607 -2.355318546295166 1.338147521018982 0.1232919692993164 1.3500856161117554 2.3223626613616943 -0.7808923125267029 -0.10593035817146301 1.0746979713439941 1.4502391815185547 -1.0058214664459229 0.2250242680311203 -1.3134585618972778 0.45708712935447693 -0.8006340265274048 -0.7717472314834595 -0.845065176486969 1.0146085023880005 1.2871931791305542 0.7347090244293213 -1.0670260190963745 2.045274257659912 -0.2852339446544647 -0.46383920311927795 1.6479438543319702 0.6248483657836914 0.15292978286743164 0.14702744781970978 -0.2632828950881958 0.08266076445579529 0.09665233641862869 -0.11224878579378128 -0.1320471614599228 -0.395205020904541 0.394924134016037 1.0928394794464111 0.2122029960155487 -0.9013506174087524 0.2959403097629547 0.3880591094493866 -0.06997033208608627 -1.028576135635376 0.9888541102409363 -2.261976957321167 1.1412056684494019 0.6350455284118652 1.431671380996704 0.9928432703018188 -0.8234898447990417 1.1567851305007935 0.8569110631942749 1.6693613529205322 -0.10442925989627838 -2.959235429763794 -0.3428385853767395 -0.019871091470122337 -0.601084291934967 0.11044255644083023 -0.5532777905464172 -0.9218666553497314 0.15242011845111847 2.4242115020751953 -0.26529523730278015 -0.4962767958641052 0.8086056113243103 -0.25439703464508057 0.7540290951728821 -1.0386542081832886 -1.9807069301605225 1.3527904748916626 0.13291238248348236 1.3623170852661133 1.8622955083847046 -1.5679526329040527 1.7271835803985596 1.8329334259033203 0.5070818066596985 -0.29486823081970215 -1.1475952863693237 0.21549655497074127 1.3041311502456665 -0.33121827244758606 -0.4272792637348175 1.0059717893600464 1.0100480318069458 -0.2170865833759308 -1.161931037902832 -0.20136196911334991 0.8722373247146606 1.0820915699005127 0.2909371852874756 0.658492386341095 1.4710980653762817 -0.5911338329315186 -1.2119590044021606 -0.31914693117141724 -0.28882426023483276 0.41016650199890137 -1.6336692571640015 0.22599323093891144 -1.7317862510681152 -2.529249429702759 -1.1617956161499023 -0.9460073709487915 -1.2163070440292358 1.0787478685379028 -1.4479873180389404 -0.40548276901245117 0.23435087502002716 -1.458672285079956 -0.6589736938476562 -0.3408309817314148 -2.4885754585266113 1.016301155090332 0.6000497341156006 -0.43279197812080383 -0.8213599324226379 1.0107778310775757 0.6275699734687805 -0.09969615191221237 -0.26588550209999084 0.8158026337623596 1.2113678455352783 -1.431321144104004 -0.12437380105257034 -0.033440329134464264 -0.049831390380859375 0.9030641913414001 -0.22576473653316498 1.5558362007141113 -0.19932495057582855 1.3467411994934082 1.6564445495605469 -0.2690856158733368 -0.1068764179944992 -0.09972268342971802 0.3044068217277527 -0.750718355178833 0.2864094078540802 0.6988546848297119 0.7606619596481323 -0.2716977000236511 0.18200837075710297 -1.8668665885925293 1.128393292427063 0.2842906713485718 -0.606630265712738 1.2392975091934204 0.6936231851577759 0.5445255041122437 0.2592943608760834 0.13189731538295746 0.5649580955505371 -1.2851064205169678 0.6051161885261536 0.7324419021606445 0.6582985520362854 0.600907027721405 1.9685815572738647 0.4533284902572632 -0.7300635576248169 -1.1198056936264038 0.07225610315799713 -1.299458384513855 0.2671630084514618 -0.2027694582939148 0.6621503829956055 -0.32085976004600525 2.339113473892212 -0.3429178297519684 1.6766332387924194 0.11095092445611954 0.3481466472148895 0.7419130802154541 -0.38605207204818726 -0.35720834136009216 
vec9 0.27691999077796936 -2.3207383155822754 -0.11244111508131027 1.6360511779785156 -0.08513099700212479 -0.36280325055122375 -0.5275843143463135 0.9541506767272949 -0.6746835112571716 -0.1527738869190216 0.062276653945446014 1.454419493675232 1.123404622077942 -1.061836838722229 0.6257663369178772 0.3382073640823364 0.8874504566192627 -0.7711951732635498 -1.8713679313659668 0.9317971467971802 -0.9244651794433594 2.113718271255493 -0.4293763339519501 0.6111023426055908 1.5515778064727783 -1.981320858001709 1.8033167123794556 0.8242235779762268 0.9625253677368164 2.7538955211639404 -1.1161209344863892 -1.0099886655807495 -2.5248868465423584 -0.46814054250717163 -1.5628374814987183 0.4764327108860016 -0.21697571873664856 0.3708101212978363 0.8031488060951233 -0.7693605422973633 0.7650219798088074 1.5168486833572388 0.07302067428827286 1.108322262763977 -0.8763110041618347 -0.26287391781806946 0.8016796708106995 0.061040401458740234 0.10694898664951324 0.4955357015132904 -0.695507824420929 0.9887491464614868 0.07419385015964508 -1.3593363761901855 0.19015748798847198 -0.49524492025375366 -0.021519439294934273 0.3806798458099365 -0.569517195224762 1.83230721950531 -2.6745457649230957 2.053802490234375 1.105043649673462 -0.6618819236755371 0.8373798727989197 -0.1520431786775589 1.0716651678085327 -1.455536961555481 2.620551109313965 -1.5617786645889282 -0.49961158633232117 0.6789118051528931 -1.4870346784591675 -1.5805710554122925 1.516440987586975 0.2594294250011444 1.001759648323059 -1.8288756608963013 1.7613011598587036 -0.1938248723745346 1.2818021774291992 -0.947116494178772 0.9743592143058777 0.15448112785816193 0.5316872596740723 0.4650844633579254 -0.039457038044929504 -1.166900634765625 0.8624058365821838 -0.5692006945610046 0.599223792552948 -1.4619728326797485 -0.602562427520752 -1.488581895828247 0.6131552457809448 0.5062141418457031 -0.48677802085876465 -0.6654344797134399 -0.03540617600083351 0.5447328090667725 0.7497870922088623 -0.4534025192260742 -0.4672251343727112 2.347663640975952 -1.4039428234100342 0.0042320070788264275 0.43913719058036804 -0.4131720960140228 0.6081741452217102 0.1467486470937729 -0.18953832983970642 -0.13172192871570587 0.7320886254310608 -1.4499106407165527 -0.9020540118217468 0.109498992562294 0.5504829287528992 1.2075937986373901 -0.1225137785077095 -0.2616499960422516 -0.023127440363168716 0.20771874487400055 -1.1987498998641968 0.33946871757507324 -0.19460409879684448 -1.3422996997833252 -2.130221366882324 1.661280632019043 0.8636190891265869 1.1940457820892334 -0.17048892378807068 0.016724636778235435 1.1561121940612793 -0.5174620151519775 -0.8070753812789917 0.016305435448884964 -1.3214699029922485 0.5334041714668274 1.4967230558395386 -1.626725435256958 0.15773706138134003 1.6891767978668213 0.09921283274888992 -0.2830268442630768 -3.3510172367095947 -0.32819047570228577 -0.5176113247871399 -0.29533082246780396 1.216788649559021 -0.21961528062820435 -0.1662525236606598 0.6870244741439819 -3.544527769088745 2.8231685161590576 -0.7888525128364563 1.610020399093628 2.736323118209839 -0.02211468480527401 0.13161124289035797 -0.5135334730148315 0.6094661951065063 -0.33485567569732666 0.5899080038070679 -0.012018206529319286 -0.3951641321182251 1.7725268602371216 -0.06129106879234314 -1.076439380645752 0.25977081060409546 0.9691130518913269 -1.4118608236312866 -1.7541437149047852 0.8113229870796204 2.699486494064331 1.3461947441101074 -1.1888964176177979 0.10954809188842773 0.6679999232292175 -1.1295595169067383 2.1190433502197266 -0.15305548906326294 1.6971111297607422 1.6996296644210815 -0.6994913816452026 -0.5511316657066345 -0.6366598606109619 0.4103829562664032 -0.41651013493537903 -1.0192214250564575 -1.258382797241211 -0.7961637377738953 0.5239294767379761 1.8363583087921143 -0.2105739563703537 2.935750961303711 1.103342056274414 1.642043113708496 2.167372465133667 0.39639392495155334 -1.2358301877975464 
vec10 -0.3930369019508362 -1.3109877109527588 0.46215611696243286 1.5533000230789185 -0.032779209315776825 1.4159021377563477 0.0008908899617381394 1.2336840629577637 -1.2351019382476807 0.8506236672401428 -1.4742939472198486 0.6570096611976624 1.8360830545425415 -0.7983018755912781 -0.6899833083152771 0.9743366241455078 -0.143397718667984 0.1092710867524147 -1.71284019947052 -1.495213270187378 -1.1446152925491333 0.6929048895835876 -0.7724934220314026 -1.2948869466781616 1.7736808061599731 0.4739047884941101 0.6075339317321777 -0.1164579913020134 -0.3100048303604126 1.8656846284866333 0.6462914943695068 2.121354579925537 0.05035345256328583 1.2084451913833618 0.3053804636001587 0.8715290427207947 -0.9358810186386108 0.23478978872299194 -2.443913459777832 0.04855774715542793 0.3780987560749054 1.3831899166107178 2.3185670375823975 2.683192014694214 0.04374902695417404 -0.6601157784461975 0.26254376769065857 1.6924172639846802 -0.720592737197876 0.4489436149597168 -0.19955141842365265 -0.010578477755188942 -0.15484145283699036 -0.20025324821472168 -1.1061352491378784 0.40455037355422974 0.33457016944885254 -0.1291816383600235 -0.2669391334056854 -0.23425206542015076 -0.8976222276687622 -1.2924246788024902 1.0129672288894653 0.33964183926582336 0.31066036224365234 0.24809573590755463 1.4359034299850464 -1.2800451517105103 -0.14524251222610474 0.9468173384666443 -1.316441297531128 3.0935099124908447 -1.3874554634094238 1.8159139156341553 2.1130547523498535 0.9548511505126953 -1.159741759300232 -0.19582803547382355 -0.022809110581874847 -1.7971374988555908 0.27465522289276123 -0.8206098675727844 1.5192930698394775 -2.4842565059661865 -0.07402005791664124 1.8041001558303833 -0.7610751390457153 -0.4239470362663269 -0.46094584465026855 -2.3211653232574463 -0.25394564867019653 0.3157406747341156 -1.3367037773132324 -2.3661301136016846 0.04640830680727959 1.9580094814300537 0.33466529846191406 -1.329633355140686 0.4159480631351471 0.22766725718975067 -0.47834569215774536 -0.32574227452278137 0.2953970730304718 0.29018956422805786 -0.034612026065588 0.23367242515087128 1.584771752357483 3.0017502307891846 0.05625533685088158 -1.197414517402649 -0.0273293349891901 0.4443652927875519 0.9871647357940674 -0.06949929893016815 -2.8815197944641113 -0.49897605180740356 0.016145000234246254 -0.054051753133535385 -1.2864797115325928 0.4436354637145996 0.30501630902290344 0.4115288555622101 -1.5159674882888794 -0.9437142014503479 0.06418149173259735 -0.2468835711479187 -1.3714876174926758 0.8608371019363403 0.2297762632369995 -0.6456938982009888 0.3577878475189209 -0.18489918112754822 0.5120875835418701 -0.7617984414100647 1.1754915714263916 1.130561351776123 -3.949690341949463 0.9435387253761292 -1.0279154777526855 -0.7573482990264893 -0.013379661366343498 -0.6766759753227234 0.772724986076355 0.46219468116760254 -0.9984970092773438 0.9016003012657166 -0.08217685669660568 -0.41925573348999023 0.36913418769836426 -0.846950888633728 0.09366369992494583 -0.4684227705001831 -1.4540777206420898 1.4224729537963867 1.2221194505691528 0.9923005700111389 3.045571804046631 0.4354565441608429 1.7714201211929321 -0.43546396493911743 -0.7473726272583008 0.9358166456222534 -0.16725482046604156 1.2423839569091797 -1.5145453214645386 -0.8102279305458069 1.0004464387893677 0.8717716336250305 -1.0511146783828735 -0.4640854299068451 -0.42546528577804565 -0.5231751799583435 0.6698191165924072 -0.0703805610537529 0.6051733493804932 -0.986162543296814 0.06606417894363403 -0.05325070768594742 0.3544563353061676 1.18976628780365 1.2443227767944336 1.1814526319503784 -0.07286698371171951 1.443584680557251 0.21179364621639252 -0.4791618287563324 1.5035923719406128 2.4652767181396484 0.1907234638929367 0.4975172281265259 -0.11692886799573898 0.17972898483276367 0.6837754845619202 -0.38927364349365234 -0.24011290073394775 -0.5392230153083801 1.7959877252578735 1.529910683631897 -0.3083988130092621 -0.7800370454788208 
vec11 -0.9365723729133606 -1.5102840662002563 -0.3620908260345459 0.7093850374221802 0.6886022686958313 1.1441563367843628 -0.445940226316452 0.7707037925720215 -1.3269473314285278 1.5811620950698853 0.11229769885540009 -0.3523809611797333 1.23006010055542 0.7524105906486511 1.3474525213241577 0.414624959230423 0.778179407119751 -1.4243360757827759 0.1730235069990158 -1.5507187843322754 0.7248431444168091 0.402111679315567 -1.510998010635376 -0.22196701169013977 -0.13785509765148163 -1.2829755544662476 2.199044704437256 0.8392283320426941 -0.2130613625049591 0.3059697151184082 0.032968681305646896 0.7828673720359802 0.14097122848033905 1.426631212234497 -0.047930631786584854 -0.21712803840637207 1.8151803016662598 0.8233350515365601 -2.3734500408172607 -0.3926432132720947 0.025749634951353073 0.7699758410453796 -0.4235222339630127 0.28833842277526855 -0.29571571946144104 0.6718907952308655 0.7883887887001038 -0.7129759192466736 1.2710278034210205 0.8206256628036499 -0.16598355770111084 -0.8456626534461975 -0.49943143129348755 1.7379558086395264 -0.6479249000549316 -0.08055746555328369 -0.23190172016620636 -0.419207900762558 0.29485636949539185 1.0006072521209717 -1.3654990196228027 -0.31177589297294617 0.275450736284256 -2.091580390930176 -0.10352097451686859 -0.34173521399497986 0.4396602511405945 -0.5256872177124023 -0.32259225845336914 -0.053430669009685516 -0.6118759512901306 2.2338125705718994 0.2618667483329773 2.2035670280456543 0.510416567325592 -0.746337890625 0.2567044496536255 -2.9320571422576904 -0.40256378054618835 0.8945623636245728 1.9619349241256714 0.760505735874176 -1.4525156021118164 0.6101512908935547 1.4035029411315918 1.9203537702560425 0.6743443012237549 -1.7011202573776245 1.5706630945205688 -1.3005084991455078 -0.5156411528587341 -1.1327534914016724 -1.7575749158859253 0.3028180003166199 -0.8016188740730286 0.9191343784332275 0.8562259674072266 -0.982226550579071 0.41662082076072693 -0.5581042170524597 0.44446486234664917 -1.0654100179672241 -0.2124653458595276 1.4466447830200195 -0.08376585692167282 0.6714705228805542 0.6360804438591003 -0.14942698180675507 0.2720944881439209 -0.3168008625507355 -0.3501303493976593 0.6781636476516724 1.08046293258667 0.34128493070602417 -0.51545649766922 -0.15652820467948914 2.2111685276031494 0.20134037733078003 -1.854938268661499 0.15528981387615204 -1.3931374549865723 0.25273194909095764 -1.0099902153015137 -0.0900101363658905 1.8767250776290894 -2.6534204483032227 -0.6341888904571533 0.17899492383003235 0.25104376673698425 0.6764139533042908 -1.3181556463241577 0.549126923084259 -0.6775439381599426 0.08553489297628403 -1.5641133785247803 -0.02292669750750065 0.04883995279669762 1.663359522819519 -1.1944297552108765 -0.6313355565071106 -0.6967951059341431 0.469913125038147 0.9216843843460083 0.7584725618362427 -2.4737417697906494 0.608568549156189 0.6369903683662415 -0.5234156250953674 -0.5314165949821472 0.6686458587646484 0.40100666880607605 0.8631594777107239 -0.11063098907470703 1.0503783226013184 -0.739861011505127 0.7970775961875916 2.222212791442871 0.05870705470442772 -0.044734686613082886 -1.5231919288635254 0.6016793847084045 0.6903054714202881 -0.2682036757469177 0.824413001537323 0.018995091319084167 -1.0899118185043335 0.940646767616272 -0.7905053496360779 -0.2888098955154419 0.8187746405601501 -1.777030110359192 -0.3797381818294525 1.2823492288589478 0.3714013695716858 -0.08604409545660019 1.1241686344146729 -0.9245795011520386 0.3401656746864319 -0.9696577191352844 1.563646674156189 0.8264917135238647 -0.6392005681991577 1.200548529624939 -0.15320700407028198 -0.3710561990737915 -0.5993415117263794 1.2011853456497192 -0.38587531447410583 0.7047647833824158 0.23179052770137787 -1.1896566152572632 -1.1695550680160522 -0.3567257821559906 1.0064947605133057 1.6482702493667603 0.09532970935106277 1.0175045728683472 1.599046230316162 -1.2721154689788818 0.11371073871850967 
vec12 -1.2711126804351807 -0.7845070958137512 0.5147021412849426 -1.355923056602478 0.5377015471458435 -0.7224668264389038 0.6696019768714905 1.3830265998840332 -1.18257737159729 -0.06261500716209412 -2.1717581748962402 0.2193000316619873 1.2841145992279053 -1.3459203243255615 -0.5734456181526184 -0.2902159094810486 -0.7291932702064514 -0.19155967235565186 -1.0521774291992188 -1.6690586805343628 0.2865697741508484 1.723320484161377 -0.8922832012176514 -0.7811835408210754 0.08285117149353027 -1.8560513257980347 0.05284085497260094 -1.7937942743301392 1.0394530296325684 1.1753754615783691 -0.002002064138650894 0.9057971239089966 -0.04178449138998985 -0.015921734273433685 -0.866094172000885 0.717647910118103 -0.4235723316669464 -0.5333161950111389 -1.6646702289581299 -0.722446858882904 -0.8768607378005981 -0.10421929508447647 0.7506809234619141 0.9816582798957825 -0.9208330512046814 1.081223487854004 0.42296215891838074 -0.034680165350437164 -0.5204706788063049 -0.2728617191314697 -0.3030559718608856 -0.002244032686576247 -0.5984731912612915 -0.22346185147762299 0.49717044830322266 -0.4714299440383911 -0.31889402866363525 0.3225950300693512 -0.12089713662862778 -0.030204538255929947 -0.8301374316215515 -0.60936039686203 -0.35989439487457275 -0.052945904433727264 -0.6552426815032959 -0.09203621745109558 0.6055017113685608 -0.7972484230995178 -0.2050340175628662 -0.48803091049194336 -0.9011132717132568 0.22046718001365662 -1.1044921875 0.40644028782844543 -0.007109331898391247 0.28069910407066345 1.468868613243103 -0.14269861578941345 0.2770954668521881 -1.0902612209320068 2.3003337383270264 -1.654626488685608 0.23320524394512177 0.20694346725940704 0.05601777508854866 1.6539822816848755 -0.8471964597702026 0.6902197599411011 -0.788015604019165 -0.5944821834564209 0.4182601571083069 -0.1989428848028183 -0.8039274215698242 0.01989128813147545 -0.15253223478794098 0.2749001681804657 -0.30361083149909973 -2.0978612899780273 1.445701241493225 0.8057020902633667 1.30526864528656 -0.6016398668289185 0.3412456214427948 0.7912353277206421 -0.3943426311016083 0.4152906835079193 0.5688595175743103 -0.6899100542068481 -0.2931627333164215 1.9098812341690063 -1.0169812440872192 -0.2799789309501648 -0.5097814798355103 0.6879372596740723 1.0672812461853027 -0.11774815618991852 1.724860668182373 -1.005834937095642 -0.5394256711006165 -0.6317324638366699 -0.027844902127981186 0.2364712655544281 -0.08190948516130447 1.3112351894378662 -0.968543529510498 -0.9775766730308533 -1.2444201707839966 1.1754189729690552 0.8355101346969604 1.1950677633285522 -0.02247786521911621 1.704147458076477 1.0548460483551025 -1.2919731140136719 1.6495283842086792 1.360206961631775 -1.396562933921814 1.4067906141281128 0.22133998572826385 -0.7865326404571533 0.3421848714351654 -0.6287001967430115 -0.18253640830516815 0.49572452902793884 -1.1019985675811768 0.345255583524704 -1.9160035848617554 -1.0415173768997192 0.3006496727466583 -1.4871351718902588 0.23271434009075165 1.025068759918213 -2.7230169773101807 1.2311351299285889 0.12114076316356659 0.6810683608055115 2.9106404781341553 -0.16335904598236084 1.1415139436721802 -0.36624380946159363 -0.16032689809799194 -1.0591328144073486 -0.5886578559875488 1.0052547454833984 -0.20677076280117035 0.32452821731567383 -0.1708325296640396 1.0620933771133423 -0.2785946726799011 0.07767816632986069 -0.19810396432876587 1.3327877521514893 -0.26197540760040283 -0.005980995018035173 -0.2550738453865051 -0.10381268709897995 -0.5173399448394775 -0.2613925635814667 -0.588265597820282 1.1410280466079712 -0.4317719042301178 1.0112706422805786 -0.4538125693798065 -0.7526733875274658 0.39270567893981934 -2.463318347930908 1.960202932357788 -0.3236728608608246 1.6166201829910278 -1.290676236152649 -1.0584808588027954 0.4305538833141327 0.6979554891586304 0.8733789920806885 1.1191855669021606 -1.0059832334518433 0.21246647834777832 2.4660491943359375 0.04053936153650284 0.345070481300354 
vec13 -0.923408031463623 -1.2819552421569824 0.03984186053276062 -0.24727018177509308 -2.169135808944702 0.16412805020809174 0.44131535291671753 0.8404485583305359 -1.7225403785705566 1.6793862581253052 -1.2972522974014282 0.7122066020965576 1.1773231029510498 -2.3484251499176025 -1.9262526035308838 -0.19996201992034912 0.6040293574333191 -0.4223948121070862 -2.5181221961975098 -1.025151014328003 1.0015701055526733 1.1608223915100098 -1.2162742614746094 -1.1546839475631714 1.3588083982467651 -0.6439341902732849 -0.18455460667610168 -2.1459336280822754 1.0463809967041016 1.6120569705963135 -0.7899345755577087 1.2969286441802979 -0.7350289225578308 -0.000351685710484162 -0.786957323551178 1.1321293115615845 0.36203086376190186 0.29902228713035583 -0.285334050655365 0.7651058435440063 0.04527798295021057 0.3815636932849884 2.119126796722412 1.2405834197998047 -0.8637071251869202 1.944919228553772 -1.1860251426696777 0.9160589575767517 -0.04075872153043747 -1.333702802658081 0.42391839623451233 -0.3045888841152191 -1.6997865438461304 0.8375452160835266 -0.9896700382232666 0.4044855535030365 0.25628167390823364 -1.1534922122955322 -0.721705973148346 -1.2136332988739014 0.09512770175933838 -0.9168830513954163 -1.449705958366394 -1.8577826023101807 0.9510746002197266 -0.08802461624145508 1.2185267210006714 -0.9422351717948914 -0.20219916105270386 -0.792724609375 -1.2322492599487305 -0.2845155596733093 -0.1732628494501114 0.6106372475624084 1.8061481714248657 1.147181510925293 -2.0143895149230957 -1.026251196861267 1.7130862474441528 -1.2287917137145996 1.2631921768188477 0.019359907135367393 0.987072229385376 -1.8883752822875977 0.6560295224189758 2.185758590698242 -0.7631218433380127 0.974185585975647 -0.3764408230781555 -2.406909942626953 -0.7849596738815308 -0.466289758682251 -1.7119898796081543 1.4614481925964355 -0.35794663429260254 2.20662784576416 0.9593602418899536 -2.115032196044922 0.975754976272583 0.9604660868644714 0.5440545082092285 -0.07905604690313339 -0.43468037247657776 2.0455729961395264 0.37223368883132935 0.25727057456970215 1.384175181388855 -0.08525122702121735 2.702113628387451 0.5362985730171204 0.5526736974716187 0.28570979833602905 -0.5242899656295776 1.8990315198898315 1.0392478704452515 0.9906545877456665 0.028746185824275017 0.3518129587173462 0.4615563452243805 -0.4738977551460266 -1.105323076248169 0.973265528678894 -0.7977023124694824 -0.03434285148978233 -0.5966660380363464 -2.220942974090576 -0.8058500289916992 1.8395618200302124 -0.4407519996166229 0.647921085357666 -0.3883281648159027 -1.0287086963653564 0.316599577665329 0.5446608066558838 0.21547576785087585 1.375788927078247 -1.6911178827285767 0.10333793610334396 0.5652775168418884 -1.1231290102005005 0.46532317996025085 0.5302802324295044 0.9345400333404541 -0.2199297398328781 -2.1732656955718994 -0.4985920488834381 -1.3413796424865723 -0.9920851588249207 0.9720645546913147 -1.1333237886428833 -0.8804824352264404 1.2690585851669312 -0.4239214360713959 0.765713095664978 0.13466836512088776 1.4518972635269165 2.183220863342285 0.3100872337818146 0.45647087693214417 0.014691676013171673 2.4744718074798584 0.8695034384727478 -1.4200401306152344 0.7691781520843506 0.0936649739742279 -0.2477216124534607 -0.9831132292747498 -0.9678459763526917 -1.7124122381210327 0.22314855456352234 0.685460090637207 -0.109821617603302 -0.5114865303039551 1.496174931526184 1.3016022443771362 -0.08230499923229218 -0.9966588616371155 0.07578253746032715 -0.03673924133181572 2.794325590133667 -1.3103432655334473 1.9663352966308594 0.6528131365776062 1.3031673431396484 0.13582000136375427 -0.40372100472450256 -0.25039172172546387 -0.23102276027202606 0.6906654834747314 -0.7290496230125427 -0.22093942761421204 -0.4176330864429474 0.5796660780906677 0.19575712084770203 0.13284730911254883 0.9462733864784241 -0.2436387538909912 0.6166696548461914 -0.22694484889507294 -0.9879706501960754 
vec14 -0.150675430893898 -0.7711902260780334 1.192736268043518 0.24604135751724243 0.4608133137226105 2.6169092655181885 -0.2684006690979004 0.184367373585701 -1.3641923666000366 -1.0814894437789917 -1.4227598905563354 0.4094892144203186 1.050735592842102 -0.3732301592826843 0.1764821857213974 -0.26249316334724426 -0.9845384359359741 1.2242441177368164 -0.12441863864660263 -1.556372046470642 -1.1573158502578735 1.167114496231079 -0.4231303632259369 -0.2829705476760864 1.9759635925292969 -0.10456440597772598 0.4349512755870819 0.38886988162994385 -0.2037479430437088 1.1359071731567383 -1.5814294815063477 1.4282156229019165 -0.2682836353778839 -0.8094748258590698 -1.4404189586639404 -0.46742430329322815 1.3875709772109985 -0.1802813559770584 0.2046254575252533 -0.5913205742835999 1.279720664024353 2.020470142364502 0.7840816378593445 0.04136442020535469 -0.3869931697845459 0.3242570161819458 -0.23077139258384705 2.637038230895996 -0.6158145070075989 -0.19782580435276031 -0.20726709067821503 0.501418948173523 -1.2059160470962524 0.12550626695156097 -0.08674290031194687 -0.012686769478023052 0.24048562347888947 0.5060120820999146 -0.940381646156311 -0.7816922068595886 -0.49042442440986633 -1.2321652173995972 -0.11797557026147842 -0.9213742017745972 0.3915427327156067 0.9053834080696106 0.8001082539558411 0.18882477283477783 -0.14922408759593964 0.29639700055122375 0.29031306505203247 0.6879689693450928 -0.5277108550071716 0.8127357959747314 2.034834146499634 1.10141122341156 0.9701235294342041 0.7410638332366943 0.9994692802429199 -1.4786083698272705 -0.8821904063224792 -0.37536272406578064 -0.34841737151145935 -1.294564962387085 1.5571386814117432 2.8819806575775146 -0.40416407585144043 0.30548757314682007 1.459768295288086 -0.7612133026123047 -0.9482223391532898 -1.0803396701812744 -0.19351045787334442 1.5824880599975586 0.1741584837436676 2.3297243118286133 -0.22317475080490112 -0.5465458035469055 0.8934512138366699 0.06198853626847267 -0.7867028117179871 -0.41912323236465454 -0.8191731572151184 -0.10942958295345306 0.503054678440094 -0.6399513483047485 0.2143433839082718 0.18501299619674683 0.5047177076339722 -0.19374410808086395 -1.1055917739868164 1.7935314178466797 0.12026263773441315 0.3196674883365631 -2.4371747970581055 -0.7465789318084717 0.35248109698295593 0.39994174242019653 -0.6881256103515625 -0.23921145498752594 -1.6562221050262451 0.20944301784038544 -1.040302038192749 -0.07634160667657852 1.4997235536575317 -0.9022607207298279 -1.0569664239883423 -0.4389038681983948 -0.29553183913230896 -0.6945033669471741 -2.2749907970428467 1.0307748317718506 0.0437568798661232 -2.1321260929107666 0.48451003432273865 0.22183498740196228 -1.8961374759674072 0.2640005648136139 0.007414525840431452 0.2535776197910309 -0.2589704096317291 -1.091659665107727 -0.034250613301992416 -0.2858843207359314 -1.213847041130066 -0.009233994409441948 0.16751478612422943 -1.6596657037734985 -1.3111273050308228 -1.471691608428955 -0.25131455063819885 0.9793618321418762 -0.04256768524646759 0.8720152378082275 -0.5898512005805969 0.46341606974601746 2.1400671005249023 -0.8213724493980408 0.5536150932312012 -0.7897555828094482 0.42325347661972046 -2.0834333896636963 -1.3396494388580322 1.4915119409561157 -0.4311791658401489 0.8573465347290039 0.31529539823532104 -0.4819236695766449 0.276363730430603 -0.20007136464118958 -1.973469853401184 -1.3080263137817383 0.9652866125106812 0.1370014250278473 1.673545241355896 -0.6387509703636169 -0.6543392539024353 0.11588042974472046 0.6850161552429199 1.518569827079773 -1.4451864957809448 2.642230749130249 0.5201140642166138 0.24169747531414032 0.40088072419166565 -1.1134105920791626 0.4571903944015503 0.2509307563304901 1.461510419845581 -0.4301409423351288 -1.173071265220642 0.3505001962184906 0.03696979954838753 0.6232765913009644 0.9393137693405151 -1.147526502609253 0.5072292685508728 0.667891263961792 -2.120391845703125 1.218916893005371 
vec15 -0.10234891623258591 -0.6901898384094238 2.116879940032959 0.5369589328765869 -0.6045039296150208 2.159341812133789 -0.048199377954006195 1.7595499753952026 -0.6745374202728271 0.624042809009552 0.8981233835220337 -0.6052988767623901 0.3605441749095917 -1.4172180891036987 -0.08827868103981018 -1.6765962839126587 1.7395514249801636 0.5782890319824219 -0.6573770046234131 -0.9160423278808594 0.5461283922195435 1.7159614562988281 0.28447699546813965 0.9700765609741211 1.7184951305389404 0.011756757274270058 1.782431721687317 -0.311270147562027 -0.3832796514034271 2.357922077178955 0.6563113331794739 -0.9992421269416809 -1.347706913948059 0.1669376790523529 0.7221935391426086 -0.5724865794181824 0.012639055959880352 2.3152339458465576 -1.8864719867706299 0.023242220282554626 0.029957376420497894 1.9296694993972778 2.8592655658721924 2.0172603130340576 -0.27437835931777954 0.21496331691741943 0.31273090839385986 1.2301675081253052 0.853369414806366 1.0067198276519775 -0.6202855110168457 -0.8802748918533325 -1.4137170314788818 0.17560145258903503 0.0824531689286232 -0.5467389822006226 -1.185268759727478 0.03077826462686062 -2.705176591873169 -0.6044228076934814 0.07566714286804199 -0.5900772213935852 -0.4485572874546051 -1.5388187170028687 1.0144788026809692 -0.24809043109416962 -0.051619719713926315 -0.3798905611038208 1.6730092763900757 -0.26905789971351624 0.23624102771282196 -0.2511891722679138 -1.0009018182754517 -0.029977617785334587 1.0895267724990845 2.540872097015381 -0.10161267220973969 -1.3366695642471313 -0.15068374574184418 -1.8389335870742798 -0.40264514088630676 0.035077713429927826 -0.45527705550193787 -0.8212077617645264 0.016229543834924698 3.1960675716400146 -0.4712536334991455 -0.5392769575119019 1.0822227001190186 -0.755776047706604 -0.9041990637779236 -0.08490625023841858 -1.7170950174331665 -0.3589613139629364 0.057364922016859055 1.075486660003662 0.4438731074333191 -1.9305648803710938 1.282139778137207 0.6453582048416138 -0.10915006697177887 -1.406854510307312 -0.09547488391399384 1.9959176778793335 0.11599095910787582 -0.6735780239105225 2.3556573390960693 0.6784578561782837 1.1197469234466553 0.57023024559021 -1.3252480030059814 -1.2769792079925537 0.19315052032470703 0.3713754713535309 0.8380656242370605 1.2718220949172974 0.06281221657991409 -0.07046154886484146 -1.0921854972839355 -0.558535635471344 -1.3482714891433716 -0.10705893486738205 -1.054120659828186 -0.14333081245422363 0.23252104222774506 -1.919202208518982 -0.8713270425796509 0.8911442160606384 0.4231260120868683 -0.451293408870697 0.8137862682342529 1.8018743991851807 1.6359437704086304 -1.2278177738189697 -0.6447921991348267 -0.8619093298912048 -1.0071600675582886 1.8960753679275513 0.8131973743438721 -1.1837149858474731 -1.672137975692749 -1.6953377723693848 0.4591544568538666 -0.8374566435813904 -0.8794093728065491 0.9946073293685913 0.2612151801586151 1.6792302131652832 -0.13116617500782013 0.9297815561294556 0.8025472164154053 0.4115571677684784 -0.9814966320991516 0.6975679397583008 -0.22364269196987152 0.6714722514152527 2.037370204925537 -0.0066393958404660225 0.7145375609397888 -0.4997199475765228 -0.08243323117494583 -0.040501758456230164 -1.8142578601837158 0.04196619242429733 -0.5444222092628479 -0.26772618293762207 1.8788197040557861 0.5025286674499512 0.1312151551246643 -0.3378056287765503 0.04290889948606491 0.24978159368038177 0.8755481839179993 0.9909213185310364 0.4551190435886383 0.3807082176208496 0.3992348611354828 0.6011399030685425 0.3809555172920227 -0.6356202363967896 -1.4041759967803955 1.0281823873519897 -0.5162583589553833 -1.4125748872756958 1.371357798576355 0.6740396618843079 0.7656752467155457 -0.07933968305587769 0.8774170875549316 -0.6728516221046448 -0.2864926755428314 2.7037670612335205 -0.34311938285827637 0.26347029209136963 -0.976874589920044 0.7051292061805725 -0.03811302408576012 1.4335455894470215 0.2043135017156601 1.5452805757522583 
vec16 -1.6047289371490479 -1.0372874736785889 -0.6491589546203613 0.9028029441833496 0.08840443193912506 1.3547056913375854 -0.9991803765296936 1.4472559690475464 0.28661951422691345 0.14880001544952393 0.1956050992012024 0.5899650454521179 1.4035481214523315 -1.0104928016662598 0.06683512777090073 -0.061217404901981354 0.7151407599449158 -1.2441877126693726 0.26782697439193726 -0.8238285183906555 -1.3665310144424438 0.8114912509918213 -0.893814742565155 0.20570094883441925 0.5303093791007996 0.4099222719669342 -0.12874378263950348 -1.5426474809646606 0.6139144897460938 -0.3788095712661743 0.15798290073871613 -0.4305444657802582 -0.5051981210708618 -0.5441597104072571 -0.9933595061302185 -0.9527685642242432 -1.3650436401367188 -1.7298346757888794 -0.6320685148239136 0.25456157326698303 1.127837061882019 0.27589720487594604 1.295702338218689 1.0119503736495972 -1.2776042222976685 0.5048905611038208 0.06829927116632462 -0.6429521441459656 -1.5459798574447632 -1.9155055284500122 0.27437806129455566 1.1710673570632935 -0.44481804966926575 -0.39041656255722046 0.46739470958709717 0.9605905413627625 -1.047980785369873 0.9591942429542542 0.11814041435718536 0.03483162075281143 -1.70457124710083 0.5602499842643738 -1.200576663017273 -0.864811897277832 -1.4954887628555298 -0.562153697013855 -0.04461219534277916 -0.7181412577629089 1.8947077989578247 0.7292928695678711 -0.9106695652008057 0.6569497585296631 -1.403869867324829 -1.0779091119766235 1.1478153467178345 0.7012608051300049 -1.9997369050979614 -1.1867833137512207 -0.3441796600818634 -1.979620099067688 -1.577113389968872 -0.7885963916778564 0.0569840744137764 -1.11759352684021 1.5235159397125244 0.39157217741012573 -0.2696568965911865 0.7855090498924255 -0.6993865966796875 -1.9079639911651611 0.013867393136024475 -0.1640511155128479 -1.4654806852340698 -0.9885708689689636 1.1434048414230347 1.3713481426239014 -0.7688235640525818 1.168325424194336 -0.07605256140232086 0.08635888248682022 1.4796502590179443 -0.28507596254348755 -0.5097874402999878 -0.7619249820709229 1.4763652086257935 -0.38725075125694275 -0.46860286593437195 -0.4708198010921478 -1.2071915864944458 -0.19671472907066345 -0.3236869275569916 -0.9300216436386108 -0.7702823281288147 -0.8013879060745239 -0.44417285919189453 0.852767288684845 0.510868489742279 -0.44221267104148865 0.021358178928494453 -0.2525174617767334 -2.0954904556274414 1.6986072063446045 -0.7869657874107361 -0.23644746840000153 -0.04910679906606674 -2.320720672607422 -1.17976713180542 1.195236325263977 -0.35000932216644287 -0.613177478313446 0.3407329022884369 1.2675813436508179 -1.098812460899353 -0.9536749720573425 0.6225184202194214 -0.7673649191856384 -0.032040659338235855 1.8520503044128418 1.4943212270736694 -0.9514909982681274 0.2690393924713135 0.4933791160583496 -0.6129181385040283 0.6368446350097656 -0.8594618439674377 0.8270477652549744 0.32729336619377136 -0.9304376840591431 -0.4711114168167114 -0.5991065502166748 1.1840029954910278 0.9720027446746826 -1.7853847742080688 1.0375683307647705 -0.8752487897872925 1.089455008506775 1.782728672027588 -0.49624043703079224 -0.5843368768692017 -0.749582052230835 -0.27916988730430603 -0.35748884081840515 0.34408819675445557 -0.9696242809295654 -0.9064614772796631 -1.4371355772018433 1.5051343441009521 -2.0849781036376953 0.4086066484451294 0.39980608224868774 -1.6694607734680176 -0.18960802257061005 -0.18982857465744019 -0.43914932012557983 1.807695984840393 0.3508738577365875 -0.03786288574337959 0.49011313915252686 -0.9678859710693359 1.3476532697677612 0.2756114900112152 1.5565595626831055 -0.5989702939987183 0.09122105687856674 -0.13366064429283142 0.048275213688611984 0.6728982329368591 -1.9832223653793335 1.7124348878860474 -2.4959874153137207 -0.2371460646390915 -0.5610105991363525 0.0720125064253807 1.3692679405212402 1.4351222515106201 0.6141508221626282 0.025328654795885086 2.3718950748443604 -1.797690510749817 -0.902428150177002 
vec17 -2.3099453449249268 -0.663460373878479 0.8040192127227783 0.07800698280334473 -1.4155124425888062 -0.5951099395751953 0.3174784183502197 0.09745294600725174 -1.9596012830734253 0.9860524535179138 1.122605800628662 0.5753559470176697 0.4422610402107239 -0.9401333928108215 0.5015705823898315 0.624648928642273 -0.3782605230808258 -0.06524356454610825 -1.9109140634536743 -0.4674651622772217 -0.0974392294883728 2.4763312339782715 0.45948830246925354 -1.8730900287628174 0.0393831767141819 -0.7310516238212585 1.325663447380066 -0.32013213634490967 1.223265290260315 1.7806059122085571 0.6824085712432861 -0.3261680603027344 -0.27304670214653015 -0.27524033188819885 0.7255026698112488 1.204378604888916 0.5692317485809326 -1.9328089952468872 -0.22085946798324585 -0.6068078875541687 -0.25681376457214355 0.9313965439796448 1.2160584926605225 0.765984058380127 -1.8431813716888428 0.5162004828453064 1.3265801668167114 1.927276611328125 1.0118435621261597 0.5026876926422119 -0.322556734085083 0.8616446256637573 -2.089184522628784 0.6556099057197571 -0.6247655749320984 0.49776899814605713 0.10861670970916748 0.08402407169342041 -0.8531262874603271 2.003945827484131 -0.473014771938324 0.17297989130020142 -0.42859652638435364 -1.5061907768249512 0.6537211537361145 0.3417748510837555 0.3105587959289551 0.7529188394546509 0.9110034108161926 -0.61561119556427 -1.1059904098510742 -0.3712541162967682 -0.3372803032398224 0.3021136224269867 -0.27836522459983826 0.1930512934923172 -0.31834983825683594 -0.7557618021965027 0.4342063069343567 0.23765915632247925 -0.8888586759567261 -0.11330429464578629 0.7742270231246948 -0.8474426865577698 -0.4999851584434509 1.4720449447631836 -0.8529311418533325 -0.45912379026412964 0.6890863180160522 -1.8217651844024658 0.055348772555589676 1.5653611421585083 -0.38149794936180115 -0.1352291703224182 0.052501410245895386 0.31867390871047974 -1.0977423191070557 -2.062889337539673 -0.44145357608795166 1.2939720153808594 -0.08930638432502747 -0.7837024927139282 -0.11534766107797623 2.1742358207702637 0.0968606099486351 -0.9278088808059692 1.527605652809143 1.2434097528457642 2.2039661407470703 -0.1790204644203186 1.3882590532302856 -1.6211916208267212 -0.25416985154151917 -0.07675906270742416 0.9663903117179871 1.2940539121627808 0.48875534534454346 -0.9032801985740662 -1.5921212434768677 -1.329289436340332 -0.10152066498994827 -0.5937633514404297 -0.19679024815559387 2.176421642303467 1.6353780031204224 -1.100424885749817 -1.2615628242492676 0.2872779071331024 -0.15696458518505096 -0.25308024883270264 -1.4059239625930786 -0.613190233707428 1.2487075328826904 -1.4158886671066284 1.5707969665527344 -1.5756521224975586 0.234727144241333 2.1314570903778076 0.5336080193519592 -1.232900619506836 -0.33104023337364197 0.3369443714618683 0.07329884171485901 0.9741024971008301 -1.813110113143921 -0.65056312084198 0.8459885120391846 -0.5500438809394836 -0.04264720156788826 0.9104514718055725 0.3485397696495056 0.9096558094024658 -1.1057296991348267 1.0021636486053467 0.6205019950866699 0.5662587285041809 1.5777089595794678 0.8902121186256409 0.043081555515527725 -1.1535322666168213 1.3622196912765503 0.2427588701248169 -0.9440942406654358 0.886165976524353 0.4133521020412445 -0.33005791902542114 -0.6222978234291077 -1.8945578336715698 -0.3266512453556061 0.2890862822532654 -1.0795414447784424 -0.018703643232584 0.21590092778205872 2.064373016357422 -0.40998098254203796 -1.2547495365142822 -0.9524303078651428 -0.23413747549057007 -0.4850197434425354 1.3838056325912476 -0.6539939045906067 1.3486460447311401 -0.7343793511390686 0.8078755736351013 0.7053517699241638 -0.6976252198219299 0.8461329936981201 -0.4631078243255615 1.4089136123657227 -0.5313036441802979 -0.5621232986450195 -0.0841822400689125 1.1538071632385254 0.415840744972229 1.2294971942901611 -1.5031354427337646 0.3203738033771515 1.2902344465255737 -0.2305985987186432 -0.916003942489624 
vec18 -0.7902954816818237 -0.8703109622001648 -0.10109563916921616 1.8373148441314697 -1.0909168720245361 0.164190411567688 -1.373982548713684 0.7462820410728455 -0.09269814938306808 1.428739309310913 -0.755961000919342 0.9684398770332336 0.5803977251052856 -1.3863071203231812 -0.48045188188552856 -0.3990483283996582 -0.15044616162776947 -0.776951789855957 -1.5954382419586182 0.939365804195404 0.3466184139251709 0.3023136854171753 -1.8726330995559692 0.38089677691459656 0.95549076795578 -1.2622170448303223 0.7374206781387329 0.9781798124313354 -0.6164918541908264 -0.17266064882278442 -0.2840905785560608 0.880922257900238 0.7840531468391418 -0.16342850029468536 -0.709007203578949 -0.47891077399253845 -1.004921555519104 0.504092812538147 0.16117823123931885 -1.7948230504989624 -0.6618679761886597 1.0151821374893188 1.6139295101165771 2.218616008758545 -0.6890040636062622 1.694461703300476 0.2055233269929886 0.260111540555954 -0.3958453834056854 0.3665498197078705 0.5553424954414368 1.2480809688568115 -1.4202628135681152 1.4155216217041016 -1.985119104385376 0.748456597328186 0.47883209586143494 -0.039089541882276535 -1.4425947666168213 -0.005312307272106409 -0.6005750894546509 0.7071465253829956 -0.7472435832023621 0.8349707126617432 0.21738198399543762 0.5099443197250366 1.0610387325286865 -0.024609576910734177 -0.8322633504867554 1.0988399982452393 0.3919948637485504 -0.7965719103813171 -0.8559398055076599 0.7462079524993896 -0.8615854978561401 0.4202982485294342 0.827852189540863 -1.8329346179962158 -1.1337982416152954 -0.8925930857658386 0.9910150170326233 0.44745343923568726 1.4532091617584229 -1.0429612398147583 0.43718740344047546 2.262850284576416 -0.6176479458808899 -1.0406529903411865 -0.27957814931869507 -0.8667253255844116 -0.05202144384384155 -0.3381063938140869 -0.6079964637756348 1.9824604988098145 1.5661380290985107 1.169771671295166 0.8361400961875916 -1.692944049835205 -0.01021652389317751 0.37969276309013367 0.6984124183654785 -1.375648021697998 1.56106698513031 1.607713222503662 0.1570310741662979 0.21027423441410065 0.39203089475631714 0.2600613832473755 1.178460955619812 1.719509482383728 -0.7541015148162842 -0.4977729916572571 -0.17200228571891785 0.9781298041343689 -0.14748115837574005 1.077419400215149 0.4713962972164154 0.7398483753204346 -1.1308022737503052 2.011768341064453 -1.6655478477478027 1.1010146141052246 -1.3120979070663452 0.3675983250141144 0.15068316459655762 -0.9367669224739075 -1.0464701652526855 0.04529266804456711 0.5755520462989807 -0.040649332106113434 -1.3713624477386475 -0.2062344253063202 0.37340763211250305 0.21241793036460876 0.09446115046739578 1.620939016342163 -0.026806747540831566 1.288216233253479 0.1059509888291359 -1.8966739177703857 0.9382551312446594 -1.1396442651748657 0.9311763644218445 -0.39374977350234985 -0.4755178987979889 -0.9727708697319031 -0.7696250081062317 -0.7052491307258606 -0.9704656600952148 -1.0049856901168823 0.013013369403779507 0.924830973148346 0.4853738844394684 0.8123989105224609 0.6604463458061218 0.42020881175994873 0.05614706501364708 -0.30929502844810486 -1.1523317098617554 -0.2469201534986496 1.1469358205795288 -0.8960380554199219 -0.1744409054517746 0.419114887714386 -0.49263447523117065 -0.4609122574329376 1.082420825958252 -0.11045052856206894 0.3352779746055603 1.0647708177566528 -0.39309900999069214 0.240912526845932 0.5159602165222168 0.9383669495582581 0.491176962852478 0.04552502930164337 -0.5379174947738647 0.20684458315372467 -0.3908737003803253 -0.23526974022388458 -0.8336830735206604 1.6675077676773071 0.3758467733860016 1.4483892917633057 -0.948494553565979 -0.7887961864471436 1.3779863119125366 -1.193552851676941 0.7843340039253235 -0.38682109117507935 -0.3749244809150696 0.06791117042303085 -0.4666319787502289 -0.10179798305034637 1.7614785432815552 1.068418025970459 2.0471222400665283 2.4676625728607178 -0.027403313666582108 -0.0963907390832901 
vec19 1.167901635169983 -0.8836535811424255 0.9441426396369934 1.5439196825027466 -0.12996816635131836 -0.08615029603242874 -1.4244858026504517 2.04215145111084 -1.392811894416809 0.231684148311615 1.04712975025177 -0.3762761354446411 2.0877737998962402 -0.012829553335905075 1.9374161958694458 -0.1666107028722763 1.0489833354949951 -0.34032562375068665 -0.8942366242408752 0.4216180145740509 0.20403018593788147 0.9183365702629089 -0.9586041569709778 -1.0588843822479248 1.3100003004074097 0.8545993566513062 0.8872513771057129 -0.7282537221908569 -1.1378810405731201 0.847011923789978 1.1040549278259277 1.6391595602035522 0.7141419053077698 -1.8184629678726196 0.09345345199108124 -1.1962881088256836 0.44068166613578796 1.6224584579467773 -0.14297282695770264 -1.4337979555130005 0.4976179599761963 2.2666616439819336 1.4189001321792603 -0.6433990001678467 -2.000621795654297 1.493371605873108 -0.26808595657348633 -0.2028069794178009 1.0989388227462769 -0.31290844082832336 0.06641155481338501 -0.12072021514177322 -0.20162971317768097 0.455292284488678 -1.2082396745681763 1.5492626428604126 0.45455533266067505 0.43487638235092163 0.6431230902671814 0.7536428570747375 -1.0925098657608032 -0.8742169737815857 0.4824330508708954 -0.6762166023254395 -0.09370735287666321 -0.0864628478884697 -0.4837759733200073 -0.5955359935760498 2.0528671741485596 -0.4741728901863098 1.0457361936569214 1.8538124561309814 -1.2246143817901611 0.19361089169979095 0.4791736602783203 -0.43941530585289 0.13050112128257751 -1.2257312536239624 -0.37604138255119324 -1.0262737274169922 0.5453025698661804 -0.616083025932312 -0.7168302536010742 -0.20680861175060272 -0.07434267550706863 1.15018892288208 -1.8097573518753052 -0.411715030670166 1.5263075828552246 -0.7160287499427795 -1.4584935903549194 -0.07790742814540863 -0.6217445731163025 1.0301371812820435 0.9155412316322327 1.4071404933929443 -0.6535868048667908 -2.9574716091156006 -0.42083850502967834 -0.9182355403900146 0.15345333516597748 0.7166808247566223 -0.773388683795929 0.4563661813735962 0.7754242420196533 -0.328044056892395 0.4361649751663208 0.319852352142334 0.7958202958106995 0.7379494309425354 -0.07405919581651688 0.9840317368507385 -0.5232375860214233 -1.3011947870254517 0.8687803149223328 0.13297033309936523 1.3669252395629883 -1.4009236097335815 -0.9066033959388733 0.1691494882106781 -2.3515918254852295 0.16654908657073975 -1.1812398433685303 0.7093527317047119 -0.4181006848812103 -2.170726776123047 -0.30751532316207886 1.2990589141845703 0.3392219841480255 0.3923768103122711 -0.3273124694824219 0.24935957789421082 0.890744149684906 -1.6177939176559448 0.952599048614502 -0.6577879786491394 -0.6440004110336304 -0.3347581923007965 0.32703590393066406 -2.7266759872436523 -0.14823856949806213 -1.1639492511749268 0.8300384283065796 1.2171961069107056 0.15279953181743622 0.9992282390594482 -0.37618565559387207 -0.07469997555017471 0.7340105772018433 -0.5505281686782837 -0.2653501033782959 1.5005930662155151 -1.314140796661377 0.7708941698074341 -1.7721441984176636 0.9676562547683716 2.8698692321777344 -1.339426040649414 0.6183512806892395 1.3990380764007568 1.2720798254013062 -0.6328742504119873 0.6205170750617981 -0.08195685595273972 -0.6496652364730835 0.10325576364994049 0.3490360677242279 -0.4590129256248474 0.7800411581993103 3.0172343254089355 -2.0526375770568848 0.6796085238456726 1.1998459100723267 0.07139568030834198 0.576404869556427 0.13933171331882477 -0.9733009934425354 0.7096266150474548 0.23468326032161713 0.7100435495376587 -0.683840811252594 -0.38340598344802856 0.40327176451683044 1.2942386865615845 0.1610027402639389 -2.0351970195770264 1.6264270544052124 0.7303820848464966 1.4368829727172852 -0.8847476840019226 0.353423535823822 0.3115399479866028 0.3786355257034302 -1.1149911880493164 0.834805965423584 -0.3651996850967407 -0.8987854719161987 -0.2721045911312103 -0.9537931680679321 -0.3286323547363281 
vec20 1.3361406326293945 -1.183980107307434 1.4853546619415283 0.40710800886154175 -0.21683773398399353 1.0297962427139282 -0.17618712782859802 1.7753010988235474 -0.3666696548461914 -1.097123384475708 -1.1630423069000244 0.8802434206008911 1.000610589981079 0.5278114676475525 -0.20969106256961823 -0.7234220504760742 -0.9044976234436035 1.3863414525985718 -0.738905131816864 -1.005061149597168 -0.185949444770813 -0.17592158913612366 -0.7118539214134216 0.3799116313457489 -0.11820635944604874 -2.016728162765503 0.036982253193855286 0.546635627746582 0.9381550550460815 0.4115569591522217 0.6215340495109558 0.9186473488807678 -1.008989930152893 -1.3436976671218872 -0.18790601193904877 -0.1684357225894928 0.6793162226676941 1.7142804861068726 -0.6484460234642029 -0.9270750880241394 0.19126763939857483 1.554299235343933 1.5499646663665771 0.7339192628860474 -0.7750662565231323 2.4998135566711426 -1.6364325284957886 1.1071616411209106 0.09330270439386368 -0.4341464936733246 0.6017379760742188 1.0360143184661865 0.0837426707148552 -0.5361746549606323 -1.287679672241211 -0.4485705494880676 -0.36130931973457336 -0.7165235280990601 -1.776875376701355 -1.5219686031341553 -0.6882936358451843 -0.1939089000225067 -0.2766718864440918 -1.5183404684066772 -0.20625728368759155 1.2387096881866455 -0.6144995093345642 -0.5570287704467773 1.0463334321975708 -1.2114710807800293 -0.37613603472709656 0.5058642625808716 -0.8102118968963623 1.239804983139038 1.286587119102478 0.1281469762325287 1.2903120517730713 0.04697000980377197 -0.14890988171100616 -0.8502768278121948 1.7671165466308594 0.6193007826805115 -0.9313682317733765 -0.3448159694671631 1.3205928802490234 1.1867300271987915 -2.5707287788391113 0.6575601696968079 1.144507884979248 0.020365014672279358 0.6855044364929199 0.010053379461169243 -1.025017499923706 -0.162570521235466 -1.9674267768859863 1.0074886083602905 0.24938203394412994 0.5670416951179504 0.4408350884914398 -0.711307168006897 0.05369551479816437 0.31152722239494324 -2.8802738189697266 1.116956114768982 0.9934403300285339 -1.2870248556137085 -0.5312271118164062 1.3676836490631104 1.822860836982727 -1.7008066177368164 -1.2904590368270874 -0.9231896996498108 0.2053021937608719 0.43784189224243164 -0.22978278994560242 -0.4967304766178131 1.8529036045074463 -0.8645890951156616 0.6309776306152344 0.2635468542575836 -0.37402498722076416 0.04464227706193924 0.16993199288845062 1.8024919033050537 -0.05046859383583069 -0.7540480494499207 -1.3758689165115356 -0.6129612922668457 -0.12336582690477371 -0.4136565625667572 -0.04428039491176605 2.2425014972686768 -1.027755856513977 -0.5718775391578674 0.3527551293373108 1.3543123006820679 -0.7886558175086975 1.1553287506103516 0.14119745790958405 -1.337157964706421 -1.0203139781951904 -0.8993876576423645 0.19654282927513123 -0.8047642111778259 -1.1442304849624634 -0.7814477682113647 -0.391781747341156 -0.06293480843305588 0.5573505759239197 -0.7778414487838745 0.11412791162729263 -0.5726282596588135 -1.6616908311843872 1.2566584348678589 -0.0003936417051590979 -0.03090767376124859 0.8001497983932495 -1.006510853767395 -0.1283787488937378 -0.08499547094106674 0.6472154855728149 -0.8153582811355591 0.7760504484176636 1.326505422592163 -1.0534096956253052 -0.23399275541305542 1.24721360206604 -0.20213308930397034 0.312361478805542 0.33587172627449036 -1.9963661432266235 -0.3344223201274872 -0.37331900000572205 0.8771249055862427 0.8689901232719421 -0.16639003157615662 -0.6425086259841919 0.6769301295280457 0.2683456540107727 -0.09051652997732162 -0.5066328048706055 1.9023362398147583 0.3301793932914734 0.35362592339515686 0.798984706401825 -1.641603708267212 0.5839418768882751 -0.13826560974121094 0.816027045249939 0.274924635887146 -0.10147184133529663 0.7431358695030212 1.699846625328064 0.9734905362129211 -0.09511054307222366 -0.43698230385780334 0.9382092356681824 1.8217382431030273 1.245203971862793 -0.3159734308719635 
vec21 2.010406970977783 -0.8492138981819153 -0.05284380540251732 -0.8674221634864807 0.793580174446106 -0.8957610726356506 -1.6968116760253906 1.8047772645950317 -0.8778316378593445 1.2508240938186646 -0.6832778453826904 -1.4957993030548096 0.7878910899162292 -1.0577032566070557 -1.137728214263916 0.3821917772293091 -0.5296862125396729 0.04910552501678467 -1.711672306060791 -1.5436184406280518 0.12648557126522064 1.7413456439971924 1.078372836112976 -0.2933652997016907 1.5855991840362549 -0.07269585877656937 -0.5339398384094238 -0.18387039005756378 -0.2866079807281494 2.087381362915039 0.8676716685295105 2.6175026893615723 0.46746113896369934 1.1041908264160156 0.1438172310590744 -1.3259791135787964 -0.6137823462486267 0.6086536645889282 -1.205382227897644 0.8748032450675964 -0.977813184261322 1.5810139179229736 1.4264775514602661 0.9395841956138611 -0.9379039406776428 0.11261607706546783 0.13875384628772736 1.3084728717803955 0.3573797345161438 0.6266642212867737 -0.457394540309906 0.030554674565792084 1.1324008703231812 -0.7605138421058655 0.6539619565010071 0.40490639209747314 0.015549310483038425 0.6557236313819885 -0.22658738493919373 0.2216225564479828 -0.2923811674118042 0.0592501163482666 0.44453921914100647 -0.5865264534950256 -0.8362542986869812 -0.3474520146846771 -0.07735458761453629 -1.4726216793060303 0.7504402995109558 0.8907660245895386 0.9286612868309021 0.2754001021385193 -0.17761097848415375 0.7762100696563721 0.6312476992607117 -0.2524588108062744 0.05717813968658447 -1.0726561546325684 2.136408567428589 -1.2949639558792114 0.22030599415302277 0.27817654609680176 -0.862399160861969 0.21519748866558075 0.9778469204902649 1.8991429805755615 -0.8996389508247375 -0.9414101243019104 -0.15400618314743042 -2.161113739013672 0.8766787052154541 -0.8581784963607788 -1.0303553342819214 0.6180451512336731 0.5995312333106995 2.0507278442382812 -0.1480478197336197 -0.9110015034675598 -0.48612597584724426 0.1551096886396408 -0.21601124107837677 -0.8054589033126831 -0.7775990962982178 1.1899737119674683 1.7343214750289917 -0.25742390751838684 0.4412451982498169 0.6061887145042419 0.8866020441055298 0.34506773948669434 0.16270498931407928 0.2009478062391281 -0.12943239510059357 0.5088284611701965 0.6560251712799072 0.6247042417526245 0.8975467681884766 -0.07285577058792114 -0.6475683450698853 -0.9614097476005554 -0.6717075109481812 -0.702540397644043 -1.6681768894195557 1.1311787366867065 -0.5029879212379456 -1.7798047065734863 -0.2204626053571701 1.021475076675415 0.15580900013446808 1.1150102615356445 -0.6429390907287598 1.8193284273147583 0.48781487345695496 -0.8173319101333618 0.3895990550518036 -0.8825082182884216 -1.1174275875091553 2.0699875354766846 -0.01711077243089676 -0.6651834845542908 0.9445773363113403 -0.36886265873908997 -0.8557913303375244 -2.530646800994873 -0.08574677258729935 -0.027547601610422134 0.40815889835357666 0.9820370078086853 -0.15847763419151306 -0.6980249285697937 -1.1423579454421997 1.7048916816711426 -0.8469350337982178 1.0862841606140137 -0.8857450485229492 -0.3424564599990845 2.2864298820495605 0.033819880336523056 0.025274839252233505 0.12747468054294586 0.0398264117538929 0.7356047034263611 1.4264910221099854 -0.7634173035621643 -0.27806442975997925 -1.0140875577926636 2.7938108444213867 0.9325149059295654 -0.3547874093055725 -0.14511828124523163 -0.5312182307243347 -1.2691905498504639 1.6005078554153442 1.1027344465255737 -0.08128663152456284 0.9093098640441895 0.38926881551742554 -0.13415421545505524 -0.14923392236232758 1.3933384418487549 -0.5484786629676819 1.9279167652130127 1.4061460494995117 0.35844099521636963 -0.049028847366571426 -0.7064507603645325 0.8668527007102966 -0.3283083140850067 0.9049720168113708 -1.4213404655456543 -0.00023791455896571279 1.5526632070541382 0.3551892340183258 -0.5222393274307251 0.42207109928131104 -1.2125136852264404 1.9007296562194824 1.3785196542739868 -1.0442981719970703 0.47950878739356995 
vec22 -0.4592011272907257 -1.592548131942749 0.16847378015518188 1.24130117893219 0.3151308298110962 0.7319263815879822 0.3302454948425293 1.8747071027755737 -0.5794877409934998 0.8693671822547913 0.013450726866722107 1.1176856756210327 0.05289561673998833 -0.9115390777587891 -1.113251805305481 0.3227481544017792 -0.5020052790641785 0.7129712104797363 -0.286053866147995 -1.8661324977874756 -0.32690054178237915 -0.3579191565513611 -0.9286947846412659 -1.1831845045089722 0.7133110165596008 -0.6501185297966003 1.0554085969924927 -1.0341225862503052 1.551474928855896 -0.8014698624610901 0.073240727186203 -0.06233123317360878 1.092203140258789 0.7965348362922668 -0.030357273295521736 1.6503337621688843 -0.0017168305348604918 0.7750799059867859 -0.18762865662574768 -0.37325289845466614 0.7156358361244202 1.0427308082580566 0.1287606656551361 0.40524446964263916 -0.2276756763458252 -0.09120559692382812 -0.8933303952217102 1.329229712486267 0.66390460729599 0.8353980183601379 -1.805570125579834 0.6468812823295593 -0.5119416117668152 0.178620845079422 -0.8099917769432068 0.610141396522522 -0.06679648160934448 0.6185365319252014 -0.3609278202056885 -0.8724715113639832 -0.7031174302101135 0.08485127240419388 -1.4540541172027588 0.6087561845779419 0.3962404429912567 -0.591781497001648 1.4806615114212036 -1.0816141366958618 0.9996730089187622 -0.2899025082588196 0.4459300637245178 2.1670570373535156 -2.1390159130096436 0.1581524908542633 1.3530579805374146 -0.217248797416687 0.04066745191812515 -1.0386232137680054 0.4244554042816162 -0.6991698741912842 -0.23792488873004913 -0.15610450506210327 0.3182843029499054 -0.06505688279867172 -0.11059233546257019 1.0614323616027832 -0.8122855424880981 -0.9261317849159241 0.8109239935874939 0.019127877429127693 -1.2934187650680542 -1.3093483448028564 -2.458477020263672 0.09777015447616577 -0.0997445285320282 1.9091230630874634 -0.36789682507514954 -1.0156115293502808 0.8777809739112854 -1.0948446989059448 0.5745941400527954 -0.13102902472019196 -0.7944771647453308 1.564022421836853 0.29273584485054016 -0.7116232514381409 -1.3010693788528442 0.16109879314899445 0.45943620800971985 0.24111656844615936 0.9732279181480408 1.042313575744629 -0.28131628036499023 1.307331919670105 -0.2496960312128067 1.3592475652694702 1.2251421213150024 -0.9377642273902893 0.25012993812561035 0.12370680272579193 0.4715762734413147 2.2810847759246826 -2.1155173778533936 1.1195518970489502 -0.849876880645752 -2.8167872428894043 -3.065187692642212 0.5070445537567139 -1.5207029581069946 -0.13742655515670776 -0.6062849760055542 0.5285159349441528 0.8560514450073242 -0.4087914824485779 -0.2947538495063782 0.37131524085998535 -1.3666436672210693 1.6647800207138062 0.6091785430908203 -0.1724988967180252 -0.027749935165047646 -0.3662651777267456 -0.2527386248111725 -0.04655955731868744 0.13668286800384521 -0.11485280096530914 -1.4182281494140625 -0.5017568469047546 1.5731902122497559 -1.1459174156188965 -0.9990156292915344 -1.0547316074371338 -0.6732314229011536 0.7449737191200256 -0.46891582012176514 2.4003477096557617 2.073352098464966 0.7931222915649414 -1.2078951597213745 -0.6979382038116455 0.7407702803611755 -1.5919257402420044 0.7017003297805786 1.244563341140747 -0.6249530911445618 -0.772659957408905 0.7919024229049683 -0.3703889548778534 -1.5960160493850708 -0.41126540303230286 0.6260635256767273 1.740256667137146 0.6789867877960205 1.8488506078720093 0.024435900151729584 1.3995256423950195 0.1517244130373001 0.4986598491668701 -0.45328718423843384 0.8800600171089172 -0.8776143789291382 0.1202586442232132 0.6304914951324463 -0.33422890305519104 0.3710862994194031 -0.6973196864128113 1.7823889255523682 0.10537714511156082 0.8473591208457947 -1.8677246570587158 -1.0795934200286865 -0.5011139512062073 1.5831128358840942 1.7747361660003662 0.666631817817688 0.0027618149761110544 2.6993751525878906 0.37427881360054016 -0.1382598578929901 -0.4223380982875824 
vec23 -0.0036647021770477295 -1.0802899599075317 -0.052321985363960266 0.9318478107452393 -1.6260101795196533 -0.26791825890541077 -0.4163287878036499 1.704148292541504 0.29778626561164856 -0.8769569993019104 -1.3293955326080322 -0.5182218551635742 0.8533782362937927 -0.7697209119796753 -2.734905481338501 -1.8422905206680298 0.7426746487617493 0.878762423992157 -0.6092044711112976 -1.1241445541381836 -0.0005850241868756711 1.6808481216430664 -0.26985999941825867 0.07713895291090012 0.7515177726745605 -0.07902512699365616 1.0261437892913818 0.5105822682380676 0.31665781140327454 -0.5590517520904541 0.9645048379898071 -0.9738429188728333 -1.3852849006652832 -0.20448780059814453 -1.0769418478012085 -0.1064220741391182 0.18812745809555054 -0.4380040764808655 -0.7620906829833984 -1.1106159687042236 -0.3426305651664734 0.318922758102417 0.023497115820646286 1.6323168277740479 -1.3523240089416504 0.03325703740119934 0.3382335603237152 0.0897483080625534 -1.4532711505889893 1.0810800790786743 -0.6351287364959717 -0.500771701335907 -0.2510274648666382 -0.11000707000494003 -0.1477499008178711 -0.5632935762405396 -0.13069047033786774 0.914486825466156 -0.37499234080314636 -0.8325101733207703 -1.5512373447418213 -1.8919085264205933 0.6915304660797119 -1.1369357109069824 -0.504788875579834 -0.48986387252807617 0.7824388146400452 -1.757599949836731 1.2275478839874268 -0.007479533087462187 0.37092098593711853 1.8490071296691895 -0.35531118512153625 0.70085209608078 1.2319692373275757 0.28263387084007263 -0.1157195195555687 -0.8313041925430298 -0.11800029128789902 -0.05863243713974953 1.2487854957580566 -0.04858781024813652 0.8451631665229797 -0.14811432361602783 1.0104731321334839 0.9449891448020935 -1.6708242893218994 -1.557379961013794 -0.2957460284233093 -0.225398987531662 -0.4359448254108429 -0.2069740891456604 0.23094099760055542 0.8398237824440002 1.616220474243164 0.609000563621521 0.10619831085205078 -0.5107492208480835 1.8803855180740356 -0.03589816391468048 0.6586934328079224 -0.021521780639886856 0.5004217028617859 1.715852975845337 0.643551230430603 2.300902843475342 -0.5007590651512146 0.24880081415176392 0.8475111722946167 0.6128583550453186 -2.278580904006958 -0.007996240630745888 -0.6219039559364319 -0.11845231056213379 -0.98133385181427 1.3365163803100586 1.8319809436798096 0.322116881608963 -0.9017511606216431 -0.44486382603645325 -0.708549439907074 0.4751046597957611 -0.8897865414619446 1.6151255369186401 0.9537121653556824 -0.8428023457527161 0.2456357777118683 0.03608027473092079 0.20175543427467346 -0.14290578663349152 -0.9892518520355225 0.14520525932312012 -0.7889180183410645 0.2502608597278595 -0.11755888909101486 -0.14555706083774567 1.0988705158233643 1.463295340538025 1.8982845544815063 -1.3789526224136353 1.467418909072876 0.5480591654777527 0.749367356300354 -0.21896705031394958 -0.609656035900116 -0.47371989488601685 -0.7180338501930237 -0.34234899282455444 0.7671428322792053 0.9262941479682922 -1.326274037361145 2.1559395790100098 -1.008979320526123 0.17214441299438477 0.395397424697876 0.5234785676002502 1.4765928983688354 0.49681171774864197 -0.5494714975357056 0.06281162053346634 1.1451892852783203 1.1343371868133545 -0.07841449975967407 1.8048367500305176 0.05721796676516533 0.38049888610839844 0.8318334817886353 0.18638791143894196 0.9934759140014648 -0.8906523585319519 -1.5477815866470337 -0.27694347500801086 1.3162072896957397 0.2341732233762741 -0.9994118213653564 1.339760661125183 -0.3940410614013672 -0.34436824917793274 0.035942576825618744 1.0072436332702637 -1.6238137483596802 0.9882531762123108 -1.5660667419433594 0.8712584376335144 0.540440559387207 -0.9422690272331238 0.42384132742881775 1.4328958988189697 1.5401601791381836 -1.5297263860702515 -0.5156198740005493 0.956871747970581 0.8017447590827942 1.0306764841079712 1.1782461404800415 -0.5565193891525269 1.2395658493041992 0.5142309665679932 0.2353961020708084 -1.0659259557724 
vec24 0.17326036095619202 -1.2543752193450928 1.1465179920196533 0.9369251132011414 -0.19695772230625153 0.8178327679634094 1.2144999504089355 1.2435479164123535 -0.5026063323020935 0.1542702615261078 -1.55433988571167 -0.30642780661582947 -0.11347655951976776 1.293791651725769 0.170606330037117 1.0883896350860596 0.877802848815918 0.3274628221988678 -0.09122700989246368 -0.10242434591054916 0.29019036889076233 2.20526123046875 0.5541025996208191 -1.1408179998397827 0.4431801438331604 1.007802128791809 1.7470183372497559 -0.2980251908302307 0.9340973496437073 1.8697972297668457 -1.2713130712509155 -0.6223254203796387 -0.33680808544158936 0.6008411645889282 -0.46999379992485046 1.0076704025268555 -0.7294828295707703 1.330924391746521 -1.2610713243484497 0.09423097223043442 0.33296695351600647 0.8159291744232178 3.2806875705718994 -0.28779593110084534 -2.460479497909546 2.974548101425171 -1.3342045545578003 -0.05597028136253357 0.8789224624633789 -0.4736900329589844 0.44225484132766724 1.137022614479065 -1.2002450227737427 -0.5268735289573669 -0.38834986090660095 0.19895504415035248 -1.3974303007125854 0.4262754023075104 0.23651233315467834 0.5816569924354553 -0.7379277944564819 0.5557115077972412 -0.3559894859790802 -1.281785249710083 -0.13745258748531342 -0.1146741732954979 -0.19075854122638702 0.9615113139152527 0.9169054627418518 -0.36355918645858765 0.02535097673535347 1.5182722806930542 -0.6859356164932251 1.0336345434188843 1.7440682649612427 -1.20281183719635 2.747690200805664 -1.2273077964782715 -0.43175703287124634 -0.875577986240387 0.6061115860939026 0.014279810711741447 1.102758526802063 -0.1504235714673996 0.37842246890068054 0.205259308218956 -1.1983616352081299 1.433576226234436 1.500293254852295 -0.5965144038200378 1.1007394790649414 0.20222826302051544 0.21694359183311462 -1.6605134010314941 0.9221723079681396 0.9283145070075989 0.9766252040863037 -1.6294862031936646 -0.28615090250968933 0.10504446178674698 1.0500997304916382 -0.8854935169219971 -0.024994930252432823 1.1223273277282715 -0.6259521842002869 -0.42097485065460205 0.8630677461624146 -0.009882877580821514 0.2426249235868454 0.527092456817627 -1.5294102430343628 1.1209670305252075 -0.5312048196792603 1.4279667139053345 0.6410766243934631 0.38423556089401245 0.7772130370140076 0.39942634105682373 -0.3421303629875183 -1.7331804037094116 -0.5477349162101746 0.4984299838542938 -2.157325029373169 0.3367446959018707 -0.3975556492805481 -1.8596380949020386 -0.6691109538078308 2.4334919452667236 -0.7373089790344238 1.5266635417938232 1.071669101715088 1.1369808912277222 0.5259594917297363 -1.2246748208999634 -0.589988112449646 2.070478916168213 -2.8283040523529053 1.9420539140701294 0.8099156022071838 -2.019972801208496 1.8580477237701416 -1.474597454071045 -0.21938203275203705 -0.3183462917804718 -0.7641253471374512 0.6463912129402161 -0.5882009267807007 0.4121291935443878 -0.8995302319526672 -1.599012017250061 -0.438827782869339 1.0030978918075562 -0.7727082967758179 0.8873885869979858 -0.1363222450017929 -0.6826291680335999 0.8569985628128052 -0.4705474376678467 0.1325072944164276 -0.9169809818267822 1.3228754997253418 -1.0379455089569092 -0.49201473593711853 -0.1962977945804596 -1.2788587808609009 -0.736842155456543 0.5838925838470459 -0.8702001571655273 -0.7370361685752869 0.16684496402740479 -0.2874601483345032 -0.4220520555973053 0.4737607538700104 -0.7425612211227417 -0.7344954013824463 0.2924056947231293 -0.13585694134235382 -0.25081661343574524 0.6550050973892212 0.29740002751350403 0.23998954892158508 1.9502801895141602 0.24753864109516144 -0.7674946188926697 0.6393217444419861 -1.1502883434295654 -0.25238028168678284 -0.5977450609207153 0.5819257497787476 -1.768249273300171 -0.915442705154419 0.3863471746444702 -0.021821949630975723 -0.2921096682548523 0.6554111242294312 -0.6757643818855286 -0.34874504804611206 2.389678955078125 0.6342841982841492 -0.10381923615932465 
