vec0 0.5973754525184631 -1.1489773988723755 -1.5109213590621948 -2.0319602489471436 0.5520588159561157 0.022136792540550232 -0.01171999704092741 -2.671262502670288 -1.0385565757751465 -0.3283240497112274 0.664259135723114 -0.5377688407897949 0.20283575356006622 0.3615455627441406 -1.0400747060775757 -0.6780465841293335 -0.04116664081811905 -0.02592589147388935 0.2933935821056366 -0.7772904634475708 -0.602886438369751 0.9966643452644348 0.008709123358130455 0.463523268699646 0.46571221947669983 -0.38540515303611755 2.132155418395996 -0.3963557183742523 1.1648904085159302 -0.733900785446167 -1.2025796175003052 2.529902935028076 -2.2093186378479004 0.9581581354141235 -0.6705735921859741 0.4791465699672699 -0.7486464381217957 -0.7176345586776733 -0.2873102128505707 -0.3918931186199188 -0.22146959602832794 -0.42548009753227234 -1.8876922130584717 1.052236795425415 -0.42505335807800293 -1.5914536714553833 1.0791128873825073 -0.5184280276298523 -1.2304890155792236 0.5931986570358276 -0.14630000293254852 0.18516023457050323 2.421241044998169 0.21317245066165924 -0.5051501393318176 1.2280683517456055 -1.1044834852218628 -0.0845486968755722 0.14659442007541656 0.9236965179443359 0.8131269812583923 0.3464803397655487 -0.914714515209198 -0.012773461639881134 -0.7019558548927307 0.6175606846809387 -0.46097061038017273 -0.5492838621139526 -0.6104903817176819 -2.192985773086548 -2.3958652019500732 -1.0599673986434937 0.06520051509141922 0.8252931833267212 0.591998279094696 1.659704327583313 -1.2652498483657837 -0.09436856955289841 -0.2076919823884964 -1.7623772621154785 -0.956287682056427 0.22605174779891968 -0.34196725487709045 -1.520499348640442 0.941423237323761 -0.3666912913322449 -3.86102032661438 -0.9901050925254822 -0.34623485803604126 -1.0170098543167114 -0.1855412870645523 -3.167257070541382 -0.11791881918907166 -0.5226898789405823 2.0239925384521484 -0.2580988109111786 -0.5938491821289062 -0.4315568208694458 -0.3325985372066498 -1.0044807195663452 1.1117841005325317 -0.9946284890174866 0.20460806787014008 1.2914185523986816 -0.7051107287406921 -0.5976401567459106 -0.38805434107780457 0.8197970390319824 -0.06111684441566467 -1.2115600109100342 -1.3809785842895508 0.7871773838996887 -1.2605772018432617 -0.6027729511260986 1.086323857307434 -0.14797137677669525 -0.33667948842048645 -0.09945879131555557 -0.9431508183479309 2.0354504585266113 0.00110776093788445 0.8931133151054382 1.3250454664230347 -0.043346211314201355 1.8794434070587158 -1.1945366859436035 0.5533059239387512 -0.3837423026561737 -2.3887970447540283 0.12833143770694733 0.09807910025119781 -0.13458940386772156 -0.05694873631000519 1.3206499814987183 -0.20104782283306122 -0.9688513278961182 -0.25070130825042725 -1.0982937812805176 -0.03388175368309021 -2.410496950149536 -0.5714825987815857 1.4740105867385864 -0.3127763867378235 0.7809199094772339 -0.9147489070892334 0.29125353693962097 -0.026875603944063187 -2.905283212661743 -0.8860899806022644 1.5205882787704468 0.3179650604724884 0.5782674551010132 0.297932505607605 -0.7017539739608765 0.1251455545425415 1.6722869873046875 -0.24926312267780304 3.6912710666656494 0.9191488027572632 0.140895277261734 -1.3895350694656372 0.933551013469696 0.5176275968551636 0.3048023283481598 0.5130579471588135 -0.8758871555328369 -1.6191117763519287 0.011915568262338638 -1.0973176956176758 0.7830196619033813 -1.3120810985565186 -1.0073212385177612 1.2146849632263184 -0.4345317482948303 0.6898366212844849 -1.535279393196106 0.9231863617897034 1.0894670486450195 0.11394952982664108 1.441209077835083 -2.0387990474700928 0.46239152550697327 0.9472271203994751 0.11259178072214127 1.9582048654556274 0.6079634428024292 -1.0096110105514526 -0.12985281646251678 0.6923497915267944 1.4158858060836792 -1.5341343879699707 -0.9523373246192932 1.1233930587768555 1.5454481840133667 -1.5070000886917114 0.32122310996055603 0.7203355431556702 1.1204487085342407 -0.054865557700395584 -1.029888391494751 
vec1 -0.04803901165723801 -1.8140151500701904 -1.9068794250488281 -1.3154268264770508 1.475332498550415 0.2584434747695923 0.36917898058891296 -2.0590150356292725 -1.0212407112121582 -0.32491496205329895 1.3993207216262817 0.9434196352958679 0.9066824913024902 0.28362706303596497 -0.8399062752723694 -0.7159693241119385 -0.06562698632478714 -1.035253643989563 1.0993530750274658 -1.425520420074463 -1.3834233283996582 1.0394428968429565 -0.6479561924934387 -0.8947115540504456 0.18483170866966248 -1.1817255020141602 1.1995580196380615 -1.0719798803329468 1.9957032203674316 -0.48498496413230896 -0.13021023571491241 1.073134422302246 -1.7254717350006104 -0.4303355813026428 -0.3968992233276367 0.1629275530576706 0.02166539616882801 -0.5441659092903137 0.3525623083114624 -0.09655506908893585 0.7835924029350281 -0.06637328863143921 -2.0861799716949463 -0.06838735193014145 -0.36121633648872375 -0.7202188372612 0.9654775261878967 0.8577104210853577 -1.5385323762893677 -0.8774855136871338 0.1141824945807457 -0.7739419937133789 2.031625509262085 -0.03747635334730148 0.8828540444374084 0.43555358052253723 -1.1566587686538696 -0.3397775888442993 -1.4121150970458984 -0.011033471673727036 0.10278848558664322 -0.8874549865722656 -1.2610633373260498 0.22068558633327484 0.2257785201072693 1.2492456436157227 -0.7773036360740662 0.4139411449432373 -1.5100889205932617 -1.8190333843231201 -1.8034402132034302 -1.6127574443817139 1.5896637439727783 0.8080178499221802 -0.20394890010356903 1.9907163381576538 -1.294857144355774 -0.24550528824329376 0.27237993478775024 -0.852163553237915 -0.6654537320137024 0.11599519848823547 0.5594243407249451 -1.4493578672409058 2.9049060344696045 -0.4602469503879547 -2.24540638923645 0.15867796540260315 -0.631129801273346 -1.012486457824707 0.21258427202701569 -1.2253984212875366 -1.0536227226257324 -0.28257179260253906 2.3819832801818848 -0.022274257615208626 -0.22262051701545715 -1.075353980064392 -0.21293194591999054 -1.419211745262146 1.5575734376907349 -1.3052222728729248 0.4431067109107971 1.0911744832992554 0.36625561118125916 -0.1730203777551651 -0.3661547899246216 0.7725176811218262 -0.671761155128479 -0.15870876610279083 -0.7709363698959351 1.0325340032577515 -1.3116708993911743 -1.2044121026992798 2.4941043853759766 -1.3063077926635742 1.3420978784561157 0.5077024102210999 -1.6617995500564575 1.5403354167938232 -0.6997061371803284 1.2577645778656006 2.124420642852783 -0.1689072549343109 2.294400453567505 -0.6224068999290466 0.6495904922485352 -0.10702931880950928 -1.6382484436035156 0.5735748410224915 -0.6322203874588013 -0.6359493732452393 -0.12061135470867157 1.041137933731079 0.6063896417617798 -0.6033510565757751 -0.07152649015188217 -0.14389550685882568 -0.7718196511268616 -0.04962785542011261 -0.01113713439553976 1.2388365268707275 -0.23667575418949127 -0.07551000267267227 0.32033678889274597 -0.5372421145439148 0.1199856773018837 -1.019452691078186 -0.7874671816825867 0.8786945343017578 0.5100672245025635 0.2831950783729553 -0.12215615063905716 -0.7393606901168823 0.4246828556060791 1.809849500656128 -1.1362398862838745 2.7229270935058594 0.4902224838733673 -0.3957473337650299 -0.5528770685195923 1.860873818397522 -0.080770343542099 -0.29498884081840515 0.3328653872013092 -0.2164217084646225 -0.7021194100379944 -0.5529539585113525 -1.1342204809188843 1.5615205764770508 -1.4031336307525635 -0.9772950410842896 0.8824984431266785 0.8205699324607849 0.009935854002833366 -1.5856359004974365 1.3904705047607422 -0.1842964142560959 -0.4043932259082794 0.22294890880584717 -0.43871599435806274 0.15555886924266815 1.0206412076950073 -0.9917153716087341 1.3739029169082642 1.116079330444336 -0.2809997498989105 -0.6368423104286194 0.631496012210846 0.18724052608013153 -1.4929394721984863 -0.8923357725143433 0.5393528938293457 1.9946973323822021 -1.1916066408157349 0.05853787437081337 0.48428335785865784 0.5087528824806213 -1.0190536975860596 -0.26887160539627075 
vec2 -0.9783608913421631 -1.4055016040802002 -1.3897284269332886 -0.24286365509033203 1.0966309309005737 -0.03449942544102669 0.5391696095466614 -2.561781167984009 -0.8998111486434937 -0.1430164873600006 0.48878157138824463 0.2996973395347595 1.0909225940704346 1.2255131006240845 -0.9041849970817566 -0.9082351922988892 -0.6826863884925842 -1.8453463315963745 0.2798001170158386 -0.8225419521331787 -1.0656647682189941 0.726279079914093 -0.292461097240448 -0.5690337419509888 0.4146536588668823 -0.7673026919364929 1.5325510501861572 -0.8160461783409119 1.9548684358596802 0.011013489216566086 -0.629986584186554 1.4128819704055786 -1.8650782108306885 0.29911473393440247 0.40899574756622314 0.213620126247406 -0.6186348795890808 -0.0020941414404660463 -0.30790385603904724 0.029923228546977043 -0.39958858489990234 -0.26660123467445374 -0.6965304613113403 0.5750123262405396 -1.0872251987457275 -1.1974191665649414 1.2396330833435059 0.43411293625831604 -1.137325644493103 0.800800621509552 0.7792404294013977 0.8429675102233887 1.663047194480896 0.9607092142105103 1.1608927249908447 -0.3223377466201782 -0.35671088099479675 -0.1824936866760254 -0.9218116402626038 -0.03049948252737522 0.7493928670883179 0.09971696883440018 -0.04362666606903076 -0.050537414848804474 0.00776223698630929 0.4212694466114044 -0.9433404803276062 0.661937415599823 -1.0906407833099365 -1.4497900009155273 -0.9670494198799133 -0.964856743812561 0.5523309707641602 1.5106693506240845 0.0061286394484341145 0.890788197517395 0.19260409474372864 0.6898451447486877 0.3207385838031769 -0.5486958622932434 -0.7336798310279846 1.0102757215499878 0.3572223484516144 -0.7750208377838135 0.8890993595123291 -0.16754299402236938 -2.9166579246520996 -1.9671111106872559 -0.48077911138534546 -0.8546063303947449 0.014571411535143852 -1.818612813949585 0.5324134230613708 -0.03583397716283798 1.8501211404800415 -0.8684048056602478 -0.3455798625946045 -0.6242149472236633 -0.7637417316436768 -1.45795476436615 1.0333443880081177 -1.4342656135559082 1.2792627811431885 0.766800045967102 -0.9958783388137817 -1.2288559675216675 -0.26178401708602905 -0.7892411947250366 -0.7049462199211121 -0.4923509359359741 -2.137986183166504 0.7423701882362366 0.1053769513964653 -1.220104694366455 1.0063375234603882 0.506083607673645 1.4971545934677124 0.5234582424163818 -1.4208022356033325 0.9837712645530701 -0.7796251177787781 1.0833641290664673 2.131478786468506 0.5874876976013184 1.6274088621139526 -0.1590820699930191 0.3721315562725067 0.6093953251838684 -1.4238898754119873 0.8646631836891174 -0.6526323556900024 -1.4354839324951172 -0.5000686645507812 0.5510525107383728 -0.17919541895389557 0.09424328804016113 0.10721153765916824 -0.9897130131721497 0.1960521787405014 -0.8565943241119385 0.31065627932548523 1.9521799087524414 0.3900032937526703 0.8409924507141113 0.07448089122772217 0.15401364862918854 -1.1274566650390625 -2.8789970874786377 -0.1555737555027008 -0.6375458836555481 -0.04791126027703285 0.13598127663135529 -0.6415947079658508 -0.7044752240180969 0.4062623679637909 0.809238076210022 -0.2789810299873352 2.1532793045043945 -0.26262086629867554 -0.9173347353935242 -0.645295262336731 1.221475601196289 1.808303952217102 -1.072675347328186 1.104623794555664 -0.7995797991752625 -0.5370413661003113 -0.2336449772119522 -1.9422024488449097 2.2237050533294678 -1.5710992813110352 -1.5763802528381348 0.08889957517385483 0.9749307036399841 -0.28964370489120483 -0.7524046897888184 -0.4851747453212738 0.5538092255592346 0.025298437103629112 0.22479946911334991 -0.5630002021789551 0.4830852746963501 0.3811624348163605 -0.47269874811172485 0.5927909016609192 -0.16698689758777618 -0.6751083731651306 -0.3670620024204254 0.007122893817722797 1.5578464269638062 -0.6468248963356018 -1.6376845836639404 2.1750106811523438 1.5102871656417847 -1.5277745723724365 0.2800586223602295 0.5433370471000671 0.06416889280080795 -1.384206771850586 -0.6479148864746094 
vec3 -0.07201819866895676 -1.3158609867095947 -1.5995395183563232 -0.467975378036499 -0.28252652287483215 0.4137588441371918 1.0050632953643799 -2.139822006225586 -1.5404258966445923 -1.2517129182815552 -0.2623959481716156 0.518782913684845 0.32036274671554565 0.6151506900787354 -0.8082180619239807 -0.0703166201710701 -0.36583980917930603 -0.8467758893966675 0.8335886001586914 -1.4892274141311646 -0.8787369132041931 0.5517905354499817 -0.5419406294822693 -0.4173815846443176 1.2900079488754272 -0.658744752407074 1.1905955076217651 -1.5345855951309204 1.2264702320098877 -0.10033741593360901 -0.129688560962677 1.9661599397659302 -0.047297440469264984 1.1218358278274536 0.32158446311950684 -0.004107113461941481 -0.2024005800485611 -1.5401487350463867 0.46348607540130615 0.14529867470264435 0.014054163359105587 0.3944855332374573 -1.1945644617080688 1.4285637140274048 0.3108488619327545 -1.523606777191162 1.4912842512130737 1.5623059272766113 -0.4613640606403351 0.8427202105522156 0.9542535543441772 0.10184692591428757 2.182957172393799 0.4101247191429138 0.43829086422920227 -0.008236464112997055 -0.48943787813186646 -0.3784501254558563 -1.1785069704055786 0.35737720131874084 -0.290969580411911 -0.6023362874984741 -1.1984517574310303 -0.9276748299598694 0.05959687754511833 1.5203964710235596 -1.3059415817260742 0.7244493365287781 -0.8536956906318665 -0.6898913979530334 -2.3776803016662598 -1.261016845703125 0.9150167107582092 2.421718120574951 0.7954254746437073 0.8088748455047607 -0.5467649102210999 0.25825783610343933 -0.3292735517024994 -0.5415711998939514 -0.39208105206489563 -0.6937475204467773 0.622132420539856 -1.9875446557998657 1.4888964891433716 -1.2444242238998413 -3.320006847381592 -0.11449363827705383 -0.6588442921638489 -0.619534969329834 0.8190417885780334 -2.2756106853485107 -0.35754165053367615 -0.397619366645813 1.608938217163086 -0.4774770438671112 0.43522921204566956 -0.7450942397117615 0.6392106413841248 -0.4275180697441101 1.1003047227859497 -0.8026042580604553 1.1048957109451294 1.6273829936981201 -0.012685110792517662 -1.114566445350647 -0.12436739355325699 1.290776252746582 -0.2326717972755432 -0.45709043741226196 -1.0471760034561157 0.8951258063316345 -0.6524434685707092 -0.5042845010757446 1.1978541612625122 -0.8829087615013123 0.18234573304653168 0.8772913813591003 -2.225574493408203 2.128420114517212 -0.06472614407539368 -0.247592955827713 1.531627893447876 0.6820306777954102 1.998485803604126 -0.12042586505413055 0.8152006268501282 0.6732714772224426 -0.8139288425445557 -0.2803220748901367 1.1775121688842773 -1.6393468379974365 0.2100631147623062 0.3478293716907501 -0.5309603214263916 0.643117368221283 0.18859738111495972 -0.5685553550720215 -0.9801200032234192 -1.2060643434524536 0.2618604004383087 0.8626335859298706 -0.5238806009292603 0.31594139337539673 0.10009381920099258 -0.10690727084875107 -0.4566178321838379 -3.171320676803589 -0.9318999648094177 0.7598989009857178 0.485538512468338 0.5247639417648315 -0.9644216895103455 -0.08006240427494049 -0.1574176698923111 0.9222213625907898 -1.093437671661377 2.1985788345336914 0.8734472393989563 -0.46603891253471375 -0.633887529373169 1.473665475845337 0.6517103910446167 -0.7191489338874817 0.05284051597118378 -1.292196273803711 -1.6839525699615479 -0.2060033231973648 -1.785567045211792 1.560682773590088 -1.6053473949432373 -1.256063461303711 0.9187686443328857 0.5265259742736816 1.425765037536621 -1.7160131931304932 2.01055908203125 0.6968349814414978 0.7807340025901794 0.7335835695266724 -0.5072090029716492 -0.008370903320610523 0.21402502059936523 -0.023343687877058983 0.9861012697219849 0.10434919595718384 0.3171439468860626 0.1528092622756958 1.3753166198730469 0.14257806539535522 -0.7373303771018982 -0.527276873588562 0.41387200355529785 1.5199769735336304 -1.0799298286437988 0.9746474027633667 0.9692189693450928 1.3810527324676514 -0.28230029344558716 -0.08353110402822495 
vec4 -0.8996449708938599 -1.4484440088272095 -0.6752399206161499 -1.5338358879089355 -0.21823544800281525 0.2464083731174469 0.06738807260990143 -1.9819843769073486 -1.5761423110961914 -1.244458556175232 0.5232669711112976 -0.48718056082725525 1.3800780773162842 0.427765816450119 -1.5292537212371826 -0.9395294189453125 0.9552360773086548 0.2660248577594757 2.3066842555999756 -1.141687035560608 -0.9297363758087158 0.6187214851379395 -0.5269680619239807 -1.6261670589447021 1.8161848783493042 -0.6562914252281189 1.798248529434204 -0.17750483751296997 1.707921028137207 -0.45660677552223206 -0.008589736185967922 1.2383551597595215 -0.9193518757820129 0.5043553113937378 -0.6371422410011292 0.47329041361808777 -0.8707607984542847 0.2872377932071686 0.7041099667549133 1.040635585784912 1.1479032039642334 -0.05639468878507614 -1.21599543094635 0.3699324429035187 -0.9200783371925354 -1.041216492652893 0.6041795611381531 0.4860672950744629 -0.5948005318641663 -0.3476213216781616 1.0791056156158447 -0.8815022706985474 2.9010202884674072 1.847295880317688 0.8626555800437927 0.9259383082389832 -0.20167583227157593 -0.34419021010398865 -1.0731021165847778 -1.5081636905670166 0.6573805212974548 -0.20474974811077118 -1.1998045444488525 -0.26317811012268066 -0.1647079586982727 0.7522290349006653 -0.693023681640625 0.4159586727619171 -1.0854747295379639 -1.1943329572677612 -1.2359530925750732 -0.06642579287290573 0.4081031382083893 1.034952998161316 0.6508309245109558 0.8151633143424988 -0.6076462864875793 -0.28199732303619385 0.7021062970161438 -1.2974653244018555 -0.31011414527893066 0.3976673483848572 -0.4921378493309021 -0.7455801367759705 1.0906310081481934 -0.9720291495323181 -4.0445146560668945 -0.6012536287307739 0.2435440719127655 -0.451460063457489 0.5041937232017517 -2.6149561405181885 -0.6442211270332336 0.7165343165397644 1.8852488994598389 -0.5145342946052551 0.7938370704650879 -0.8342763781547546 -0.5367577075958252 -0.16439495980739594 0.6231502294540405 -1.3247419595718384 1.1190011501312256 1.152611494064331 -0.5299090147018433 -1.2828953266143799 -0.814541220664978 -0.25449177622795105 -0.6295306086540222 -0.09239374846220016 -1.4521459341049194 0.7425532937049866 -0.736961841583252 -0.16928988695144653 0.374144583940506 0.10512957721948624 -0.24618874490261078 -0.18654346466064453 -1.999392032623291 1.5063321590423584 -0.7845144271850586 -0.7919688820838928 1.5050580501556396 0.3977023661136627 1.3692426681518555 -1.4265365600585938 0.046917133033275604 0.9776372909545898 -1.7434897422790527 1.5383117198944092 0.7342010140419006 -0.20382405817508698 0.7421460151672363 0.6096915006637573 0.8985040783882141 0.6032073497772217 -0.5585687160491943 -0.9954673051834106 0.041700329631567 -1.00697660446167 -0.9405018091201782 1.0116548538208008 0.30127090215682983 0.9366679787635803 0.24539460241794586 1.3359375 0.12214620411396027 -1.8828530311584473 -0.4197075068950653 0.045357365161180496 -0.22159145772457123 -0.22452443838119507 0.05303792282938957 0.392670601606369 1.1445657014846802 0.5441039204597473 -1.2481948137283325 2.178138256072998 0.9518546462059021 0.6981532573699951 -1.0989660024642944 1.0703768730163574 1.4008653163909912 -0.10629823058843613 1.7564841508865356 -0.29991188645362854 -0.7313205599784851 -0.017728261649608612 -0.9139218926429749 1.384617805480957 -2.2603416442871094 -0.5616507530212402 0.11877580732107162 0.3360903263092041 0.365969717502594 -2.1800711154937744 0.8271490931510925 0.6254860162734985 0.31342336535453796 0.26502570509910583 -1.337617039680481 -1.236369252204895 0.07990778982639313 -0.21993900835514069 1.116564154624939 -0.6188042759895325 -0.4343737065792084 -0.7867341637611389 -0.6358668804168701 0.3959112763404846 -1.4995967149734497 -1.1521151065826416 0.5024933218955994 0.8133426904678345 -2.3671836853027344 -0.3440525531768799 1.1106681823730469 1.238524317741394 -0.3663051128387451 -0.3041127920150757 
vec5 0.6035574078559875 -0.46538078784942627 -0.6384515166282654 -1.880871057510376 -0.058133307844400406 1.3385180234909058 0.09419155865907669 -1.98615300655365 -0.9125044345855713 -0.6584550738334656 1.1320054531097412 0.6401473879814148 0.7502075433731079 1.141953945159912 -0.3201166093349457 0.7025841474533081 0.37131330370903015 -0.956527590751648 0.9389093518257141 -1.3212792873382568 -1.721695899963379 0.5119725465774536 -0.5994132161140442 0.09600598365068436 0.36634647846221924 0.15049098432064056 1.7484108209609985 0.22079548239707947 1.7033618688583374 -0.24454538524150848 0.20989981293678284 1.3074800968170166 -0.445608526468277 0.2083144634962082 -0.31335243582725525 -0.7673770785331726 0.2146984189748764 -0.42159730195999146 0.2226881980895996 0.4616430103778839 0.6749629974365234 0.4375547170639038 -1.538022756576538 6.799180846428499e-05 0.13831627368927002 -1.242053747177124 1.1956367492675781 0.9833224415779114 -0.5676577687263489 0.4004947543144226 -0.7950881719589233 0.5540399551391602 2.6525168418884277 0.840356171131134 1.1258201599121094 0.7252403497695923 -0.5465551018714905 0.6630321741104126 -0.9882001280784607 0.017739105969667435 0.5676391124725342 0.2888628840446472 -1.125489592552185 -0.22911396622657776 -0.007157159503549337 1.025963306427002 -0.6878252625465393 -0.039994385093450546 -0.41389909386634827 -0.5796127915382385 -2.234652519226074 -0.6647353172302246 0.8416711688041687 2.052232503890991 0.41660892963409424 1.3407787084579468 -0.7558525800704956 0.30517998337745667 -0.03047298453748226 -0.722669243812561 -1.1061453819274902 -0.2034359574317932 0.3139458894729614 -1.1403504610061646 1.972105860710144 -0.8412319421768188 -1.9564545154571533 -1.1524347066879272 -0.03491858392953873 -1.0505117177963257 0.30455273389816284 -1.666225552558899 -0.9306677579879761 0.39215946197509766 1.3687572479248047 -0.9935322999954224 -1.2985162734985352 0.5922786593437195 0.1522485911846161 -1.2914470434188843 1.8670990467071533 -1.1060925722122192 0.1586506962776184 1.0162379741668701 -0.9328626990318298 -1.2256944179534912 1.1423697471618652 0.8658508062362671 -1.4828269481658936 0.3265264332294464 -1.004470944404602 0.7859483957290649 -1.3155429363250732 -1.2085686922073364 1.9636152982711792 -0.803695559501648 1.06145179271698 1.0909957885742188 -1.2079232931137085 1.9068022966384888 -0.07844338566064835 -0.6066341400146484 0.728361189365387 0.16925059258937836 1.5375920534133911 -0.9014720320701599 -1.167930245399475 1.350041389465332 -2.6117730140686035 1.1935398578643799 -0.04239640384912491 -0.43782901763916016 -0.6171327829360962 -0.19830258190631866 -0.3467879295349121 0.25901585817337036 -0.31768566370010376 -1.1434382200241089 0.0818076953291893 -1.2825469970703125 -0.10968136787414551 2.0825769901275635 0.4787786602973938 0.545781672000885 -0.9064897298812866 -0.7426725029945374 -0.10756023973226547 -2.1116065979003906 -0.266362726688385 0.8533308506011963 0.21831928193569183 -0.6758129596710205 -0.45117366313934326 0.012522818520665169 -0.47506436705589294 1.186127781867981 -0.7094296813011169 1.917503833770752 0.8561029434204102 -0.11247430741786957 -1.2382315397262573 1.517123818397522 0.8156029582023621 0.28179848194122314 1.1649197340011597 -0.4180794358253479 -0.6250162720680237 0.11501038819551468 -1.6396197080612183 1.1359024047851562 -0.9801394939422607 -1.6907073259353638 -0.5316858291625977 0.5033907890319824 -0.16336260735988617 -1.966548204421997 1.1205174922943115 0.34313544631004333 -0.03765086457133293 0.4738388955593109 -0.9110624194145203 0.812042772769928 0.7036522626876831 -1.2752232551574707 1.223304033279419 -0.7623175978660583 -1.572645664215088 -0.1698891520500183 1.0223218202590942 1.5183534622192383 -0.6705324053764343 -1.814733862876892 1.5267810821533203 0.9457268714904785 -2.310326099395752 0.4812189042568207 0.5883519649505615 0.4423568546772003 0.05561249703168869 -0.3004567325115204 
vec6 -0.9276954531669617 -1.7487225532531738 -1.229528546333313 -2.554673671722412 -0.2631242573261261 1.340171456336975 1.117019534111023 -1.264254093170166 -0.57086580991745 -1.9731264114379883 0.32758161425590515 -0.12882979214191437 0.6405975222587585 0.7131311297416687 0.4271865487098694 -0.30548611283302307 -0.0024796391371637583 -0.49707645177841187 1.0639352798461914 -0.6424111127853394 -0.21208542585372925 0.5097746253013611 -0.4594303071498871 -0.5788620710372925 2.4591808319091797 -1.0499672889709473 1.0476123094558716 -0.2013198882341385 1.9411834478378296 -0.5305710434913635 -1.0439125299453735 2.3793435096740723 -2.0079426765441895 0.559871256351471 0.5495198369026184 -0.5757881999015808 -1.0192837715148926 0.5063834190368652 -0.5936039090156555 0.33773213624954224 -0.4575291872024536 -0.6753754019737244 -1.0868606567382812 1.7191985845565796 -1.1992383003234863 -1.254019021987915 0.9160125851631165 1.2235161066055298 -0.8420464396476746 1.1162643432617188 0.1669226735830307 0.4163029193878174 2.2158541679382324 -0.9481402039527893 -0.4962799847126007 0.07837027311325073 0.18519499897956848 -0.06941306591033936 -0.968234658241272 -0.2738581895828247 0.0714411586523056 1.4923367500305176 -0.1371370255947113 -1.5505661964416504 -0.2587442398071289 -1.2457194328308105 -0.2586442530155182 1.1043812036514282 -1.2390997409820557 -1.3140958547592163 -2.0094809532165527 -0.2571074962615967 0.054937705397605896 1.9140042066574097 0.8338854312896729 0.7288334369659424 -1.2957442998886108 0.19707557559013367 -1.7484023571014404 0.0790240466594696 0.06878982484340668 -0.23056966066360474 -0.913715660572052 -1.8282747268676758 1.4260728359222412 -0.9462451338768005 -2.4704151153564453 -1.1857296228408813 0.034755609929561615 -2.735199213027954 0.31762197613716125 -3.289827823638916 0.08241092413663864 0.05116443336009979 0.8330714702606201 -1.212814211845398 0.09452962875366211 -0.700226902961731 -0.6726378798484802 -1.0523967742919922 1.0750714540481567 -0.9813576936721802 0.7155011296272278 1.9333128929138184 -0.5743291974067688 -1.129673719406128 -0.9791672229766846 -0.1549711972475052 -0.3418579697608948 -0.20442430675029755 -0.8735474944114685 0.17238929867744446 -0.8209643959999084 -1.6544955968856812 1.4652550220489502 -0.14308297634124756 0.20886649191379547 -0.49391940236091614 -1.5275458097457886 2.107029676437378 0.035018034279346466 1.1564768552780151 2.209806442260742 -1.1187036037445068 1.857375144958496 -1.8230949640274048 0.6030927896499634 0.8312837481498718 -2.6773250102996826 -0.31764689087867737 0.07231318950653076 -0.22522564232349396 -0.27936816215515137 0.04060078784823418 0.4481217563152313 -0.061297040432691574 0.026162920519709587 -1.2684253454208374 -0.681031346321106 -0.88100665807724 0.29483020305633545 1.5936312675476074 -1.2663695812225342 0.5880430936813354 0.06025281175971031 1.590470314025879 -0.9473825097084045 -1.5745539665222168 -0.13347317278385162 0.5195598006248474 1.2304346561431885 -0.34410402178764343 -0.5006856918334961 -0.17086437344551086 0.5518746376037598 0.8419263362884521 -1.0238573551177979 1.9468270540237427 -0.018626701086759567 -0.051942721009254456 -0.4460928440093994 1.0691337585449219 0.3886449635028839 0.4202577769756317 0.9256110191345215 -1.176775336265564 -0.7382432818412781 0.565351665019989 -1.3423352241516113 1.663589358329773 -1.597758412361145 -0.2785060405731201 0.6194942593574524 0.1905824989080429 -0.33431339263916016 -1.5481219291687012 0.4045793414115906 -0.3305826783180237 0.4331624507904053 0.6078107953071594 0.5438739061355591 0.7483153939247131 0.9427304267883301 -0.019252678379416466 1.2344645261764526 0.8902817368507385 -0.047058455646038055 -1.523125410079956 -0.27818089723587036 0.5841265320777893 -0.4116678237915039 -2.1406238079071045 0.9744298458099365 1.2391166687011719 -1.990006446838379 0.23807577788829803 1.360741376876831 0.2567266523838043 -0.06074840947985649 0.06862842291593552 
vec7 -1.0090699195861816 -0.6450242400169373 -1.5444657802581787 -1.72772216796875 -0.33542612195014954 0.2650536000728607 -0.5819658041000366 -3.200651168823242 -1.4388813972473145 -0.9235731959342957 0.837306022644043 0.33179304003715515 0.3360634744167328 0.37611979246139526 -0.030798057094216347 -0.7112034559249878 0.2637461721897125 -0.5875739455223083 1.064443826675415 -0.9374074935913086 -1.470638632774353 0.8635695576667786 -0.575505256652832 -0.14826802909374237 1.459912657737732 1.0012645721435547 1.1815258264541626 -0.6121519207954407 2.0571951866149902 -0.16616851091384888 0.5505250096321106 1.124725103378296 -1.0918866395950317 -0.19573214650154114 -0.4399090111255646 0.747631847858429 1.2515541315078735 -0.5052462816238403 0.4616685211658478 0.5050766468048096 0.43375545740127563 -0.04837682098150253 -1.5137392282485962 0.3879484236240387 -0.7801516652107239 -1.597757339477539 1.7352784872055054 0.7009135484695435 -1.7406976222991943 0.5007748007774353 0.020969253033399582 0.7066799998283386 2.627981424331665 0.5415128469467163 -0.24227571487426758 0.2529856264591217 -1.041490912437439 0.10043296962976456 -0.7048065066337585 -1.7610760927200317 0.6076065897941589 -0.538148045539856 -0.7723751664161682 -0.42843979597091675 -1.2718831300735474 0.29239603877067566 -0.5951279401779175 0.6776382923126221 -1.4386647939682007 -1.1086018085479736 -1.08558189868927 -0.9112473726272583 0.7048322558403015 1.9861173629760742 -0.1692989617586136 2.275771141052246 -0.9141383767127991 0.918526828289032 -0.8077177405357361 -0.542939305305481 -1.7181811332702637 -0.12462533265352249 0.22978320717811584 -1.0225328207015991 1.3052600622177124 -0.5338866710662842 -2.0132341384887695 -0.32450538873672485 0.22556988894939423 -1.2815237045288086 0.11955437064170837 -2.6695079803466797 0.5116997361183167 0.5809221863746643 1.989357590675354 -0.975838840007782 -0.32277601957321167 -0.2982509434223175 -0.34052541851997375 -0.20509611070156097 1.5225805044174194 -0.599438488483429 -0.19774727523326874 0.7413111329078674 0.18344086408615112 -2.1668272018432617 -0.4634315073490143 1.3461716175079346 -0.189871147274971 -0.08422445505857468 -0.8265374898910522 -0.05072030797600746 -1.8446985483169556 -0.5943670272827148 1.092490792274475 0.26126283407211304 0.8799439072608948 1.0650120973587036 -1.199048638343811 2.4153833389282227 0.012224188074469566 0.20923824608325958 1.0367980003356934 -0.5728924870491028 2.572249412536621 -0.6593071222305298 0.06702669709920883 1.0968087911605835 -1.3418774604797363 0.03264693170785904 0.6881514191627502 -1.1433207988739014 -0.6662452816963196 0.26778846979141235 -0.2598918080329895 -1.3786802291870117 1.0543955564498901 -1.7275927066802979 -1.0069434642791748 -0.5025629997253418 0.7380643486976624 2.0538580417633057 -0.4150196313858032 0.1807478964328766 0.8295022249221802 0.45174217224121094 -0.932033360004425 -2.7500977516174316 -0.6672782897949219 0.8735320568084717 0.8106428980827332 0.7641404867172241 0.27585259079933167 -0.377475768327713 0.8505777716636658 1.5640411376953125 -2.0209076404571533 1.2840536832809448 1.1103991270065308 -0.223908469080925 -0.26621177792549133 0.3788757920265198 0.5814176201820374 0.1521475464105606 1.292837142944336 -0.17204421758651733 -1.188600778579712 0.671534538269043 -1.7046035528182983 0.7497830390930176 -1.087766170501709 -1.6872721910476685 0.41438353061676025 -1.085831880569458 1.3572174310684204 -1.6518338918685913 0.8732510805130005 1.4354966878890991 0.2190769910812378 1.177473783493042 0.05701496824622154 -0.004681472200900316 0.7910051941871643 -0.11732766032218933 1.462279200553894 0.2699020206928253 -0.5426234006881714 -0.36253875494003296 1.4939422607421875 0.66297447681427 -2.00474214553833 -0.39114144444465637 0.34050866961479187 0.8953182101249695 -1.8080233335494995 1.0156439542770386 0.2637729048728943 0.24282866716384888 0.5494705438613892 -0.0975826308131218 
vec8 0.8204728364944458 -1.0285333395004272 -1.6042695045471191 -2.0605781078338623 -1.2110483646392822 -0.0037223089020699263 0.9974145293235779 -2.1508305072784424 -1.6503021717071533 -0.2996051609516144 0.9294118285179138 0.19565130770206451 0.40040281414985657 0.8417066335678101 -0.2921229600906372 -0.8518173098564148 0.01727207377552986 -0.6097162365913391 1.068657636642456 -1.1073102951049805 -1.615518569946289 1.407962441444397 -0.5109348893165588 -1.4339827299118042 0.8653688430786133 -0.7478416562080383 2.2900502681732178 -0.2715235650539398 1.5576975345611572 -1.0776827335357666 0.49898508191108704 1.2734880447387695 -1.0374547243118286 -0.07243173569440842 -0.6436855792999268 -0.02022549882531166 0.21357345581054688 -0.8779276609420776 0.1453435719013214 1.2988792657852173 -0.4940198063850403 -0.25653451681137085 -2.0637691020965576 0.8626198768615723 0.22306270897388458 -2.362002372741699 -0.2265077382326126 0.4834148585796356 -0.251000314950943 0.7611315846443176 0.09821657836437225 1.374597191810608 1.2732605934143066 0.007307610474526882 0.3352047801017761 0.5101668238639832 -0.41830796003341675 -0.16040588915348053 -1.1660487651824951 -0.2054334282875061 -0.3046182096004486 0.7231851816177368 -0.9700438976287842 -0.878472089767456 -1.4739750623703003 -0.10528549551963806 -1.0279607772827148 2.6734097003936768 -0.36245813965797424 -1.436639666557312 -1.042019009590149 -0.5442420244216919 1.3291208744049072 1.8143270015716553 1.043365478515625 1.380772590637207 -2.03615665435791 0.010769851505756378 -0.05192152038216591 -1.639307975769043 -1.1946508884429932 -0.015295121818780899 0.2383529394865036 -1.5823349952697754 1.2026734352111816 0.39072737097740173 -3.23132586479187 -0.892851710319519 -1.223209261894226 -1.5027841329574585 0.9714002013206482 -3.7365550994873047 0.0809125006198883 0.9073731303215027 0.07392031699419022 -0.12891681492328644 -0.6402665972709656 -0.8245406150817871 -0.2989755868911743 -0.06942912936210632 0.588603138923645 -1.2671016454696655 0.4710463881492615 0.7914066910743713 0.4635555148124695 -0.5294855237007141 -0.9419921636581421 -0.840880274772644 -1.358328938484192 -0.33622947335243225 -0.7171456813812256 0.008943242952227592 -0.5780069828033447 -0.9955733418464661 0.4628654420375824 0.05748814344406128 0.7436822056770325 0.5280037522315979 -2.0329484939575195 1.8633486032485962 -0.3150118291378021 0.6352747678756714 1.956502079963684 -0.0953228771686554 1.6698274612426758 -0.20271599292755127 1.0192766189575195 0.2536529302597046 -1.5629559755325317 1.0512624979019165 -0.19837653636932373 -1.8506442308425903 1.0184338092803955 1.342390537261963 -0.10784082114696503 0.9138350486755371 0.5719371438026428 -0.8674131631851196 0.3133101463317871 -1.4270292520523071 -0.9370595216751099 1.6290267705917358 -1.0959769487380981 0.49939340353012085 0.6233417987823486 -0.7988744378089905 -0.4293158948421478 -2.177821636199951 0.24962866306304932 0.390713095664978 0.5298320651054382 -0.3279656171798706 0.09361837804317474 -0.6318929195404053 -0.8389135003089905 0.45174306631088257 -0.8145705461502075 2.976651668548584 0.992064893245697 -0.4466458857059479 -0.39250993728637695 1.1212421655654907 -0.1467016488313675 0.1091691255569458 0.8749513626098633 -0.19778886437416077 -0.2309676706790924 -0.044072866439819336 -0.8365407586097717 1.3636971712112427 -0.5866416096687317 -1.0789477825164795 -0.6488958597183228 1.0312590599060059 0.5750076770782471 -0.6205570697784424 0.6597983241081238 0.7698999643325806 -0.34421756863594055 -0.15217216312885284 -1.574581265449524 -0.04733250290155411 -0.8839476108551025 -0.6621729731559753 1.9409035444259644 1.040531039237976 -1.2938131093978882 -0.839503824710846 -0.04620560631155968 0.8741795420646667 -0.7101816534996033 -0.6238952279090881 1.711405873298645 0.7907499670982361 -1.2162554264068604 0.5775156021118164 0.43711405992507935 -0.3702685534954071 -0.4717961549758911 -0.9590399265289307 
vec9 0.3833141624927521 -1.6097971200942993 -1.2070015668869019 -1.800544261932373 0.8593043088912964 0.507884681224823 0.3199783265590668 -3.340062379837036 -1.7163760662078857 -0.43181082606315613 1.8181301355361938 0.10923268646001816 0.8072597980499268 1.5164965391159058 -0.21779119968414307 -1.0477681159973145 0.5399460196495056 -0.6415567994117737 0.9936136603355408 -1.9196183681488037 -0.8566592335700989 1.0089473724365234 -0.2673524022102356 -1.18817937374115 0.8957849740982056 -0.3431994616985321 0.34482431411743164 0.2177628129720688 1.297448992729187 -1.0415105819702148 0.16991858184337616 1.544410228729248 -1.224358320236206 -0.03854432702064514 0.4081580936908722 -0.5293548107147217 -0.0018322828691452742 -0.9225320816040039 -0.2048487514257431 0.5700774192810059 -0.6295431852340698 -0.7573781609535217 -0.44952285289764404 0.9169013500213623 -0.6014537811279297 -1.9108182191848755 1.4968496561050415 1.1152747869491577 -0.8584688305854797 -0.5468779802322388 -0.20532502233982086 -0.04012931138277054 3.2523353099823 0.1495475172996521 -0.16495396196842194 0.6788870096206665 -0.42402365803718567 -0.2824523448944092 -1.1030079126358032 -0.09487036615610123 1.0605018138885498 -0.6428626179695129 -0.6405798196792603 -1.1427137851715088 0.024188367649912834 1.0444470643997192 -0.29157179594039917 0.2854548692703247 -0.17156781256198883 -2.6220967769622803 -1.9964940547943115 -1.1470023393630981 -0.12271320819854736 2.1369524002075195 0.36279237270355225 2.183142900466919 -1.1758430004119873 0.28369438648223877 0.06430338323116302 -1.9882739782333374 -0.8590266704559326 0.923782467842102 0.4284118413925171 -1.8448997735977173 0.8422570824623108 0.03169368952512741 -3.312903642654419 -1.0478142499923706 0.46928536891937256 -1.2790278196334839 0.7061380743980408 -2.175778865814209 0.696537971496582 0.8638501763343811 1.5770363807678223 -0.0029846439138054848 0.10253269970417023 -0.4401310682296753 0.8133174777030945 0.008926698938012123 1.253151774406433 -1.1974067687988281 1.8079967498779297 0.5000446438789368 -1.103266954421997 -1.067221999168396 -0.7487056255340576 0.25601136684417725 -0.08818233013153076 0.15536458790302277 -1.1519817113876343 1.055546760559082 -1.0739797353744507 -1.1860384941101074 1.6998149156570435 0.06568627804517746 1.2183611392974854 2.076545000076294 -2.3662776947021484 1.7495498657226562 -0.576629102230072 0.8781399130821228 2.3550500869750977 0.3447180390357971 2.6131014823913574 -1.0582455396652222 0.15231065452098846 1.284725308418274 -2.0708372592926025 -0.3218221068382263 0.5449842214584351 -0.7528007626533508 -0.21742451190948486 0.7825233340263367 -0.1376398205757141 0.7544099688529968 -0.04924190416932106 -0.5200162529945374 0.03550390526652336 -0.45188969373703003 0.3136082887649536 2.0580286979675293 -0.14218264818191528 0.030536744743585587 0.8972316980361938 0.4683310091495514 0.15250326693058014 -1.0729924440383911 -0.5052934885025024 0.8818004131317139 1.136863112449646 0.17901447415351868 -1.1067625284194946 -0.6280917525291443 -0.5446503162384033 0.929113507270813 -0.4596617519855499 3.0087931156158447 -0.37588199973106384 0.7935986518859863 -0.32021158933639526 1.3029121160507202 0.23915868997573853 0.4966629147529602 1.355054497718811 0.2519250810146332 -0.48964670300483704 0.14205165207386017 -1.1244466304779053 2.5974879264831543 -1.6685795783996582 -1.5106947422027588 0.7411364316940308 -0.3865022659301758 0.38137316703796387 -1.9875476360321045 1.0967849493026733 0.4020406901836395 0.44515424966812134 -0.04193617030978203 -1.2616418600082397 0.049274854362010956 -0.30208784341812134 -0.5727383494377136 0.9376443028450012 -0.09685476869344711 -0.7065853476524353 -0.03392418473958969 0.9218122363090515 1.2103478908538818 -0.706281840801239 -1.212308406829834 1.0479227304458618 0.2273733764886856 -2.438831090927124 0.9031996726989746 1.1296555995941162 0.11999481916427612 -0.20918351411819458 0.2556144893169403 
vec10 -0.4453733563423157 -0.6323404908180237 -1.987950086593628 -2.1109561920166016 0.6344020366668701 1.187406063079834 0.8399236798286438 -2.370980978012085 -1.880159616470337 -1.9616612195968628 1.6221442222595215 -0.3598499596118927 -0.6479387283325195 0.4739537537097931 0.868268609046936 -0.2170979380607605 -0.42198264598846436 -0.49364879727363586 2.229691505432129 -1.2270323038101196 -1.0491896867752075 0.7948132157325745 0.31992313265800476 -0.6027687788009644 -0.20288513600826263 -1.2429463863372803 1.8449971675872803 -0.9991047978401184 1.0680137872695923 -0.6453292965888977 0.15581434965133667 1.0991504192352295 -1.6463063955307007 -0.36780476570129395 -0.46935024857521057 0.6041184663772583 0.5885404944419861 -1.1370007991790771 0.012168330140411854 0.4961576461791992 -0.1951894909143448 0.21144035458564758 -1.4754290580749512 1.3498306274414062 0.43602365255355835 -1.7044991254806519 1.169296383857727 0.8864873647689819 -1.1738938093185425 1.6649129390716553 0.7360193729400635 0.9606174230575562 2.8387739658355713 0.42981889843940735 -0.19648869335651398 0.6310571432113647 -1.4999662637710571 0.2523918151855469 0.7127010226249695 -0.6078560948371887 0.7356880307197571 -0.6101311445236206 -1.375036597251892 -0.40343043208122253 -0.04534918814897537 0.5395764112472534 -1.5683778524398804 0.7242577075958252 -0.15153710544109344 -0.32781949639320374 -2.073953866958618 -0.637589693069458 1.3503340482711792 1.261368751525879 -0.35720953345298767 0.6430811285972595 -1.3811101913452148 0.5633178949356079 -0.45476412773132324 -1.7037920951843262 -0.8553684949874878 0.5597599744796753 0.523750901222229 -0.8069565296173096 1.1962990760803223 0.38110703229904175 -3.075923442840576 0.12159448117017746 -0.5431910157203674 -1.7808910608291626 0.06936919689178467 -2.1773412227630615 -0.46417349576950073 -0.01207644958049059 0.3705436885356903 -1.5831668376922607 0.08085189014673233 -0.4434109330177307 -0.19882817566394806 -0.8226202726364136 1.6064618825912476 -0.8851773738861084 -0.09362572431564331 0.8290787935256958 -0.693098247051239 -1.0302248001098633 0.2505156397819519 1.3044506311416626 -1.3127621412277222 0.7702672481536865 -1.0461807250976562 0.8251673579216003 -1.6549057960510254 -0.12416321039199829 1.3705662488937378 -0.16232699155807495 0.7977744936943054 0.531718909740448 -0.883487343788147 1.2184253931045532 0.11600237339735031 0.20625558495521545 1.2362968921661377 0.5012431740760803 2.129697322845459 -0.8040010929107666 0.30270740389823914 0.435071736574173 -1.4644725322723389 0.1770510971546173 0.1762869656085968 -0.9989120960235596 -0.10573867708444595 -0.251221626996994 0.6136311292648315 0.6198773384094238 0.26861807703971863 -1.4259848594665527 0.7434290051460266 -1.1920239925384521 1.3169950246810913 1.1832736730575562 -0.2820596396923065 1.3113938570022583 0.8032819032669067 -0.7416356205940247 -0.589118480682373 -2.333585739135742 -0.7857237458229065 0.17391641438007355 0.6134048700332642 -0.16124950349330902 -0.9276809692382812 -0.5588926672935486 0.4002070426940918 1.528558373451233 -0.9700538516044617 1.1994352340698242 1.2913141250610352 0.10720141977071762 -0.5894210338592529 0.6413559317588806 1.6341770887374878 -0.3101654350757599 1.0801284313201904 -0.5742520689964294 -0.39421606063842773 -0.016586720943450928 -1.2296643257141113 1.8274277448654175 -1.5184392929077148 -0.9579554796218872 0.056235600262880325 0.29177549481391907 1.46316659450531 -1.8256547451019287 0.25508931279182434 2.072904109954834 0.6754845976829529 1.1233197450637817 -0.8569243550300598 1.1410417556762695 0.5912410020828247 -0.87175053358078 0.7311348915100098 0.392468124628067 -0.8181538581848145 -1.5585781335830688 0.4741203486919403 0.818004846572876 -1.1107749938964844 -0.4007108509540558 -0.09594549238681793 0.6273477673530579 -2.3520374298095703 0.6775745153427124 1.2214200496673584 0.9422262907028198 -0.6594334840774536 -0.35327476263046265 
vec11 -0.9669386148452759 -1.3927348852157593 -0.7401220798492432 -1.8188302516937256 -0.03575431928038597 0.3126333951950073 0.6122368574142456 -2.7485082149505615 -1.1008551120758057 -1.3343734741210938 0.2909722626209259 -0.28825995326042175 1.5995291471481323 0.9964869022369385 -0.7998226284980774 -0.5319005846977234 0.32454293966293335 0.37925630807876587 1.0909638404846191 -0.9342110753059387 -0.7549540400505066 0.7456952929496765 -0.27573323249816895 -0.10148704797029495 1.3650376796722412 -0.8996286392211914 0.19419871270656586 -1.2469367980957031 2.400865316390991 -0.7773600816726685 -0.2911059558391571 1.8260865211486816 -1.4559376239776611 -0.2632339596748352 0.4495870769023895 -1.033491849899292 -0.2965145409107208 -0.41627418994903564 0.07696636021137238 0.36956489086151123 0.27502548694610596 -1.2481592893600464 -0.9954319596290588 0.8698829412460327 -0.9808506965637207 -1.0016570091247559 0.3638981878757477 -0.06274724006652832 0.11041854321956635 0.13429652154445648 -0.018660826608538628 -0.8482068777084351 2.5860397815704346 -0.2633340060710907 0.20600201189517975 0.3428567945957184 -1.3104300498962402 -1.5153697729110718 -0.5778141617774963 -0.7177681922912598 -0.024830685928463936 -0.2626352608203888 0.15277135372161865 -0.09129106253385544 0.05924755334854126 0.49322307109832764 -1.3332390785217285 0.33663585782051086 -0.3820511996746063 -2.0899405479431152 -2.372847080230713 -0.7759801745414734 -0.21260006725788116 0.7697209715843201 -0.04339900612831116 1.4775540828704834 -1.743577003479004 -0.15067598223686218 -1.3466393947601318 -2.4131832122802734 -1.2321044206619263 0.8203048706054688 -0.543653666973114 -1.8853285312652588 1.1741565465927124 -0.7140944004058838 -3.3487532138824463 -0.9087246060371399 0.24757325649261475 -1.14174222946167 -0.04407943785190582 -1.550926685333252 0.0007232670905068517 -0.30354225635528564 0.6485726833343506 -0.03501446917653084 0.691265881061554 -1.0892618894577026 -0.39617088437080383 1.301495909690857 1.462419033050537 -1.2045390605926514 1.0596086978912354 1.2256027460098267 -0.4590432345867157 -0.047106195241212845 -0.6251619458198547 1.3751784563064575 0.20106419920921326 -0.6385690569877625 -1.2418265342712402 0.33607593178749084 -2.2105729579925537 -1.0880426168441772 1.7204324007034302 0.17956335842609406 0.6412467360496521 0.4965202808380127 -1.725392460823059 1.7676578760147095 -1.2710086107254028 0.3704316318035126 2.428571939468384 -0.05944351479411125 1.9004223346710205 -0.7589088082313538 0.29573726654052734 1.4439626932144165 -1.0693721771240234 0.3337610363960266 0.48169776797294617 -0.15489093959331512 -0.785496711730957 -0.2741771638393402 -0.335737019777298 -0.13161294162273407 -0.37325283885002136 -1.0640385150909424 -0.910349428653717 -1.057804822921753 -0.41546013951301575 1.356324315071106 -0.16733765602111816 0.4901330769062042 0.8554790019989014 0.39540600776672363 0.15000039339065552 -2.488710641860962 -0.6656205058097839 0.46790578961372375 1.3079113960266113 -0.11908566951751709 0.8623272180557251 -0.45433729887008667 -0.9113114476203918 0.9848849177360535 -0.8736299872398376 2.2128612995147705 0.8536785840988159 -0.458047091960907 -0.292177677154541 1.08759605884552 0.26366913318634033 -0.12626296281814575 1.3021475076675415 -0.760105311870575 -1.03839111328125 -0.3120420277118683 -1.2933297157287598 2.9058239459991455 -0.7358473539352417 -1.445306658744812 0.2385493367910385 0.8374699354171753 0.8358860015869141 -1.8187329769134521 1.6496118307113647 1.0623412132263184 -0.01087371725589037 0.7887043952941895 -0.17798909544944763 0.2851589024066925 -0.2690311074256897 -0.1106899082660675 1.4943902492523193 1.2545956373214722 0.4052373170852661 -0.219670370221138 0.37798914313316345 1.1971626281738281 -1.3785722255706787 -0.4055696725845337 0.8735540509223938 0.38944336771965027 -3.234848737716675 0.011132925748825073 0.6289663910865784 -0.059694308787584305 -0.7692698240280151 -0.831836998462677 
vec12 -0.12802501022815704 -0.5448106527328491 -1.2700923681259155 -1.3781946897506714 0.26560476422309875 0.31675270199775696 -1.0620955228805542 -2.4147439002990723 -1.724653959274292 -1.7361819744110107 0.35921746492385864 -0.09803339093923569 1.5118449926376343 0.4555639922618866 0.16820238530635834 -0.5589463114738464 -0.08265666663646698 -0.019972501322627068 2.2337093353271484 -1.2364295721054077 -0.8750201463699341 1.1320964097976685 -0.18365852534770966 -0.49784940481185913 0.14728620648384094 -0.8075518012046814 1.6112995147705078 -1.3648070096969604 2.1878151893615723 -1.216799020767212 -0.5584918260574341 1.9325112104415894 -1.3881759643554688 0.7264913320541382 -0.629208505153656 0.7373619079589844 0.4348694384098053 -0.8192546367645264 0.38114410638809204 0.01568819209933281 0.8154928684234619 0.12567676603794098 -2.306790590286255 0.1301099807024002 -0.09693380445241928 -1.0189164876937866 1.1676592826843262 1.5705794095993042 -0.35158491134643555 0.48862549662590027 -0.8872922658920288 0.564002275466919 2.0089786052703857 0.15991653501987457 -0.37173351645469666 1.1701091527938843 -0.2619001567363739 -1.2946240901947021 -0.34576189517974854 -0.7885869741439819 0.05241306126117706 -0.3020961284637451 -1.49533212184906 -0.8332679867744446 -0.21744075417518616 -0.19458526372909546 -1.1613410711288452 1.2006508111953735 -0.7636045813560486 -1.1387715339660645 -2.803478240966797 -0.18603123724460602 0.2918064296245575 1.2741261720657349 -0.2809912860393524 0.3526974022388458 -0.7001860737800598 -0.00231888797134161 0.4814891219139099 -1.4364876747131348 -1.0474402904510498 -0.3278433084487915 0.3546505272388458 -1.0754923820495605 0.06858363747596741 -0.45155099034309387 -3.1135005950927734 -0.6025517582893372 0.18477176129817963 -1.8003191947937012 -0.2432299256324768 -2.798516035079956 -0.06153613701462746 0.5182003378868103 1.220538854598999 -1.5319424867630005 -0.2245011180639267 -0.2969469428062439 -0.43500539660453796 -0.4919144809246063 0.9210674166679382 -1.763918161392212 0.1189202293753624 1.7024116516113281 -0.7329503297805786 -0.7006363272666931 0.08020543307065964 -0.4334951341152191 -1.0924625396728516 0.058935195207595825 -0.7639232277870178 0.602272629737854 -1.1620428562164307 -1.0045406818389893 1.521865725517273 -1.110971212387085 0.6406564116477966 0.7131845951080322 -1.6548845767974854 1.8025187253952026 -0.36351534724235535 -0.21352046728134155 1.8069193363189697 -0.009710471145808697 2.6200973987579346 -2.1289796829223633 -0.46413612365722656 0.14492622017860413 -2.24011492729187 0.9089647531509399 0.39946624636650085 0.03466036915779114 -0.536904513835907 1.3828939199447632 0.5832776427268982 -0.4235435724258423 -0.7989485263824463 -1.466519832611084 -0.0808333232998848 -0.9323796033859253 0.7670371532440186 1.0467883348464966 -0.17908623814582825 0.17233988642692566 1.0038297176361084 1.1733579635620117 -0.7293223738670349 -2.1365814208984375 -0.4979135990142822 1.177574634552002 0.9451451301574707 0.4742850065231323 -0.6790064573287964 -0.8088297843933105 0.8567668795585632 0.7667421102523804 0.06019867956638336 2.927424430847168 -0.9654693007469177 -0.17126673460006714 -1.137321949005127 0.34329527616500854 0.9521349668502808 -0.15394172072410583 1.1648409366607666 -0.6709533929824829 -0.33581116795539856 0.08494863659143448 -1.205174207687378 1.0391453504562378 -1.4177954196929932 -1.5258946418762207 -0.10056817531585693 -0.856696367263794 -0.005488543305546045 -1.829683542251587 0.6964460015296936 -0.09345235675573349 0.0455939881503582 0.8907121419906616 -1.1521074771881104 -0.22048597037792206 0.5881062150001526 -0.8826038241386414 1.25738525390625 0.7636894583702087 -0.12160312384366989 -0.5333435535430908 1.1954634189605713 1.8917983770370483 -0.7466108202934265 -1.427919626235962 1.040026068687439 0.9003809094429016 -2.1335930824279785 0.22289566695690155 1.078732967376709 0.9167462587356567 0.10748706758022308 -0.6039656400680542 
vec13 0.22406035661697388 -1.7019356489181519 -1.8843954801559448 -1.2728461027145386 0.6800047159194946 -0.10382115840911865 0.9623856544494629 -3.511951208114624 -1.137542486190796 -1.641334056854248 -0.13236361742019653 0.3094234764575958 1.0326277017593384 0.7115846276283264 0.4555473327636719 -0.20146909356117249 0.0777403712272644 -0.8544217348098755 1.5336899757385254 -1.2778326272964478 -0.7541054487228394 0.7739505171775818 -1.1652905941009521 -0.9845336079597473 1.623864769935608 -0.0005165848415344954 2.2876460552215576 -0.16574549674987793 1.791872501373291 -1.1394625902175903 0.0341920480132103 1.8686730861663818 -1.3269329071044922 0.27330824732780457 -0.5236073732376099 -0.11282914131879807 0.6284213662147522 -0.10713282227516174 0.6804324984550476 0.44681882858276367 -0.2880050837993622 -0.8799843192100525 -2.2217419147491455 1.4469420909881592 -0.32914629578590393 -1.436492681503296 1.4713255167007446 1.9055861234664917 -1.641561508178711 -0.4609629511833191 -0.0936402902007103 0.21764704585075378 2.0695886611938477 1.0642274618148804 0.8123540878295898 1.7724796533584595 0.15083080530166626 -0.7263707518577576 -0.9877001643180847 -1.4857604503631592 0.7049707174301147 0.33758386969566345 -2.154751777648926 -0.29312238097190857 -0.47380778193473816 0.4886767268180847 -2.128401517868042 0.5977383255958557 -0.4351300299167633 -0.26411619782447815 -1.3878281116485596 -0.8167682886123657 0.5572642087936401 1.204657793045044 -0.4824143052101135 1.5645699501037598 -1.6789164543151855 1.685793161392212 -0.8147931694984436 -1.4234066009521484 -0.5025912523269653 -0.743374228477478 0.6795283555984497 -0.727174699306488 1.4525399208068848 -0.22708404064178467 -3.5142087936401367 -1.505677580833435 -0.6064326167106628 0.11741144955158234 0.9808381795883179 -2.942883014678955 0.33500683307647705 0.6912124156951904 0.4249996542930603 0.33617642521858215 0.5952044129371643 -0.71924889087677 -0.7966066598892212 -0.4228225648403168 1.006635069847107 -0.39090120792388916 0.5319636464118958 -0.09741520136594772 -1.1484662294387817 -0.23439227044582367 -0.6660981178283691 0.14006926119327545 -1.3170135021209717 0.9872214794158936 0.3353843092918396 0.9337109327316284 -0.7220966219902039 -0.542658805847168 0.8622570633888245 0.0029462508391588926 0.1521543562412262 1.0502432584762573 -1.2314813137054443 2.7095091342926025 -0.6354573965072632 0.5065827369689941 1.897798776626587 0.19196194410324097 2.598479986190796 -0.5837670564651489 -0.4119536280632019 1.138535737991333 -1.6009055376052856 1.201926350593567 -0.2993395924568176 0.8269892334938049 -0.5589390397071838 0.4348626434803009 0.31059062480926514 0.5514262318611145 0.5279537439346313 -0.027740389108657837 -0.4243740141391754 0.17741025984287262 0.20862509310245514 0.08884787559509277 0.224618062376976 0.2898164987564087 0.4697510302066803 0.8466989398002625 -0.7247295379638672 -2.3252317905426025 -0.5346943140029907 -0.02461475320160389 -0.3280535340309143 0.5446018576622009 1.3123197555541992 0.14324331283569336 -0.035867393016815186 1.0840556621551514 -0.052703261375427246 3.303318500518799 0.811151385307312 0.7728940844535828 -1.524510383605957 1.2735612392425537 0.9343537092208862 0.24813523888587952 1.2004926204681396 -0.42561978101730347 0.5706337094306946 -0.44586431980133057 -1.3790215253829956 0.40909919142723083 -1.8139227628707886 -2.5334229469299316 1.0963168144226074 0.8583644032478333 1.825240969657898 -1.1559933423995972 0.8337658047676086 0.8053123950958252 0.8332166075706482 0.9957729578018188 -0.3541291654109955 0.2570435106754303 -0.014710387215018272 0.08349191397428513 0.08792027086019516 -0.31099459528923035 0.47872984409332275 -1.0700953006744385 0.2980031967163086 0.48127052187919617 -1.3843878507614136 -0.36145463585853577 1.8162349462509155 1.2072439193725586 -1.4189729690551758 0.9218258857727051 -0.6688106060028076 0.3246002793312073 -0.6546868681907654 -0.4092234969139099 
vec14 -0.9405947327613831 -1.5930591821670532 -1.2464677095413208 -2.3009042739868164 -0.3444584012031555 0.3483668863773346 0.16528725624084473 -2.687408924102783 -2.285510301589966 -1.7708508968353271 0.43017348647117615 0.16417980194091797 -0.011330964043736458 1.0197887420654297 -0.3760197162628174 -0.24853847920894623 -0.281217098236084 -1.6324856281280518 1.579003930091858 -0.13161206245422363 -0.8725739121437073 1.820870280265808 -0.2006327509880066 -0.47628268599510193 0.6983923316001892 -0.2588478624820709 1.5844873189926147 -0.38886886835098267 1.7976244688034058 -0.6610410809516907 -0.920761227607727 1.392168402671814 -1.4828661680221558 -0.37105631828308105 -0.7235540151596069 0.2771090269088745 -0.1564382016658783 0.13506534695625305 0.4557549059391022 0.5289885997772217 0.27495208382606506 -1.1883622407913208 -3.011274576187134 0.7393478155136108 -1.452879786491394 -1.37822425365448 1.2966378927230835 0.5120150446891785 -1.2806533575057983 1.7276266813278198 0.4617313742637634 -0.2699865996837616 2.1059322357177734 -0.17158576846122742 0.4078788459300995 0.8874868154525757 -0.14462508261203766 0.02488202601671219 0.1396246999502182 0.0762762799859047 0.5261261463165283 0.40757817029953003 0.24759642779827118 -0.13819485902786255 -0.15668395161628723 0.7754175662994385 -0.6870636940002441 0.6783554553985596 0.22706395387649536 -1.6289886236190796 -1.3983992338180542 -0.8940927386283875 0.2899773418903351 1.2215352058410645 -0.08780214190483093 -0.030130771920084953 -0.9659397006034851 0.25953370332717896 -0.8936547636985779 0.5530107021331787 -0.6301587820053101 0.13371075689792633 -0.019855504855513573 -0.1613805890083313 0.9838359355926514 0.3964166045188904 -3.248852014541626 -0.8017798662185669 -0.0020340809132903814 -1.051316499710083 -0.5795735716819763 -1.2537528276443481 -1.0070180892944336 0.006133832968771458 1.7521506547927856 0.28979548811912537 -0.3726421296596527 -0.9811484813690186 -0.7237568497657776 -0.7841068506240845 1.8281549215316772 -1.0452483892440796 0.888308048248291 0.8062875270843506 -0.11169642210006714 -0.43818211555480957 0.6842221617698669 0.9737681746482849 -1.1125744581222534 -0.7652091383934021 -1.6915173530578613 0.7622775435447693 -1.2340922355651855 -0.9769145250320435 1.4488993883132935 0.4680337905883789 0.16360114514827728 1.353002905845642 -2.1254093647003174 1.7594541311264038 -0.27304962277412415 -0.09105300158262253 1.8374290466308594 -0.7360947728157043 2.009669065475464 -1.5282750129699707 0.2331756055355072 0.32513198256492615 -1.4364449977874756 -0.4197161793708801 0.4463919997215271 -1.5287506580352783 -0.4006856083869934 0.8243982195854187 -0.12826886773109436 0.05888526141643524 2.0796594619750977 -1.1700438261032104 0.511872410774231 -0.7028809785842896 0.46116048097610474 0.475378155708313 -0.7298481464385986 0.9548046588897705 0.12163149565458298 -0.7426301836967468 -1.238097906112671 -2.1976425647735596 -0.765618085861206 1.03981351852417 0.2751189172267914 0.6058170795440674 -0.10260215401649475 -0.329001247882843 -0.8616254925727844 1.7420954704284668 -1.4374630451202393 3.117055892944336 -0.015926752239465714 0.4254976511001587 0.7182294726371765 0.9418431520462036 0.8323463797569275 1.4156568050384521 1.357098937034607 0.1542043387889862 -0.36084333062171936 -0.4228079915046692 -1.3817554712295532 0.8735190629959106 -1.4949579238891602 -0.8893879652023315 0.2275756597518921 0.9103797674179077 0.5840228796005249 -1.5526719093322754 0.8546605706214905 0.12342657893896103 1.3152366876602173 0.847229540348053 -1.031063199043274 0.7622636556625366 0.2755228281021118 0.4993130564689636 0.8218322396278381 0.26392215490341187 -0.7977041602134705 -0.3929081857204437 0.22770839929580688 0.19402703642845154 -0.744434118270874 -1.1778054237365723 0.7183049917221069 2.1854727268218994 -2.4792823791503906 0.15395334362983704 1.1107802391052246 0.4250919222831726 1.2427513599395752 0.6423841714859009 
vec15 -1.0572184324264526 -1.968563437461853 -1.3698753118515015 -2.813823938369751 0.29624491930007935 0.24493151903152466 0.8392550349235535 -2.6610167026519775 -1.7300831079483032 -1.0170189142227173 1.6085011959075928 0.2109907865524292 -0.16717299818992615 1.5456410646438599 -0.21826975047588348 -0.6091244220733643 -0.3023819625377655 -0.41440704464912415 2.1246824264526367 -0.6871486902236938 -1.3725974559783936 1.5683276653289795 -0.28176257014274597 -1.088080644607544 0.5984809994697571 0.6890677213668823 1.0796223878860474 -1.220578908920288 1.8032268285751343 -0.5602203011512756 -0.4943387508392334 1.954135537147522 -0.5357985496520996 -0.3654162585735321 -0.3693495988845825 -0.36887770891189575 -0.15741272270679474 0.2203635722398758 -0.37781333923339844 0.5134544372558594 -0.37549251317977905 -1.1096478700637817 -2.041116714477539 1.319573163986206 -1.2201685905456543 -1.0720434188842773 1.1626406908035278 0.2480916976928711 -0.5562928318977356 -0.7342190742492676 -0.46978145837783813 -0.3587932586669922 1.15644371509552 0.44304266571998596 0.005214224569499493 1.667044997215271 -0.5042864084243774 -0.004033059813082218 -2.4548869132995605 -0.4036462604999542 -0.08695586770772934 -0.14967812597751617 -0.08116838335990906 -0.04334037005901337 -0.9761105179786682 1.3352426290512085 -0.42332857847213745 0.8315258026123047 -0.8289979696273804 -2.2254345417022705 -1.6331548690795898 -1.7863520383834839 0.24010798335075378 2.253270149230957 0.5262414813041687 0.9599204659461975 -0.4983665645122528 -0.7790475487709045 0.17560125887393951 -2.085512638092041 -0.4716426730155945 -0.3196922540664673 0.23916175961494446 -2.022629976272583 0.9319687485694885 0.33622467517852783 -3.33480167388916 -0.8802242279052734 -0.5019353628158569 -1.4563982486724854 0.5067141652107239 -2.0200438499450684 0.43042731285095215 0.2716844379901886 1.5350717306137085 -0.843959391117096 -0.04531313106417656 0.38815078139305115 -0.15192079544067383 0.08849082887172699 1.6541366577148438 -0.919800877571106 1.5762518644332886 0.0764487162232399 -0.03223074600100517 -2.2127277851104736 -0.3454207479953766 -0.32377275824546814 0.1506517380475998 -0.7757735252380371 -2.105573892593384 0.8297510147094727 -0.20104973018169403 -0.8209378123283386 1.6423063278198242 0.12890785932540894 0.5349912047386169 -0.007151294965296984 -1.259887456893921 1.106207251548767 -0.13580277562141418 0.5851463079452515 2.2863640785217285 0.1967981457710266 2.4083003997802734 -0.7019445896148682 -0.25350385904312134 0.8095628619194031 -1.8388721942901611 0.45977872610092163 0.8423941135406494 0.07404579222202301 0.324643075466156 1.2203936576843262 -0.4189924895763397 -0.5249387621879578 0.37491852045059204 -1.138554334640503 0.6764928698539734 -0.7717592716217041 0.9149835705757141 1.5719795227050781 -0.4039611220359802 -0.1636175811290741 1.0717648267745972 0.6460385322570801 0.07171586900949478 -1.5868842601776123 0.0998033806681633 0.4519091248512268 0.44718652963638306 -0.3660764694213867 -0.1741117537021637 -0.7716512680053711 -0.029042432084679604 1.4342842102050781 -1.2614341974258423 2.6182777881622314 -0.5485793948173523 0.19002632796764374 -1.0735809803009033 1.094009280204773 0.12675675749778748 -0.10382869839668274 1.0149954557418823 -0.5025704503059387 -0.6082148551940918 -0.28301364183425903 -0.766295850276947 2.0662965774536133 -1.8116168975830078 -0.027778027579188347 0.4124627709388733 0.7185901999473572 0.8865336179733276 -1.575615406036377 0.8828981518745422 0.39218997955322266 -0.5730391144752502 0.15317213535308838 -0.9431887269020081 0.8890649080276489 -0.3194802403450012 -0.36667290329933167 0.8906834721565247 0.5716750025749207 -0.3183659613132477 -0.3886715769767761 0.1834137886762619 0.5566444993019104 -0.644975483417511 -0.6675119400024414 1.0824401378631592 2.147634506225586 -1.5592035055160522 1.2638756036758423 1.0724639892578125 1.355491280555725 0.25495287775993347 -0.04142623022198677 
vec16 0.17211133241653442 -1.9738917350769043 -1.313754916191101 -1.9804601669311523 0.041733015328645706 0.6096871495246887 0.6242716908454895 -3.9373865127563477 -0.6519075632095337 -0.9169546961784363 -0.23265063762664795 0.47648224234580994 1.0703798532485962 1.0726786851882935 0.3160094618797302 -0.48776528239250183 -0.5547486543655396 -1.2060238122940063 0.7887148857116699 0.26513826847076416 0.1989152431488037 1.5366700887680054 0.6914457082748413 -0.8536460399627686 0.94120192527771 -1.3029735088348389 2.227825403213501 -0.8421123027801514 0.6940591931343079 -0.9484320878982544 0.3735771179199219 1.5287610292434692 -1.0445882081985474 1.5250376462936401 0.23365892469882965 -0.3489249646663666 -0.03384650871157646 -0.7502037882804871 0.18088069558143616 0.2064628154039383 -0.7537721395492554 -0.48993027210235596 -1.859717607498169 1.1288728713989258 -1.641563892364502 -1.250386118888855 1.3610752820968628 0.6631510257720947 -2.183393955230713 1.0896451473236084 0.3306882679462433 0.7769673466682434 2.906782388687134 0.18432283401489258 0.045960623770952225 0.5342667698860168 -0.5548110008239746 -0.9278839230537415 -0.6492392420768738 -1.0190595388412476 1.0093544721603394 0.5138260722160339 -1.130035400390625 -1.6512190103530884 -0.0431799478828907 0.46962493658065796 -1.115740418434143 0.8436471223831177 -1.1959030628204346 -1.801853060722351 -1.5104477405548096 -1.0942296981811523 1.1865183115005493 0.9555402398109436 -0.358413428068161 1.5014795064926147 -0.7351316213607788 1.4037535190582275 0.3425866663455963 -1.4431778192520142 -1.267156720161438 0.06171894446015358 0.5238410234451294 -1.5214393138885498 0.39642080664634705 -1.0479635000228882 -4.670965194702148 -0.5133092999458313 0.49374377727508545 -1.523479700088501 1.2787628173828125 -3.1250288486480713 0.7261187434196472 0.9561890363693237 1.8673955202102661 -1.2949730157852173 -0.7238674759864807 0.13255874812602997 -0.37414824962615967 -1.283401370048523 1.5908186435699463 -1.3415416479110718 1.0417234897613525 0.9357689619064331 0.3143160939216614 -0.8312786221504211 -0.21703656017780304 0.098568394780159 -1.0795841217041016 -1.0427765846252441 -1.4571231603622437 0.8209332823753357 -0.53501296043396 -0.6687173843383789 0.44469940662384033 0.5241304636001587 0.24891871213912964 0.4724215865135193 -0.7134414315223694 1.6214747428894043 -0.6639050841331482 0.029549546539783478 1.5656682252883911 -0.8195688128471375 1.4903985261917114 -1.5808851718902588 0.12319929897785187 0.9224690794944763 -2.0726711750030518 0.004286191891878843 -0.2029770016670227 -1.599959135055542 -0.2463495433330536 -0.3323307931423187 -0.4030907452106476 -0.8460560441017151 0.9107916355133057 -1.456238031387329 -0.31701087951660156 -1.434871792793274 1.1689859628677368 1.5560362339019775 -0.0627732053399086 0.8842954635620117 -0.33429014682769775 -0.047710176557302475 -1.6026159524917603 -1.135130763053894 -0.9396639466285706 1.1233024597167969 0.9877216815948486 1.3167139291763306 -0.371444433927536 0.31701210141181946 -0.393340140581131 1.4515228271484375 -1.7414212226867676 2.516221284866333 0.6737115383148193 -0.24707412719726562 0.09723058342933655 0.4847850203514099 1.047863483428955 0.7389959692955017 1.2211602926254272 -0.6384464502334595 -0.25838494300842285 -1.0273754596710205 -2.175959825515747 1.2735490798950195 -0.9999051094055176 -2.2127459049224854 0.5412874221801758 0.12298696488142014 -0.33439138531684875 -1.9310723543167114 2.0079054832458496 1.7341617345809937 0.37803003191947937 0.3817652761936188 -0.11274538934230804 0.8543784022331238 0.13624441623687744 -0.6307824850082397 -0.8797172904014587 0.4843275249004364 -0.04404827207326889 0.18105719983577728 -0.1982983648777008 1.1502937078475952 -1.8269238471984863 -0.7044620513916016 0.8833631277084351 2.107530355453491 -3.2240970134735107 -0.23272429406642914 1.0847283601760864 0.9985203742980957 -0.7964893579483032 -0.006748761050403118 
vec17 -0.381740927696228 -0.7774022221565247 -0.9055082201957703 -1.6430150270462036 0.960045576095581 0.04997437447309494 0.11353734135627747 -3.2435262203216553 -1.0522513389587402 -1.7285923957824707 1.2525792121887207 -0.13453443348407745 0.8578365445137024 0.02841724269092083 0.7178798913955688 -0.6843628883361816 -0.2661987543106079 -0.5496612191200256 1.5303022861480713 -0.8880088329315186 -2.0244975090026855 0.7976279258728027 -0.27901139855384827 -1.739614486694336 0.5968500375747681 0.1690102517604828 1.3856056928634644 -0.8188073039054871 1.8510441780090332 -1.8864659070968628 1.0071959495544434 1.9727426767349243 -0.3753586709499359 0.6844325065612793 0.5177058577537537 0.3731464743614197 -0.10082626342773438 -0.27074939012527466 0.1982676088809967 0.4478357434272766 0.821029782295227 -0.48222947120666504 -3.0012073516845703 1.0487511157989502 -0.1362200379371643 -1.4970784187316895 1.8373949527740479 0.9977775812149048 -0.14056473970413208 0.711326003074646 -0.9251580238342285 0.4090331196784973 2.0175321102142334 -1.0357342958450317 -0.5738263726234436 0.9497055411338806 0.01981845125555992 -0.1425732672214508 -0.7464975714683533 -0.2643420100212097 -0.3867641091346741 -0.6331401467323303 0.12822511792182922 -1.1036176681518555 -0.17403298616409302 1.2606397867202759 0.01258913055062294 -0.20211035013198853 -0.8046521544456482 -0.6969592571258545 -2.1010901927948 -1.2234387397766113 0.5111840963363647 1.1370741128921509 0.5634405016899109 1.6728074550628662 -0.6430352926254272 0.5289731025695801 -1.2473448514938354 0.7161529660224915 -0.3336856961250305 -0.1004924401640892 -0.29822301864624023 -1.1068426370620728 1.7582294940948486 -0.7732309699058533 -2.663544178009033 0.032309141010046005 -0.12694591283798218 -1.4690287113189697 1.2683837413787842 -1.9076019525527954 -0.3524409830570221 0.4570014774799347 1.4988027811050415 -0.36188554763793945 0.192853644490242 -1.0040080547332764 -0.4316974878311157 -0.34598445892333984 0.35922107100486755 -1.6280423402786255 0.17555050551891327 1.8098303079605103 -1.6539344787597656 -1.2730950117111206 0.5110946893692017 0.7095071077346802 -1.1306235790252686 0.6358586549758911 -0.3203422725200653 0.2150295525789261 -0.6188649535179138 -2.028568983078003 1.4842547178268433 0.1821625828742981 0.8812185525894165 0.605630099773407 -1.5225194692611694 1.8453762531280518 -0.030609427019953728 0.5998429656028748 1.8353700637817383 0.08007951825857162 2.256781578063965 -0.8684706091880798 0.382463276386261 0.3137175738811493 -1.2114371061325073 1.715253472328186 -0.7661781907081604 -1.750227451324463 -0.07850223779678345 1.4191820621490479 -0.15529926121234894 0.9825060963630676 -0.17803356051445007 -1.4475712776184082 -0.18609648942947388 -1.9498918056488037 0.6359307169914246 0.6675507426261902 -0.8294277787208557 0.6446994543075562 0.37700870633125305 0.3436237871646881 0.2300131767988205 -1.9729015827178955 -1.035738468170166 0.3653758764266968 -0.05751326307654381 0.5200884342193604 0.650147020816803 0.6718694567680359 -0.5858838558197021 1.7432950735092163 -0.08287665992975235 2.1525282859802246 0.9986900687217712 -0.6770676970481873 -1.249479055404663 0.547391951084137 0.6209155321121216 0.27242451906204224 1.626452922821045 -0.5224557518959045 -1.084372639656067 -0.631098210811615 -0.9257639050483704 1.7520335912704468 -3.012336254119873 -0.64743572473526 -0.09151078015565872 -0.5461854338645935 0.43021902441978455 -1.6509582996368408 1.0514254570007324 1.2132490873336792 0.3205207586288452 0.40571078658103943 -1.006192922592163 -0.8763096332550049 -0.018063940107822418 0.42209288477897644 0.5722722411155701 -0.03622126206755638 0.5094618797302246 -0.42135366797447205 0.997022271156311 0.3538753092288971 -1.0407122373580933 -1.8417832851409912 1.08688223361969 0.5312068462371826 -1.4472429752349854 0.028971921652555466 1.41157066822052 0.2524294853210449 -0.2104354351758957 -0.6624688506126404 
vec18 -0.08878193795681 -0.6192803382873535 -1.406340479850769 -1.4609156847000122 0.12266282737255096 0.34771525859832764 0.8256953954696655 -2.7647933959960938 -0.28090783953666687 -1.1797147989273071 1.0204418897628784 0.16263051331043243 -0.8110349774360657 0.20470386743545532 0.03389536216855049 -0.0819362923502922 0.22088740766048431 0.024544192478060722 2.1810858249664307 -0.5708088874816895 -1.7282817363739014 0.6068369150161743 -0.4216916859149933 -0.5442701578140259 1.063474416732788 0.22373200953006744 1.5949569940567017 -0.8510540127754211 1.714078664779663 -1.0783969163894653 -0.7365456223487854 1.390452265739441 -1.4956309795379639 0.3041398525238037 -0.913676917552948 -0.4162077307701111 0.35819029808044434 -1.8940097093582153 0.5459877252578735 1.3848483562469482 -0.349274218082428 1.0108550786972046 -1.7696409225463867 0.01422848179936409 -0.7063334584236145 -1.4065394401550293 0.6768248677253723 1.5297104120254517 -2.2153611183166504 -0.03783092647790909 0.22653770446777344 0.25562959909439087 2.803678512573242 0.10591165721416473 -0.3469015955924988 0.22635303437709808 -0.8231591582298279 -0.5024988055229187 -1.2444837093353271 0.8720806837081909 0.2872981131076813 1.1174190044403076 -1.6001023054122925 -0.7197991609573364 -0.4432211220264435 -0.12247265130281448 -0.3138895630836487 1.072007179260254 -1.0354992151260376 -1.7347201108932495 -1.5777733325958252 -1.1053060293197632 0.7792584896087646 1.159538745880127 0.527938187122345 0.9551918506622314 -0.8513962626457214 0.6812768578529358 -1.0681419372558594 -0.36016952991485596 -0.6179523468017578 1.3003449440002441 -0.6946680545806885 -2.0359840393066406 2.2331254482269287 -1.2460590600967407 -3.4911224842071533 -1.4315255880355835 -1.1683882474899292 -1.1374586820602417 0.37197649478912354 -1.4616957902908325 -0.648883581161499 -0.11124856770038605 1.275762915611267 -0.6891952753067017 -0.4602440893650055 -0.4594571590423584 -0.9773831963539124 -0.1205001249909401 1.0413895845413208 -1.328309178352356 0.16874004900455475 0.8174579739570618 1.0807527303695679 -0.16830013692378998 -0.5896642804145813 1.2021809816360474 -1.2964431047439575 -0.32575666904449463 -1.5635734796524048 0.28044092655181885 -1.3467592000961304 -1.3661693334579468 1.700716495513916 0.7517869472503662 0.3031943440437317 0.48215451836586 -2.028496265411377 2.0178911685943604 -0.33476585149765015 0.21806228160858154 1.2766071557998657 0.2677450180053711 1.9810916185379028 -0.07050199061632156 1.115092158317566 0.09081453084945679 -2.298464775085449 0.27188122272491455 -0.33915379643440247 -0.6666477918624878 -0.38960281014442444 0.5741939544677734 -0.730878472328186 0.0010455125011503696 -0.23896697163581848 -1.9550306797027588 0.12321702390909195 -0.9749863147735596 0.5492158532142639 1.8018581867218018 -0.85071861743927 0.46265238523483276 0.6453151106834412 0.05907710641622543 -0.1349601000547409 -2.2329745292663574 -0.7871331572532654 1.2197273969650269 0.5520647168159485 1.4308286905288696 -0.6692654490470886 -1.1147592067718506 -0.5632922649383545 1.3487012386322021 -0.9634600877761841 2.5859286785125732 -0.006251965649425983 -1.038102388381958 -0.44420716166496277 1.1377052068710327 0.31880536675453186 0.5437201857566833 0.8388726711273193 0.0353325754404068 -0.7169195413589478 -0.9056685566902161 -1.6983096599578857 1.9311070442199707 -1.8311536312103271 -1.4599595069885254 -0.100608229637146 -0.24316036701202393 0.3976265788078308 -2.048323392868042 0.6906535625457764 2.299854040145874 1.1628658771514893 0.6374431252479553 -0.5581676959991455 -0.20600667595863342 0.7862505316734314 0.8279629945755005 0.21370621025562286 1.0937055349349976 -0.8590166568756104 -0.3154314160346985 0.49764615297317505 0.950148344039917 -0.8511301279067993 -0.9310065507888794 0.5190534591674805 2.0316100120544434 -2.2118871212005615 0.9560354351997375 1.07743501663208 0.4653239846229553 -0.26040783524513245 -1.0214073657989502 
vec19 -1.5492324829101562 -0.7485954761505127 -0.8766576051712036 -1.3502177000045776 0.052401307970285416 -0.49635884165763855 1.3654594421386719 -1.6699626445770264 -1.0443025827407837 -1.6854175329208374 -0.08924268186092377 0.12720932066440582 -0.36541634798049927 0.40734776854515076 -0.005385247059166431 0.2296997606754303 1.500199794769287 -0.8069998621940613 1.5111355781555176 -1.4349663257598877 -1.4295166730880737 1.5056794881820679 -0.4145805835723877 -1.670377492904663 1.0475232601165771 -1.3358445167541504 2.031064033508301 -0.956446647644043 1.3354147672653198 -1.3588255643844604 -0.1142815500497818 1.406843662261963 -0.8499040007591248 -0.27949684858322144 -1.0027352571487427 -0.5163031220436096 -0.3165424168109894 -0.08218591660261154 -0.8449395298957825 0.8626708984375 0.321269154548645 -0.7416461706161499 -1.3982458114624023 1.3035367727279663 -0.5185098052024841 -1.2514524459838867 0.5919975638389587 1.7418285608291626 -0.8154345750808716 0.4989888072013855 0.12795193493366241 0.19427624344825745 2.709991931915283 0.31339800357818604 0.11095473915338516 0.2999574542045593 -0.28789445757865906 -0.0971246212720871 -1.2636640071868896 -1.3811311721801758 0.7258774042129517 -1.0375325679779053 -0.40561720728874207 -0.34396374225616455 -0.3078076243400574 -0.9077569842338562 -1.0629078149795532 0.7378707528114319 -0.793902575969696 -2.470025062561035 -1.4637266397476196 -0.2832196056842804 0.7781652212142944 0.8147823810577393 0.3169061839580536 1.5929570198059082 -1.7689650058746338 -0.027343695983290672 -0.19020839035511017 -0.6522160768508911 -1.689944863319397 0.36025184392929077 -0.06392119824886322 -2.3148202896118164 1.1080487966537476 -0.6054410934448242 -3.221898317337036 0.6747424602508545 -0.1252092868089676 -1.692602276802063 -0.7346298694610596 -1.8550316095352173 -0.2450123280286789 0.36682945489883423 0.6430370807647705 -0.0836305171251297 -0.6633042097091675 -0.6679213643074036 -0.1273888498544693 -1.0365016460418701 1.4588419198989868 0.5014938116073608 0.6119644641876221 0.362320214509964 -0.7849199771881104 -0.2653007209300995 -1.2326478958129883 0.3657759130001068 -0.958234965801239 -0.878747820854187 -0.9247655868530273 0.8960304856300354 -0.7746257781982422 -0.2556990087032318 1.1965265274047852 -0.16621580719947815 0.8324723839759827 0.6873844265937805 -0.6308865547180176 1.8987247943878174 -0.41579508781433105 0.6099804043769836 2.9762988090515137 0.3037645220756531 1.9321141242980957 -0.3544389009475708 -0.7664803862571716 1.0158873796463013 -1.2455652952194214 1.0316280126571655 -0.05652748420834541 -1.3661613464355469 -0.18966974318027496 0.48666977882385254 0.04523831978440285 -0.2032703161239624 -0.7369548082351685 -1.3403574228286743 0.45930394530296326 -0.8010665774345398 0.5687858462333679 0.6365172266960144 -0.7333483695983887 0.33634862303733826 0.5214961171150208 0.03772062435746193 0.8637233376502991 -2.5026140213012695 -1.1170692443847656 0.3527977466583252 0.5708058476448059 0.4716574251651764 0.5316755175590515 -0.44187289476394653 0.34652358293533325 1.0826990604400635 -0.23032774031162262 1.5093821287155151 0.43949633836746216 0.024428077042102814 -0.7174633145332336 1.9820724725723267 0.4180595278739929 -1.0229990482330322 1.203506588935852 -0.5845169425010681 -0.2562853991985321 -0.26131853461265564 -1.1609708070755005 1.9713832139968872 -1.6437599658966064 -1.0574336051940918 -0.044833749532699585 0.2136043906211853 0.5944711565971375 -1.833634614944458 1.3074084520339966 0.9019747972488403 -0.9090725183486938 0.09479409456253052 -1.2813656330108643 -0.42228877544403076 0.06617747992277145 0.7325124740600586 1.241199254989624 -0.6735250353813171 -1.9718047380447388 0.019879799336194992 0.5675427317619324 1.7037405967712402 -1.3323320150375366 -1.4830951690673828 1.450706124305725 1.2610231637954712 -2.1341910362243652 0.0100597208365798 0.16114258766174316 0.27230435609817505 -0.30101048946380615 0.20973624289035797 
vec20 0.8441144824028015 -2.4149837493896484 -1.1110912561416626 -1.708415150642395 0.742986798286438 0.30244553089141846 0.1961493045091629 -2.965017557144165 -1.1901309490203857 -1.1919434070587158 0.4908080995082855 -0.36014801263809204 1.5267608165740967 0.08024343848228455 -0.18622015416622162 -0.4463566839694977 -0.31649062037467957 -0.6736516952514648 1.0090652704238892 -1.7925498485565186 0.042507171630859375 1.3977457284927368 -0.24726465344429016 -1.223097324371338 1.0060644149780273 0.17782384157180786 0.9979246258735657 -0.26305320858955383 1.838941216468811 -1.0096269845962524 0.943812906742096 0.5414741039276123 -1.8356411457061768 0.7570390701293945 -1.4358279705047607 -1.3951199054718018 -0.025684991851449013 0.4415450990200043 -0.5772644877433777 0.036038048565387726 0.17508874833583832 -1.654953122138977 -1.4449776411056519 1.1982983350753784 0.2854806184768677 -1.9578739404678345 -0.10072305798530579 0.6182283759117126 -0.07313748449087143 0.7740573883056641 0.19097234308719635 0.4099782109260559 3.071481466293335 0.3373328149318695 0.3871263861656189 0.5497691631317139 -0.7990380525588989 -0.7925021052360535 -0.7965368628501892 0.4323473572731018 0.25944986939430237 -0.8652670979499817 -1.2776106595993042 0.021292109042406082 -0.4046495854854584 1.3219680786132812 -0.8057923913002014 0.7526113390922546 -0.48552432656288147 -0.9484339356422424 -2.271713972091675 -1.225714921951294 0.30402347445487976 1.1304218769073486 -0.3500679135322571 1.9431307315826416 -1.0344187021255493 0.9174666404724121 0.21701526641845703 -0.20973831415176392 0.26937422156333923 0.6105493903160095 -0.1454046666622162 -1.3260897397994995 1.0901103019714355 0.8293686509132385 -3.1953091621398926 -0.08016246557235718 -1.2515952587127686 -1.6775012016296387 1.2003227472305298 -2.3801584243774414 -0.9555562734603882 -0.6561682820320129 1.8281201124191284 -0.5982183218002319 1.0919080972671509 -0.5825502872467041 -0.38328367471694946 -0.9823615550994873 1.0401824712753296 0.12051401287317276 1.3216123580932617 0.6377169489860535 -0.5611894130706787 -1.6418355703353882 -0.0027691065333783627 1.6811257600784302 -0.748418927192688 -0.8200069665908813 -1.079742670059204 1.180436611175537 -1.2513766288757324 -0.738136887550354 0.1627911478281021 0.1280333548784256 0.6017388105392456 -0.1057722195982933 -1.3816019296646118 1.4642469882965088 0.7587095499038696 0.6591874957084656 1.6166212558746338 -0.4222642779350281 2.3103396892547607 -0.9954816699028015 0.2638399600982666 1.2000796794891357 -2.0051157474517822 1.180873990058899 -1.433302402496338 -0.9781537055969238 -0.28220945596694946 0.1991024613380432 -0.31101077795028687 0.8308499455451965 0.9661905169487 -0.2740926742553711 0.4530859589576721 -1.433599591255188 1.2892804145812988 1.0790833234786987 -0.559922993183136 0.26928621530532837 0.2625574767589569 0.08159324526786804 -1.1089471578598022 -1.9205933809280396 -1.6175086498260498 0.9930678606033325 0.4051385819911957 0.40435078740119934 -1.4277254343032837 -0.3027176260948181 0.1601078361272812 0.031277403235435486 -1.3986378908157349 3.180708408355713 0.01582038775086403 -0.18347829580307007 0.6498481035232544 0.9375359416007996 0.3821816146373749 -0.7758133411407471 1.6235589981079102 -0.11261096596717834 0.03539729863405228 0.7276984453201294 -1.3529373407363892 1.5099477767944336 -1.192190170288086 -1.4720885753631592 0.46913644671440125 1.1124279499053955 0.6398082971572876 -0.7714216709136963 1.5834444761276245 0.3417014181613922 -0.2647310197353363 0.8738319873809814 -1.2375959157943726 0.22926250100135803 0.7807681560516357 -1.0312199592590332 0.5150849223136902 0.9682822227478027 -1.3643717765808105 0.29004529118537903 1.7853965759277344 0.27411070466041565 -0.9997392296791077 -1.041185975074768 2.206209659576416 0.7159411311149597 -2.589010238647461 -0.3958192467689514 0.9402984380722046 0.9240930676460266 1.1315573453903198 -0.45398420095443726 
vec21 -0.5846801400184631 -1.7516270875930786 -0.03772418946027756 -2.0284550189971924 0.5108475089073181 0.650046706199646 1.1735010147094727 -2.1262314319610596 -1.4732877016067505 -1.1478968858718872 -0.4716489911079407 -0.3718109726905823 0.44300130009651184 0.26816004514694214 -0.39825719594955444 -0.14263802766799927 -0.09178432077169418 -0.06722475588321686 1.7145884037017822 -0.47972559928894043 -0.7194770574569702 0.4017159342765808 -0.02597617730498314 -0.8505374789237976 0.5684882998466492 0.3818066716194153 1.6248245239257812 -0.05513990297913551 1.9092565774917603 -0.6229238510131836 -0.6893240809440613 1.4076578617095947 -1.2678196430206299 -0.7739032506942749 -0.2532832622528076 -0.2560969293117523 -0.13227002322673798 -1.1889888048171997 0.24324296414852142 -0.12526187300682068 0.4652194380760193 -0.8682254552841187 -1.520556092262268 0.7524226903915405 -0.624487578868866 -1.382782220840454 1.0437732934951782 1.0042264461517334 -0.8116202354431152 0.8248537182807922 -0.36416447162628174 0.28753209114074707 2.229313373565674 0.30275189876556396 -0.2576967179775238 -0.2056330144405365 -0.3021841049194336 -0.26077935099601746 -1.8360146284103394 -0.5834072828292847 -0.5592826008796692 -0.8763495087623596 -0.49038228392601013 -0.9904577136039734 0.26355817914009094 0.11144165694713593 -0.8139552474021912 0.595940113067627 -0.6508027911186218 -2.203291893005371 -1.866290807723999 -1.679806113243103 0.937019407749176 1.7078111171722412 -0.6790291666984558 1.207148551940918 -2.1082286834716797 0.3764399290084839 0.42344406247138977 -1.2863986492156982 -0.9351990222930908 0.4239356815814972 0.07363824546337128 -2.468778610229492 0.4547306299209595 -0.02749813348054886 -3.468801259994507 -0.3956165909767151 0.9671860933303833 -1.0335391759872437 0.6036501526832581 -1.9797132015228271 -0.40292325615882874 -0.3560413420200348 1.806831955909729 0.19230398535728455 0.13944736123085022 -0.3006070852279663 -0.7994747161865234 -0.7016364336013794 0.9325026273727417 -1.3951222896575928 0.48574042320251465 0.17543348670005798 -0.1330997347831726 -0.7556005120277405 -1.7727309465408325 0.9150612354278564 -1.2773271799087524 -0.6249257922172546 0.07852249592542648 1.051400899887085 -0.6431590914726257 -0.7640482783317566 0.7529852390289307 0.2558193504810333 -0.12755973637104034 0.9768425822257996 -1.395624041557312 2.256978988647461 0.5641854405403137 -0.0674457773566246 3.0477211475372314 0.6435275077819824 3.125129461288452 -0.6968515515327454 0.44134658575057983 0.23763437569141388 -1.0028722286224365 0.7431008219718933 -0.2176235020160675 -0.7629819512367249 -1.1239594221115112 0.4871336817741394 0.1696401834487915 0.5208163261413574 0.035127874463796616 -1.3343595266342163 0.3681451678276062 -0.3613017797470093 -0.34379592537879944 1.769319772720337 -0.41540685296058655 0.32396459579467773 0.8497601747512817 0.6489354968070984 -1.3066091537475586 -1.5384507179260254 -0.7151700258255005 1.2007982730865479 0.8419956564903259 0.006898021791130304 -0.27480119466781616 0.07663242518901825 0.3100833296775818 1.3782320022583008 -0.7531557083129883 2.376645565032959 0.9866136312484741 0.7263776063919067 0.9579078555107117 1.688063621520996 0.621277928352356 1.1584242582321167 0.5620668530464172 -1.5147449970245361 -0.9817811846733093 0.8083290457725525 -0.771232008934021 2.8058552742004395 -1.5491607189178467 -1.29501211643219 0.756156325340271 1.0653505325317383 1.6001551151275635 -1.673352599143982 -0.35782480239868164 0.22451655566692352 0.3131028711795807 0.20775847136974335 -0.3289662003517151 1.4357482194900513 0.43515101075172424 0.4125901460647583 0.7295690774917603 0.334307998418808 -0.2604711353778839 -0.7356407642364502 1.071218490600586 0.3832745850086212 -0.9378074407577515 -1.2413086891174316 0.8749867677688599 1.1083770990371704 -2.2045233249664307 0.6288255453109741 0.8626428842544556 0.9670291543006897 -0.6742196083068848 -0.030362220481038094 
vec22 0.6831623315811157 -1.098159909248352 -1.4690887928009033 -1.884592890739441 0.5410090684890747 -0.5455583333969116 0.48329779505729675 -2.0386040210723877 -0.7472360134124756 -0.8889907002449036 1.2374022006988525 -0.6744965314865112 1.2178316116333008 0.8430650234222412 0.013155081309378147 -0.5360550880432129 0.06783349812030792 -1.135571837425232 -0.08942416310310364 -0.8069055080413818 0.10251542180776596 0.8334706425666809 0.3239138722419739 -0.9609704613685608 0.7702182531356812 -0.03115001693367958 1.9719864130020142 -0.7017037868499756 1.1276459693908691 -1.2908238172531128 -0.0842365026473999 1.6083202362060547 -0.9396732449531555 0.18851296603679657 -0.3096010386943817 -0.10547473281621933 -0.9375850558280945 -0.47874510288238525 1.5607203245162964 0.5235927104949951 -0.27632683515548706 -0.17178189754486084 -1.9617348909378052 0.7189452648162842 -0.8235670328140259 -1.4129481315612793 1.2291017770767212 0.18022751808166504 -1.4895596504211426 -0.003006165847182274 0.004769787658005953 -0.49016866087913513 2.5463130474090576 0.4546419084072113 0.18683192133903503 1.0269837379455566 0.23083443939685822 0.6641526222229004 -0.7818025946617126 0.9295253157615662 0.10616717487573624 -0.0552331879734993 -2.3170740604400635 -0.7754213213920593 -0.09237390011548996 0.955488383769989 -0.7083249688148499 0.8839129209518433 -0.5094951391220093 -1.218592882156372 -1.2833709716796875 -0.1916520744562149 0.7464579343795776 1.4332062005996704 -1.0271458625793457 1.8699136972427368 -0.7209540009498596 -0.06598976254463196 -0.3749910295009613 -1.0428705215454102 -0.46802839636802673 -0.3607816994190216 -0.2531716525554657 -0.7826637029647827 1.9047218561172485 -0.6070349216461182 -3.2570838928222656 -0.8845688104629517 -0.9776864051818848 -1.0016920566558838 0.5282922983169556 -3.020512342453003 -1.169563889503479 -0.16690407693386078 2.129972219467163 -0.2961311340332031 -0.46592408418655396 -0.1908244639635086 -0.6737506985664368 -0.532958447933197 0.1416260451078415 -0.754601776599884 0.28366926312446594 -0.03827976435422897 0.1663506031036377 -0.6925565004348755 -0.6442301273345947 -0.016652142629027367 -0.8906818628311157 0.49396812915802 -0.9488400816917419 0.7354299426078796 -0.7173975110054016 -1.066100001335144 1.4187220335006714 -0.8837165832519531 0.09132454544305801 0.8368547558784485 -1.4473605155944824 1.332148790359497 -1.0114867687225342 -0.20736350119113922 1.8526606559753418 -0.21555474400520325 3.5755462646484375 -0.4449707269668579 0.4728510081768036 0.8341357111930847 -1.7598426342010498 0.7781445384025574 -0.4719937741756439 -0.5919430255889893 -1.0065017938613892 0.650234580039978 -0.40941503643989563 -0.17845532298088074 -0.5920183658599854 -1.2823147773742676 -0.10935715585947037 -1.9032827615737915 0.15604239702224731 1.3457856178283691 -0.06905728578567505 0.652415931224823 0.10802404582500458 0.18452084064483643 -0.6544548869132996 -2.6811470985412598 0.15624600648880005 0.9676113724708557 -0.37634676694869995 -0.4276750683784485 0.4023657441139221 -0.5726895928382874 0.10624071210622787 1.4250297546386719 -0.15699660778045654 2.025617837905884 0.21273212134838104 -0.6889407634735107 0.5598920583724976 0.8328125476837158 0.7411354780197144 -0.7875680923461914 0.6517421007156372 -1.114404559135437 -0.9649186730384827 0.2252250760793686 -0.23266762495040894 0.9245954155921936 -1.5568782091140747 -2.2181172370910645 0.03950899839401245 -0.09242984652519226 1.2423419952392578 -1.1060962677001953 0.6452208161354065 0.9834963083267212 -0.3318958878517151 0.7248813509941101 -0.966825008392334 0.6606006026268005 1.2196335792541504 -0.050110504031181335 1.0012073516845703 -0.09767996519804001 -1.1353509426116943 -0.01193244382739067 0.5796147584915161 0.9507735967636108 -1.590887427330017 -0.4489733874797821 2.015599489212036 0.44050508737564087 -2.495382308959961 0.26316967606544495 -0.03128504753112793 0.9653685092926025 -0.2860572934150696 0.6421880125999451 
vec23 -1.5193582773208618 -1.1975706815719604 -1.2072901725769043 -1.7297015190124512 -0.6879109144210815 0.1373368799686432 0.567688524723053 -3.5579822063446045 -1.685313105583191 -0.755797266960144 0.7021928429603577 0.24986407160758972 1.464219093322754 0.8784346580505371 -0.013260046020150185 -0.6543084979057312 0.8514243364334106 -0.1943507343530655 0.5671911239624023 -0.3490177094936371 -0.6019083261489868 0.9995030164718628 -0.6044842004776001 -1.5871782302856445 1.2420660257339478 -0.16665087640285492 2.0236997604370117 -1.0721592903137207 1.7219809293746948 -1.5324170589447021 -0.7318835854530334 1.2693233489990234 -1.2166368961334229 0.590217649936676 -1.1584534645080566 0.23393821716308594 -0.12276198714971542 0.3435022532939911 -0.9540241360664368 -0.15063489973545074 1.0272020101547241 -0.2728103697299957 -2.104384660720825 0.5627726912498474 -1.0130877494812012 -1.3993054628372192 1.9096873998641968 0.5201320648193359 -0.851189374923706 0.8885663151741028 0.13993149995803833 -0.07817080616950989 1.9441332817077637 0.004109752364456654 0.24605624377727509 0.44305941462516785 -0.9194799065589905 -0.8303031325340271 -0.6664580702781677 -1.1095311641693115 0.16785112023353577 0.020187122747302055 -0.7163210511207581 -0.2530563473701477 -0.10692302137613297 -0.0853629857301712 -1.4743446111679077 0.8990347385406494 -1.5487662553787231 -1.8791248798370361 -1.1224745512008667 -0.6359618306159973 1.8111289739608765 1.883361577987671 0.050221800804138184 1.1569006443023682 -0.7672870755195618 0.12013024091720581 -0.02114141918718815 -2.147808790206909 -0.8541828393936157 0.4516761004924774 -0.062362439930438995 -2.020512104034424 0.8093559145927429 -0.8342702984809875 -3.017251491546631 -0.17701320350170135 -0.798431396484375 -1.6036896705627441 0.12567797303199768 -2.630092144012451 -0.26338621973991394 1.0582278966903687 1.7337144613265991 0.10750877112150192 -0.5440046191215515 -0.10877831280231476 -0.6106360554695129 -1.0072898864746094 1.9238317012786865 -1.1668612957000732 0.14026539027690887 1.486182689666748 -0.017252575606107712 -1.3833975791931152 -0.6241466999053955 0.39783939719200134 0.5704894661903381 -0.14866386353969574 -0.7072803378105164 0.7800467014312744 -1.2799280881881714 -0.6454386115074158 0.11758748441934586 -0.6535392999649048 1.250394344329834 0.02069316804409027 -0.572013258934021 2.0334630012512207 -0.58636474609375 0.33806732296943665 2.4257829189300537 -1.1261346340179443 2.9078283309936523 -0.9322726726531982 0.5285019874572754 -0.6132649779319763 -1.6842665672302246 0.2814277410507202 0.2031785100698471 -1.3047876358032227 -0.5726844072341919 0.6512778997421265 -0.4467013478279114 0.3763314485549927 -0.41010499000549316 -0.20607326924800873 0.548810601234436 -1.238396167755127 -0.1598789095878601 0.924244225025177 -0.6617556810379028 0.5100634098052979 0.7342970371246338 0.4244968891143799 -0.13639859855175018 -2.1607306003570557 -1.844806432723999 0.15061061084270477 0.956597089767456 0.12356701493263245 -1.539096474647522 0.1950729787349701 -0.2538852095603943 1.275323510169983 -1.0868535041809082 1.2689043283462524 -0.0589977502822876 -0.10134975612163544 -1.1576170921325684 1.9525489807128906 1.0817686319351196 -0.7380249500274658 1.6317684650421143 -0.32797515392303467 -1.649689793586731 -0.7137150168418884 -1.4466097354888916 1.5181279182434082 -1.5861066579818726 -2.0975167751312256 0.18504031002521515 0.8638180494308472 0.7212868332862854 -0.4630183279514313 1.2907156944274902 0.5365240573883057 -0.06485003978013992 0.06349675357341766 -1.7453352212905884 0.3620770573616028 -0.05564427748322487 -0.6029477119445801 0.4317173957824707 0.2273622453212738 -0.9098588824272156 -0.5009272694587708 1.038227915763855 -0.14202013611793518 -1.018354058265686 -2.266326427459717 1.3684319257736206 1.2568304538726807 -1.8429768085479736 -0.2187010943889618 0.5003244876861572 0.9039450287818909 -1.516897439956665 -0.15527139604091644 
vec24 -0.04955306276679039 -2.2509660720825195 -2.4223780632019043 -0.8360170722007751 1.2942168712615967 -1.1067198514938354 0.4611605107784271 -3.168855905532837 -1.5251003503799438 -0.7844463586807251 0.17101553082466125 0.23666296899318695 0.6414677500724792 0.5465789437294006 -0.042695898562669754 -0.6341539621353149 -0.8376535773277283 0.05012053623795509 1.7558870315551758 -0.43932124972343445 -0.5114200711250305 0.8215487599372864 -0.8032985925674438 -1.4943708181381226 0.877715528011322 0.2855989933013916 0.8405656814575195 -0.9391523599624634 1.500009298324585 -1.0379538536071777 -0.588606059551239 1.0485531091690063 -1.6877529621124268 0.403387188911438 -1.0601316690444946 -0.6350992918014526 -0.9880043268203735 -0.5766685009002686 -0.9207605719566345 0.3614656627178192 0.5810660123825073 -0.0319812148809433 -1.870798945426941 1.9218297004699707 -0.36919501423835754 -0.5629231333732605 0.5828618407249451 -0.22703197598457336 -1.1783602237701416 0.624915599822998 0.3018794655799866 -0.4494040906429291 2.390101671218872 0.06249748170375824 -0.46139851212501526 1.1474601030349731 -1.7482554912567139 -0.14235609769821167 -0.09111679345369339 -0.4348290264606476 -0.14801041781902313 0.5662841200828552 -1.8392577171325684 -0.3178308308124542 -0.05566662177443504 0.6232030987739563 -1.4933905601501465 1.4555686712265015 -0.76204514503479 -1.5493537187576294 -1.734438180923462 -1.1288657188415527 0.2488860785961151 1.9276931285858154 0.46591830253601074 2.1344847679138184 -0.9560163021087646 0.05862655118107796 0.027258440852165222 -1.1840896606445312 -1.666495442390442 0.1949707269668579 0.02260090410709381 -1.6020393371582031 1.0439112186431885 -0.2095009684562683 -3.9665229320526123 -0.38932549953460693 -0.82906574010849 -1.0804978609085083 0.829877495765686 -2.551151990890503 -0.06900375336408615 0.6175132989883423 1.9083473682403564 -0.032760392874479294 -0.31067851185798645 0.10580281913280487 -0.30333244800567627 -1.2645633220672607 1.3278253078460693 -0.6977073550224304 0.15484914183616638 1.2443523406982422 0.06898634135723114 -1.5112477540969849 -0.4776992201805115 1.0732523202896118 -0.34714463353157043 0.44256576895713806 -0.7361615300178528 0.4322383403778076 -1.4646481275558472 -0.7827521562576294 2.256284713745117 0.7582474946975708 0.61902916431427 0.20809310674667358 -1.801995038986206 1.7995977401733398 0.2926536202430725 -0.8136402368545532 2.7178409099578857 0.08737380057573318 2.4553165435791016 -0.8484330177307129 0.5323538184165955 0.5347223281860352 -1.6409187316894531 0.5155684947967529 0.5195367336273193 -1.020212173461914 -0.7284031510353088 1.1044578552246094 -0.07178759574890137 -0.9758194088935852 0.7228851318359375 -0.8281314373016357 -0.33867940306663513 -1.5016841888427734 0.5522982478141785 0.8856125473976135 -1.4225976467132568 0.6418090462684631 0.0757344663143158 1.063249111175537 0.2982414662837982 -2.0805206298828125 -0.8582935929298401 0.4093800485134125 0.3253932297229767 0.4447105824947357 -0.7193208336830139 -1.0886834859848022 1.2424529790878296 2.1427955627441406 -1.1418782472610474 2.450411319732666 1.2789589166641235 0.18205977976322174 -0.4899227023124695 1.0998445749282837 1.2646565437316895 0.25639671087265015 0.3404991626739502 0.40251627564430237 -0.5928986072540283 -0.6227357983589172 0.1378190964460373 0.8235614895820618 -1.5856324434280396 -0.7003324627876282 0.05305015295743942 0.9489808082580566 0.5590973496437073 -1.3485039472579956 0.06706684082746506 1.2661750316619873 0.5888513922691345 0.19943249225616455 -1.7708845138549805 0.14536437392234802 1.6073310375213623 0.15338188409805298 0.26413172483444214 -0.9120630025863647 0.35679569840431213 -0.4672717750072479 1.7548695802688599 0.09729000926017761 -0.7074976563453674 -1.6491262912750244 1.3613404035568237 1.75416100025177 -1.793761968612671 1.00234055519104 1.1281160116195679 1.6947484016418457 -1.1134326457977295 -0.04204820841550827 
