vec0 -0.4713849723339081 -0.1558370292186737 -1.1358791589736938 -1.355201244354248 1.8451577425003052 0.9684509038925171 -1.0445789098739624 0.7017341256141663 -1.5597425699234009 -1.3777899742126465 -1.1337722539901733 0.7683313488960266 0.9330301880836487 -1.3272119760513306 0.07091593742370605 0.4856811761856079 0.0473078154027462 -0.6821114420890808 -0.7405504584312439 0.8324617147445679 -1.097206950187683 -0.34101933240890503 -0.27143725752830505 -0.837898313999176 1.5067689418792725 -0.9768778681755066 -0.867854654788971 0.2941322326660156 -0.8765045404434204 0.09451014548540115 1.6093237400054932 0.45369085669517517 -0.7505926489830017 -1.2294975519180298 -2.263868808746338 0.04190874844789505 0.587668240070343 -0.9996509552001953 1.016828179359436 2.1677000522613525 -0.7661260366439819 0.37793439626693726 0.25574058294296265 0.09519875794649124 0.7590859532356262 -0.09340551495552063 0.4344813823699951 1.0342355966567993 0.5691142082214355 -0.7852351069450378 -0.3258596658706665 0.6495937705039978 0.9733104705810547 1.0895969867706299 0.17307083308696747 0.3888302147388458 0.27654245495796204 1.7729424238204956 1.8668550252914429 -0.8860979676246643 -0.45293116569519043 -0.7824934720993042 1.1618711948394775 0.7909666895866394 1.8776607513427734 0.0867447778582573 0.0823468491435051 -0.13537953794002533 -0.9131636619567871 -0.823053777217865 -0.33741119503974915 -0.11306499689817429 -0.7463399171829224 1.8037464618682861 -1.339958667755127 -1.0409022569656372 0.10902619361877441 -0.7820116877555847 -1.0457209348678589 1.1658471822738647 -0.8503848910331726 -0.48181381821632385 2.2445921897888184 0.0339701808989048 -0.6774030923843384 0.2200486809015274 -0.3635447323322296 1.5837979316711426 -0.2515992820262909 1.2957086563110352 -0.540002167224884 -0.29666462540626526 0.5959997177124023 0.00024480881984345615 -0.256332665681839 0.20496375858783722 0.6070683002471924 3.946192741394043 0.0568295419216156 -0.7106332182884216 0.1294441521167755 -0.7087320685386658 -1.9637850522994995 -0.46411025524139404 1.4064624309539795 -1.6264551877975464 0.11660617589950562 -0.13251954317092896 0.9195247292518616 1.4081697463989258 0.963432252407074 0.7289512753486633 1.5068750381469727 1.8197566270828247 0.5900415182113647 -0.15135490894317627 0.2903314530849457 1.138770580291748 1.460325002670288 1.9011657238006592 -0.7374354600906372 1.3563412427902222 -0.112772136926651 0.6239333748817444 1.5760915279388428 0.6211989521980286 -0.24621661007404327 -1.0566015243530273 1.78402841091156 0.6896561980247498 0.5514270067214966 -0.027137255296111107 0.44870811700820923 -0.2190495729446411 1.3911188840866089 -0.1716357320547104 1.6440386772155762 0.639752984046936 2.3016796112060547 -0.029570458456873894 -0.20691341161727905 -0.015240428037941456 -1.0185574293136597 -0.6776983737945557 1.1734782457351685 0.3933553993701935 1.4838244915008545 -2.6918540000915527 0.6171109676361084 -0.1398627609014511 1.5478121042251587 -1.3682866096496582 2.258845567703247 -1.193448781967163 0.45342573523521423 -2.243065118789673 0.3735285997390747 1.7834498882293701 0.07398045808076859 -0.23495015501976013 0.24686186015605927 0.8449788093566895 0.02439972199499607 -0.5228179097175598 -1.1905534267425537 -0.34820520877838135 0.3524880111217499 -0.9216747879981995 0.72368323802948 -0.25478750467300415 1.5061073303222656 0.3173590302467346 1.2704272270202637 0.6463068723678589 -2.0134148597717285 0.0948982983827591 -0.08146864920854568 0.850652813911438 -0.2699923813343048 0.9325419664382935 -1.723507285118103 -0.5757783055305481 1.1862307786941528 -0.619784951210022 0.6452692151069641 0.7919291853904724 1.496071696281433 2.290663242340088 0.43933141231536865 0.6640775203704834 -0.2953817844390869 -0.42167845368385315 0.2755880355834961 1.057598352432251 1.2860699892044067 -1.8048068284988403 -1.4276760816574097 -1.907004714012146 -0.04286086931824684 -0.6028358340263367 
vec1 0.2661830484867096 0.7805917263031006 0.26675888895988464 -1.862328290939331 0.6630303263664246 2.1848807334899902 0.28826525807380676 -1.3839397430419922 0.17420780658721924 0.09192404896020889 -0.47233960032463074 -0.13369296491146088 0.546972393989563 0.40981191396713257 -0.38052695989608765 1.1312065124511719 -0.7693572640419006 -0.85841965675354 -0.16619259119033813 1.5201841592788696 -0.6970362067222595 -1.2481812238693237 1.4006956815719604 -1.2430397272109985 0.15472343564033508 -0.6300018429756165 -2.0236306190490723 0.2208145260810852 1.3828662633895874 -0.6672074198722839 0.3991743326187134 -0.2438424676656723 0.963304877281189 -2.830939531326294 0.9874981641769409 -0.5982548594474792 -0.39270153641700745 -0.37674281001091003 -0.3882009983062744 0.5203790068626404 -0.07788657397031784 0.6530659198760986 0.4871440529823303 1.8361835479736328 -1.3134902715682983 0.7124543786048889 0.236336350440979 -0.6330541372299194 1.173614263534546 -1.880292534828186 0.1383657306432724 2.780911922454834 -0.025432007387280464 0.6378389596939087 1.171442985534668 0.47900933027267456 1.3984458446502686 1.832640290260315 2.4745633602142334 -0.35862401127815247 -0.6482827067375183 0.5367409586906433 0.9114671349525452 0.9340732097625732 0.06918373703956604 1.2741175889968872 -0.40309903025627136 -0.8082965612411499 1.5222774744033813 -0.4177275002002716 -2.318361520767212 -0.4310078024864197 -0.5159013867378235 -0.23633088171482086 0.5793103575706482 -0.5958167314529419 -2.0629279613494873 1.8522765636444092 -1.5596182346343994 -0.5167227983474731 -0.11710801720619202 1.243861436843872 -0.0633523240685463 0.06853242218494415 0.28862303495407104 -0.04022987559437752 0.3191086947917938 0.2609803378582001 -0.022653980180621147 2.0543580055236816 -0.2066616714000702 -0.2278088480234146 -1.3392800092697144 -0.6379404067993164 0.11143440008163452 -1.0090053081512451 -0.15592151880264282 2.3700661659240723 -1.2570334672927856 0.3480803370475769 -0.2921163737773895 0.00895086769014597 -1.4404104948043823 -0.8911733031272888 -0.5607006549835205 -0.29176050424575806 0.17835792899131775 0.13905979692935944 2.1632776260375977 -0.3427535891532898 -0.5078835487365723 1.2701078653335571 -0.05293310061097145 0.9615371227264404 0.2267768383026123 -0.15413294732570648 1.2740607261657715 -0.9038021564483643 0.45399993658065796 0.6382367014884949 0.5442624688148499 -0.31773895025253296 -0.6203454732894897 0.47187212109565735 -0.11316761374473572 1.8028889894485474 0.21108154952526093 -0.2625792920589447 -1.1220827102661133 0.847348690032959 0.27879172563552856 0.47933244705200195 3.0385658740997314 0.3316969871520996 1.4871606826782227 0.7979364395141602 -1.1561203002929688 -0.17878611385822296 -0.627413809299469 -1.0327624082565308 0.4948452115058899 0.13451746106147766 -0.41193869709968567 -1.086168646812439 0.8933785557746887 0.6786279082298279 -0.8631578683853149 -2.0307722091674805 -0.4977402985095978 0.44965308904647827 -1.1874479055404663 -1.4191462993621826 0.39819657802581787 0.7356555461883545 -0.7201812863349915 -1.0341535806655884 -0.8503179550170898 0.16323153674602509 -1.620820164680481 -0.01844329759478569 0.15483461320400238 -0.5765122771263123 -1.0978693962097168 -0.13401710987091064 0.08236437290906906 0.8257389664649963 0.1218980923295021 1.011823058128357 -0.09038478136062622 -0.466361939907074 -0.3229684829711914 -0.9265536665916443 0.935846209526062 -0.5465644598007202 -0.9944579005241394 -0.7521350979804993 0.3460155129432678 -0.07127377390861511 -0.4910173714160919 -0.10622947663068771 -1.0654875040054321 -0.8657938838005066 -0.43315479159355164 -1.3646044731140137 0.3438025712966919 1.090153455734253 -0.49321991205215454 1.3520221710205078 0.08689351379871368 0.6330326199531555 0.8267453908920288 -0.7538124918937683 -1.8721352815628052 0.31767258048057556 -0.5698661804199219 -0.10165031254291534 -0.900702178478241 0.09105775505304337 0.6468954086303711 -0.6213833689689636 
vec2 -0.2674437463283539 0.49783992767333984 -1.5430630445480347 -1.3348798751831055 0.6962116360664368 -0.49298980832099915 0.5076960325241089 0.20113395154476166 -0.912804126739502 1.134182333946228 -1.4416838884353638 1.3321847915649414 -0.2874128818511963 -0.2187633514404297 1.4758137464523315 2.1020030975341797 -1.8783016204833984 -1.582779049873352 -1.767013430595398 1.585663914680481 -0.6135417819023132 0.3776979446411133 -0.15261074900627136 -1.9685308933258057 -0.11912477761507034 1.3719228506088257 -0.8838176131248474 0.8441286087036133 0.00712010869756341 -1.1336437463760376 1.5058646202087402 -0.9363080859184265 0.9595401287078857 -0.5241037607192993 -0.3579179048538208 -1.1326144933700562 -1.2315764427185059 -0.3849371671676636 -0.7972960472106934 2.2060649394989014 -3.132534980773926 0.80266273021698 1.678446650505066 0.7315211892127991 0.21410007774829865 0.22354423999786377 -0.18074612319469452 1.258952021598816 -0.3526653051376343 0.3495335280895233 -0.33664003014564514 1.0468266010284424 -1.1710911989212036 0.4510686993598938 -0.6642964482307434 1.4541178941726685 -0.4267791509628296 2.386382818222046 -1.0711203813552856 -0.453625351190567 -0.23309333622455597 0.9097923040390015 1.414945363998413 0.6520931124687195 1.748767614364624 1.3598365783691406 0.6996743679046631 -1.6462656259536743 -0.14948497712612152 1.0179857015609741 -2.022819757461548 1.6295808553695679 0.37288373708724976 -0.7908275127410889 -0.6445637941360474 0.06747929006814957 -2.6224985122680664 -0.46148020029067993 -1.0071756839752197 -0.8621516823768616 -1.0182390213012695 -0.06602679193019867 -0.3074934184551239 -0.4231853187084198 -0.22621138393878937 0.4238157868385315 -0.3543262183666229 -0.12309125810861588 1.6938716173171997 0.44511350989341736 1.704577088356018 0.02849133498966694 -0.29897618293762207 1.2157331705093384 -0.04808428883552551 -1.0155128240585327 0.7553872466087341 2.19962477684021 1.1656785011291504 0.5792620182037354 0.04637957364320755 0.7539933919906616 1.119175910949707 -0.021758051589131355 -0.03991807997226715 -0.90346759557724 0.9467425346374512 -1.2923004627227783 -0.016815705224871635 2.0652923583984375 0.7156974077224731 0.20994703471660614 -0.9079884886741638 -0.8363938331604004 -1.7743879556655884 -0.12291282415390015 -0.016973523423075676 -0.2993375062942505 1.1338586807250977 1.8122214078903198 -0.9889823794364929 -0.5904097557067871 -0.47160738706588745 -0.18983334302902222 -0.2117007076740265 2.828394889831543 -0.743173360824585 -0.053012263029813766 0.8546236753463745 -0.6918668746948242 0.5950443744659424 -1.346752405166626 1.9329012632369995 -1.0467138290405273 1.1488109827041626 0.4824927747249603 -0.6179525852203369 1.2711129188537598 0.25305673480033875 -0.4607802629470825 -0.3142547607421875 -0.4533534049987793 -0.107874795794487 0.11065374314785004 -0.10730137676000595 0.815615177154541 -1.3373550176620483 -0.6170490980148315 0.15239715576171875 -0.8855791091918945 1.6041229963302612 -0.08101414889097214 0.877574622631073 0.15453465282917023 -0.026954445987939835 0.9062672853469849 1.1378183364868164 0.6308937668800354 0.754045844078064 -1.2884052991867065 -0.22593405842781067 -0.3936520516872406 -0.3747611939907074 0.14070788025856018 -0.006337612401694059 -0.9147493839263916 0.38056275248527527 0.262891560792923 -0.2794578969478607 1.011674404144287 1.360398769378662 0.855960488319397 0.2528044283390045 -1.4565762281417847 0.6769981384277344 -0.04525560885667801 -1.3265753984451294 0.757979154586792 -0.7338805198669434 -0.3530002236366272 -1.0898789167404175 -0.8896618485450745 0.7957432866096497 0.8174220323562622 0.2786789536476135 -1.874927043914795 1.3390811681747437 0.3339235782623291 0.06344693154096603 1.3586642742156982 1.252058506011963 -0.908367931842804 1.2813421487808228 0.39704152941703796 -0.11017480492591858 -1.3519573211669922 -0.08420335501432419 -0.4139553904533386 -0.6438384652137756 0.1670423001050949 
vec3 -1.3860442638397217 0.07990790903568268 -0.45300477743148804 -2.1049444675445557 -0.21932926774024963 -0.05871523171663284 -1.7655951976776123 -1.4330805540084839 -1.5496456623077393 0.5882791876792908 -0.8416541814804077 -1.3236154317855835 0.017031125724315643 0.9769795536994934 1.0518568754196167 0.28938889503479004 -1.0965200662612915 -0.14635778963565826 1.0540997982025146 1.0009673833847046 -0.8006367087364197 -0.4308171272277832 0.08200554549694061 -1.2754617929458618 0.4037688374519348 -0.7714270949363708 -1.1332939863204956 0.3988506495952606 0.521274209022522 0.004250289872288704 -0.591823935508728 1.4600725173950195 -0.5303168892860413 -2.079072952270508 0.6459575295448303 -1.42548406124115 0.22015903890132904 -1.5949152708053589 -0.9877089858055115 -0.45279204845428467 -0.42483943700790405 0.44379422068595886 -0.8773598074913025 -0.5893537998199463 -0.08340118825435638 -0.12165989726781845 0.37237221002578735 0.2680807411670685 -0.12019212543964386 -0.11644383519887924 1.224425196647644 1.5810520648956299 -0.5562916398048401 0.5908752679824829 1.5922651290893555 0.5421753525733948 0.1831415444612503 1.5155045986175537 -0.3634870946407318 -0.6672726273536682 -0.7127647399902344 0.6895445585250854 0.8171078562736511 0.026296578347682953 1.0267360210418701 -1.3092010021209717 -0.9357983469963074 -0.3745005428791046 -0.46055760979652405 -0.6148093938827515 -1.559727668762207 1.0503515005111694 0.4636861979961395 -0.24762926995754242 0.23576608300209045 -1.5171366930007935 -0.1717020869255066 -0.7193732261657715 0.15965743362903595 -1.063843846321106 0.9818564057350159 2.0989413261413574 1.061392903327942 0.5451046824455261 0.15088628232479095 0.38011935353279114 0.5217462182044983 -2.3253564834594727 0.6022294163703918 0.9244722723960876 0.6684382557868958 -2.753612518310547 -0.8624157309532166 -0.592513918876648 0.7695614099502563 -0.20826846361160278 2.0765364170074463 2.1775705814361572 -0.5913327932357788 0.8200240731239319 -0.3878946304321289 -1.010116696357727 2.211738348007202 -1.5092120170593262 1.183834195137024 -0.21856087446212769 0.6842488050460815 -0.5500982999801636 0.4376411437988281 3.161458730697632 0.3912598788738251 0.31732168793678284 -2.787107467651367 -0.024271298199892044 1.0747525691986084 0.05312936007976532 0.45541393756866455 0.08957904577255249 -0.08085758984088898 0.38397088646888733 -0.0891830176115036 1.3744821548461914 -0.685911238193512 -0.5680121779441833 0.9480162858963013 1.6102125644683838 -0.11951359361410141 -0.6845439672470093 0.08778917789459229 -0.07721292227506638 -0.2722483277320862 1.4525858163833618 0.021634748205542564 -0.6079448461532593 1.548528790473938 -0.0014191915979608893 0.9275202751159668 -1.7241301536560059 0.9863563776016235 0.5879305601119995 1.3429135084152222 0.688125729560852 -0.41931167244911194 -0.30391162633895874 0.5512475371360779 1.8072599172592163 0.8595162630081177 1.358906865119934 -0.708795964717865 0.9681633710861206 1.361268162727356 -0.3022366464138031 0.4725954532623291 -1.2359646558761597 0.9782183170318604 -1.5898438692092896 -1.5613473653793335 -0.3843255341053009 0.3272534906864166 -1.5995277166366577 1.4827983379364014 -0.5088675022125244 -0.824962854385376 1.9535174369812012 2.208397626876831 0.20714892446994781 -0.8943530917167664 0.2793408930301666 -0.16547265648841858 0.4921831488609314 0.6902672052383423 0.8191428780555725 2.200984477996826 0.8637800812721252 -1.206445574760437 -0.837739884853363 -0.28179097175598145 0.026856645941734314 1.3281745910644531 1.139203429222107 -1.0860683917999268 -0.5069615244865417 0.016754938289523125 -1.8426779508590698 -0.2602365016937256 -0.3570903241634369 1.0277268886566162 2.2145798206329346 -1.529735803604126 -0.2778164744377136 -0.5087900757789612 0.18648478388786316 1.2673243284225464 0.07762333005666733 -1.8491137027740479 0.04950551688671112 -0.28907328844070435 -1.1577931642532349 -0.7047284245491028 -0.3240083158016205 
vec4 -0.48501887917518616 1.1571873426437378 1.8496359586715698 -0.891974925994873 -0.23796480894088745 -1.2281925678253174 -0.2201167345046997 -0.19616922736167908 -0.5852817893028259 1.1871330738067627 -1.2357983589172363 0.6386644840240479 1.5083860158920288 0.276048481464386 0.9326675534248352 0.505634605884552 -1.595210075378418 0.007710423320531845 -0.5059756636619568 1.0470802783966064 0.4741552472114563 0.2806578576564789 -0.4111936390399933 -1.5565712451934814 0.63868248462677 0.6540595293045044 -1.5934782028198242 -1.021794080734253 0.4244770109653473 1.0719584226608276 2.00270414352417 1.1100367307662964 -0.45655009150505066 -0.3855474889278412 -0.7158602476119995 -1.4023628234863281 0.444888710975647 0.5417184829711914 -0.5083873271942139 1.5719820261001587 0.5665148496627808 -0.15185952186584473 0.29405447840690613 0.15317459404468536 0.6542959809303284 -0.32309824228286743 1.5199335813522339 0.7016606330871582 0.06708018481731415 -0.11714610457420349 -1.609257698059082 0.8628320097923279 0.8689929246902466 0.622297465801239 1.8823076486587524 -0.8188667893409729 0.2749442756175995 1.1034636497497559 0.26669952273368835 0.40129268169403076 0.3242446184158325 -0.2745828926563263 0.6665251851081848 0.5248098373413086 0.4973091185092926 -0.04525279626250267 0.1917051374912262 0.10182465612888336 -0.26030826568603516 0.30587878823280334 -1.5635367631912231 -0.001141033018939197 -1.5145132541656494 -2.370332956314087 0.5285894274711609 0.7997602224349976 -1.0087964534759521 -1.0362322330474854 0.039442822337150574 -0.2813436985015869 -0.41905930638313293 1.515040397644043 1.9642016887664795 0.29878267645835876 0.6104501485824585 0.018343258649110794 -0.5988860726356506 0.07930722087621689 -0.5990444421768188 -0.6077117323875427 -0.027391159906983376 -0.19567179679870605 0.719113826751709 1.4967224597930908 1.527415156364441 -1.6037309169769287 -0.6424410939216614 1.4746168851852417 0.6932768225669861 0.45136117935180664 -0.4858051538467407 0.701928436756134 -0.4779030382633209 -0.6928385496139526 -0.6144570708274841 -0.21338729560375214 0.5541234016418457 -0.1385382115840912 2.466557741165161 2.0086371898651123 -1.1034095287322998 0.8392755389213562 0.45352447032928467 -0.2389616072177887 -0.06461247056722641 1.1588797569274902 1.1168389320373535 0.7177561521530151 0.24407434463500977 1.9305540323257446 1.1353484392166138 -0.14975140988826752 1.1623163223266602 -0.8864627480506897 -0.01713603548705578 1.1174479722976685 0.16047662496566772 0.9800429940223694 -0.523575484752655 -1.623199224472046 0.7576456665992737 0.5198130011558533 0.1919015794992447 -0.4951561987400055 0.09835343062877655 -0.22200176119804382 1.778080701828003 -0.32939285039901733 0.6707895994186401 -1.1234170198440552 -0.7470801472663879 0.3315050005912781 -0.5828683972358704 -0.875247061252594 1.1362800598144531 -1.8468410968780518 -1.2677866220474243 -0.4612727165222168 0.858312726020813 0.6839473843574524 2.9195547103881836 -0.7426764369010925 -0.3023608326911926 -0.48649007081985474 -0.5797823071479797 -1.8057867288589478 -0.2531587481498718 1.7790226936340332 -0.5127676725387573 -2.2838492393493652 0.12254545837640762 -0.6708481907844543 -0.3341771364212036 0.7344688177108765 0.4787372052669525 1.862127423286438 -1.1621288061141968 1.6955498456954956 1.0650500059127808 2.2393486499786377 0.220297172665596 -0.7775418162345886 0.29019927978515625 0.22821761667728424 -0.29043522477149963 -0.9578074216842651 -1.283981442451477 -0.5707836747169495 -1.739001989364624 0.03523954376578331 -1.8696458339691162 -1.7776453495025635 0.3810660243034363 -1.4562673568725586 1.1418752670288086 -0.7691518664360046 -1.2570346593856812 0.21360571682453156 0.9361956715583801 -1.3151270151138306 0.9127886295318604 -0.575348973274231 0.27588510513305664 0.6846038103103638 2.087137460708618 -0.7955347299575806 -1.993735671043396 -1.0951310396194458 0.8103926777839661 -2.58652663230896 
vec5 -0.6222825646400452 0.18006478250026703 1.320055603981018 -1.5657317638397217 -1.4415018558502197 -0.5631658434867859 0.07134464383125305 0.2954718768596649 0.6666297316551208 -0.9126678109169006 -1.2691056728363037 1.6860661506652832 -0.9009010195732117 -1.9695378541946411 0.62322598695755 0.9465802311897278 -0.787076473236084 0.9218676686286926 -0.6848251819610596 2.7865617275238037 0.6314992904663086 1.1694852113723755 0.6854085326194763 -0.958404541015625 -0.6007587909698486 1.4595433473587036 -1.777237057685852 -0.1520712524652481 -1.0099406242370605 0.5914587378501892 1.1139235496520996 1.0498981475830078 -0.4014601707458496 -1.4479714632034302 0.5851325392723083 -0.5669683814048767 -1.2933030128479004 -0.2387513518333435 -0.0038812283892184496 0.7650246024131775 2.925323247909546 1.7203073501586914 0.47027119994163513 1.1494901180267334 2.3806204795837402 -1.4869529008865356 -0.01452773530036211 0.021770916879177094 -0.10897569358348846 0.6653691530227661 -0.07031912356615067 -0.5177049040794373 -0.9046006202697754 -0.07357150316238403 0.8095880746841431 -0.4167090952396393 -0.5831629037857056 1.4912465810775757 -0.23886547982692719 0.2711285948753357 -0.7589226961135864 -0.1890455037355423 1.4975152015686035 -1.2138274908065796 0.8319517374038696 0.5000614523887634 -0.0550568662583828 -1.0827165842056274 -0.5672377347946167 -0.6908065676689148 -2.403449773788452 -1.2918000221252441 -0.7528534531593323 -0.5428216457366943 0.3913462162017822 -0.7388902902603149 -1.9039216041564941 1.2414026260375977 -1.9616491794586182 -0.5526692271232605 0.6976591944694519 0.9870234131813049 1.086655855178833 0.7008597254753113 0.1115650162100792 -1.4584482908248901 -0.600654661655426 -0.872525691986084 0.38144591450691223 0.9303777813911438 -1.0060315132141113 0.4972911477088928 -1.1745554208755493 -0.5328911542892456 -0.38261210918426514 0.13348335027694702 1.58125901222229 0.9946418404579163 0.36874106526374817 0.7451328039169312 -0.5270635485649109 0.46201664209365845 -1.0292383432388306 -0.4429131746292114 1.1989083290100098 -1.3368529081344604 0.009800956584513187 -0.29205068945884705 -0.24145318567752838 1.6454665660858154 -0.35563957691192627 2.473362922668457 -0.8252800703048706 -0.21331749856472015 1.9608075618743896 -1.2259403467178345 0.09096019715070724 -0.7352505922317505 0.7121296525001526 0.43040212988853455 -0.3629739582538605 -1.2497600317001343 -0.21216492354869843 -1.5528032779693604 1.309277057647705 1.0857089757919312 -0.20842395722866058 -2.1121714115142822 1.4779303073883057 -0.158467099070549 0.30602729320526123 -0.541961133480072 -0.7137769460678101 0.9341756701469421 -0.4805651903152466 -0.9764389395713806 0.7821800708770752 2.0517330169677734 -0.9372742772102356 -0.593533992767334 0.34422391653060913 -0.39571264386177063 0.5885732173919678 -0.5810668468475342 -1.4331061840057373 -0.8745171427726746 -1.1831454038619995 -1.570182204246521 -1.0316771268844604 1.756450891494751 -0.29619482159614563 0.463399201631546 -0.10318617522716522 -2.243328332901001 -0.16051921248435974 0.5377100706100464 -1.3273605108261108 1.1261106729507446 2.4766790866851807 -1.5726062059402466 2.341803550720215 -1.3606535196304321 0.5618425011634827 1.4872738122940063 0.0806475505232811 0.9120253324508667 -0.41572922468185425 0.30679693818092346 -0.15706436336040497 -0.47851327061653137 0.850048840045929 0.955205500125885 1.1964128017425537 -0.5108512043952942 -0.21734106540679932 -1.2172433137893677 -1.2928061485290527 0.2756437361240387 -0.8452968001365662 2.006906032562256 -1.533166527748108 -0.9778441190719604 1.1931194067001343 -0.7180584669113159 1.2127385139465332 0.9172914624214172 0.35379713773727417 0.5402924418449402 0.7049847841262817 -1.9086281061172485 0.16729959845542908 -0.5511641502380371 0.331891804933548 -1.6718699932098389 -1.2249442338943481 -2.5470659732818604 -0.9616641998291016 -0.2658056914806366 0.765788197517395 0.5425783395767212 
vec6 -0.8416990637779236 0.8558645248413086 0.3100815415382385 -1.6277872323989868 1.330263614654541 -0.2559669017791748 0.6885180473327637 -0.4573694169521332 -0.5090000033378601 -0.8778972625732422 0.1087326928973198 0.2834107279777527 -0.9421419501304626 0.032076023519039154 -1.254994511604309 -0.5734395980834961 -1.536374568939209 -0.7337008714675903 -0.2389366775751114 0.00039407197618857026 -0.7439553141593933 1.1465116739273071 -1.1014748811721802 0.736784815788269 0.47378286719322205 0.933441698551178 0.5778319239616394 0.377140611410141 -0.26345717906951904 0.16600003838539124 1.22294020652771 -0.9661349654197693 -0.2696014642715454 -1.7514610290527344 -0.05370087921619415 -1.3634289503097534 0.8012807965278625 -2.6262855529785156 0.22020380198955536 1.9526917934417725 -0.9575133919715881 0.6057616472244263 1.018662691116333 0.5010412931442261 0.10216350108385086 0.8429486155509949 1.3562215566635132 0.024915996938943863 0.22990743815898895 -0.9682313799858093 -0.04907193407416344 2.9308621883392334 -1.6051983833312988 -1.46132493019104 2.144930124282837 1.2257722616195679 0.8032564520835876 -0.7053135633468628 -0.46152985095977783 -1.2261226177215576 0.5227860808372498 1.0941814184188843 1.1968681812286377 -0.8813398480415344 0.9953667521476746 0.4652169346809387 -0.937227725982666 1.0517406463623047 -1.2359880208969116 0.3786952495574951 0.031746815890073776 -0.3683966398239136 -0.40689533948898315 0.5699480772018433 1.5104169845581055 -0.7759039402008057 -2.4830470085144043 -0.5524767637252808 -0.7361315488815308 -0.764056921005249 -0.8009557127952576 0.9900423288345337 -0.2079012542963028 -1.118354082107544 0.4341396391391754 0.16275040805339813 -2.1657111644744873 -0.2138802707195282 -1.195764183998108 -0.062393251806497574 -0.13040104508399963 -0.5609453320503235 1.177981972694397 0.5610798001289368 0.46662044525146484 0.05825784429907799 0.7922144532203674 0.4807513654232025 0.5405286550521851 -1.2624469995498657 -0.43793582916259766 -0.3264123797416687 -0.36432722210884094 -0.17545516788959503 1.3251757621765137 -0.2113342434167862 -0.8174902200698853 -0.03677131608128548 0.49711713194847107 1.53045654296875 -0.613754153251648 -0.04970422387123108 -2.253939628601074 -2.0323758125305176 0.23957538604736328 0.9218186140060425 -1.165263295173645 -1.1126348972320557 -0.3031359612941742 0.9568803906440735 -0.5485286116600037 1.8882620334625244 0.010171112604439259 -0.8767939805984497 0.5358516573905945 0.41988062858581543 1.6498231887817383 0.1534384787082672 0.14512819051742554 0.6573341488838196 0.9968167543411255 0.3044660687446594 -0.4509122967720032 1.2977699041366577 2.5530800819396973 0.743055522441864 -0.21896043419837952 1.5547665357589722 0.025670496746897697 0.7575604319572449 0.5841382145881653 0.030415715649724007 -1.3084969520568848 -0.015051121823489666 -0.08543085306882858 -0.27128517627716064 -0.8492456674575806 -1.4619801044464111 -0.2007075697183609 0.15474696457386017 0.4807846248149872 -1.3853857517242432 -0.15376614034175873 -0.2887824773788452 -0.24481068551540375 -0.2596600353717804 -0.047812797129154205 -1.7475389242172241 -1.2658443450927734 0.4288361370563507 1.6680421829223633 -0.45549196004867554 -1.0786750316619873 1.606887936592102 0.06001420319080353 0.9345757365226746 -0.12399565428495407 0.6240943670272827 0.07812516391277313 0.5629352927207947 1.0210564136505127 -0.06665374338626862 1.1795322895050049 -0.7055246233940125 -1.029336929321289 0.34136390686035156 -0.7864716053009033 1.390250563621521 -0.27781906723976135 1.9965234994888306 -1.139714002609253 -1.2432091236114502 0.7461557984352112 -0.8420072793960571 -1.3112131357192993 0.4335482120513916 1.4274002313613892 -0.1337430328130722 1.4090937376022339 -0.25592511892318726 -0.7231970429420471 -0.44812914729118347 -0.8791012167930603 0.3957180380821228 -0.7882304787635803 -1.6216473579406738 -1.1822104454040527 -0.6287388801574707 1.3871948719024658 0.046979859471321106 
vec7 -0.019465899094939232 -0.19890831410884857 -1.4727035760879517 -0.5109614133834839 0.0007630731561221182 1.87533438205719 -0.6374562978744507 -1.4191409349441528 -1.4655100107192993 1.360454797744751 -1.082905650138855 0.909682035446167 0.5837308168411255 0.9966244697570801 1.6872150897979736 0.30689537525177 -0.49481773376464844 0.636420726776123 0.6392964720726013 0.9056872129440308 -0.30253851413726807 -0.1474357396364212 0.6162381172180176 -1.9723844528198242 -1.6723915338516235 -1.5730204582214355 -0.4144965410232544 1.3883188962936401 0.25119271874427795 1.1130009889602661 0.7670093774795532 0.026597794145345688 -0.5420637726783752 -1.0127391815185547 0.09721164405345917 -2.295605421066284 -1.6220601797103882 0.5772460103034973 -0.11224616318941116 1.6760560274124146 1.3765145540237427 -0.0921175479888916 1.3070846796035767 0.7443921566009521 1.0905050039291382 0.14913581311702728 1.300840973854065 -0.2591207027435303 1.2735390663146973 0.18770359456539154 -0.6573994755744934 1.014552116394043 -0.0938909575343132 -1.2169710397720337 1.2593283653259277 1.2058024406433105 2.144465446472168 1.57108473777771 0.3641068935394287 -0.1419329047203064 -1.474670171737671 1.515080213546753 0.955718994140625 -0.04838741570711136 0.7835490703582764 1.2434417009353638 -0.9393361806869507 0.9179118275642395 1.063112735748291 0.024530017748475075 -1.8840965032577515 -1.5642001628875732 -0.21461407840251923 1.0359822511672974 0.1939784437417984 0.4070257544517517 -1.712782382965088 0.44543778896331787 -0.3181579113006592 0.5714759826660156 -1.2303988933563232 -0.5647995471954346 0.16905932128429413 0.7348520159721375 0.4264625608921051 0.9188373684883118 -1.9890687465667725 1.1488990783691406 1.6142518520355225 0.46889299154281616 0.3400365710258484 0.13874679803848267 0.8080973625183105 0.9316084384918213 0.830485999584198 -0.822908878326416 0.21422947943210602 1.377122163772583 0.3249123692512512 -0.6825154423713684 -0.9537888765335083 -0.4082653522491455 -0.3818211555480957 1.0530391931533813 -0.9383763074874878 -2.191495418548584 -1.7272887229919434 -0.4259242117404938 0.7798990607261658 2.0765891075134277 -0.14559388160705566 0.6050161719322205 -0.7323623895645142 0.9053760170936584 0.99892657995224 -1.7222164869308472 0.2752087116241455 -0.926903247833252 -0.057321321219205856 0.2816293239593506 -1.1142675876617432 -1.203478455543518 -0.6368328332901001 0.6660487055778503 0.1885187327861786 0.3712376654148102 1.1273210048675537 1.5497496128082275 0.9557490348815918 0.26624539494514465 -0.020290106534957886 -0.3256262242794037 -0.6456706523895264 -0.8513005375862122 0.052542004734277725 -0.449811726808548 -0.554662823677063 0.8114711046218872 0.4138643145561218 0.2897445857524872 -0.03859689459204674 -0.52303546667099 -2.2519984245300293 0.7468665838241577 0.6192547082901001 0.8664799332618713 -0.14244917035102844 -2.782402992248535 -0.14821875095367432 0.364719420671463 1.558497428894043 -0.15134288370609283 -0.0737014189362526 -0.7759074568748474 -1.2256351709365845 -1.9780747890472412 -1.4804582595825195 -0.2556169033050537 0.6941956281661987 0.033155396580696106 0.8324289321899414 -0.513212263584137 0.3164951801300049 1.4710614681243896 -1.2407506704330444 0.01269354298710823 -0.9853812456130981 0.9714239239692688 -0.5819961428642273 -0.5408627390861511 -0.4668274521827698 0.4094559848308563 0.2416006177663803 0.016965096816420555 -0.33637145161628723 -0.14754869043827057 -0.08716216683387756 -0.025327924638986588 -0.508496105670929 0.9861990213394165 -0.7340871095657349 -1.9769287109375 -1.3924336433410645 -0.29636701941490173 0.13547196984291077 0.7787880897521973 -0.7994979619979858 1.6965574026107788 -1.032364845275879 0.5635436177253723 0.8227839469909668 -0.2768076956272125 0.20435306429862976 1.154438853263855 -0.6769474744796753 1.3739893436431885 -2.153208017349243 -0.7015318870544434 -0.017909249290823936 -0.6221145391464233 
vec8 -0.7160767912864685 0.2448994368314743 -0.6760671138763428 -0.6238052248954773 0.1015523374080658 -1.4096076488494873 0.5189698934555054 -0.09379928559064865 -0.642827570438385 0.6678023338317871 -1.4640547037124634 0.7855798006057739 1.5718868970870972 0.5182039737701416 -0.779360830783844 0.991635262966156 -1.422471046447754 0.7160466313362122 -1.7172939777374268 1.7506781816482544 -0.9790305495262146 -0.7154832482337952 -0.06475488096475601 -0.6570513844490051 -0.8617952466011047 -1.2143508195877075 -0.47706347703933716 0.14950348436832428 0.6500571370124817 0.1538166105747223 0.8351632356643677 -0.9329568147659302 -1.5303194522857666 -0.45705902576446533 -1.260956883430481 -0.2810024321079254 -0.719682514667511 -1.2304737567901611 1.0667411088943481 2.449144124984741 1.1227608919143677 -0.03677135705947876 1.0854783058166504 0.5965540409088135 0.15752921998500824 1.755074381828308 0.40130576491355896 -0.43992286920547485 0.06603541225194931 0.6889898180961609 -0.20558150112628937 2.3870115280151367 -1.9403228759765625 -0.23189374804496765 1.6549326181411743 -1.0575534105300903 0.3813493549823761 -1.3837238550186157 -0.019822273403406143 -0.692463219165802 0.032220203429460526 1.0301519632339478 0.6005277037620544 -0.0364442877471447 0.17082375288009644 2.650212049484253 -0.786537230014801 -0.46320754289627075 -0.029364438727498055 -0.45512518286705017 -1.2418678998947144 1.1510645151138306 -0.6750621795654297 -1.0848634243011475 -1.1331301927566528 -0.000325952802086249 -2.415989875793457 1.303786277770996 -0.3001031279563904 -0.31214895844459534 -0.7932645082473755 0.01909473165869713 -0.6379023194313049 1.1559385061264038 1.0997921228408813 0.2372921258211136 -0.13494639098644257 0.8404370546340942 -0.41394853591918945 0.25864335894584656 0.11780177056789398 -0.6023005247116089 0.6451948881149292 -0.14886735379695892 -1.7273215055465698 -2.023935556411743 -1.62651789188385 0.594394326210022 1.2902976274490356 -0.9965235590934753 -0.9596928954124451 -0.004559793043881655 -1.61598801612854 -0.41392698884010315 -0.04972948506474495 0.3945397734642029 -1.186030387878418 1.0080316066741943 1.611619472503662 1.4134496450424194 -0.6092329025268555 0.44177550077438354 0.06707414239645004 -0.44664621353149414 -0.40408191084861755 2.361640453338623 0.061871059238910675 -0.8322904706001282 0.06943665444850922 1.562679409980774 -1.6187690496444702 -0.10255727916955948 -1.4212301969528198 -1.7250308990478516 -1.1276004314422607 -0.6470218896865845 1.2368242740631104 0.4515349864959717 0.6060452461242676 0.9553563594818115 0.6541587710380554 -0.11951547861099243 -0.44757574796676636 -0.10736910253763199 1.4638208150863647 0.610804557800293 -1.17678701877594 0.09426651895046234 -0.3601788878440857 0.4641323685646057 -1.530989646911621 0.5389090180397034 -1.9091717004776 -0.8714519143104553 0.8055432438850403 -0.3838740885257721 0.4112298786640167 -0.13142718374729156 -1.7186143398284912 -0.16889803111553192 -0.1326592117547989 -0.11475276201963425 -0.6441153883934021 -0.6761351227760315 0.153388112783432 0.40745580196380615 1.9252656698226929 -0.31228601932525635 -1.2842220067977905 -0.6819992065429688 0.7523685097694397 -1.474668264389038 1.4020625352859497 0.07901746779680252 0.8867221474647522 0.7352148294448853 1.195544719696045 0.5939884781837463 -0.41068917512893677 0.9341226816177368 -0.11192464083433151 -0.22691303491592407 -0.28286299109458923 -0.6589905619621277 -1.000091314315796 -0.9907791018486023 0.8680856823921204 0.38239309191703796 1.3316782712936401 -0.7672023177146912 -0.547329306602478 -0.00044242560397833586 -1.0965303182601929 -1.6390752792358398 -0.7434624433517456 -1.7137776613235474 -0.13401199877262115 1.2141677141189575 -0.10115692019462585 -0.9654195308685303 0.8875646591186523 -0.6806142330169678 -1.720500111579895 0.7560346126556396 -1.3779269456863403 -0.9150458574295044 0.17130573093891144 -1.7866069078445435 -2.5981693267822266 -0.48625361919403076 
vec9 -0.6714543104171753 -1.1225932836532593 -0.4453859031200409 0.56528240442276 1.763026475906372 0.6972624659538269 -1.6338484287261963 0.5692457556724548 -1.2904678583145142 -2.125286817550659 -0.8681990504264832 -0.01777566596865654 0.7198255658149719 -0.5410119891166687 0.5898981094360352 -0.30421334505081177 -1.8560283184051514 -0.21499133110046387 -1.397420048713684 0.5068088173866272 0.10487024486064911 3.1628265380859375 -2.012514114379883 -1.3671979904174805 0.20015457272529602 -1.9962555170059204 -2.696751594543457 -0.8984026312828064 0.0007319969590753317 -0.17202669382095337 0.934930145740509 -0.8661214709281921 1.4974178075790405 0.4641522765159607 -0.9946781992912292 0.5583886504173279 -0.24370837211608887 0.267394095659256 0.30134639143943787 2.017849922180176 -0.42942163348197937 0.1883039027452469 0.7749853134155273 1.3114261627197266 1.2798089981079102 -1.0987458229064941 -0.8518723249435425 -0.4461831748485565 -0.3058816194534302 0.8560642600059509 -1.1788973808288574 1.577553153038025 -2.603975296020508 0.24721874296665192 2.9267396926879883 -0.029793603345751762 1.2644290924072266 0.8730325698852539 0.4875055253505707 0.5027655959129333 0.668148398399353 -0.5130197405815125 -0.7321136593818665 1.3946365118026733 0.24756234884262085 -0.32549551129341125 -0.11388712376356125 0.6150179505348206 0.5725191235542297 0.5298172831535339 0.2445330172777176 -0.9340686798095703 -0.7546926140785217 -0.01570831425487995 -0.30681419372558594 -0.1774575561285019 -2.309004783630371 -0.8078373670578003 0.2322322577238083 0.6040135025978088 0.42995768785476685 1.7754805088043213 -0.5742809772491455 -0.8405171632766724 0.6073618531227112 -0.46958819031715393 -0.2609131336212158 -0.21733427047729492 -1.064886450767517 -0.7356200814247131 0.7795966863632202 -0.7725304961204529 0.27770233154296875 1.2644538879394531 0.3540468215942383 -1.3373208045959473 0.17168377339839935 1.0458228588104248 -0.028950830921530724 0.6420139670372009 0.7574486136436462 -0.26626113057136536 0.0850650817155838 0.4082379937171936 0.1589043289422989 -0.6316537261009216 -0.038703855127096176 1.4501557350158691 0.9726001620292664 0.7629767060279846 -0.3124163746833801 0.3315068483352661 -0.42359018325805664 0.5963854789733887 0.15696178376674652 -0.20890137553215027 -2.046935558319092 0.09412200003862381 -0.009059249423444271 1.7756470441818237 1.145234227180481 -0.19938957691192627 1.5301544666290283 -0.4283332824707031 2.1575939655303955 3.363654136657715 -0.3801248371601105 0.4900599420070648 0.48745226860046387 0.9789909720420837 -0.7018486261367798 0.18897032737731934 -0.0014533363282680511 0.6457244157791138 0.22865168750286102 -0.16016043722629547 0.7722877264022827 1.1549720764160156 0.21329230070114136 -0.9886990189552307 -1.5019844770431519 -0.7204344868659973 -0.8934997320175171 0.5930225849151611 0.4424389898777008 -1.530584692955017 -0.6078134775161743 0.6710567474365234 0.15030615031719208 -0.26597216725349426 1.0085285902023315 0.4257807731628418 1.4231511354446411 0.5633429884910583 0.40500879287719727 -1.1378810405731201 0.540924072265625 -0.8306993842124939 -0.5626975297927856 0.578416645526886 -1.000096082687378 0.050577159970998764 1.2255842685699463 -0.48725172877311707 -1.5266884565353394 1.0894832611083984 1.3158482313156128 0.7796611785888672 -1.3252842426300049 -0.5758612751960754 0.36334821581840515 0.8228713274002075 1.440568447113037 -1.4831318855285645 1.4471230506896973 -0.25451982021331787 -0.2678489685058594 -0.11931362003087997 0.9944003820419312 -0.6940100789070129 -1.073257565498352 -0.5020943284034729 0.22120070457458496 -1.2302826642990112 0.9922311902046204 0.3946763277053833 0.9402756690979004 0.448867529630661 -0.2860475778579712 -1.7451627254486084 0.4013013243675232 -0.5820502638816833 0.6557340621948242 0.2939831018447876 -1.2096614837646484 -1.1644471883773804 -0.48498448729515076 -0.1153499111533165 -0.17945337295532227 -0.1670859456062317 
vec10 0.4817022383213043 1.3160027265548706 -0.49770233035087585 -0.4994385540485382 -0.3316674530506134 0.9725311994552612 1.100317358970642 1.1384061574935913 -0.4439363181591034 0.3606700897216797 0.37023961544036865 0.22385120391845703 1.643115520477295 -0.33691316843032837 1.793789267539978 0.5399691462516785 -0.12075202912092209 -0.6355794072151184 -1.6907525062561035 0.779879093170166 -0.8022363185882568 1.5289732217788696 -0.5240558385848999 -1.3010008335113525 0.5472863912582397 0.9822425842285156 0.4610217213630676 -0.4042492210865021 0.5811545848846436 -0.2569635808467865 0.2816147208213806 -0.8698076009750366 0.6119239330291748 -1.6595649719238281 0.6203176975250244 -1.0150145292282104 -1.2107219696044922 -0.7904981374740601 -1.180854082107544 2.378591537475586 -1.4100209474563599 0.9084767699241638 -0.9055748581886292 -0.004248278681188822 -0.2257096767425537 0.7233073115348816 1.2172858715057373 0.22633503377437592 0.06731919199228287 1.594716191291809 -0.6167528033256531 0.21582549810409546 -1.3802337646484375 0.0896967202425003 1.3272064924240112 1.121649980545044 1.6468451023101807 0.37331461906433105 -0.1554497927427292 -1.2923983335494995 0.07580969482660294 0.040365152060985565 1.7391932010650635 0.08021233230829239 2.163865566253662 0.1500103920698166 -1.3886728286743164 -0.18229568004608154 0.12298472225666046 1.0519894361495972 -1.6382571458816528 -2.5904853343963623 0.089914470911026 -0.7408246994018555 0.23217415809631348 0.10981107503175735 -1.2273390293121338 1.3867111206054688 -0.4857136905193329 0.5581086277961731 -0.1389683187007904 -0.4282592236995697 1.2284250259399414 -0.24973389506340027 -1.0059925317764282 -0.2959820628166199 -1.4621528387069702 -0.3436286151409149 1.0812655687332153 0.7644947171211243 -1.2683119773864746 -0.4006660282611847 -0.24614481627941132 0.9682081341743469 1.5836091041564941 0.004650266841053963 0.3516860604286194 1.1522618532180786 0.45682740211486816 1.4198464155197144 -0.737535297870636 -0.9685092568397522 0.036888375878334045 -0.14844201505184174 1.006925344467163 0.019456055015325546 1.0920692682266235 -0.0899912640452385 -0.48409849405288696 1.2396396398544312 -2.196582555770874 0.25334805250167847 0.1298842579126358 -0.6175311803817749 0.6756256818771362 -0.5932332873344421 -0.5684099197387695 -0.7308250665664673 0.5113235712051392 1.6486783027648926 -0.297029972076416 -0.9809668660163879 1.999895691871643 0.2775384783744812 0.4846607744693756 0.7757290601730347 0.6348686218261719 0.2056938260793686 0.12688876688480377 0.7899506092071533 0.5870345830917358 -0.3011373281478882 -0.8562145233154297 0.3582196831703186 -0.1016162559390068 0.2203226238489151 1.1124565601348877 0.03332099691033363 1.980079174041748 0.04774388298392296 0.3403044044971466 0.7031928300857544 -1.6141670942306519 0.5989736914634705 0.8741323947906494 -0.37410086393356323 0.3538460433483124 -0.1320938616991043 1.3049463033676147 -0.08103609830141068 0.3658822774887085 0.4654475748538971 -0.4113616943359375 0.8719633221626282 0.24736885726451874 -0.044950611889362335 -1.1400460004806519 0.13966260850429535 -0.7790660262107849 0.5572200417518616 1.0962389707565308 -0.5236239433288574 -0.23060664534568787 0.10817348212003708 -0.27717360854148865 -1.4189287424087524 -1.2372572422027588 -0.26747825741767883 -0.9288117289543152 -2.173100233078003 -0.01797318272292614 -1.558110237121582 0.9135955572128296 0.07195857167243958 -0.29785633087158203 0.22733774781227112 -1.7526524066925049 -0.33810529112815857 -1.5969480276107788 1.8545316457748413 -1.372768759727478 -2.1196811199188232 0.8818616271018982 -0.07642114907503128 -0.2743892967700958 -0.6285418272018433 -0.5675198435783386 2.317906141281128 0.06368464231491089 1.0849645137786865 1.1751048564910889 -0.4949829876422882 -1.0670193433761597 0.6736444234848022 -0.03162806108593941 -0.19308318197727203 0.1923389881849289 -0.6647553443908691 0.048709191381931305 0.02264668233692646 
vec11 -1.1546828746795654 -0.3316153585910797 -0.007704395800828934 0.22128413617610931 0.4817943871021271 -1.0513077974319458 0.998660683631897 0.5563139915466309 0.5311269164085388 0.6155802607536316 0.5061813592910767 0.958893895149231 -0.7984979152679443 -1.0590364933013916 -0.08627662062644958 0.22896890342235565 -0.10492198914289474 1.856248378753662 -0.6161367297172546 0.8583920001983643 0.5257886052131653 -0.9500190019607544 0.5995145440101624 -1.4029569625854492 -0.7756463289260864 1.5699048042297363 -0.6444709897041321 0.22861945629119873 0.4959608018398285 -1.1118258237838745 2.4456586837768555 1.1212676763534546 0.8765854835510254 0.8747584223747253 -1.0230841636657715 -1.103896141052246 1.1819827556610107 0.35165688395500183 0.14114755392074585 1.4391238689422607 -1.3874448537826538 0.8084339499473572 0.530950665473938 0.7889984250068665 -0.2708541750907898 1.4216477870941162 -0.5427135825157166 0.18803758919239044 1.584624171257019 0.9084168076515198 0.8894714117050171 0.9895177483558655 -0.3857855200767517 1.2978177070617676 1.0272327661514282 2.138197183609009 0.2914748787879944 0.4124598503112793 0.7745351195335388 -1.007223129272461 -0.6188627481460571 0.2506740391254425 -0.9469558000564575 -0.2641550898551941 1.1355929374694824 -0.7229452133178711 -0.5124560594558716 -0.7432502508163452 -1.6606817245483398 -0.3387196660041809 0.3202764689922333 0.9013625979423523 0.4000777006149292 -1.0262718200683594 -0.5537403225898743 1.0940501689910889 -1.1488264799118042 -0.4907878637313843 -0.09823086857795715 0.06416264176368713 -0.8442896008491516 0.9755508899688721 0.5403895378112793 -0.07301722466945648 -0.3678586483001709 0.4424279034137726 -2.540388345718384 -0.38505637645721436 0.4044155776500702 -0.9780555963516235 0.6929017901420593 -0.0064248936250805855 0.6197442412376404 -0.5418416857719421 0.32038572430610657 0.08606527000665665 0.11766180396080017 1.4135451316833496 0.6636452078819275 -0.20244720578193665 -0.9728129506111145 0.9372193217277527 -0.4397019147872925 -1.3509471416473389 -0.4667820334434509 1.2775954008102417 -0.44301408529281616 -1.7973682880401611 0.07833685725927353 2.16536545753479 -3.1922292709350586 0.013568813912570477 -0.6848728060722351 0.24030135571956635 1.586160659790039 0.2699384093284607 -1.3378725051879883 -0.07720411568880081 0.36265823245048523 0.34110039472579956 1.0295226573944092 -0.1830596774816513 -0.3004382252693176 0.7557421326637268 1.3455512523651123 -0.7448344230651855 -1.2097946405410767 1.1851146221160889 0.44081738591194153 -0.32683175802230835 -0.4466838538646698 -0.17310264706611633 1.7982522249221802 -1.0011022090911865 1.2885336875915527 1.44985830783844 0.6956071257591248 -1.5878099203109741 0.5186722278594971 0.1505117416381836 -0.607593297958374 -0.6274560689926147 -1.0580134391784668 -1.3875867128372192 1.3369084596633911 1.7547484636306763 -0.37503349781036377 -0.0002930463233496994 -1.1124117374420166 1.5482794046401978 0.5671685934066772 -0.14339479804039001 1.3714001178741455 0.6005589365959167 -0.08274617046117783 -0.9410722255706787 1.962364673614502 -0.873466432094574 -0.7234696745872498 0.04968782141804695 1.5860211849212646 -0.27628204226493835 -1.219527006149292 -0.2690685987472534 -0.921445369720459 0.7898788452148438 -0.20522627234458923 0.14272110164165497 0.251459002494812 -0.561578631401062 -0.0003234569157939404 0.30795741081237793 1.5044971704483032 1.1827949285507202 -0.23508425056934357 -0.039220526814460754 -0.27842602133750916 0.7650125026702881 -1.1755211353302002 -1.207902193069458 -0.9404943585395813 -1.3782775402069092 -0.8199201226234436 -0.9629923105239868 2.528775215148926 1.8102872371673584 -1.1438231468200684 0.4811718463897705 -0.43864500522613525 -0.9173678755760193 1.9560445547103882 0.929222047328949 -0.4384040832519531 -1.9608384370803833 -1.1275050640106201 -0.4971444010734558 -0.2749183773994446 -0.6300010085105896 -0.9041873216629028 -0.2640462815761566 
vec12 0.6878932118415833 0.09155579656362534 0.5958729386329651 -0.35396724939346313 -0.3723333179950714 -0.03277486190199852 0.7088117003440857 0.4119051396846771 -0.1447214037179947 -0.10029008984565735 0.7393752336502075 -0.1683322787284851 1.1220030784606934 0.30477020144462585 -0.03233153373003006 -0.4171992838382721 -0.8192644715309143 0.24484017491340637 -0.7290916442871094 3.5929951667785645 -1.5154165029525757 -0.6080405712127686 0.4567565321922302 -1.2209793329238892 1.4897127151489258 0.3123415410518646 -2.2497472763061523 0.21934352815151215 -0.23530827462673187 1.2386174201965332 0.9720901846885681 1.1892799139022827 1.6285489797592163 -1.46615469455719 -0.6031336784362793 -0.023143300786614418 -0.09609650820493698 0.7548721432685852 1.703984260559082 -0.16997398436069489 0.6718327403068542 -0.949378252029419 -0.6937301158905029 -1.2444995641708374 -0.7150679230690002 0.17094182968139648 0.37651532888412476 -0.5329278707504272 1.5735836029052734 0.5336242318153381 0.675277054309845 -0.29699474573135376 -0.2501329779624939 -0.9841422438621521 1.8419322967529297 -0.5519841909408569 0.6155043840408325 -0.5976012349128723 -0.7717275619506836 -1.6574394702911377 -1.1983740329742432 1.0811760425567627 0.34044957160949707 0.4519002139568329 0.5352463722229004 0.6971675157546997 -0.7481362819671631 -1.2313530445098877 -0.8845577239990234 0.18463119864463806 -1.8315792083740234 -0.12365211546421051 0.24863694608211517 -0.3850448429584503 2.035527467727661 -1.599812626838684 -0.6251110434532166 0.48659709095954895 1.4079697132110596 -0.09526319801807404 1.2748464345932007 -0.2100871503353119 -1.2142574787139893 -0.7140809893608093 1.3489305973052979 -1.8357266187667847 0.46994107961654663 -2.3300418853759766 -0.339667946100235 0.49685338139533997 0.8816543221473694 -2.017241954803467 1.1764823198318481 0.19260114431381226 0.15648937225341797 -0.9067527055740356 -0.29960834980010986 0.2956480383872986 -1.2948353290557861 1.2365083694458008 0.6824400424957275 -1.7632733583450317 -0.05640874430537224 -2.061838150024414 -0.8510656952857971 0.3353818655014038 0.8602129220962524 1.2463034391403198 0.060394469648599625 -0.15259216725826263 0.36401137709617615 -0.16754096746444702 0.04155583307147026 -0.005291190929710865 1.1514737606048584 -0.40081703662872314 -0.4244883358478546 -0.038033630698919296 1.1132138967514038 -0.7416972517967224 -2.1774158477783203 1.4017364978790283 -0.1830795705318451 -1.642222285270691 -0.13352054357528687 1.9218274354934692 0.9644988775253296 0.5322472453117371 -0.7860440015792847 0.7622829675674438 -0.21946562826633453 1.6738771200180054 -0.021009407937526703 -0.6141124367713928 0.7528286576271057 0.54729163646698 0.31253743171691895 0.42645299434661865 0.03083636611700058 0.23746171593666077 -0.5978325605392456 -0.3122037351131439 0.17165635526180267 -0.9120692610740662 0.3222303092479706 0.6248733401298523 -0.11350038647651672 1.7695006132125854 0.32542547583580017 -0.6516039371490479 1.069822072982788 -0.7526916265487671 0.42824727296829224 -1.3511412143707275 0.1265096217393875 0.8437803983688354 -0.8455991744995117 -0.8234463930130005 -0.6844580173492432 1.158323049545288 0.22386054694652557 0.37932753562927246 -0.6032014489173889 -0.22378823161125183 -1.3508535623550415 -0.22062282264232635 -0.19015981256961823 0.4750719368457794 -0.3928915560245514 -0.8321554064750671 0.0929875299334526 -0.8485050797462463 -0.6278733015060425 -0.7626307010650635 -0.7555010914802551 -0.837948203086853 -0.5994883179664612 0.7815305590629578 0.02581310272216797 1.1395505666732788 -2.619718551635742 -0.3021989166736603 -0.6939494609832764 -1.9396543502807617 0.5070689916610718 -0.2086361199617386 1.5345196723937988 1.385035753250122 -0.7387690544128418 -0.7095014452934265 -0.6032792329788208 -0.7643623948097229 -0.02015131339430809 -0.6751303672790527 -0.15039324760437012 0.5726104974746704 -1.090825080871582 -0.2322380095720291 0.4183008074760437 -1.657932996749878 
vec13 0.3615802526473999 -1.4828389883041382 -0.0531960129737854 -2.0756335258483887 -0.10382656753063202 0.08090565353631973 0.2838080823421478 -1.221549153327942 -1.172127366065979 -1.940860629081726 -0.3530663549900055 -0.9062917232513428 0.8252142667770386 -0.5112621188163757 -0.9555974006652832 1.7201755046844482 -0.7579746246337891 2.434044122695923 0.022378701716661453 -0.0892442911863327 0.7046670913696289 -1.17263662815094 -1.4994908571243286 -1.1276062726974487 -0.18869680166244507 0.9767516255378723 -0.9056517481803894 0.634942352771759 0.3651675879955292 -0.9764398336410522 1.1273735761642456 -0.09741856157779694 -1.0721684694290161 -0.3261655867099762 0.896612286567688 -1.1850112676620483 0.21212132275104523 0.9190269112586975 -0.037337470799684525 2.142850160598755 0.600044846534729 0.16906636953353882 0.6846882104873657 0.8317300081253052 -0.6392550468444824 0.8405226469039917 -0.6405029892921448 -0.12709036469459534 -0.10253506153821945 0.5641390681266785 -1.2978867292404175 -0.31976988911628723 -0.6021270751953125 1.2190911769866943 0.38512352108955383 0.36029601097106934 0.4764493405818939 0.6993533968925476 0.38922780752182007 0.4384295344352722 -2.6651477813720703 0.8182857632637024 1.1385191679000854 0.8593000769615173 -0.41197216510772705 1.445857286453247 0.9149197936058044 -1.8445369005203247 -0.4802303612232208 -0.47007066011428833 -0.6073517203330994 -0.28550663590431213 -1.3990142345428467 0.8978776335716248 1.6992663145065308 -0.37740516662597656 -2.4362986087799072 -0.2090608775615692 -0.33972612023353577 -1.5113258361816406 -1.1848341226577759 -0.08059896528720856 0.19947822391986847 0.7075701951980591 0.6437656283378601 0.13742512464523315 0.3919607102870941 -1.770795226097107 -0.02400154434144497 1.315985083580017 1.8206384181976318 0.6820350885391235 -0.3801121413707733 1.0946415662765503 0.9384209513664246 0.8173701763153076 0.8017231822013855 1.7696192264556885 0.1118350476026535 -1.5063012838363647 -0.38146254420280457 -1.055942177772522 -1.1684749126434326 -0.9732272624969482 1.5360678434371948 -1.7244564294815063 -1.3870892524719238 1.382249116897583 1.3017555475234985 0.17448200285434723 0.9138117432594299 1.7461800575256348 -0.18916361033916473 0.27161192893981934 -0.45944398641586304 0.7198953628540039 -0.3840610086917877 -0.5568817853927612 0.34086868166923523 1.7407355308532715 0.795068085193634 -0.581520140171051 -0.7998458743095398 -0.8652614951133728 0.7678772211074829 0.9268500804901123 0.8617689609527588 -0.9141589403152466 0.3699006736278534 1.066231608390808 -0.1267397552728653 0.7616610527038574 0.8514012098312378 -0.5681353211402893 0.8669843673706055 2.729654550552368 -0.022188128903508186 0.40215277671813965 0.5161929726600647 0.4129793047904968 0.12899214029312134 -0.05545416846871376 -1.175903558731079 -1.1992586851119995 1.0627481937408447 -0.6268060803413391 0.2263406664133072 -1.369495153427124 -0.30629825592041016 -0.25049346685409546 1.1729837656021118 -0.12693051993846893 -0.3899933993816376 0.5649352669715881 0.2421489804983139 -0.4062597155570984 -0.5309004187583923 0.8308150768280029 -0.874619722366333 1.224185824394226 1.5597693920135498 -1.3571916818618774 -0.42728328704833984 0.6914350986480713 0.7966047525405884 0.5904185175895691 -1.5763297080993652 0.19856180250644684 -1.2785402536392212 0.5674272775650024 -0.7032256126403809 -0.5619255900382996 0.9804592132568359 1.0840144157409668 -0.13682907819747925 -0.34282922744750977 -1.1635698080062866 -0.9352515339851379 -0.8268855810165405 1.1341475248336792 -2.656134843826294 0.08893965184688568 -1.633912444114685 -0.16022369265556335 -0.05115269497036934 1.4973788261413574 0.13544543087482452 -0.121337890625 -0.6055102944374084 -1.5212475061416626 1.0077710151672363 -1.167520523071289 -0.46204090118408203 0.8113598823547363 0.27686798572540283 -0.5329300165176392 -0.0783311054110527 -0.5104545950889587 -0.29011353850364685 0.576856791973114 
vec14 0.15076540410518646 0.7924085855484009 -0.1904822736978531 -1.0010159015655518 0.18821164965629578 -1.355879306793213 0.782649576663971 0.036788735538721085 -1.1854887008666992 -0.1396421194076538 -0.39651069045066833 0.05529974028468132 1.1219185590744019 0.9295082688331604 2.3636159896850586 0.6300017833709717 0.2763034701347351 0.17245149612426758 0.5054576396942139 0.6349560022354126 0.0816257894039154 0.27895069122314453 1.3831993341445923 -1.2749710083007812 0.26051780581474304 -0.8383817672729492 -0.9515178799629211 0.12541531026363373 -0.25446978211402893 0.4052163064479828 -0.6487508416175842 0.703386664390564 -0.37462756037712097 0.3854093551635742 -0.506472647190094 -1.725258231163025 -0.8315980434417725 -0.9432702660560608 -1.0481159687042236 1.0728189945220947 0.6213115453720093 1.5707253217697144 -0.47656044363975525 0.2435666173696518 -0.3563980162143707 0.6991221904754639 0.01725667528808117 1.1056325435638428 0.5811785459518433 1.643296718597412 0.810995876789093 -0.41868865489959717 -0.8040598630905151 -0.046774931252002716 1.9358296394348145 2.2113595008850098 1.3396635055541992 0.48454418778419495 -0.7494227290153503 0.43163132667541504 0.8471453785896301 -1.0771020650863647 0.7751694917678833 0.019221438094973564 1.592575192451477 0.743995726108551 -1.0132331848144531 -0.3873540461063385 -1.4881681203842163 0.3612181544303894 -0.34028762578964233 0.6566981077194214 0.7767665386199951 0.29949602484703064 1.4086835384368896 0.2414482682943344 -1.3803739547729492 0.5415241122245789 0.24428190290927887 -0.8350864052772522 -0.16345399618148804 -0.5793291330337524 -1.6226975917816162 0.37903904914855957 -0.1969115287065506 0.6615665555000305 -0.7756585478782654 -0.8764561414718628 1.4807939529418945 1.3005039691925049 1.2584761381149292 1.0911082029342651 1.1459742784500122 -0.263184130191803 0.8126881718635559 -0.8061344623565674 0.5041775107383728 0.9448525309562683 0.11432333290576935 -0.7077487707138062 -1.2479016780853271 -0.7798294425010681 0.27708670496940613 0.011165509931743145 0.3015795350074768 -2.2388572692871094 -0.2884829640388489 1.3432655334472656 1.5978364944458008 1.5126487016677856 -0.7986489534378052 -0.20160752534866333 0.5702876448631287 0.06660144031047821 0.5193361043930054 -0.9153996109962463 0.8449789881706238 1.1336649656295776 -1.0164551734924316 0.38856780529022217 0.16384978592395782 0.8190353512763977 -0.3213582932949066 0.5761091709136963 -0.14539054036140442 1.1400965452194214 0.29679054021835327 -0.1007513776421547 0.7689969539642334 -0.016944952309131622 -0.6876652836799622 -0.08199724555015564 -0.2838819921016693 -0.8632393479347229 1.201788067817688 -0.5483435392379761 0.7248542904853821 0.6148757934570312 -1.8157739639282227 -2.4560351371765137 0.7768051624298096 -0.6889076232910156 -0.36443302035331726 -0.5663831233978271 0.2617330849170685 -0.14685186743736267 1.3920613527297974 -3.156287670135498 0.3656505346298218 1.2971181869506836 0.12961448729038239 -0.8478173613548279 0.44956326484680176 -1.0191189050674438 -0.21501578390598297 -1.899098515510559 -0.506305992603302 0.7818918824195862 -1.8053815364837646 -0.8129602074623108 1.2097487449645996 -0.4943004250526428 0.9838950634002686 0.6049594283103943 -0.6980185508728027 1.5787527561187744 -0.08017020672559738 1.6761988401412964 1.2728466987609863 -0.30213499069213867 0.16820164024829865 -0.10069482028484344 1.0221295356750488 -0.5458987355232239 0.6951807737350464 -0.23265531659126282 0.8804084062576294 -0.6041684150695801 -0.8784615993499756 0.5551552772521973 -3.440509557723999 -0.39267125725746155 0.3251214325428009 0.1034272164106369 -0.05110156163573265 1.158358097076416 0.689108669757843 1.3128427267074585 -0.012188305146992207 1.1209019422531128 1.1234840154647827 -1.5817490816116333 0.5491867065429688 1.08765709400177 -1.1448900699615479 -0.5835627317428589 -1.0393152236938477 -0.9528207182884216 1.004178762435913 0.45177796483039856 
vec15 -0.5333235263824463 0.27947306632995605 -0.5846797227859497 -0.4814089834690094 0.6781189441680908 -0.7558571100234985 0.1554604470729828 -1.2111009359359741 -0.2574141323566437 0.046774908900260925 -1.6330333948135376 1.6917189359664917 0.3682941794395447 -0.0959666296839714 -0.49197813868522644 -0.16041716933250427 -0.4827049672603607 -1.445619821548462 0.7793018221855164 0.48774418234825134 -1.3332728147506714 -0.06251278519630432 -0.6620525121688843 -2.3902883529663086 -0.3830147683620453 -0.17060397565364838 -1.0999432802200317 0.5452370047569275 0.3897785246372223 -0.515791118144989 0.6413735151290894 -1.2742432355880737 1.480251431465149 -0.07121242582798004 0.142000213265419 -1.083353042602539 0.9486554861068726 -0.41448745131492615 -1.82456636428833 2.9852538108825684 -0.7600891590118408 -0.25122499465942383 -0.7663058638572693 0.8209300637245178 0.7509734034538269 0.06745047122240067 -0.6416049599647522 -1.0826728343963623 0.5172234177589417 -0.8558160066604614 0.8867353796958923 0.5251760482788086 -0.4010844826698303 -0.09214907139539719 1.3942766189575195 -1.3807953596115112 2.536945104598999 0.30359792709350586 1.8126747608184814 -1.2676628828048706 0.15489186346530914 0.5546897649765015 1.3627156019210815 1.934317946434021 4.061636924743652 0.6372604966163635 -1.9490270614624023 -1.450157642364502 0.2213737666606903 0.6531212329864502 -0.25051963329315186 0.37253546714782715 -1.945921778678894 0.4585127830505371 1.2465649843215942 -0.1601780652999878 -0.5841584801673889 -0.44353336095809937 -1.2041473388671875 -0.9168604612350464 0.6350772380828857 1.286218285560608 -1.3444020748138428 -1.4742112159729004 -0.9936480522155762 0.63823002576828 -0.02553698606789112 -0.960919201374054 0.5063386559486389 0.6672239899635315 0.14703837037086487 0.44952815771102905 0.24752913415431976 -2.288221597671509 1.7670538425445557 -0.23201113939285278 -0.3165476620197296 0.558140754699707 0.90436190366745 -1.2679507732391357 0.6458404064178467 -0.16751673817634583 -1.8884402513504028 0.7163411974906921 0.33131518959999084 -0.5670071244239807 0.4185206890106201 -1.160959243774414 1.1468487977981567 0.5271099805831909 -0.86921226978302 0.48102009296417236 -0.6052097082138062 0.2258666604757309 1.6595345735549927 -0.18769708275794983 -0.7347873449325562 -0.18917648494243622 -0.6399819254875183 2.0831620693206787 -0.6413739919662476 0.4761640131473541 -1.608060359954834 -0.35918229818344116 0.58308345079422 -0.2991761267185211 0.6906633973121643 0.16174018383026123 -1.8020973205566406 0.9118761420249939 -1.1079093217849731 -1.0847357511520386 1.1714404821395874 -1.351883053779602 1.809159278869629 1.287432074546814 -0.12668342888355255 0.6154640316963196 0.003608353203162551 -1.449370265007019 0.8405619859695435 -0.24327968060970306 -0.5948671102523804 -0.5147163271903992 0.7973564267158508 0.20874814689159393 -1.1556410789489746 0.39647042751312256 -0.2918589413166046 2.3957722187042236 -0.6065456867218018 -1.6356685161590576 2.0518555641174316 -0.3811514377593994 0.46782350540161133 -0.5851642489433289 -0.7477101683616638 -1.325916051864624 0.7255407571792603 -0.849150538444519 -0.16109523177146912 -1.2403464317321777 0.14357271790504456 1.126358985900879 -1.1591033935546875 -0.3665716052055359 -0.7001839280128479 2.3159451484680176 -1.2922101020812988 -0.9311131834983826 2.3102660179138184 -0.44275936484336853 0.8899944424629211 0.8519147634506226 -0.843734085559845 -0.9870337247848511 -0.7705649733543396 0.6490162014961243 0.013864956796169281 -0.3512299656867981 -1.7679760456085205 0.16054396331310272 -0.20581738650798798 0.1659669429063797 -1.4234639406204224 1.2366520166397095 -0.3570246398448944 1.2513134479522705 0.39394932985305786 0.4554479122161865 1.7580311298370361 0.15917183458805084 0.027442317456007004 0.8773239850997925 1.2022573947906494 0.19550354778766632 -0.04512229189276695 0.010079681873321533 -0.2378760129213333 0.4657074213027954 
vec16 -0.862691342830658 0.6008347868919373 0.8668580651283264 0.23560157418251038 0.3275485634803772 0.6244107484817505 0.8079210519790649 0.19414308667182922 0.7699746489524841 -0.1731935292482376 -0.7775753140449524 -0.4949236810207367 0.4450557231903076 -0.5660748481750488 -0.5233360528945923 0.8243061900138855 0.4171752333641052 -0.11577847599983215 -0.9184476137161255 -0.007038948591798544 0.5193701386451721 -0.9978171586990356 -1.079659342765808 -1.2001873254776 -0.438759982585907 1.1817960739135742 -0.014001427218317986 -0.1763366162776947 0.8068579435348511 0.19918851554393768 -1.326433539390564 0.41889986395835876 -1.3475754261016846 -0.7756518125534058 0.427773118019104 -0.6995716094970703 -0.5209353566169739 1.4035351276397705 1.4883652925491333 2.4230291843414307 0.779581606388092 0.6807445287704468 -0.1489117443561554 0.7412187457084656 -1.901045560836792 -0.4023892283439636 -1.6003787517547607 0.6426907181739807 -0.9541692733764648 -0.06741254776716232 -1.9025592803955078 1.275672197341919 -0.3846677243709564 0.6924113035202026 1.8361150026321411 0.05138428509235382 -0.5342381000518799 1.2761396169662476 1.2958178520202637 -0.7152867913246155 -1.6765093803405762 0.9536749124526978 1.439258337020874 1.8043407201766968 -0.5367106795310974 -0.7837733030319214 0.5085232853889465 0.2675798833370209 0.6623295545578003 1.3113683462142944 -0.9348478317260742 -0.1955731064081192 0.1703166961669922 -0.9827309250831604 -0.4661736786365509 1.1455235481262207 -1.03657066822052 -0.24212610721588135 0.06407172232866287 0.17575648427009583 -0.43403032422065735 0.7131223082542419 -0.07902093231678009 0.9673222899436951 -0.383258193731308 0.0026846537366509438 -1.2649677991867065 0.7079517841339111 -0.5492890477180481 0.03226212412118912 1.527867317199707 -0.6086351871490479 -1.4338756799697876 -0.8546660542488098 0.7701112031936646 -0.7915157675743103 0.9463567137718201 2.6342406272888184 0.6498029828071594 0.2950212061405182 -0.3563264310359955 -0.888818621635437 -0.7244829535484314 -0.3603263795375824 -0.9689204692840576 -0.07484239339828491 -1.023537039756775 -0.7613074779510498 1.3955668210983276 0.4115771949291229 -0.0964391902089119 0.16436424851417542 -0.20832635462284088 -1.3409252166748047 0.6848264932632446 -1.0632575750350952 0.25566351413726807 0.6188070774078369 0.765167772769928 2.9858596324920654 0.8269493579864502 -0.4910476505756378 1.90884530544281 -0.15691697597503662 0.29871058464050293 -1.7516831159591675 0.27909091114997864 -1.3431055545806885 -1.269698143005371 0.4851002097129822 -0.048284463584423065 0.22866332530975342 -0.7938511967658997 -0.3391132056713104 0.09251422435045242 0.4364420771598816 -0.3969329595565796 0.84855055809021 1.777384877204895 -0.34288638830184937 0.6150510311126709 0.16395704448223114 -0.5715303421020508 0.8375016450881958 -0.17542804777622223 1.6966177225112915 -0.6945822834968567 -1.8957085609436035 0.46348950266838074 -1.1575642824172974 0.6342297792434692 -0.31239596009254456 -0.19616754353046417 -0.336587518453598 1.4954296350479126 -1.2841347455978394 -0.5327059626579285 1.3964619636535645 -2.066044807434082 -0.6876541376113892 1.4320865869522095 -1.7586652040481567 -0.3255789279937744 0.282925546169281 -0.163383349776268 1.0368282794952393 -0.10087138414382935 2.154564380645752 0.5929848551750183 2.768080949783325 -1.532992959022522 0.10999494791030884 1.8625341653823853 -2.027024984359741 -1.743485689163208 -0.41814082860946655 0.44076693058013916 0.23864775896072388 0.0013555906480178237 0.15034107863903046 -1.603851318359375 0.6355172395706177 -0.4863962233066559 -0.7805155515670776 -0.15952207148075104 -0.06812752038240433 -0.43109753727912903 1.3020888566970825 0.12847360968589783 -0.500361442565918 -0.4795127511024475 -0.7039521932601929 1.4955986738204956 0.7626296281814575 0.4046476185321808 0.37449607253074646 -0.5033150315284729 -1.7588396072387695 -0.9647403359413147 -0.13358257710933685 
vec17 -0.35904282331466675 0.21954675018787384 -0.4491312801837921 -0.5450847148895264 0.2582875192165375 2.263885498046875 -1.4122328758239746 -0.13615095615386963 0.13347935676574707 -0.4303566515445709 -2.1650149822235107 -0.0010336359264329076 0.8523409366607666 -0.633375346660614 -0.0655323937535286 -0.42096641659736633 -2.0704562664031982 -0.5485367774963379 -0.821989119052887 -2.155836582183838 -0.486364483833313 1.0266427993774414 0.3659804165363312 -0.10230322182178497 0.8742979168891907 0.4024147093296051 -0.9040122628211975 0.13926099240779877 -1.0258841514587402 -0.09068304300308228 1.8054150342941284 1.0145591497421265 0.3249930441379547 -0.19289739429950714 0.41583630442619324 0.5433674454689026 -1.1646560430526733 1.4915392398834229 -0.9172712564468384 1.4721834659576416 -0.5019299983978271 -0.8796516060829163 0.05992073938250542 0.6280072331428528 2.081329107284546 -1.3845806121826172 -0.020252397283911705 0.9626491069793701 0.6930361390113831 -0.13132138550281525 -1.0893127918243408 1.0349905490875244 0.7907963991165161 -0.8626620769500732 1.5515633821487427 1.0826051235198975 0.24237537384033203 1.093337059020996 1.7112971544265747 -1.5381207466125488 0.5756818652153015 1.111769437789917 0.8218227028846741 0.010463254526257515 0.43265894055366516 0.06127527728676796 -2.198282480239868 -0.01667947880923748 0.5435160994529724 0.3733038604259491 -1.2544437646865845 -1.2483383417129517 -1.2082723379135132 0.0426035150885582 1.9903934001922607 -3.3914878368377686 -1.1222870349884033 -0.297607958316803 -1.1565146446228027 0.2818182408809662 -0.15752844512462616 1.650704026222229 0.4645582139492035 0.6716495156288147 1.3368579149246216 -0.4531315565109253 -0.769153892993927 -0.6705435514450073 -1.0834834575653076 1.7879981994628906 0.6237388253211975 1.2291395664215088 -0.34905532002449036 -0.11762410402297974 0.5406318306922913 -0.9001653790473938 -0.2571389675140381 2.830042600631714 0.11212386190891266 1.3362993001937866 -0.6765961050987244 0.943637490272522 -1.5864191055297852 -0.6720846891403198 -0.8088028430938721 -0.2334645837545395 0.47479063272476196 -0.06768352538347244 2.9707069396972656 0.6132210493087769 -0.9802656769752502 0.26301881670951843 -1.937103509902954 0.5435289144515991 0.31820037961006165 -0.9023369550704956 0.6151718497276306 1.4994255304336548 0.5966380834579468 1.129645586013794 -0.24763424694538116 1.0319386720657349 -0.14413587749004364 -2.1739325523376465 1.1810745000839233 0.08559546619653702 0.6321595311164856 0.48231223225593567 -0.4790906310081482 0.7254012227058411 0.7895780801773071 -0.3161604404449463 0.4050579071044922 -0.15992318093776703 0.12695914506912231 1.049371600151062 -0.9209879040718079 -1.444643497467041 0.44789424538612366 1.0900095701217651 -0.30506691336631775 1.6756327152252197 0.17681191861629486 0.499276340007782 1.3156145811080933 -0.6562625169754028 0.2372075617313385 -0.17793865501880646 0.06170133128762245 -1.0860759019851685 1.1428043842315674 1.7774814367294312 -0.4433584213256836 0.8191673755645752 1.070101022720337 -0.6462827324867249 -1.7942370176315308 0.7839072346687317 -0.7149060368537903 1.564082384109497 0.8209631443023682 0.2543245553970337 0.7191441059112549 1.657518744468689 0.7154144048690796 -0.18365478515625 -0.583450436592102 0.5854090452194214 0.03607071563601494 -1.1770293712615967 1.975029468536377 -1.2090585231781006 1.534757375717163 -1.8305103778839111 -2.0556299686431885 -2.090054512023926 0.7174047827720642 -0.6128670573234558 -0.11763164401054382 1.3248792886734009 0.08237556368112564 -0.01559801958501339 -0.2953476011753082 -1.3813681602478027 1.002598762512207 0.12731681764125824 1.1320092678070068 0.33352190256118774 -1.1292091608047485 0.6057223081588745 0.6868790984153748 0.12503528594970703 0.34457138180732727 1.0538429021835327 0.2746618688106537 0.09988680481910706 -0.7199510335922241 -1.3113473653793335 -0.14128771424293518 0.07426012307405472 
vec18 -0.192961186170578 -0.4094156324863434 0.1560133546590805 -1.162479043006897 -0.2406715750694275 0.12970739603042603 -1.038872241973877 -0.01161380484700203 -0.2634525001049042 -0.865766167640686 -1.6109819412231445 0.3942156136035919 0.10033036023378372 -0.28671029210090637 0.934441089630127 -0.5693138837814331 -1.2747507095336914 -0.2658750116825104 -0.5500921010971069 1.644832730293274 0.03623373061418533 -0.44162505865097046 -0.17205780744552612 -1.8562413454055786 1.383915662765503 0.5337671041488647 -1.1514395475387573 0.5817628502845764 -1.705498456954956 -1.2502758502960205 0.2813670039176941 -0.5699746012687683 -0.4138946533203125 -1.8534529209136963 -0.35449934005737305 1.5023983716964722 0.4939879775047302 -1.073114275932312 -0.4960867762565613 3.0079355239868164 -1.1276925802230835 -0.9540424942970276 1.503949522972107 0.7638614177703857 1.7915375232696533 -1.35654616355896 0.5810359120368958 -1.8360835313796997 -0.04100802168250084 -1.4593688249588013 -0.5109533071517944 0.10155081748962402 -0.7009700536727905 0.42278972268104553 -0.032910238951444626 0.19466830790042877 0.6494930386543274 -0.0016221641562879086 -1.4821363687515259 -0.3142474889755249 -0.336729496717453 2.017033100128174 0.48893722891807556 1.9004770517349243 1.9075167179107666 -0.015072952955961227 -0.15091148018836975 -1.4584044218063354 1.67206609249115 -0.6463046669960022 -0.27070650458335876 0.39550381898880005 0.2274048626422882 0.13956107199192047 0.04782882332801819 0.5287511348724365 -1.5728771686553955 -0.5012291669845581 0.7110080122947693 0.4931885004043579 0.2025708258152008 1.7714025974273682 -0.00997790228575468 1.1624523401260376 0.06895962357521057 -0.3184497058391571 -1.323669672012329 0.299429327249527 0.632902979850769 1.9498929977416992 -0.012783613055944443 0.2289334386587143 -0.37129098176956177 -1.6131672859191895 1.0763927698135376 -0.3069460690021515 0.1257053166627884 1.0756440162658691 -0.00030052621150389314 -1.206230640411377 0.8100275993347168 0.05880401283502579 -0.5673498511314392 -0.9117834568023682 1.179070234298706 0.9041368365287781 -0.3322729468345642 1.0282899141311646 -0.6772055625915527 -0.10176177322864532 0.5243188738822937 -0.0996437817811966 0.25380009412765503 0.8052343130111694 -1.6322811841964722 0.3636300265789032 0.10221293568611145 -0.5652747750282288 0.37395089864730835 1.385888695716858 0.021571479737758636 0.6191102266311646 -0.3109496831893921 -0.6197729110717773 -1.1161959171295166 2.458564519882202 1.6715911626815796 -1.0756094455718994 0.6156114339828491 1.078600525856018 1.5534769296646118 0.08855699002742767 -0.29830774664878845 -0.1932043433189392 1.2848323583602905 0.6990028619766235 0.47661644220352173 0.29476869106292725 0.0748027116060257 -1.3508659601211548 0.8552281856536865 -0.061576128005981445 -2.374600648880005 -0.1733262687921524 1.8045008182525635 1.15567946434021 -0.11220281571149826 -0.8438310623168945 -0.6704679727554321 1.0109127759933472 1.7526475191116333 -0.2700420618057251 0.263285756111145 -0.578155517578125 -0.2854422628879547 -0.8717766404151917 -0.34056729078292847 -1.087469458580017 0.1626371145248413 -0.3673420250415802 1.216011643409729 -1.8642163276672363 -0.6565869450569153 -0.042083315551280975 0.25082889199256897 -0.18543165922164917 -2.2161738872528076 -0.9067654609680176 -0.005207181442528963 1.3641232252120972 -0.22328567504882812 0.39249417185783386 1.6107580661773682 -0.98830646276474 -1.3149646520614624 -0.9490734934806824 -1.1671562194824219 0.5665722489356995 -0.47048527002334595 0.19282786548137665 -1.6300994157791138 1.82673180103302 1.0293364524841309 1.5210692882537842 1.9349217414855957 0.7153377532958984 -0.4686185419559479 1.355553388595581 -0.42663654685020447 1.5899078845977783 0.05734599754214287 -0.04493182152509689 0.42419081926345825 1.053648591041565 -0.08079598098993301 -2.215287923812866 -0.016321653500199318 0.857107937335968 0.5895113945007324 -2.626521587371826 
vec19 -0.334693968296051 0.992414116859436 -1.120039701461792 -0.9875872731208801 0.7771061062812805 -1.4794466495513916 1.3777107000350952 0.2253016233444214 0.3983510434627533 -0.2730148434638977 -0.8012726902961731 -0.15694595873355865 0.5106453895568848 -0.12965121865272522 -0.25378599762916565 0.16956929862499237 -0.5843685269355774 -0.46946990489959717 0.7209840416908264 0.7772989273071289 -0.11915852129459381 -0.41688114404678345 -0.441815584897995 -0.6778997778892517 0.022621791809797287 0.24773909151554108 -1.1103479862213135 0.33719688653945923 0.8658802509307861 -1.3137941360473633 -0.04936660826206207 -0.908589780330658 1.1201167106628418 0.20151454210281372 0.6922914385795593 -1.960633635520935 -0.9211162328720093 -1.3056138753890991 -1.4304248094558716 1.0329340696334839 0.3401731848716736 1.2765984535217285 -0.33148667216300964 -0.3807571232318878 0.03867790102958679 0.48533138632774353 -1.1326135396957397 1.666282057762146 0.44443953037261963 -0.5030290484428406 -2.536351442337036 0.377230167388916 0.22426342964172363 0.5560364723205566 -0.028103813529014587 1.2196251153945923 1.668188214302063 1.6004116535186768 0.32181164622306824 -0.989013135433197 0.10514787584543228 2.2587711811065674 1.0830999612808228 0.2903746962547302 -0.7289199829101562 -0.600072979927063 -0.3987989127635956 -1.067622184753418 -0.5937228202819824 0.5647326111793518 0.5808103084564209 -1.273349642753601 0.02550191432237625 0.0006127110100351274 0.6332727074623108 -0.765770673751831 -1.4740461111068726 -1.0403177738189697 -0.9174382090568542 -1.3970201015472412 -0.8969905972480774 -0.5181695818901062 0.01411847397685051 1.6953151226043701 0.45213374495506287 0.3577457070350647 -2.2288405895233154 0.18436481058597565 1.0808318853378296 -0.40883269906044006 -1.9384046792984009 -0.16949887573719025 2.6216721534729004 1.4612537622451782 0.3268481492996216 0.48646435141563416 -0.7249330282211304 2.7581374645233154 2.4876790046691895 0.5991058945655823 2.4157371520996094 1.0849496126174927 -0.9084057807922363 -0.2578200399875641 1.1171268224716187 -0.4364742636680603 -0.985411524772644 0.12696276605129242 0.6797623038291931 2.1339828968048096 0.47455692291259766 1.2633403539657593 0.6080092191696167 -1.2365074157714844 0.13042877614498138 -0.7116346955299377 -1.328878402709961 1.1681663990020752 -0.19216732680797577 2.3835716247558594 0.12510734796524048 -0.007394967135041952 -0.307373970746994 -1.1303762197494507 0.6381124258041382 1.9562366008758545 -0.21010173857212067 -1.0142369270324707 0.37299150228500366 -0.9698445796966553 1.9442929029464722 0.06331165879964828 0.5509485006332397 -0.033893439918756485 1.4354743957519531 1.2462553977966309 -1.6021595001220703 0.04079360142350197 1.1015673875808716 -1.5671193599700928 0.2606486678123474 0.587132453918457 1.2766114473342896 -0.7273516654968262 0.939686119556427 0.7600178718566895 -1.8006244897842407 -1.3770359754562378 -0.8438274264335632 -1.674340844154358 -0.11982758343219757 -0.45705530047416687 0.9073968529701233 -1.177272081375122 -0.6922677159309387 0.3490980267524719 1.6392861604690552 1.1280772686004639 -2.924638032913208 -1.5673022270202637 0.456736296415329 0.038040127605199814 -1.2957366704940796 1.5825642347335815 0.9074106812477112 -1.3292171955108643 -0.9961510300636292 0.7357181906700134 -2.1044092178344727 1.352975845336914 -0.6235889792442322 0.22606980800628662 1.0887768268585205 0.859394907951355 -0.7974206209182739 -0.9935455918312073 -1.1443982124328613 1.0415641069412231 0.8019418120384216 0.7741358876228333 -1.9280000925064087 0.2884867787361145 -0.2796620726585388 -0.31637731194496155 0.7407089471817017 -0.3100372552871704 -0.21455083787441254 0.24189066886901855 2.0640904903411865 0.28999003767967224 -0.7539442181587219 -0.3843216896057129 1.0197426080703735 -1.4691240787506104 -0.8039245009422302 0.348948210477829 -0.1442166268825531 -0.6479463577270508 -0.43661609292030334 0.06824259459972382 
vec20 0.28880685567855835 -2.6349408626556396 0.06650589406490326 -1.3479150533676147 1.1630734205245972 -0.5959262251853943 1.5689655542373657 -0.9923723936080933 -0.14438439905643463 0.01973882131278515 -0.4499676823616028 0.7573524117469788 0.06455563008785248 -1.312434196472168 -0.155342236161232 0.8021513819694519 -0.8659942746162415 -1.452168583869934 0.03628932312130928 0.40209439396858215 1.3299012184143066 0.22454167902469635 0.7689694166183472 -0.9954769611358643 0.3614070415496826 1.367864966392517 -0.516861081123352 -0.015072726644575596 -0.3915655314922333 1.133454442024231 0.34783050417900085 -1.9973303079605103 -0.6133671402931213 -0.29519736766815186 -0.19425532221794128 -1.375919222831726 -0.8651624917984009 -0.4202325642108917 -0.23048894107341766 2.565707206726074 -0.7589036226272583 -0.535986602306366 1.6818537712097168 -0.4986329972743988 1.0461119413375854 0.2970251142978668 1.2114535570144653 1.0410739183425903 -0.3147338032722473 -1.1842691898345947 -1.5120646953582764 0.16629788279533386 -1.6746289730072021 -0.7561363577842712 0.234662726521492 1.4709479808807373 0.6732414364814758 0.5269384384155273 0.5998218059539795 -1.0970418453216553 1.571120262145996 1.9563268423080444 1.0411211252212524 1.1859807968139648 -1.3667176961898804 0.4604828655719757 0.37520942091941833 -1.8207640647888184 0.9279025793075562 -1.3273454904556274 0.4175567328929901 0.6737368702888489 -0.083803191781044 0.4898574948310852 -1.274290680885315 0.3758881390094757 -1.3369536399841309 1.1201808452606201 -0.04613243415951729 -0.6153469681739807 -0.48519259691238403 0.9742114543914795 0.32166802883148193 0.09519878774881363 0.34482449293136597 -1.3312222957611084 -0.02397082932293415 -0.8608556985855103 0.7289925813674927 1.1984471082687378 -0.7868048548698425 2.0764083862304688 0.6728459596633911 -1.399857759475708 1.509886622428894 -0.2591930627822876 -1.5967999696731567 1.1441103219985962 0.32748943567276 -0.5592535734176636 -0.6987069249153137 0.8978140950202942 -0.37587058544158936 -0.6888361573219299 0.5730450749397278 -0.6087788939476013 0.010979860089719296 -0.028351735323667526 2.36346173286438 1.5947633981704712 -1.0175176858901978 -0.8132656216621399 -0.5468279719352722 1.7245980501174927 0.9358074069023132 -0.6127516627311707 -0.4881350100040436 -0.36972466111183167 -0.00405155448243022 2.011016845703125 -0.2551112771034241 0.7373865842819214 0.0011083418503403664 0.1909010261297226 0.6242151856422424 0.7370643615722656 -0.17537528276443481 0.1760587990283966 -0.3854149878025055 0.13527217507362366 0.41613736748695374 1.087835431098938 0.450817346572876 -0.33480963110923767 0.7171031832695007 0.08188358694314957 -0.9656028747558594 0.4406871795654297 -0.5179152488708496 0.48280227184295654 -0.4961591958999634 0.959083616733551 0.6099240183830261 0.9685449004173279 -0.2167990356683731 -0.8431565165519714 -1.2623400688171387 -0.3117414712905884 2.004081964492798 -0.25747284293174744 0.01133523229509592 -2.018681764602661 0.7979637384414673 -0.8136823177337646 0.4200160503387451 -2.744123935699463 0.622971773147583 2.0682923793792725 0.5519060492515564 -0.2577943801879883 0.27602317929267883 -0.8749995231628418 -0.019062209874391556 0.08434371650218964 -0.823749840259552 -0.8060926795005798 0.2922012209892273 0.37479090690612793 -0.4079715311527252 1.3559765815734863 0.6383215188980103 -1.185503363609314 -0.5044023990631104 -1.971232533454895 -1.3100852966308594 0.10895054042339325 0.8597373366355896 0.9561818838119507 -0.2718927264213562 1.1232620477676392 -1.9834500551223755 0.39485669136047363 -0.2890579402446747 -2.540971040725708 -0.28983941674232483 1.2975000143051147 -1.546317219734192 0.9026155471801758 -0.020682090893387794 1.3015004396438599 -0.9674411416053772 0.9143838882446289 -0.11026256531476974 0.20161835849285126 0.8161494135856628 0.9744547009468079 0.3006206154823303 -0.25419098138809204 0.8226763010025024 0.44280704855918884 
vec21 -1.456068992614746 -0.2643499970436096 0.37270334362983704 -0.4533989429473877 -0.30753105878829956 -0.14647814631462097 -0.39200732111930847 0.22033122181892395 -1.6258937120437622 -0.3727898597717285 -0.8377150893211365 1.8981736898422241 -0.7403450608253479 -1.0399163961410522 -1.1854991912841797 1.117078185081482 -1.1675562858581543 0.8397969007492065 0.37059563398361206 1.5494775772094727 0.009712190367281437 -0.71429044008255 -0.18713700771331787 -1.1563749313354492 1.5756890773773193 -1.1346909999847412 -1.2434955835342407 0.5304786562919617 0.4909471869468689 -0.35405367612838745 0.1947956383228302 1.1742762327194214 -0.5901608467102051 -0.8745927810668945 -1.0435192584991455 0.5224050283432007 -0.291865736246109 1.2818632125854492 1.4716159105300903 1.4098987579345703 0.8519176840782166 0.9440962076187134 0.8358508944511414 -0.1270536333322525 -0.9293033480644226 -1.4401077032089233 -0.5258166790008545 2.1799721717834473 1.6537460088729858 -0.047486577183008194 -0.3127421438694 1.5449258089065552 -0.09663072973489761 2.0279314517974854 0.7249683737754822 -1.2098537683486938 0.2598809599876404 -0.4592249393463135 -0.16709086298942566 -1.4404398202896118 1.273913025856018 1.4270540475845337 0.02705424465239048 -0.4695581793785095 -0.11660514771938324 -0.752752959728241 1.122067928314209 -0.2625320553779602 1.9853241443634033 2.2139997482299805 -0.641998827457428 -0.8280482888221741 -0.49481573700904846 1.207726001739502 -0.7332001328468323 -0.2101561427116394 -1.6978771686553955 -0.9638463854789734 -0.5303515195846558 -1.4726430177688599 1.1591717004776 -0.01592477411031723 0.06460484862327576 1.363533616065979 0.9174932837486267 0.9142460227012634 -0.8109146952629089 0.34723350405693054 -0.66060471534729 0.5611107349395752 0.8184275031089783 0.36778438091278076 1.1399184465408325 1.148212194442749 -0.7284529209136963 -0.5640482306480408 0.7737658023834229 0.9788025617599487 0.9402649998664856 0.48810356855392456 -1.5194765329360962 -0.37775149941444397 -0.5085997581481934 -0.4068111181259155 -0.43530353903770447 -0.05644229054450989 0.54738450050354 0.8161900043487549 0.0530085414648056 0.5146533250808716 0.43659570813179016 0.4396253228187561 0.00821380503475666 -0.07658881694078445 0.15548159182071686 -2.4580304622650146 0.963319718837738 -0.41579893231391907 -0.31104931235313416 0.3216645419597626 0.47520121932029724 1.5474424362182617 0.4282967150211334 0.2534153163433075 -1.218080997467041 -0.5156651735305786 -1.1111327409744263 -0.3021881878376007 0.798225998878479 -0.3939320147037506 1.0077157020568848 0.24714802205562592 -1.213974952697754 -1.0159049034118652 2.2017714977264404 -0.6952707171440125 -0.0012060735607519746 -1.7799469232559204 0.8529967665672302 -1.0597878694534302 -1.5276814699172974 -1.2149877548217773 -0.5178020596504211 1.2758821249008179 0.35791975259780884 0.2151804119348526 0.3031429052352905 -2.069624662399292 -0.46988916397094727 0.5746157765388489 -0.6678714156150818 -1.0154706239700317 0.03022088296711445 0.6332482099533081 -0.876518189907074 -0.6400929093360901 -0.6334970593452454 1.3798960447311401 0.45046520233154297 0.5826728343963623 2.1087663173675537 -1.5856494903564453 -0.47764986753463745 1.313677430152893 -0.21449075639247894 -0.1901114135980606 -0.5692453384399414 -0.25826919078826904 0.11109528690576553 -1.4945244789123535 0.07873290032148361 0.3176136314868927 0.9932835102081299 -0.5387163758277893 0.13664035499095917 -1.1108518838882446 -0.8820499181747437 -0.4493972957134247 0.44919952750205994 0.6744720935821533 -0.4767969846725464 -1.1505992412567139 0.33711859583854675 -0.6371203064918518 0.7507912516593933 1.4528162479400635 0.8821303248405457 1.5370160341262817 -1.315792441368103 0.7306784391403198 0.24566440284252167 -0.6657682657241821 0.09238608181476593 -0.9609188437461853 0.2463318109512329 -0.8400496244430542 -0.6100050806999207 -0.15570181608200073 -0.784515380859375 -1.6147524118423462 
vec22 0.4081895649433136 -0.166981503367424 1.430099368095398 -1.1940116882324219 1.219454288482666 0.5357667803764343 1.7720928192138672 -1.6227635145187378 0.4454255700111389 0.22003336250782013 -0.23628070950508118 2.282925605773926 0.37900426983833313 -0.9658674597740173 0.728141725063324 -1.1995868682861328 -1.1288381814956665 0.10576294362545013 -0.5477607846260071 0.7093677520751953 -0.2465379387140274 -1.017778992652893 -0.565548300743103 -0.41767817735671997 -0.9957752823829651 0.8272984623908997 -1.305395483970642 -0.11521843820810318 2.1838834285736084 0.23189540207386017 1.9267407655715942 -1.048459768295288 -0.4066922664642334 -1.0914232730865479 -0.5269124507904053 -0.5531495213508606 -1.5122054815292358 0.6366440653800964 -0.24401289224624634 0.6187795996665955 0.6615199446678162 0.396602064371109 2.085280656814575 1.710490107536316 1.5511456727981567 -0.13563299179077148 0.532323956489563 0.9959454536437988 1.202500581741333 0.9717890620231628 -0.5239517688751221 2.274860382080078 0.2658860385417938 0.28803274035453796 1.078113317489624 -0.21897558867931366 0.17081902921199799 0.6654486060142517 0.4791988134384155 -1.822780728340149 0.41281062364578247 0.5298944711685181 0.5556827783584595 0.6960797905921936 0.7431069016456604 0.27047863602638245 -0.8351776003837585 -0.5822589993476868 -0.5495648980140686 1.267449975013733 -0.6294008493423462 0.5899717807769775 1.633975625038147 -2.442556142807007 0.2612777650356293 0.8569360375404358 -0.9542801380157471 0.45808184146881104 -0.3109537363052368 -1.0790873765945435 -0.9410986304283142 -0.8951186537742615 1.0648170709609985 -0.3713301420211792 -0.5885014533996582 0.19025543332099915 -0.09722062945365906 -1.238716959953308 0.702053427696228 1.0455639362335205 0.7436773180961609 -0.35009345412254333 -0.9746248126029968 -0.18185953795909882 1.1390082836151123 -0.8737393021583557 -1.1009989976882935 1.3291960954666138 1.07435941696167 0.9879674315452576 -0.15947288274765015 -0.27361130714416504 0.9537556767463684 -0.49837133288383484 -0.033092088997364044 -1.43993079662323 -0.2004440873861313 -0.17947041988372803 0.5033232569694519 -0.08298911154270172 -1.8104150295257568 0.3895139694213867 -0.07923971116542816 0.46826237440109253 -0.6542630195617676 0.64796382188797 -0.20723719894886017 -1.088719367980957 0.07497519254684448 1.4487226009368896 -0.7333398461341858 0.39052441716194153 0.5517498254776001 -1.7824597358703613 -1.4988460540771484 1.3134647607803345 0.9758440256118774 0.37137100100517273 1.1918550729751587 1.132792592048645 1.0439705848693848 -0.7604402899742126 1.198280692100525 -0.4333060681819916 0.8724288940429688 -0.8319435715675354 -0.5697941780090332 0.2984728515148163 0.9079941511154175 -1.4800009727478027 -1.0129129886627197 -0.6663541197776794 -0.827527642250061 -0.42734771966934204 -1.3122001886367798 -0.9045836925506592 0.16900840401649475 1.5081288814544678 -1.427114725112915 -0.25078150629997253 1.3829319477081299 -0.1578996181488037 1.6346198320388794 0.225651353597641 0.06273138523101807 -1.3458154201507568 -0.7256037592887878 0.32355165481567383 1.521492600440979 -0.3366425633430481 -0.042866770178079605 -0.5639201402664185 -1.0884268283843994 1.034095287322998 0.07811111956834793 1.8190538883209229 -0.8007287979125977 -0.8620465397834778 -0.13736742734909058 -0.8689724206924438 0.3168989419937134 1.2159050703048706 -0.15627028048038483 -0.3247711956501007 0.4626055955886841 -2.240715503692627 -1.1339668035507202 -1.4137067794799805 0.4237930178642273 0.7556207180023193 -0.8403804302215576 -0.8814423680305481 0.29115134477615356 -0.40676242113113403 1.669217824935913 -0.36828282475471497 -1.3424817323684692 0.8081914782524109 -0.02361478842794895 0.6822616457939148 2.2038464546203613 0.08840491622686386 -0.7983013987541199 0.19137264788150787 -0.6319372653961182 -2.4145314693450928 0.10582345724105835 -1.682523250579834 0.8292138576507568 0.8532657623291016 
vec23 -0.0426875464618206 1.199976921081543 -1.300105094909668 -1.6362146139144897 -0.19989287853240967 1.818211555480957 0.9814146757125854 -0.055051542818546295 -1.481458306312561 1.1875524520874023 0.14353759586811066 1.7096350193023682 1.218674898147583 0.29619577527046204 0.43478041887283325 1.098790168762207 -1.9309364557266235 1.209240198135376 1.548607349395752 0.21553725004196167 1.6045109033584595 0.0806146189570427 1.6830945014953613 -0.7362788915634155 -0.5027568340301514 0.024980153888463974 -0.9933696389198303 1.064760446548462 0.7944046854972839 1.2753020524978638 1.1675587892532349 0.5403168201446533 1.3981192111968994 -1.3046563863754272 -0.09601960331201553 -0.5202558040618896 -0.1493823528289795 -1.4216052293777466 -0.4939940869808197 0.3920091688632965 0.48584476113319397 1.00494384765625 1.2610726356506348 -0.8859447836875916 -0.38822272419929504 -0.26807138323783875 1.1564956903457642 -0.1794341504573822 0.6405047178268433 -0.27899667620658875 -0.5827397108078003 -0.6303746700286865 -0.8480849862098694 -0.7931444644927979 -0.06009603291749954 0.3279218077659607 -0.5382115840911865 2.302337169647217 0.0020940930116921663 -0.7083808183670044 -1.0936895608901978 0.02756183221936226 -0.5123056769371033 -0.6195864677429199 0.44702550768852234 1.7660002708435059 -0.6274516582489014 -2.010906934738159 0.34159761667251587 -0.5205287337303162 -1.4911701679229736 -0.3218422532081604 -2.634760618209839 -1.5931825637817383 0.2997817397117615 0.18106046319007874 -2.830104351043701 -0.8206167817115784 -0.9676343202590942 2.1418046951293945 0.8327026963233948 -0.5246070623397827 -0.5112131834030151 -0.40597596764564514 -0.10495971888303757 0.6150938272476196 -0.7894607782363892 -0.40141376852989197 -0.9625138640403748 0.05168967694044113 -0.9334254860877991 0.21107140183448792 -0.22543202340602875 -0.8940734267234802 1.3718483448028564 -1.0159624814987183 -0.322794109582901 0.3911673128604889 -0.07543959468603134 1.5407483577728271 0.5033870935440063 -0.37002936005592346 -0.7134099006652832 -0.797677755355835 0.4002598822116852 -1.9138710498809814 -1.9364367723464966 -0.6656926870346069 2.4231348037719727 1.515249252319336 -0.5143710970878601 -0.6239312291145325 0.10163219273090363 1.0879324674606323 -0.734826922416687 -1.1422561407089233 -0.00018599236500449479 -1.4068408012390137 0.3837140202522278 1.8269981145858765 -1.4758942127227783 -1.7229321002960205 -0.07739929109811783 -0.5886186957359314 1.3612289428710938 1.6257611513137817 0.612813413143158 0.1484663188457489 1.3515270948410034 -0.3596554696559906 -0.4072611927986145 1.0316565036773682 0.23910456895828247 -0.568628191947937 3.4346327781677246 0.3927852511405945 0.467060923576355 1.317779541015625 1.607869267463684 -0.49679145216941833 1.2666155099868774 0.0464189350605011 -2.2791693210601807 1.044862985610962 -1.1306053400039673 -0.9577355980873108 -0.7421082854270935 -3.4297659397125244 -0.17057007551193237 1.0657211542129517 1.784577488899231 -1.989736795425415 1.424204707145691 1.1321816444396973 -0.8756482601165771 -1.4135080575942993 -1.4146782159805298 -0.41689276695251465 -0.21856506168842316 0.4542858302593231 0.2838287949562073 -0.49420323967933655 0.7242982387542725 2.5626561641693115 0.8310860395431519 1.110823631286621 1.4239182472229004 1.1486153602600098 0.6216679215431213 0.8742011785507202 0.6656944751739502 -1.349376916885376 0.5666719079017639 -2.136061906814575 -0.2784278988838196 -0.25927600264549255 -0.39226192235946655 0.24785205721855164 -0.7007278203964233 -0.21368500590324402 -0.8350657820701599 0.9027137160301208 0.9177107214927673 0.6208493709564209 0.5966635346412659 1.2473562955856323 -0.33724310994148254 -0.567760705947876 0.8029617667198181 0.5205304622650146 1.3175580501556396 0.07634624093770981 -0.3829200565814972 1.1710773706436157 -0.7664133310317993 -1.8020970821380615 -1.6050015687942505 -1.3070735931396484 1.1033574342727661 -1.0833630561828613 
vec24 -1.1531777381896973 1.0360418558120728 0.28441527485847473 -0.9635632634162903 1.101485252380371 1.4109899997711182 0.8305491209030151 1.4536863565444946 -1.0522629022598267 1.653132438659668 -0.4308595359325409 1.3805609941482544 0.47054457664489746 0.1814657300710678 -0.5975183844566345 0.16555632650852203 -0.004571599420160055 -1.0566611289978027 -1.2579429149627686 1.507110834121704 -0.7318969964981079 1.028855562210083 1.7733122110366821 -0.5200525522232056 1.2135154008865356 -0.4627127945423126 0.20825865864753723 1.845963478088379 0.358023077249527 0.3929891288280487 1.9336436986923218 1.1230075359344482 -0.7910920977592468 -1.355106234550476 -0.40417802333831787 1.499175786972046 -0.963983952999115 -0.12904739379882812 -0.21130812168121338 0.5808327198028564 -1.1303881406784058 -1.5201088190078735 -1.5817714929580688 -1.8041119575500488 -0.640532910823822 -2.255408763885498 -0.22888420522212982 3.032033920288086 0.6878998875617981 -0.9009069800376892 -1.2799992561340332 0.8195933699607849 0.6570019721984863 -1.239167332649231 1.2403395175933838 0.6432374119758606 -0.009968466125428677 3.4810240268707275 -0.3014722466468811 -1.2883636951446533 0.672087550163269 0.041452545672655106 0.5876643061637878 0.7207788228988647 2.412899971008301 0.9588063359260559 -0.8147671818733215 0.04424034059047699 -0.6648520231246948 1.512650489807129 0.09644768387079239 -0.23820024728775024 -0.5751422643661499 -1.272257685661316 0.25502607226371765 -0.26182350516319275 -0.8210983276367188 0.23994915187358856 -0.004317123908549547 -1.2027063369750977 -0.8256236910820007 0.05413195863366127 -0.7568559646606445 -0.20219263434410095 0.2788955569267273 0.8032410740852356 0.19647987186908722 -1.4080241918563843 0.2841489017009735 -0.3621891736984253 1.522581934928894 -0.5875996351242065 -0.11784269660711288 -0.6266725063323975 -1.6370989084243774 -1.536637306213379 -0.5535701513290405 -0.5959262847900391 0.8847621083259583 -0.48104509711265564 0.21670320630073547 -0.532129168510437 -0.7405821681022644 0.9510357975959778 -0.22575005888938904 -0.3445093333721161 0.6268558502197266 -0.33375653624534607 1.4764147996902466 1.4727452993392944 0.8796537518501282 1.3912293910980225 -1.302020788192749 -0.04307263344526291 0.41223517060279846 0.90189129114151 -1.2115871906280518 -0.4960319399833679 0.2689107358455658 0.6059219241142273 -0.016355812549591064 -0.3202238380908966 1.177017331123352 -0.19052785634994507 0.9055413007736206 2.350832462310791 0.3456571400165558 -0.19669322669506073 0.09448207914829254 -0.8417873978614807 1.1321547031402588 -0.21695415675640106 -0.05589301884174347 0.6189665794372559 -0.18653982877731323 0.0009091989486478269 -0.5769373774528503 0.9190647602081299 0.021986203268170357 1.0920687913894653 -0.3781893849372864 0.19389602541923523 0.474147766828537 -1.4336365461349487 1.9412906169891357 -1.304193377494812 -0.28520068526268005 -1.294870376586914 1.0124640464782715 -0.10850254446268082 1.4249813556671143 -0.3047889173030853 1.926283597946167 -0.034872107207775116 -1.0776435136795044 -1.4712531566619873 -1.8136333227157593 0.476122111082077 -0.5550907850265503 0.23556025326251984 0.8791407346725464 -0.2044171243906021 1.0055431127548218 1.2066184282302856 -1.0528721809387207 0.22189924120903015 -0.10136338323354721 -0.26895326375961304 -0.5517987012863159 -0.06798279285430908 -1.7656582593917847 -1.910852313041687 -0.09852001070976257 -1.170041799545288 -0.6561795473098755 -1.6067876815795898 -0.7912686467170715 1.3470250368118286 0.043292880058288574 1.6974759101867676 -2.2797532081604004 0.2591051161289215 0.15112800896167755 -1.2604804039001465 1.1196891069412231 0.6504461765289307 0.24776789546012878 0.6833672523498535 0.4173724055290222 0.47424477338790894 1.4788256883621216 -0.4678782522678375 0.4516749978065491 -0.6948878169059753 0.18278056383132935 -0.5220481753349304 -0.21784807741641998 -1.2011549472808838 0.13656559586524963 -0.38255631923675537 
