vec0 -0.9906485676765442 -0.13516981899738312 -1.4469046592712402 0.3977756202220917 0.2939811646938324 -0.8071319460868835 -1.1803025007247925 2.5481879711151123 -2.1150736808776855 -1.3720004558563232 -1.1536954641342163 -0.9195225834846497 -0.8070805668830872 -1.5813359022140503 0.5079689025878906 -0.06612453609704971 -1.962889552116394 -0.5995292663574219 1.6480967998504639 -1.1234034299850464 -1.7488868236541748 -1.0217491388320923 1.9675564765930176 -0.7382577657699585 -2.5161283016204834 0.6418967247009277 -1.2834092378616333 1.7224055528640747 -0.5302342176437378 -0.30727893114089966 0.7873684763908386 -0.8433008193969727 0.14084002375602722 -0.8511627316474915 0.4419078528881073 -0.0235477052628994 1.408395767211914 -0.2645588219165802 -2.3126742839813232 1.0034739971160889 1.1327720880508423 0.027187321335077286 3.830258846282959 0.8016546964645386 0.16503794491291046 0.14719267189502716 0.6031286716461182 0.7042855620384216 1.2915055751800537 -0.46658003330230713 0.1338592767715454 0.7741672396659851 0.5120235085487366 0.8856070637702942 -0.04340852424502373 0.4565271735191345 -0.0005711003905162215 -0.4209904074668884 -1.0118703842163086 -1.19748055934906 -1.93253755569458 -0.585559606552124 -1.4072892665863037 0.033532947301864624 -0.6651386618614197 -1.5114648342132568 -0.3260139226913452 -1.6771421432495117 0.3417978584766388 1.1207880973815918 -1.3539958000183105 0.3034100830554962 -0.028002222999930382 0.9757746458053589 -0.7586777806282043 0.9876654148101807 -0.9601559638977051 -0.263986200094223 -0.596648097038269 1.4136242866516113 -0.5114313364028931 0.4088630974292755 1.5697652101516724 1.6249933242797852 0.6235074400901794 0.4627707898616791 -0.5224871635437012 1.0444362163543701 -0.1637662798166275 -0.5487627983093262 1.3247188329696655 0.5505208373069763 -0.9549031853675842 -0.3559601306915283 -0.3725159466266632 -0.7424757480621338 -1.3485249280929565 0.8424903154373169 -0.5077663660049438 0.03266415372490883 0.34235554933547974 0.7875348329544067 0.6847339868545532 -1.7328377962112427 -0.6719335913658142 2.2745437622070312 -1.8039326667785645 -0.5601323246955872 -0.7980810403823853 1.4936959743499756 -1.7857012748718262 -0.6886502504348755 0.5856112837791443 -0.20828256011009216 0.6984405517578125 2.118406295776367 0.14812755584716797 0.7126629948616028 -2.2023637294769287 -1.4130966663360596 -0.7553061246871948 1.2538485527038574 0.9919341802597046 -0.36337342858314514 0.39344337582588196 -1.451714277267456 -1.0575921535491943 -1.488633632659912 1.1486871242523193 0.28158873319625854 0.9174455404281616 1.2984564304351807 0.1395975649356842 1.069098711013794 0.5021039247512817 0.7355881929397583 0.3733662962913513 0.3759359121322632 -0.9365834593772888 0.7662883996963501 -0.8576093912124634 -0.8503546118736267 -1.0298296213150024 0.29895296692848206 -1.0439095497131348 0.7293309569358826 -0.21334531903266907 -0.12695004045963287 -0.33220815658569336 0.06398847699165344 0.982640266418457 0.9011287093162537 -0.052866268903017044 0.6548877358436584 0.49476373195648193 0.613450825214386 -0.3954123556613922 1.0523881912231445 0.7898470163345337 0.0329400934278965 -0.4641418755054474 0.6790151000022888 -0.054453350603580475 0.9188512563705444 0.40851834416389465 0.35993456840515137 1.0891238451004028 1.1279441118240356 -0.3919976055622101 2.3329203128814697 1.5841209888458252 1.379569411277771 0.45140141248703003 0.04840956628322601 -0.09955871105194092 0.5408559441566467 -0.4717063903808594 0.07185162603855133 0.2990749180316925 -0.5886827111244202 0.04186568036675453 0.33112889528274536 -0.8236923813819885 -1.453635811805725 2.7071645259857178 0.7515117526054382 0.34419921040534973 -0.5372663736343384 -0.2622279226779938 -1.7685112953186035 -0.7822643518447876 0.6321939826011658 0.6591925024986267 0.9992932677268982 -0.15045790374279022 -0.2647721469402313 0.8042723536491394 -0.1706075370311737 1.353761076927185 1.0697778463363647 
vec1 -1.1302974224090576 -0.1315915733575821 -0.7719007730484009 -0.25081124901771545 -0.45717304944992065 1.4615687131881714 -0.7958179712295532 1.0098323822021484 -0.8241672515869141 -1.1805833578109741 -1.2950620651245117 -1.6698726415634155 0.8564848899841309 -2.265636444091797 1.3157700300216675 -0.1786942183971405 -1.4757494926452637 1.6174650192260742 1.2903165817260742 -0.9104317426681519 -2.1118736267089844 0.14221727848052979 0.7119672894477844 -1.0552188158035278 -2.2253434658050537 0.0753464326262474 -1.8272051811218262 0.4855850040912628 -1.3341134786605835 0.4937237799167633 -0.7343127131462097 -0.2103273868560791 -0.595009982585907 -1.0141366720199585 -0.4289381802082062 -0.6316229701042175 2.0702061653137207 -0.30553722381591797 -2.576585531234741 0.3494945168495178 -0.12535327672958374 -1.019576907157898 1.8894058465957642 0.5404095649719238 -1.4914629459381104 1.7067891359329224 0.1403559148311615 0.8374451398849487 0.12263380736112595 -0.8696319460868835 1.2628352642059326 1.0997588634490967 1.0845166444778442 0.9042641520500183 -0.41725480556488037 1.486947774887085 0.13132652640342712 -0.7001379728317261 -0.6347762942314148 -0.18605922162532806 -0.48207923769950867 -0.4734066128730774 -0.9708384275436401 -0.6307424306869507 -1.081613540649414 -0.3142925500869751 -1.5909515619277954 -0.5373882055282593 1.3152482509613037 2.097233533859253 -0.20251478254795074 -0.3825455605983734 0.589713454246521 1.2657703161239624 -0.48298370838165283 0.6807001829147339 -1.1670727729797363 -1.6059619188308716 -0.3195238411426544 2.0174405574798584 -0.5829763412475586 1.0588129758834839 1.8348709344863892 1.4366111755371094 0.08717992156744003 0.623131275177002 -0.5927513837814331 0.3230057656764984 -1.1819242238998413 -0.7841264605522156 1.8873056173324585 -0.5739777088165283 -0.8372366428375244 0.4444087743759155 -0.022379184141755104 -1.4679328203201294 -1.3414825201034546 1.209215521812439 -0.5279072523117065 0.2950226664543152 -0.10636039823293686 0.8011063933372498 0.24364130198955536 -1.0741184949874878 -0.3196859061717987 2.3866336345672607 -2.0755531787872314 -1.4978619813919067 -1.3446071147918701 0.027904167771339417 0.046642858535051346 -0.38968294858932495 0.5480555295944214 1.2736650705337524 0.16700221598148346 1.350796103477478 -0.7577667832374573 0.4087449610233307 -1.0007332563400269 -1.0379531383514404 -0.8512318134307861 0.195434108376503 1.0614962577819824 -0.39396849274635315 -0.8105936050415039 -0.7650135159492493 -0.42982959747314453 -1.880305528640747 0.7424145340919495 0.5709421038627625 0.3223872482776642 -0.010156338103115559 0.3073464334011078 0.020920857787132263 0.29996076226234436 0.48261016607284546 -0.4116531014442444 -0.31583845615386963 -0.11404304206371307 1.0684558153152466 -1.3206193447113037 0.09126279503107071 -0.8267465233802795 -1.5628582239151 -0.674788773059845 -1.1662949323654175 -0.45346492528915405 0.023511279374361038 -0.9880841374397278 0.5895698070526123 1.630789041519165 0.4655192494392395 -0.529790997505188 0.3110964298248291 1.2046321630477905 1.1403905153274536 -1.1773545742034912 1.4752780199050903 0.3278661072254181 -1.0591473579406738 -0.7752811312675476 0.18618351221084595 -0.47156792879104614 1.162416934967041 1.616958498954773 0.4822598099708557 1.6846510171890259 1.4085062742233276 -0.402963787317276 3.0732309818267822 2.771799325942993 1.1415289640426636 0.4816485047340393 0.8095591068267822 -1.218470811843872 -0.4873705804347992 0.3385610580444336 -0.6143862009048462 -0.7883841395378113 -0.7426348924636841 -0.8704518675804138 0.8050787448883057 -1.1651842594146729 -1.3053431510925293 0.6136355400085449 0.6955246925354004 -0.3280397653579712 0.013366330415010452 -0.9270085096359253 -0.7525580525398254 -0.9452537298202515 -0.5791642665863037 -0.09519216418266296 -0.025501810014247894 0.12619902193546295 -1.9688912630081177 1.2553831338882446 -0.41980284452438354 2.9494168758392334 0.4151100814342499 
vec2 -1.200751543045044 -0.4338163137435913 0.22167444229125977 -0.23515775799751282 -0.4153923988342285 -0.2550370991230011 -0.39557257294654846 0.9562721848487854 -1.7555447816848755 0.4044153392314911 -1.2454050779342651 -1.8046437501907349 0.7300031781196594 -2.6987533569335938 0.8635618090629578 -1.1295384168624878 -1.6365467309951782 1.1766128540039062 1.9292043447494507 -0.969378650188446 -1.7705849409103394 -1.3524221181869507 0.9406224489212036 -0.6890596747398376 -1.70828115940094 0.7349216938018799 -0.32700225710868835 0.3269347846508026 -0.8551554083824158 0.37413710355758667 -0.041179027408361435 1.0813939571380615 0.005821979604661465 -0.9308105707168579 1.4822527170181274 -0.525730311870575 1.188292145729065 -1.1695657968521118 -2.8447117805480957 0.6846175193786621 -1.2061141729354858 0.0034241583198308945 1.6291931867599487 0.17135152220726013 -0.9621356725692749 1.5533432960510254 0.6563771367073059 -0.29819321632385254 1.0468746423721313 -0.6358830332756042 0.8913989067077637 1.6538041830062866 0.27344632148742676 1.3461257219314575 0.42576688528060913 0.8973774313926697 -0.39522168040275574 -1.0482672452926636 -0.7270958423614502 -0.48534655570983887 -0.8338382840156555 0.19909724593162537 -1.0806825160980225 -0.007764111272990704 -1.0702216625213623 -1.7019680738449097 -1.5427286624908447 -0.017223792150616646 0.522212564945221 1.6343482732772827 -0.4442923665046692 -0.3759472966194153 0.10821632295846939 1.4268690347671509 0.2036130726337433 -0.07375097274780273 -0.12980060279369354 -2.1092848777770996 0.3133932948112488 1.42023766040802 0.24318015575408936 0.575287938117981 1.269929051399231 0.6633136868476868 0.9455540180206299 -0.3596246540546417 0.16621890664100647 1.693257451057434 -1.635445475578308 -1.1273553371429443 2.6713204383850098 -0.20682378113269806 0.29084157943725586 1.2767201662063599 -0.6823976039886475 -0.9820946455001831 -1.0222229957580566 1.0284007787704468 -0.6243813633918762 0.33766159415245056 -1.0337398052215576 0.8809828758239746 -0.3850295841693878 0.08784563839435577 -0.9228612780570984 1.7802271842956543 -0.3323228061199188 -0.9701091647148132 -1.4554941654205322 0.5668752193450928 0.42573311924934387 -0.11196958273649216 -1.305627703666687 0.31270846724510193 0.05460524931550026 1.8291728496551514 0.11528219282627106 0.3489673137664795 0.10145359486341476 0.8563381433486938 -1.8233129978179932 0.8917272090911865 1.7916723489761353 -0.8106104731559753 -0.7276203632354736 -1.2562673091888428 -0.6995902061462402 -1.0716612339019775 0.9747236967086792 0.33421388268470764 -0.45703163743019104 0.8728592395782471 -0.411726713180542 -0.3053944408893585 0.6469001770019531 -0.27335840463638306 0.7759929895401001 0.2968819737434387 -0.09651867300271988 0.08281270414590836 -0.6490316987037659 0.12536394596099854 0.15320679545402527 -0.15318168699741364 -1.54048752784729 -1.3002606630325317 0.90414959192276 -1.0084140300750732 0.1978336125612259 1.7885942459106445 1.5889955759048462 -0.8480448722839355 -1.1726484298706055 -0.09242542088031769 1.6863398551940918 1.2259883880615234 -0.9804245829582214 -0.27386385202407837 2.068944215774536 -0.5670617818832397 -1.0049216747283936 0.8263670802116394 1.4001861810684204 1.401789903640747 0.9576020836830139 0.3124677240848541 0.8745512366294861 0.8888286352157593 0.15465816855430603 1.477013111114502 0.19447702169418335 0.7435664534568787 0.15936851501464844 0.9727327227592468 -0.1071261614561081 -1.363808035850525 0.2552185356616974 -1.3357853889465332 0.27534860372543335 0.5733458399772644 0.6087332963943481 0.09458328783512115 -0.6948961615562439 -0.8121944665908813 1.9692937135696411 1.3832459449768066 -0.48472860455513 -0.34856486320495605 -1.2195667028427124 -0.2949923574924469 -1.3369853496551514 0.386753648519516 -0.43430477380752563 0.8378553986549377 0.34954506158828735 -1.9346925020217896 1.0787315368652344 0.24486327171325684 1.2016555070877075 0.39422813057899475 
vec3 0.765008807182312 -1.0373164415359497 -0.09385310113430023 0.08971583098173141 0.3135725259780884 1.5114481449127197 -0.5649592280387878 2.6549792289733887 -0.6741626858711243 -0.1145530417561531 -1.7995359897613525 -0.23071551322937012 -0.30515342950820923 -1.589486002922058 0.35924530029296875 -1.085262417793274 -1.0790748596191406 0.6390018463134766 3.0984838008880615 -1.4936439990997314 -1.7106170654296875 0.17368556559085846 0.5719329714775085 0.1975853443145752 -1.4924955368041992 -1.1281172037124634 -0.9472653269767761 -0.2129380851984024 -1.4430354833602905 0.6162838339805603 0.4902346134185791 -0.9324884414672852 -1.315508484840393 -1.1509876251220703 1.0825209617614746 -1.3469150066375732 1.824328899383545 0.47548022866249084 -0.6938152313232422 -0.3064431846141815 -0.22251278162002563 -0.9626485705375671 -0.10766223818063736 0.1516607105731964 0.3494880795478821 1.6486066579818726 0.8823550939559937 -0.06325846910476685 -0.5780518651008606 -1.1493827104568481 0.4182907044887543 0.7993066310882568 1.361253023147583 1.0620830059051514 0.18398500978946686 0.5924585461616516 -0.8265047073364258 -1.0170202255249023 0.37649211287498474 0.8619909286499023 -1.4289556741714478 0.11445166915655136 -0.7928106188774109 0.3040006160736084 -0.9045408368110657 -0.24239130318164825 -0.9739385843276978 -0.6990140080451965 0.7356107831001282 0.23703519999980927 -0.4625350534915924 1.005008578300476 0.8560038805007935 0.9362248182296753 -0.42731598019599915 -1.059633731842041 -0.017445437610149384 -0.9704541563987732 0.44615212082862854 1.1480199098587036 -0.050197456032037735 -0.40436410903930664 1.144707202911377 2.0066111087799072 0.5474573373794556 -0.7142488956451416 0.05937710776925087 0.7762959003448486 -0.5314271450042725 -1.8698792457580566 1.464536428451538 0.1867343634366989 -0.5868998169898987 1.6106129884719849 -0.49808409810066223 -0.4281468093395233 0.33133387565612793 0.30849167704582214 -1.138096570968628 -0.16489742696285248 -1.6297085285186768 -0.25609126687049866 -1.1593190431594849 -0.6314022541046143 1.491237759590149 2.3796372413635254 -1.3302613496780396 -1.9688431024551392 -1.5451172590255737 0.6036229729652405 -0.14487020671367645 1.2902305126190186 -0.49134373664855957 -0.15369953215122223 0.17616626620292664 1.3634029626846313 -0.47865450382232666 0.696570873260498 -0.17490558326244354 0.35315555334091187 -1.16273832321167 1.0351604223251343 1.5339421033859253 -1.1565519571304321 -0.6189829707145691 -1.323946237564087 -0.06494364887475967 -1.8158071041107178 0.5985742211341858 1.732477068901062 0.6758913993835449 1.2399711608886719 -1.1122342348098755 -0.5322771072387695 1.0456438064575195 1.0876907110214233 -0.5078878402709961 1.847163438796997 -0.6044151186943054 -0.11772441864013672 -0.581992506980896 -0.7808753848075867 0.7501447200775146 -0.17552362382411957 -1.1092936992645264 -0.3338387608528137 -1.2310278415679932 -0.04876875877380371 -0.6538406610488892 -0.017129259184002876 0.9996147751808167 1.3352707624435425 -1.4251599311828613 0.31085044145584106 1.4973011016845703 0.6249046921730042 -0.10139251500368118 0.6038652062416077 1.3900178670883179 -0.3285117447376251 -0.7894167900085449 1.0869741439819336 1.3414682149887085 1.3962641954421997 1.3256884813308716 0.7108744978904724 1.8918306827545166 1.4024461507797241 0.009536929428577423 1.0779712200164795 2.175316572189331 1.510588526725769 -0.5027353167533875 0.03727530315518379 0.5966286063194275 -0.32258713245391846 0.14666588604450226 -0.8663880228996277 -0.06313110142946243 -0.4737614095211029 -0.7113819122314453 -0.48899343609809875 -0.5461457967758179 -1.0708140134811401 0.8440897464752197 -0.04608786478638649 -0.3174503445625305 -0.5693991184234619 -0.6707967519760132 0.35817256569862366 -0.6374348998069763 0.9210408329963684 -0.6734752655029297 1.1086950302124023 0.7332261800765991 -0.49391525983810425 0.2007029950618744 -0.6901578903198242 1.393720269203186 0.13704180717468262 
vec4 -1.8854302167892456 0.4955180883407593 -1.6941167116165161 -0.26655665040016174 0.2449154406785965 1.4260236024856567 0.7797056436538696 1.5724732875823975 -2.070535659790039 0.44151023030281067 -0.6725122332572937 -0.20453612506389618 -1.2035719156265259 -1.7105375528335571 -0.14287972450256348 -1.3605358600616455 -0.9958697557449341 0.12579423189163208 0.4590277671813965 0.13746845722198486 -1.9076504707336426 -0.3814432919025421 1.3735299110412598 -0.22267569601535797 -1.8312363624572754 -0.5207325220108032 -0.6506895422935486 -0.144839808344841 -1.0752071142196655 0.054769061505794525 -1.1676406860351562 0.30308592319488525 -0.3429877758026123 -1.2950549125671387 -0.45168161392211914 -0.8943628668785095 2.0846450328826904 -0.23778647184371948 -2.429295063018799 -1.123352289199829 -0.39781826734542847 -0.14970600605010986 2.155346155166626 0.07162094116210938 0.09723091870546341 1.168602466583252 0.5191397666931152 0.6457128524780273 0.42566102743148804 -0.9651957750320435 1.4335521459579468 0.7645368576049805 1.447269082069397 0.6120633482933044 0.298577219247818 -0.4381050765514374 0.27507203817367554 -0.6685335636138916 -1.0737512111663818 -0.4662565290927887 -0.3452736437320709 -0.8144806623458862 -0.7549459338188171 -1.5567371845245361 -1.7541046142578125 -1.004272699356079 0.36856168508529663 0.2855278551578522 0.6222149133682251 1.5408344268798828 0.20215192437171936 -0.5456340909004211 -0.3872755765914917 1.7744911909103394 0.5238364338874817 -0.023894162848591805 -0.003580906195566058 -0.8880669474601746 -0.3709395229816437 0.5697767734527588 -0.161283478140831 0.6975665092468262 1.7889512777328491 0.57394939661026 0.8435712456703186 0.8044730424880981 -0.6603192687034607 0.6793776750564575 -0.5318670272827148 -1.1311057806015015 1.760066270828247 0.2361520230770111 0.007030182983726263 0.46574488282203674 0.4514397978782654 -0.4347657263278961 -1.0931986570358276 0.9416768550872803 -1.6118658781051636 -1.2478331327438354 0.0638921931385994 -0.4082896411418915 0.6456047892570496 -0.9567429423332214 0.3174416124820709 3.306140899658203 -0.9498715400695801 -3.3155899047851562 -1.5291028022766113 1.8601164817810059 -0.4309746026992798 -0.37897738814353943 -0.004923067055642605 0.13338986039161682 0.06758104264736176 1.3838878870010376 -1.3826032876968384 -0.11270921677350998 -0.8970159888267517 0.4986390173435211 -0.27318328619003296 -0.2523995637893677 1.8201940059661865 -0.7269572615623474 -0.8816815614700317 -0.9986591339111328 0.5521904230117798 -0.45446404814720154 1.3276281356811523 0.18678325414657593 0.9314876794815063 0.614090621471405 0.602494478225708 0.8408134579658508 1.329918384552002 1.93949556350708 1.07155442237854 -0.8559114336967468 0.43267932534217834 0.8551678657531738 -0.795907199382782 0.9629009366035461 -1.0202823877334595 -1.2360557317733765 0.8017650842666626 -1.3536288738250732 -0.0982108935713768 -0.05345715954899788 -2.0089032649993896 -0.7402626872062683 0.8844415545463562 0.5295488834381104 -1.7175214290618896 0.972933828830719 0.9971407651901245 1.748583436012268 -0.4382801055908203 2.8144145011901855 0.8798704743385315 1.2228425741195679 -0.6963356733322144 0.9848605394363403 0.7094733119010925 0.5180509686470032 0.25568825006484985 1.6418033838272095 0.7823774218559265 2.0951290130615234 -0.9105747938156128 2.345627784729004 1.2966580390930176 1.1189948320388794 0.18492348492145538 0.10315058380365372 -0.32648375630378723 0.0785786509513855 0.46886271238327026 -0.43075501918792725 0.4739278256893158 -0.6855972409248352 -0.04754464700818062 -0.8589432239532471 -0.45531776547431946 -0.8064534664154053 0.7850531935691833 -0.5853268504142761 -1.3151593208312988 -0.8415073156356812 -0.4682276248931885 -0.27987271547317505 -0.5337480902671814 0.6090989112854004 -0.13487093150615692 0.04574759677052498 1.4738296270370483 -0.21824248135089874 0.9364842772483826 -0.7128368020057678 0.2959735095500946 -0.25574490427970886 
vec5 0.4071766436100006 0.0717971920967102 -1.4411815404891968 -1.7062170505523682 0.05767354369163513 0.1966121941804886 -0.9937524795532227 2.046860933303833 -1.5914705991744995 0.46679577231407166 -0.36787670850753784 -0.23289373517036438 1.0749257802963257 -2.4605064392089844 0.4561246931552887 -0.38779881596565247 -0.5402615070343018 -0.21143901348114014 0.9535227417945862 -0.33535975217819214 -1.9379017353057861 -1.0855638980865479 0.48065635561943054 0.3897083103656769 -1.6711766719818115 -1.5956244468688965 -0.500146746635437 0.38951376080513 -0.008897350169718266 -0.9026930928230286 0.02976975403726101 0.559446394443512 -0.740341067314148 -0.3821282386779785 -0.8084562420845032 -0.991691529750824 1.7708357572555542 -0.38123440742492676 -1.69865882396698 0.4764961898326874 -0.4653269648551941 -0.8887357115745544 1.700621247291565 -1.354150652885437 -1.0002728700637817 1.3165881633758545 0.9864272475242615 0.8616690635681152 0.3566272258758545 -1.6807820796966553 0.15040725469589233 2.061323881149292 1.1743037700653076 0.5546748638153076 -1.250451922416687 1.3325272798538208 0.3172937035560608 -0.41670528054237366 0.0833636224269867 -0.8187878131866455 -1.3172084093093872 0.43105843663215637 -0.4221222698688507 0.2853701710700989 -0.86302250623703 -0.5658034682273865 -0.33219167590141296 0.11474917829036713 -0.18395082652568817 1.4346988201141357 -0.07625965029001236 0.630527138710022 0.3756726384162903 0.4523056447505951 -0.342070996761322 -1.8082553148269653 -0.7365699410438538 -0.8452754020690918 -0.3317511975765228 1.147119402885437 -0.17076505720615387 0.653535783290863 2.8630731105804443 1.2610808610916138 -0.694171667098999 -1.985150694847107 -0.5126136541366577 1.1709152460098267 -1.5273232460021973 -0.8248562812805176 -0.2893480658531189 -0.6084741353988647 0.6796603202819824 0.20174996554851532 0.5131464600563049 -1.3692706823349 -1.2934925556182861 0.6093394756317139 -0.5412896871566772 -0.45979923009872437 0.14155474305152893 -0.1933710277080536 0.5860757827758789 -0.7385221123695374 0.5873167514801025 2.3415722846984863 -1.6831645965576172 -0.4632335305213928 -2.2929697036743164 0.5043653249740601 -0.9990504384040833 1.0953060388565063 0.3352416753768921 0.42291873693466187 0.3577609360218048 1.794684648513794 -1.0164177417755127 0.4819300174713135 -0.8206658363342285 0.18349717557430267 -1.157482385635376 -0.4345090985298157 1.6812642812728882 -2.0239720344543457 -0.61111980676651 -1.1182918548583984 -0.9741924405097961 0.2584967315196991 0.8239635825157166 2.4356179237365723 0.17220118641853333 0.2227829247713089 0.48353782296180725 0.46004247665405273 0.6556402444839478 0.2938366234302521 0.1288354992866516 0.22826024889945984 0.3346230387687683 -0.0076012033969163895 -1.0394313335418701 0.6567518711090088 0.6869482398033142 -0.324625700712204 -0.001452611293643713 -0.056057002395391464 -0.4239252209663391 0.7094476819038391 -1.1753239631652832 -0.07693511247634888 0.18638624250888824 1.3285921812057495 -0.9536730051040649 -0.0033076596446335316 1.1459418535232544 2.302964210510254 -1.2732101678848267 0.7522401213645935 0.5669683814048767 -2.316342353820801 -1.5580452680587769 0.6156187057495117 0.6780730485916138 1.353140115737915 -0.21428272128105164 1.196054220199585 0.9830358028411865 1.2829995155334473 0.32284170389175415 1.5611971616744995 0.6200833320617676 0.558056652545929 0.013569975271821022 -0.03558753430843353 -0.49937161803245544 0.6618868112564087 -1.4706246852874756 -1.2922481298446655 -0.4368923008441925 -0.9780806303024292 0.6718819737434387 0.1509464532136917 -0.998494565486908 -1.129554033279419 1.612799048423767 0.026340797543525696 -0.6115668416023254 -0.2992872893810272 -0.24100995063781738 -1.2438727617263794 -0.4985120892524719 1.3005006313323975 1.4359856843948364 0.5730751156806946 0.8969027400016785 -0.7240068912506104 0.714261531829834 -0.9985305666923523 2.079984664916992 0.7115365862846375 
vec6 0.5448507070541382 0.071794293820858 -1.5204130411148071 -0.7946216464042664 -0.23871801793575287 0.5480512976646423 -0.30239003896713257 1.0011385679244995 -1.741133689880371 -0.5477083921432495 -1.48686683177948 -0.9804341197013855 -0.5806643962860107 -0.35812708735466003 0.6830697059631348 0.32479652762413025 -0.3982601761817932 0.2402179092168808 2.094353437423706 -1.6856985092163086 -1.1682350635528564 -0.09271806478500366 2.0423073768615723 -1.2266507148742676 -1.3119386434555054 0.10349860787391663 -0.6791362166404724 0.9311972260475159 -0.7591449022293091 -0.7962371706962585 0.6439192295074463 -0.48031508922576904 -1.5462620258331299 -2.041451930999756 0.10259534418582916 -0.43583688139915466 1.7613033056259155 -0.23692826926708221 -1.0524448156356812 0.6300249695777893 0.023272788152098656 -0.9249956607818604 0.7832050919532776 0.14298702776432037 -0.5398048162460327 1.0161691904067993 1.7073731422424316 -0.15119782090187073 1.2600027322769165 -1.9373795986175537 2.0019161701202393 1.6229408979415894 2.051971673965454 1.6104103326797485 0.17438380420207977 1.1966835260391235 -1.2553678750991821 -1.1205875873565674 -0.5232515931129456 -0.25777241587638855 -1.0080174207687378 -0.7956416010856628 -0.6886452436447144 0.23459778726100922 -0.7591110467910767 -1.146979808807373 -0.46468067169189453 -0.39840996265411377 -0.47317996621131897 1.4828380346298218 -1.0465666055679321 -1.175372838973999 0.7869070172309875 1.6604549884796143 -0.4458458125591278 0.29766157269477844 0.11316383630037308 -1.9495769739151 0.8754012584686279 1.1986415386199951 -0.41649332642555237 1.5104057788848877 1.0140039920806885 1.0533608198165894 0.25537407398223877 0.18481355905532837 -1.4642411470413208 0.9420000910758972 -2.8009603023529053 -1.7378617525100708 2.5687856674194336 -1.0164605379104614 0.6920531988143921 0.3602640926837921 1.346864104270935 -0.07808703929185867 -0.4828415513038635 0.06398076564073563 -1.9108531475067139 0.37644511461257935 -0.8347681164741516 1.281877875328064 1.0924279689788818 -1.2401988506317139 -0.5554834604263306 1.7248754501342773 -2.4004509449005127 -1.834527850151062 -1.436880111694336 1.183647632598877 -0.6363804936408997 0.46248388290405273 0.23081019520759583 -0.025939228013157845 0.08841212093830109 1.3236565589904785 -0.3006705939769745 0.837137758731842 0.3982789218425751 -0.17173252999782562 -0.12558309733867645 -0.08668983727693558 2.076075792312622 -0.5169801115989685 -0.3287786841392517 -1.4038442373275757 -0.2794000208377838 -0.7014923691749573 0.5439421534538269 1.1842972040176392 0.34619489312171936 0.054952118545770645 0.9728681445121765 -0.2309890240430832 0.04888860508799553 0.2343757450580597 -0.5765551328659058 1.1614854335784912 -0.3954930603504181 -0.09027700126171112 -0.04343656450510025 0.4997462034225464 -0.4449365437030792 0.5870336890220642 -0.38603585958480835 -0.02129795029759407 -1.3549219369888306 -0.10450964421033859 -0.7138440608978271 0.6490564346313477 1.5049755573272705 -0.0039983936585485935 -1.2126808166503906 -0.39149177074432373 0.41984257102012634 0.9429517388343811 -0.6638490557670593 1.380794644355774 1.0176048278808594 -0.3073161840438843 -1.310853362083435 0.335300087928772 -0.08304396271705627 2.301388740539551 0.8067377209663391 1.8578773736953735 0.22782514989376068 0.5419954061508179 0.8332169055938721 2.0204615592956543 0.8230119347572327 1.3955280780792236 0.926550567150116 -0.5552830696105957 0.030213523656129837 -0.9049863219261169 -0.21127694845199585 -0.8849213123321533 1.090527057647705 -0.8786798119544983 0.9389317035675049 0.07322234660387039 -0.9576948285102844 -0.6304983496665955 1.4399410486221313 0.7452470660209656 -1.1506602764129639 -1.047083854675293 -0.5753784775733948 0.10225176811218262 0.2702915668487549 0.7654675841331482 -0.4604325592517853 1.2180798053741455 2.2230489253997803 -1.1305439472198486 0.30026984214782715 -0.23495696485042572 1.661985993385315 0.5020706653594971 
vec7 -1.275254249572754 -0.2049097716808319 -1.9870678186416626 -0.8494406342506409 0.7700143456459045 1.1559219360351562 -1.6371256113052368 2.6123859882354736 -0.6991933584213257 -0.05841347575187683 -0.7458511590957642 -2.1981921195983887 -0.6273266077041626 -1.2330491542816162 0.29979991912841797 -0.6440361738204956 -0.14531463384628296 0.2802502512931824 1.8701118230819702 0.15164543688297272 -1.1099990606307983 -0.5802847146987915 0.8174406886100769 -0.29932162165641785 -2.672454357147217 -0.32765835523605347 -0.519508421421051 -0.22273147106170654 -0.04938017204403877 -0.6495684385299683 0.3731480836868286 0.3225056827068329 -0.19651511311531067 -0.2854328453540802 0.20709989964962006 -0.4748002588748932 1.8239929676055908 0.23930683732032776 -1.3957891464233398 0.1424197405576706 -0.528081476688385 -0.4643515348434448 1.917413353919983 0.44721925258636475 -0.4817289710044861 0.8619332313537598 1.0366662740707397 1.0928219556808472 -0.13589780032634735 -0.9318370223045349 0.0881846621632576 1.3973907232284546 0.5567716360092163 0.9744793772697449 -0.5777824521064758 1.2130506038665771 -0.840927004814148 -0.6139724850654602 -1.3916789293289185 0.5543878078460693 -1.043410301208496 -0.9611232280731201 -0.5206578969955444 -0.08689358830451965 -0.893491268157959 -0.8115959167480469 -0.05260831117630005 -0.17449887096881866 0.5678194165229797 0.05646967887878418 -1.4960105419158936 1.0434240102767944 1.2087407112121582 2.102851390838623 0.3225180506706238 0.384062260389328 -0.6367056369781494 -0.7703534960746765 -0.5041956305503845 1.071097731590271 -0.15985631942749023 1.2214394807815552 2.1492063999176025 1.1572211980819702 1.1450929641723633 -0.1423710733652115 0.3561649024486542 1.0089670419692993 -1.5446293354034424 -0.3961330056190491 1.985571265220642 0.06391352415084839 0.045700155198574066 -0.04265732690691948 0.23151062428951263 -1.2905254364013672 -0.5478290319442749 1.241657018661499 -1.2046191692352295 -0.4813839793205261 0.551983118057251 0.39690494537353516 -0.2691396176815033 0.31477150321006775 0.33721041679382324 0.5497300624847412 -1.4276704788208008 -0.41057005524635315 -1.231736421585083 1.3600212335586548 -0.8612071871757507 0.21253831684589386 -0.26708513498306274 1.11771821975708 -0.1252320408821106 1.6156725883483887 -0.5300096869468689 0.7954372763633728 -1.618508219718933 -0.7414053678512573 -0.8142911195755005 0.6154424548149109 1.8318440914154053 -0.8780872821807861 -1.0319379568099976 -1.5645490884780884 -0.14010445773601532 -1.8011518716812134 0.6439299583435059 0.9102410674095154 1.661251425743103 0.36038798093795776 0.03813847154378891 0.1656593382358551 0.2669028341770172 1.2724039554595947 -0.31494060158729553 1.1172066926956177 -0.11397487670183182 1.2871274948120117 -0.5569912791252136 -0.018188538029789925 0.12404078245162964 -0.07278614491224289 0.6335854530334473 0.35435688495635986 -0.7511762380599976 -0.17732857167720795 -1.4764829874038696 0.6670551896095276 1.4927952289581299 1.6046793460845947 -0.6627245545387268 -1.2654483318328857 0.5499226450920105 2.1017956733703613 -0.9724393486976624 0.9536285996437073 0.6295724511146545 -0.44603732228279114 -0.4674749970436096 1.0833518505096436 0.00640932098031044 2.369828701019287 2.060570478439331 0.4250963032245636 0.4628026485443115 0.39695191383361816 0.3171818256378174 1.3493902683258057 0.8750205636024475 0.7483360171318054 -0.5460225343704224 1.2901155948638916 -0.2980007231235504 -0.4472845792770386 -0.9086898565292358 -1.9786217212677002 -0.5896077156066895 -1.0572458505630493 -0.20665939152240753 -0.19616062939167023 -1.3411306142807007 -0.0318073108792305 0.4424111247062683 -0.8252353072166443 0.4104515016078949 -0.1684758961200714 -0.17490699887275696 0.47729501128196716 0.05997142940759659 1.5114527940750122 0.11741437762975693 0.24403999745845795 1.598329782485962 -1.1322251558303833 0.4425048232078552 0.08413403481245041 0.7924469113349915 0.9308151602745056 
vec8 0.266032874584198 -1.2336419820785522 -1.763382911682129 -0.6124989986419678 0.607660710811615 1.1077117919921875 -0.32547199726104736 2.293870687484741 -1.2638461589813232 -1.5989644527435303 -1.6520191431045532 -0.5322970747947693 -1.665595293045044 -1.2529155015945435 0.2178056836128235 -0.09197571873664856 -1.4020227193832397 0.41787853837013245 1.053752064704895 -0.9224593043327332 -2.026280403137207 -0.3112122714519501 1.6560806035995483 0.4886205792427063 -1.0892246961593628 1.009966492652893 -0.48083510994911194 0.5648093223571777 -0.6331191062927246 0.7513306736946106 0.7387325763702393 0.4430026113986969 0.09940899163484573 -1.5314624309539795 0.8996021151542664 -1.2510979175567627 0.7725838422775269 1.8238718509674072 -1.8196179866790771 -0.7953351736068726 -0.46423596143722534 -0.31523051857948303 2.2856404781341553 0.2050780951976776 0.9473714828491211 0.7095929384231567 0.7278545498847961 -0.41498813033103943 0.7995245456695557 -0.4723818600177765 1.6856929063796997 1.1860747337341309 0.7559413909912109 -0.03513370826840401 -1.1298762559890747 -0.15391236543655396 0.8607479929924011 -0.5990951657295227 -1.4870470762252808 0.0698646828532219 -0.32989057898521423 0.27194923162460327 -0.724547266960144 -0.015801148489117622 -0.9258159399032593 -0.5401774644851685 -0.49530771374702454 -0.5165509581565857 -0.3771638870239258 0.9376236200332642 -0.2313772588968277 -1.2648413181304932 0.003453548066318035 2.1213700771331787 -1.0089927911758423 -0.36612170934677124 -0.10560895502567291 -0.9407204389572144 -0.33105286955833435 0.45741304755210876 0.21131502091884613 2.124602794647217 0.9970163106918335 2.0449249744415283 0.4053678810596466 -0.6004283428192139 -0.7385606169700623 0.874099612236023 -1.8466869592666626 -0.9506798982620239 0.9468896389007568 -0.13907396793365479 -0.8065369129180908 0.9199525117874146 0.6619866490364075 -0.689099907875061 -0.6198649406433105 0.23763000965118408 -0.1980457305908203 -0.3564329147338867 -0.32212501764297485 -0.4832799434661865 -0.30576494336128235 -0.5699815154075623 0.17644572257995605 1.690903663635254 -1.2007229328155518 -0.6450979709625244 -0.6757147908210754 1.3225746154785156 -0.4228214919567108 0.3334066569805145 -0.2572486996650696 0.2222234308719635 -0.2160484939813614 1.0950835943222046 -0.6317185163497925 0.28226619958877563 -0.7299896478652954 -0.5884838700294495 -1.0324417352676392 -0.30116334557533264 1.8278907537460327 -1.4854586124420166 -0.6601505875587463 -1.2904988527297974 -0.45311737060546875 -1.1786094903945923 2.2701497077941895 0.885894238948822 1.3906489610671997 -0.004797310568392277 -0.45031216740608215 1.1267834901809692 1.1357576847076416 0.7246249914169312 -1.2076642513275146 0.42614465951919556 0.032366909086704254 0.24183347821235657 -1.4336323738098145 0.2320583313703537 0.2422425001859665 -1.6392593383789062 -0.4767422378063202 -0.011115643195807934 0.23602060973644257 0.5032428503036499 -1.042391300201416 -0.26169395446777344 1.8328291177749634 1.535793662071228 -1.3987292051315308 0.7657117247581482 1.6589685678482056 0.899543046951294 0.44294536113739014 1.6408764123916626 1.3926414251327515 0.3571924865245819 -1.9547064304351807 0.31167352199554443 -0.08807925134897232 1.923574686050415 0.8353098630905151 0.5112987756729126 1.3019202947616577 0.8153557777404785 0.46274033188819885 1.3120495080947876 1.1231179237365723 1.4585496187210083 0.24140197038650513 1.5370088815689087 -0.1314137727022171 -1.038838505744934 -1.1297872066497803 -0.8388050198554993 0.3220716714859009 -0.40649139881134033 0.11614225059747696 1.2349780797958374 -0.9341577291488647 1.1716582775115967 1.0335100889205933 0.5472525358200073 -0.3788456618785858 -1.1175495386123657 -0.729171097278595 0.2571105659008026 -0.34646928310394287 -0.15815281867980957 -0.4686545133590698 -0.2118968814611435 -1.0448015928268433 -1.4681949615478516 0.7645818591117859 -0.04948420822620392 0.8654833436012268 0.08280725032091141 
vec9 0.12968303263187408 0.04475949704647064 -1.9689364433288574 -0.7485446929931641 0.29714149236679077 1.0591506958007812 -1.0706497430801392 2.7725048065185547 -1.5454894304275513 -0.858525812625885 -2.53688645362854 -0.5965855717658997 0.01900842785835266 -1.6203497648239136 -0.2722838222980499 -1.9674190282821655 -0.4674248993396759 0.3705797493457794 2.071866750717163 0.15050862729549408 -0.9567074179649353 -0.045215439051389694 2.040191411972046 0.2793564796447754 -1.1437225341796875 -0.5160834789276123 -0.7555779218673706 0.9009231925010681 -0.4236638844013214 -0.23778383433818817 0.23211511969566345 0.7100120782852173 -1.102051854133606 -1.0497347116470337 0.5917942523956299 -0.17091308534145355 1.3288730382919312 -0.45945078134536743 -1.4091606140136719 -0.7494587898254395 -0.9466502070426941 0.05743374302983284 2.9415388107299805 0.2872244417667389 -0.8421297669410706 0.5046172142028809 2.036348581314087 -0.027496790513396263 0.0603746697306633 -0.9151967167854309 1.7345682382583618 -0.26793310046195984 1.3681375980377197 1.1655994653701782 -0.7087915539741516 0.961080014705658 0.9881572127342224 -0.02986672706902027 -1.836753010749817 -0.9997708797454834 -0.3557412028312683 -0.16649536788463593 -1.5927908420562744 -0.7328091859817505 1.0508830547332764 -1.7144503593444824 -1.2226476669311523 -0.4273078441619873 1.844936728477478 1.8157415390014648 -1.1586769819259644 -0.08354068547487259 0.6343398690223694 0.7915248274803162 -1.2876166105270386 -0.13138911128044128 -0.07483531534671783 -1.0740286111831665 0.4347522556781769 2.3707120418548584 -0.37181514501571655 1.9956780672073364 1.5909764766693115 1.4624072313308716 -0.17043712735176086 -1.0153279304504395 -0.8165920972824097 0.5523021817207336 -1.617000699043274 -0.974707305431366 0.6726928353309631 -0.26841944456100464 -0.2644118368625641 1.705257773399353 -0.7977842688560486 0.27899816632270813 -1.15388822555542 0.5680069327354431 -0.7835342884063721 0.04755391180515289 -0.9525086283683777 0.0029529761523008347 -0.35296663641929626 -1.07048499584198 -0.8916436433792114 1.8169928789138794 -1.303397297859192 -0.9009068608283997 -2.0480499267578125 1.163295865058899 -0.29298022389411926 -0.45312151312828064 -0.03792065382003784 -0.6264251470565796 0.008524374105036259 1.048984169960022 -1.5492366552352905 1.7677226066589355 -1.2663062810897827 -0.9368810653686523 -0.6963413953781128 0.6265606880187988 1.0161515474319458 -1.8830612897872925 -0.1875610500574112 -0.9608214497566223 -1.4962202310562134 -0.574533998966217 0.4760412573814392 0.5268447399139404 1.3621678352355957 -0.21192654967308044 -0.3656112551689148 -0.8420817255973816 0.9251506328582764 1.403143286705017 -0.592649519443512 0.38760221004486084 -0.30324357748031616 0.007264495827257633 -0.7696017622947693 1.5502421855926514 1.0501216650009155 0.038961779326200485 -1.9730291366577148 -0.2980765402317047 -0.13957518339157104 -0.8529669642448425 -1.4339962005615234 -0.2980620563030243 0.31416988372802734 0.6860838532447815 -0.4943828582763672 0.5448813438415527 0.011945979669690132 0.7674731612205505 0.11865424364805222 1.8412364721298218 1.7322742938995361 0.19155478477478027 -1.0474239587783813 0.9771670699119568 -0.6288436651229858 1.7736716270446777 1.876298189163208 1.5859596729278564 1.7554752826690674 -0.41565197706222534 1.012802004814148 0.9189279079437256 0.33213281631469727 0.9414923787117004 -0.06785418838262558 0.8341584801673889 -0.137650728225708 0.9196999669075012 0.4438011050224304 -0.8446887135505676 -0.2326386570930481 -0.9106684327125549 1.161274790763855 0.5619138479232788 -0.15547189116477966 -1.6772783994674683 1.7862353324890137 0.6077234148979187 -0.3845468759536743 -0.91526198387146 -1.0318690538406372 0.08778981864452362 -1.2182776927947998 1.1811459064483643 0.033674728125333786 0.8053609728813171 2.7170841693878174 0.9739367365837097 0.7724483609199524 -0.7914466857910156 1.198420524597168 0.08154135942459106 
vec10 -0.3461891710758209 0.39110586047172546 -0.5652270913124084 -0.3472649157047272 0.25160279870033264 0.16055341064929962 -0.7691466212272644 1.5584008693695068 -1.1545547246932983 -0.48512983322143555 -1.1938408613204956 -1.1440117359161377 0.008966242894530296 -1.2167080640792847 0.4389646053314209 0.2972604036331177 -2.1218390464782715 2.038506269454956 1.2290414571762085 -1.9103689193725586 -2.1039276123046875 -0.10068083554506302 0.8432826399803162 0.20318911969661713 -2.0104472637176514 0.425209105014801 -1.2861597537994385 1.3066550493240356 -0.4193856120109558 -1.3215280771255493 -0.5243484973907471 0.24334189295768738 0.1265457719564438 -1.2597002983093262 0.027283616364002228 -1.7996041774749756 2.9381678104400635 0.50980544090271 -2.4771671295166016 0.250117689371109 0.8330178260803223 -0.899809718132019 0.8332545161247253 0.20136059820652008 0.6963911056518555 1.7349120378494263 -0.884657621383667 0.07545527815818787 -0.1308172196149826 -1.1923089027404785 0.8304215669631958 1.188754677772522 0.48464497923851013 -0.041478682309389114 0.998751163482666 -0.0017502026166766882 -0.1689361035823822 -0.18196886777877808 0.5755046606063843 -0.9361999034881592 -1.1382930278778076 -0.1990603804588318 -0.8089552521705627 0.08906180411577225 -1.0739405155181885 -0.239457368850708 0.09662672132253647 0.3966328203678131 0.9206440448760986 1.346572995185852 -0.28498098254203796 0.7303582429885864 1.2141118049621582 2.252315044403076 -0.7513821721076965 1.0643367767333984 0.49240267276763916 -1.7145700454711914 -0.3626323342323303 2.8021910190582275 0.24904774129390717 -0.12092044204473495 1.3002643585205078 0.9627803564071655 -0.017255887389183044 -0.911289632320404 0.6280201077461243 1.938438057899475 -1.5478698015213013 0.390372633934021 0.21978910267353058 -1.586667537689209 -0.6857710480690002 0.8992568254470825 -0.008403964340686798 -0.23567932844161987 -0.8959633708000183 0.4707525372505188 -1.3171656131744385 -0.002183071104809642 0.6386747360229492 1.1868221759796143 0.2817491590976715 -0.9318472743034363 -1.2725627422332764 1.4969086647033691 -2.182218313217163 -0.6589065790176392 -0.943264901638031 0.7834389209747314 -0.9365315437316895 0.04078831896185875 0.4574127197265625 0.5452170372009277 0.8479811549186707 1.6106369495391846 0.3242364525794983 0.266982764005661 0.5050394535064697 -0.26372382044792175 -0.9872798919677734 0.5810497999191284 0.9717832803726196 0.4614333212375641 -0.39176347851753235 -1.748906135559082 -1.2771673202514648 -1.0437382459640503 1.9547009468078613 0.39922717213630676 0.12153740972280502 1.2468349933624268 0.2555624544620514 0.29838669300079346 0.7180647850036621 0.7365933060646057 0.01292742695659399 -0.5877995491027832 0.1515744924545288 0.1584264189004898 -0.412264883518219 0.9216411709785461 -0.5203343033790588 0.293967068195343 -0.3822391927242279 -0.3250654935836792 -0.6301181316375732 -0.5779657959938049 0.8110558986663818 0.7611482739448547 0.004004363901913166 1.001029372215271 -0.2541083097457886 0.4328007400035858 0.7754261493682861 0.909427285194397 0.6162487268447876 1.3525493144989014 1.3108892440795898 -0.2938234210014343 -1.452915072441101 0.7347691655158997 -0.19057400524616241 1.8115365505218506 1.5866239070892334 1.210292100906372 0.7411330342292786 0.4362405240535736 0.450536847114563 1.661197543144226 0.9878180027008057 0.5735514163970947 -0.15057606995105743 0.06181589141488075 1.1307878494262695 -1.9852508306503296 0.4514467120170593 0.1639174073934555 -0.9242945909500122 -1.1403496265411377 1.2054412364959717 -0.40821295976638794 -0.9225672483444214 0.28559404611587524 3.213315010070801 -0.9377265572547913 -0.002689543180167675 0.6820920705795288 -1.1914820671081543 -0.6158453226089478 0.20302174985408783 1.0173535346984863 0.28640127182006836 0.4054673910140991 1.2573503255844116 -0.2910630702972412 0.6910802721977234 -0.3543086349964142 0.34731531143188477 0.648500919342041 
vec11 0.12124529480934143 -1.6512116193771362 -1.6851482391357422 0.7708476781845093 0.22763435542583466 0.3724541962146759 0.8935567736625671 1.4495043754577637 -0.6912639141082764 -0.9362810254096985 -1.5199780464172363 -2.6371190547943115 -0.2813585102558136 -1.872170090675354 0.861799955368042 -0.4259008765220642 0.3280654847621918 1.0604833364486694 3.063744068145752 0.1084265410900116 -1.6987149715423584 -0.24775004386901855 0.46122223138809204 0.06527813524007797 -1.587908148765564 -0.5627984404563904 -0.9568163156509399 1.921149730682373 -1.5790148973464966 0.5290064215660095 0.14028400182724 0.20491263270378113 -1.4924904108047485 -2.5639114379882812 -0.1342894285917282 -1.4623668193817139 1.2831932306289673 0.22157298028469086 -2.0933146476745605 0.16243185102939606 0.5084445476531982 -1.0975189208984375 1.7768659591674805 -0.339573472738266 -0.07379326969385147 0.8770153522491455 2.4568803310394287 0.25221487879753113 0.2167782187461853 -0.8246228694915771 0.3669658899307251 -0.384804904460907 0.19121049344539642 1.5584863424301147 -0.1353151500225067 0.05201784521341324 -0.1481045037508011 0.0014672867255285382 -0.5828254222869873 -0.5701088309288025 -1.6875348091125488 -0.3491842448711395 -0.4632546305656433 -0.27057135105133057 -1.7968758344650269 -1.551186442375183 -0.5067496299743652 -1.5021384954452515 0.8819249272346497 1.087973952293396 -0.4416825473308563 -1.1268439292907715 0.604751467704773 1.5076768398284912 -1.1473852396011353 0.6666309237480164 0.2630666494369507 -0.9745604395866394 -0.6445717811584473 1.3945974111557007 -0.8780035376548767 0.5002925395965576 2.1491165161132812 0.9730996489524841 0.9074605107307434 0.293531596660614 -1.0448226928710938 0.010628891177475452 -1.3942294120788574 0.4914255142211914 0.789978563785553 -0.20168334245681763 -0.3687620759010315 0.5929228663444519 -0.44696277379989624 -0.29553788900375366 -1.0334044694900513 0.6835799813270569 -0.7334720492362976 -0.8083015084266663 0.8030686378479004 0.4881284236907959 0.12052766978740692 -0.6110904812812805 -1.3183043003082275 1.6908276081085205 -2.7840938568115234 -1.660438895225525 -0.8176795840263367 0.8426637649536133 -1.5042568445205688 -0.42233341932296753 0.13340844213962555 1.0374482870101929 0.11501095443964005 1.5344046354293823 -0.06405666470527649 1.0765868425369263 -0.6989302635192871 0.9616534113883972 -1.5249634981155396 0.7350727319717407 1.744211196899414 -0.4620695114135742 0.16067323088645935 -1.727066159248352 -0.47606903314590454 -1.1749638319015503 0.7547846436500549 0.7474864721298218 0.878183901309967 1.1041970252990723 0.2520989179611206 -1.2907028198242188 0.6976722478866577 2.1125011444091797 -0.6435414552688599 -0.8296469449996948 -0.25047802925109863 -0.304608553647995 -1.168115496635437 0.5684940814971924 0.41996216773986816 0.9666946530342102 -0.4014398157596588 0.681230366230011 -1.5437384843826294 -1.1729118824005127 -0.6421000361442566 0.7916364669799805 0.5842592120170593 0.1353009194135666 -1.2278921604156494 0.47982826828956604 1.3685743808746338 0.39938199520111084 -0.9319986701011658 0.8676097989082336 0.2545856237411499 1.3103842735290527 -2.3507111072540283 0.5208919048309326 -0.9260676503181458 2.218226432800293 0.4318096339702606 -0.24940721690654755 0.6366099715232849 -0.10085759311914444 0.48373347520828247 3.199812650680542 1.4142721891403198 1.4199497699737549 0.3874250650405884 0.050069600343704224 -0.29303598403930664 -0.12882235646247864 0.6150177717208862 0.5438584685325623 1.524182915687561 -0.6858989000320435 0.3244805335998535 -0.15412837266921997 -0.820354700088501 -0.46918028593063354 3.3730344772338867 1.1013782024383545 -1.0401787757873535 -1.0141888856887817 -0.9271131157875061 -0.9575241804122925 0.16305632889270782 0.8095929026603699 -0.3562856614589691 0.08040814846754074 0.7499463558197021 -1.3332561254501343 0.7191205024719238 -0.5012016296386719 1.1198476552963257 -0.38537755608558655 
vec12 -0.6842045187950134 1.1916261911392212 -1.198303461074829 -0.7563359141349792 0.8192578554153442 -0.4640849232673645 0.6380466818809509 1.7612849473953247 -1.2014137506484985 -0.5960609316825867 -0.4305754601955414 -2.086409568786621 -0.9584450721740723 -0.8662564158439636 0.08483969420194626 -0.3407615125179291 -1.1058635711669922 0.059219103306531906 2.523224353790283 0.39897018671035767 -1.0124129056930542 0.09578416496515274 1.4578620195388794 -0.010865256190299988 -1.4631763696670532 -0.028447933495044708 -0.2803642153739929 1.7229305505752563 -1.2664122581481934 -0.8636434674263 -0.1674971580505371 0.027081334963440895 -0.3596816658973694 -0.3346213400363922 0.567889392375946 -0.40794503688812256 1.6625902652740479 0.3516972064971924 -1.5688139200210571 0.36506351828575134 0.05682952702045441 0.018544549122452736 2.158396005630493 0.23946675658226013 0.09339452534914017 0.410758912563324 1.9112507104873657 1.143584966659546 -0.4377685487270355 -0.249434232711792 1.436938762664795 1.3346501588821411 1.2378590106964111 1.2313653230667114 0.41589123010635376 0.07201005518436432 -0.5822312235832214 -0.47230100631713867 -0.7305447459220886 -0.6274100542068481 -0.6957449316978455 0.272832453250885 -0.8359403610229492 0.31772565841674805 -0.4066169857978821 -1.045559287071228 -0.6846550107002258 0.46701154112815857 0.794291615486145 -0.16381144523620605 0.43224167823791504 -0.026103820651769638 0.10035447776317596 2.19018816947937 -0.7390223741531372 0.1628788858652115 0.3045206665992737 -1.0128501653671265 -0.4868513345718384 0.7023329734802246 -1.0953983068466187 1.399610996246338 1.2207391262054443 0.6985117793083191 -0.2306271493434906 -0.7709697484970093 -0.06081051751971245 0.8042147159576416 -0.5205348134040833 -1.4584871530532837 2.2466185092926025 -0.4774312674999237 -0.8191255331039429 0.3001496195793152 0.7211968302726746 -0.2282036691904068 -1.690246820449829 0.764196515083313 -0.641355037689209 -0.2852316200733185 -0.08374658226966858 1.2084965705871582 -0.2280319333076477 -0.819271981716156 0.7335489392280579 2.2747244834899902 -2.0402917861938477 -1.0817983150482178 -0.9100282192230225 -0.4005959928035736 -0.4029867351055145 0.9719170928001404 -1.5495845079421997 0.2307531237602234 -0.5265920162200928 2.10075306892395 -0.8381228446960449 0.3816412091255188 -1.8049569129943848 0.2979552149772644 -1.3065601587295532 1.2195740938186646 1.161136507987976 -2.3023791313171387 -1.3127520084381104 -1.7099113464355469 -0.5376742482185364 -1.1724019050598145 0.22968150675296783 1.2740988731384277 1.507422685623169 -0.674623429775238 0.08040972799062729 -0.00584656186401844 0.2350843846797943 0.8263950347900391 -0.9806886911392212 -1.06806218624115 -0.32220327854156494 0.05108695477247238 -1.9780762195587158 0.21753741800785065 -0.4368911683559418 -0.46504509449005127 0.3953031301498413 -0.6589929461479187 -0.7744517922401428 0.05820935219526291 -0.7469549179077148 0.4393504559993744 2.0400631427764893 -0.004419928416609764 -0.40546277165412903 0.28813737630844116 0.231801837682724 1.009099006652832 -0.3879738450050354 0.7285655736923218 1.4906586408615112 -0.12679888308048248 -0.22533097863197327 1.5047811269760132 1.1327401399612427 2.529470205307007 0.9528443813323975 0.5490837097167969 0.7599339485168457 0.7460421919822693 -0.10639346390962601 2.689061164855957 0.8627014756202698 0.11510485410690308 -0.21603922545909882 -0.3944266736507416 -1.0542128086090088 -1.2677329778671265 -0.23173624277114868 -1.8938484191894531 0.354071706533432 -0.5855271220207214 0.37550386786460876 0.6995909810066223 -0.4199770987033844 -1.6660398244857788 1.740979790687561 0.048109669238328934 -1.136959195137024 -0.37748056650161743 -0.797152578830719 -0.33369967341423035 -0.8993717432022095 0.04483631253242493 0.21383042633533478 -0.6857864856719971 0.7291104793548584 -0.47600576281547546 0.3841371536254883 -0.8678061962127686 1.8800806999206543 0.8184519410133362 
vec13 1.1081950664520264 0.02042325772345066 -1.4845712184906006 -0.9359390139579773 0.22068874537944794 0.20969468355178833 -0.37373942136764526 1.2588287591934204 -1.3485631942749023 -0.5547439455986023 -0.18608473241329193 -0.5569049119949341 -1.778725028038025 -1.6042046546936035 -0.7417934536933899 -0.28659772872924805 -0.9068247079849243 -0.5629317164421082 2.235626220703125 -0.7144283652305603 -2.037842035293579 -1.1322786808013916 2.0935940742492676 0.07238119840621948 -2.2874867916107178 -0.30534854531288147 0.16451041400432587 2.054283857345581 -1.226020097732544 -0.723950207233429 0.38040128350257874 0.7427366971969604 -0.535265326499939 0.6880453824996948 -0.674706220626831 -0.5602465271949768 2.1884703636169434 -0.2523147761821747 -2.957587718963623 -0.14739485085010529 -0.053522732108831406 -0.07630814611911774 1.2353934049606323 0.41349756717681885 -0.19116196036338806 1.2591371536254883 0.801304817199707 0.027780214324593544 0.052619658410549164 -0.2952588200569153 1.7124191522598267 1.2381144762039185 0.3176911771297455 0.1297626495361328 0.5021740794181824 -0.2525216341018677 -0.1078619584441185 0.11346719413995743 -1.8291668891906738 -0.8391915559768677 -1.6854102611541748 -0.1000979095697403 -1.4305344820022583 0.9344550371170044 -1.2237306833267212 -1.2504022121429443 -1.1626968383789062 0.06189019978046417 0.9894794225692749 0.8390927314758301 0.15875914692878723 -0.18481071293354034 0.9817425012588501 1.5083433389663696 -1.1908875703811646 0.2756045460700989 -0.07864990830421448 -1.6584328413009644 0.1885702908039093 1.4497838020324707 0.4599171578884125 1.4146556854248047 2.354163646697998 1.9557921886444092 -0.1681114137172699 0.5361976623535156 0.09026610106229782 1.7905185222625732 -0.8241798281669617 -0.7613036632537842 1.7774267196655273 0.32387828826904297 -1.631378412246704 -0.3768481910228729 -0.1872081756591797 -0.9351785778999329 -0.9776768088340759 0.36223793029785156 -1.4015870094299316 -0.5509582161903381 0.946638286113739 -0.48287081718444824 -0.6603291630744934 -0.7112652063369751 0.42459720373153687 0.933964729309082 -1.451206088066101 -1.5500813722610474 -1.5182591676712036 0.632768988609314 -0.770923376083374 0.04106389358639717 0.5287261009216309 0.5844451785087585 0.6623475551605225 1.7208380699157715 -0.6041913032531738 0.7656674385070801 0.324342280626297 -0.18579210340976715 -1.810526728630066 1.1070297956466675 1.1730574369430542 -0.8961285948753357 0.1134963184595108 -1.4186164140701294 -0.28577008843421936 -1.463482141494751 1.7625023126602173 0.48833468556404114 0.01620633155107498 -0.26389893889427185 -1.240737795829773 1.0356460809707642 1.0557262897491455 1.6342238187789917 -0.2719753086566925 -0.23072153329849243 0.2030434012413025 -0.8172378540039062 -0.3122696280479431 -0.6638758778572083 0.6310446262359619 1.3924847841262817 -0.6265472173690796 -0.42419248819351196 -0.5676777362823486 -1.1576207876205444 -0.053112853318452835 1.1990700960159302 0.47119230031967163 1.2400747537612915 -0.3549281060695648 0.5155293941497803 0.1870637834072113 1.6612869501113892 -0.42991676926612854 1.1402169466018677 1.201245665550232 0.1983056366443634 -2.29447340965271 0.7858820557594299 1.0044039487838745 2.054258108139038 0.34202122688293457 0.15752550959587097 1.4494386911392212 0.9315615892410278 -0.07581206411123276 2.3440937995910645 0.7698944807052612 0.9353487491607666 0.44856762886047363 0.25094565749168396 -0.18152591586112976 -1.5248326063156128 -0.4248018264770508 -1.4685999155044556 0.23265719413757324 0.6184583306312561 0.06855121999979019 1.1487624645233154 -0.5633052587509155 -0.4342360198497772 0.5039666295051575 0.02453516237437725 -0.6307249665260315 -0.18448904156684875 -0.618175745010376 1.1348340511322021 -1.1246885061264038 0.7781991958618164 0.7474457621574402 0.48936790227890015 -0.5040873289108276 -0.9857978820800781 -0.1869002878665924 -1.760373830795288 1.41806161403656 0.7186912298202515 
vec14 -0.4074808955192566 -0.4602138102054596 -0.9072307348251343 -0.6522199511528015 0.7841067910194397 0.6409384608268738 -0.3316129446029663 0.4502449631690979 -1.0501278638839722 -0.5645354986190796 -0.9172419905662537 -1.3170075416564941 -0.5149568319320679 -1.079892873764038 0.12001733481884003 0.3408104479312897 -1.4679020643234253 -0.36131659150123596 3.0166449546813965 -1.3177212476730347 -2.5205185413360596 -0.01663239672780037 2.097918748855591 -0.3054625689983368 -1.36501944065094 -0.27661946415901184 -0.6211838722229004 -0.2364397794008255 -1.1726278066635132 -0.6789339780807495 0.9655128121376038 1.684928297996521 0.10927355289459229 -0.660650372505188 0.5708644390106201 -0.6411884427070618 1.6740508079528809 -0.14527317881584167 -2.144346237182617 1.0648761987686157 0.16945107281208038 0.17489387094974518 1.212459921836853 0.3622702956199646 -0.8283655643463135 2.0111753940582275 0.7075062394142151 1.2691737413406372 0.39472928643226624 -1.033612608909607 1.8249359130859375 0.9198336601257324 0.7207238078117371 0.672623872756958 0.7079840302467346 -0.79984450340271 0.6400487422943115 0.2110629826784134 -1.3566393852233887 -0.1612054407596588 -1.890182375907898 0.016026625409722328 -0.968540370464325 -0.46988096833229065 -0.9437009692192078 -0.2704624831676483 -1.2659580707550049 -0.6874685287475586 0.7175419926643372 2.6696383953094482 -0.022512488067150116 -1.1277345418930054 1.6507253646850586 2.132889986038208 -1.2508715391159058 1.2629822492599487 0.8793975114822388 -0.8731991052627563 0.39303481578826904 -0.32603248953819275 0.3589387536048889 1.2921364307403564 1.2263678312301636 0.3709771931171417 0.2488265484571457 0.4746933877468109 0.07428944110870361 0.7932119965553284 -2.2625110149383545 -1.1987667083740234 2.2808032035827637 -0.21504543721675873 -0.6605664491653442 -0.06139971688389778 -0.7583634257316589 0.3494839668273926 -0.6817363500595093 1.3446135520935059 -0.6089299917221069 0.4636823534965515 -0.33381450176239014 0.2747475206851959 -0.13389632105827332 -1.4652884006500244 0.515063464641571 1.363980770111084 -0.948810875415802 -1.3645808696746826 -0.9848644137382507 0.29367244243621826 -0.8277171850204468 0.9582766890525818 -1.0093611478805542 -1.1834232807159424 0.37545663118362427 0.2914630174636841 -0.5147461295127869 -0.23259000480175018 -0.5865176320075989 -1.0045356750488281 -0.9737976789474487 0.19658902287483215 1.0364266633987427 -0.5298921465873718 -0.3482877016067505 -1.3483784198760986 -0.5161281824111938 -0.2943081855773926 2.372015953063965 1.1472277641296387 0.7590698003768921 0.7829009294509888 0.11225368827581406 1.7980457544326782 1.4123444557189941 0.45642685890197754 -0.6278003454208374 0.22409209609031677 -0.6584243774414062 -0.5688319206237793 -0.1940951943397522 0.36641818284988403 -2.278390645980835 0.11135049164295197 -1.5765650272369385 -0.5143253803253174 -0.09409310668706894 0.20407412946224213 -0.1212453842163086 0.02146441861987114 0.46758925914764404 0.17949388921260834 -0.09855297952890396 0.9252541065216064 2.4291722774505615 0.7942383289337158 0.5057346224784851 0.7064570784568787 2.0346062183380127 -0.374162495136261 -0.026876647025346756 0.11661919206380844 0.7741960883140564 1.4410207271575928 0.024746114388108253 0.10277806222438812 2.0559380054473877 0.9695876240730286 -0.9935824275016785 2.252084493637085 1.330984115600586 1.5686663389205933 1.1171894073486328 -0.3954978585243225 -1.4591972827911377 -0.4201904535293579 -0.14498941600322723 -0.027368636801838875 0.17711764574050903 0.5951102375984192 -0.3126617968082428 0.011359444819390774 -0.9262993931770325 -0.7688615918159485 0.4382985830307007 1.7766767740249634 -0.9023678302764893 -0.5828315019607544 -0.20459818840026855 0.33164680004119873 -1.28489089012146 0.8028532266616821 0.23041518032550812 0.3394288420677185 -0.37517014145851135 -1.1819273233413696 -0.062312234193086624 0.2972353398799896 1.8758121728897095 -0.11646007746458054 
vec15 0.09715905785560608 -0.6806078553199768 -1.4805253744125366 -0.9005168080329895 1.1563245058059692 0.24885083734989166 0.21446625888347626 1.980567216873169 -0.49343135952949524 -0.8074241876602173 -1.622538685798645 -0.3100915551185608 -0.3369366526603699 -1.1290411949157715 0.6692822575569153 -1.1075679063796997 -0.8180098533630371 1.3850822448730469 2.30580735206604 -0.8486480712890625 -1.4741288423538208 -1.048714280128479 0.48932337760925293 -1.1983628273010254 -2.4475815296173096 -1.8132731914520264 -0.3310832977294922 1.247434377670288 -1.3380752801895142 -0.2126685380935669 -0.845220148563385 0.5595501661300659 -1.086966872215271 -1.0412262678146362 1.2557215690612793 -0.39149758219718933 0.47586789727211 -0.4927906394004822 -0.7510636448860168 0.13851504027843475 -0.13634437322616577 -1.4472633600234985 0.7058107256889343 0.07610595226287842 -0.24745093286037445 0.8409221172332764 0.7369186878204346 -0.34619495272636414 0.5841468572616577 -1.8273898363113403 1.0280605554580688 1.0134360790252686 0.3232426047325134 1.053179144859314 1.3752176761627197 0.92447429895401 0.45341527462005615 -1.0448232889175415 -0.8770171999931335 0.6012581586837769 -0.6376169919967651 0.20911498367786407 0.08698009699583054 -0.7404541969299316 -0.2868193984031677 0.09539053589105606 -0.230979323387146 0.30406561493873596 2.0076072216033936 2.4714715480804443 0.0660054013133049 -0.12796127796173096 0.4793279767036438 0.4013322591781616 -1.0907286405563354 0.503407895565033 -1.1716300249099731 -1.3542152643203735 -0.7055021524429321 1.9116584062576294 -0.3764883875846863 0.5239650011062622 1.362480640411377 1.3958863019943237 0.8689256310462952 -0.3052425980567932 -1.060174584388733 -0.7693274021148682 -1.7395615577697754 -1.4938268661499023 1.370401382446289 1.0832730531692505 0.08219929784536362 0.469118595123291 1.0575273036956787 -1.924939513206482 -1.3259793519973755 0.7897361516952515 -1.117619276046753 0.9223455190658569 -0.44397398829460144 -0.928952693939209 -0.6048575043678284 -1.1959688663482666 -0.6084659695625305 1.2096333503723145 -1.8782553672790527 -1.4826892614364624 -1.3037302494049072 1.2780308723449707 -0.03680754080414772 1.4103869199752808 -0.1725863814353943 0.5502350330352783 0.8117603659629822 1.3423517942428589 -0.13220728933811188 0.7004789710044861 -0.20477797091007233 -0.7459741234779358 -1.2545117139816284 -0.7746568322181702 1.2884063720703125 -0.9788772463798523 -0.5661929845809937 -0.9071892499923706 -0.2534961998462677 -0.5770856738090515 0.38329023122787476 0.364352285861969 0.22503627836704254 0.26375943422317505 -0.28431275486946106 0.2725001871585846 0.6082305312156677 0.5723169445991516 0.22571633756160736 0.6386181116104126 -0.30022549629211426 0.5392270684242249 0.22702594101428986 -0.007172440178692341 -1.215956449508667 0.22099988162517548 -0.8776716589927673 -0.9126604795455933 -0.9579097032546997 -1.032043695449829 -0.8710631728172302 -0.2260771095752716 0.8201884031295776 1.079312801361084 -1.4924726486206055 -0.8094356656074524 0.8513844013214111 0.6439439058303833 0.28051531314849854 0.15029354393482208 0.6238489747047424 0.0313224196434021 -1.9911216497421265 0.8401168584823608 -0.7931468486785889 3.102947235107422 0.9154854416847229 0.6335681676864624 0.7162754535675049 -0.019326141104102135 -0.0878055989742279 1.800062894821167 1.1989234685897827 1.2320098876953125 -0.35211271047592163 0.5199400186538696 -0.9032993912696838 -1.0244438648223877 -0.04352126270532608 0.1746606081724167 0.07722917199134827 -0.9753537774085999 -0.6442356705665588 0.040480151772499084 -1.0299409627914429 0.4989171028137207 1.2280524969100952 1.56643545627594 -1.360407829284668 0.31301721930503845 -1.075689435005188 0.7563750743865967 -0.6387314200401306 -0.6807120442390442 0.9791883826255798 0.689903199672699 -0.1879412680864334 0.5578869581222534 0.34526485204696655 -0.5885586738586426 1.0471508502960205 -0.5567433834075928 
vec16 -0.8745425939559937 0.9334168434143066 -1.2772530317306519 -0.735519289970398 0.3441436290740967 0.25194764137268066 -0.5052693486213684 2.3485910892486572 -0.5336324572563171 0.0411093644797802 -2.2287771701812744 -1.531944751739502 -0.5943752527236938 -1.8812263011932373 0.3417046070098877 -1.6852333545684814 -1.024880051612854 1.7659274339675903 1.5844131708145142 -0.24025858938694 -0.5770285129547119 -1.4050652980804443 1.4625005722045898 -0.06990786641836166 -1.590147852897644 -0.4855482578277588 -1.292281985282898 0.864948570728302 -2.3424205780029297 -1.1293787956237793 -0.7573683857917786 -0.3845650255680084 0.1657063215970993 -1.7264301776885986 0.32324594259262085 0.05580756440758705 1.0334757566452026 0.3177796006202698 -1.229917049407959 1.12521231174469 0.10779236257076263 -0.579106867313385 1.8527878522872925 -0.5254162549972534 -0.4261811077594757 1.2860591411590576 1.2264220714569092 0.37613052129745483 1.4024125337600708 -0.4786703586578369 1.5980310440063477 0.8011584281921387 -0.6220942139625549 1.2743594646453857 -0.5374911427497864 -0.24687103927135468 -0.1891503483057022 -0.5536051392555237 -1.5888409614562988 -0.23472684621810913 -0.23769138753414154 -0.3387254774570465 0.1621803641319275 0.5927859544754028 -0.5790000557899475 -1.2610878944396973 -0.05842973291873932 -0.23516909778118134 -0.46513915061950684 2.405282735824585 -1.8713804483413696 1.0814123153686523 -0.6879116892814636 0.2659287750720978 -1.1604559421539307 -0.1924159973859787 0.024871541187167168 -1.158614158630371 0.4713723957538605 1.5600160360336304 -0.4891868531703949 0.971008837223053 2.878866195678711 1.1705336570739746 0.46133267879486084 -0.21573804318904877 -0.8345725536346436 0.1676383763551712 -0.899640679359436 -0.3098706603050232 1.384742259979248 -0.3204006254673004 -0.24134372174739838 0.7428252100944519 0.41664919257164 0.3484455943107605 -1.3286188840866089 0.41521018743515015 -1.0820411443710327 -1.0421345233917236 -0.6932880282402039 -0.09257320314645767 0.5482174754142761 0.6477619409561157 -0.22706031799316406 1.743581771850586 -2.3058230876922607 -1.8877912759780884 -1.9290574789047241 0.7420272827148438 -1.3304857015609741 0.9625080823898315 -0.5295417308807373 0.6778435111045837 0.7413243055343628 1.341450810432434 0.32509827613830566 0.09657034277915955 -0.5565491914749146 0.5142093300819397 -2.0001611709594727 1.000380516052246 1.8777645826339722 -0.28167545795440674 -1.0574727058410645 -1.5297911167144775 -0.692171037197113 -0.5364570021629333 0.9638851881027222 1.1418981552124023 0.6176103353500366 -0.15298373997211456 0.3852488696575165 -0.47488996386528015 0.45065838098526 0.8172920942306519 0.30990904569625854 0.6599231362342834 0.6550592184066772 0.6813688278198242 -1.7449630498886108 1.220143437385559 0.2845764756202698 0.06607011705636978 -1.549507737159729 -0.24523712694644928 -0.3710930347442627 -0.1744847148656845 -0.4807336628437042 0.05999405309557915 -0.24437305331230164 0.1409541368484497 -0.5214472413063049 1.1252222061157227 1.459669828414917 0.4651939570903778 -0.33762168884277344 0.5770554542541504 0.8205733895301819 -0.20995394885540009 -1.3746854066848755 0.6302861571311951 1.1981308460235596 2.855038642883301 -0.03509063273668289 0.28497880697250366 1.226906180381775 0.3189164400100708 -0.35009878873825073 1.0812609195709229 -0.20383529365062714 0.045981328934431076 -0.4780375361442566 0.08029844611883163 -1.0071367025375366 -0.5528414845466614 -0.08287733048200607 -1.4036659002304077 -0.5294169783592224 -0.1713566929101944 0.2262193113565445 0.9134884476661682 -0.500141978263855 -0.0286959670484066 2.5036983489990234 0.16876111924648285 0.14721019566059113 -0.23138995468616486 -1.6281847953796387 0.10108242928981781 -0.29800623655319214 0.7084518671035767 -0.7126057744026184 0.911414623260498 1.3453326225280762 -0.616446852684021 1.06419837474823 -0.022077737376093864 1.0241169929504395 0.779816746711731 
vec17 -0.6108044981956482 -1.268458366394043 -0.20833992958068848 -0.6976242065429688 -0.03949607536196709 0.46914103627204895 -1.0291415452957153 1.8525152206420898 -2.2735815048217773 0.15930090844631195 -0.4643828570842743 0.22578541934490204 -0.8967131972312927 -2.1938323974609375 0.19584989547729492 -1.041982650756836 -2.4071762561798096 0.42463743686676025 1.083922028541565 -1.6362470388412476 -1.8443154096603394 1.575376272201538 1.130019187927246 0.7804657816886902 -0.9056127667427063 -0.5954902172088623 -1.3742907047271729 1.9314287900924683 0.1175839751958847 -0.46541446447372437 0.4077882170677185 -0.11172628402709961 -0.42438676953315735 -0.3478988707065582 -1.7032991647720337 -1.1837068796157837 2.148073673248291 -1.4323657751083374 -1.4787758588790894 -0.2965959310531616 -0.7674594521522522 -0.8542842864990234 2.9091203212738037 0.07068701833486557 -0.15464536845684052 -0.32919594645500183 1.5901869535446167 -0.5424715876579285 0.5006952881813049 -1.4123344421386719 0.9523409605026245 1.3117682933807373 -0.5304921865463257 1.0393834114074707 -0.09804568439722061 -0.017166003584861755 -0.18160218000411987 -0.14773935079574585 -0.43083900213241577 -0.6678516268730164 -0.6182946562767029 -1.4191803932189941 -1.7589747905731201 1.1323987245559692 -1.2260551452636719 -0.869378924369812 -0.913857102394104 -2.0205559730529785 0.5337320566177368 2.086426258087158 -0.33973342180252075 0.19987043738365173 0.8059188723564148 1.308570146560669 -0.6648293733596802 1.0350639820098877 -1.0127087831497192 -1.1642632484436035 0.08773171156644821 1.433070421218872 -1.1334362030029297 0.942658543586731 1.8332117795944214 -0.4353044033050537 -0.4272751212120056 -0.669093668460846 -1.0686216354370117 -0.2719655930995941 -1.7730708122253418 -0.9354867339134216 1.7519139051437378 0.10629643499851227 0.5038293600082397 1.2422257661819458 0.7962062954902649 -0.33699312806129456 -0.5398474335670471 1.2611422538757324 -0.41076239943504333 -0.34683722257614136 0.2798963189125061 -0.4377710521221161 -0.8550058007240295 -0.07673387229442596 -0.5157264471054077 1.1564980745315552 -1.7759151458740234 -0.4342406392097473 -0.33097732067108154 1.5895870923995972 -0.36187106370925903 0.6422908902168274 1.1711491346359253 -0.13530069589614868 -0.2666350305080414 0.4579904079437256 -1.30741286277771 0.26138967275619507 0.3083822727203369 0.432522714138031 -1.0713131427764893 -0.28375741839408875 1.8596969842910767 -0.4347032904624939 -0.5456086993217468 -0.6023449301719666 -1.3757840394973755 -2.0855069160461426 0.8129292130470276 0.5293354988098145 1.6692800521850586 0.8539924025535583 0.43491673469543457 -0.3500159680843353 1.5925463438034058 0.6932796239852905 0.309727281332016 -0.22440804541110992 0.2865939438343048 -1.2777330875396729 -0.18771009147167206 0.13640326261520386 0.5884596705436707 -0.43123841285705566 -0.7140675783157349 -0.2433815747499466 -1.2428112030029297 0.11089380830526352 -0.6125808954238892 0.34253212809562683 -0.049459148198366165 0.4698980450630188 -0.9940983653068542 1.1673306226730347 1.2196847200393677 2.3823342323303223 -0.597332775592804 1.3032711744308472 1.153096079826355 -0.7908714413642883 -0.7157888412475586 -0.1786264181137085 -0.826009213924408 2.4299166202545166 2.0259902477264404 0.75055330991745 1.4251834154129028 0.4811627268791199 0.8074592351913452 2.3404359817504883 1.8745753765106201 0.4131510555744171 -0.5494260787963867 0.3562869727611542 -0.3945833146572113 -0.6930159330368042 0.17821530997753143 -0.3908548057079315 -0.40771251916885376 -0.495484322309494 0.0848236158490181 1.0514850616455078 -0.30557531118392944 -0.6204966902732849 1.4352716207504272 0.16800467669963837 0.39170706272125244 -0.29652655124664307 -1.2911783456802368 0.5050744414329529 -0.18215540051460266 0.8354146480560303 -1.7269765138626099 0.4144518971443176 1.9207175970077515 -1.2128336429595947 0.8593510389328003 -1.735711932182312 0.638329803943634 0.9815330505371094 
vec18 0.00844202283769846 -0.2933087944984436 -0.08127526193857193 -0.2658011317253113 1.135036826133728 0.7607542276382446 -1.0163072347640991 1.6285492181777954 -1.3972502946853638 -1.0576120615005493 -1.1002955436706543 -2.629781484603882 0.20321419835090637 -0.9858695268630981 0.9902990460395813 -0.6882442831993103 -1.8870786428451538 -0.34174293279647827 1.8233351707458496 -1.2644567489624023 -2.141141653060913 -1.0361133813858032 0.9314131140708923 -0.7477012872695923 -1.4791820049285889 0.41127946972846985 -0.8991024494171143 -0.014674843288958073 -0.7386272549629211 0.5807499289512634 0.41393813490867615 -0.9158913493156433 0.08484271913766861 -0.6546518206596375 1.1232582330703735 -0.8967451453208923 2.188900947570801 -0.8667234182357788 -3.108604907989502 1.5029213428497314 -0.17162667214870453 -1.1360812187194824 2.463724374771118 1.1610689163208008 -0.6725659966468811 1.242249608039856 0.9436230063438416 -0.035360585898160934 0.8742042183876038 -2.080930709838867 1.0039204359054565 1.3581632375717163 -0.6211322546005249 1.4553585052490234 -0.07354553043842316 0.21779248118400574 0.42245158553123474 0.12950775027275085 -1.5093014240264893 -0.6867407560348511 -1.2100639343261719 -0.20722424983978271 -0.7659939527511597 0.5924252867698669 -1.2261426448822021 -0.861667811870575 0.41976454854011536 -1.181287169456482 0.554832935333252 1.0518380403518677 -0.06982199102640152 -0.2135758101940155 0.5798808336257935 0.7472988367080688 -1.1640650033950806 0.28214210271835327 0.1068258136510849 -0.952363133430481 0.4750711917877197 1.2410999536514282 0.2567746341228485 0.29958027601242065 1.4442123174667358 1.2596275806427002 -0.31132957339286804 0.24533993005752563 0.5644860863685608 1.7103270292282104 -2.2257437705993652 0.03967001289129257 2.1174042224884033 -1.4295649528503418 -0.31163355708122253 1.1173254251480103 0.2924596965312958 0.15668389201164246 -1.6443994045257568 0.5290514230728149 -0.10009094327688217 -0.21352222561836243 -0.4645305871963501 -0.19484440982341766 -0.4137622117996216 -0.4342220425605774 0.21192017197608948 0.5273630023002625 -1.429029107093811 -2.248220920562744 -0.29587966203689575 -0.38645219802856445 -0.6202059984207153 0.6771689653396606 0.0821625292301178 -0.18631088733673096 0.7890945672988892 1.464954137802124 -0.25296708941459656 0.5089150667190552 -0.5070850253105164 -1.0581707954406738 -0.8045123815536499 0.7002397775650024 1.7358649969100952 -0.20704755187034607 -0.9974128007888794 -1.375109076499939 -1.190170407295227 -1.512947916984558 0.6475453972816467 0.3239806294441223 1.749100923538208 -0.021285919472575188 0.6605261564254761 1.223172903060913 1.2303584814071655 1.7874120473861694 -0.39255157113075256 -1.5804808139801025 0.0966869592666626 -0.35218551754951477 -0.9591853618621826 1.1789062023162842 -0.7048974633216858 0.0293992068618536 -1.0666111707687378 -0.5462006330490112 -0.10713185369968414 -0.07425279915332794 -0.6130145192146301 -0.09878966212272644 1.865174412727356 0.7057340741157532 -2.0580387115478516 1.5726960897445679 2.0896196365356445 2.2541980743408203 -0.627630352973938 2.2242379188537598 0.9792227745056152 -1.4188330173492432 -0.9670383334159851 0.8525862693786621 1.0669130086898804 2.195416212081909 0.9063377976417542 0.1946135312318802 0.24952831864356995 0.7490265965461731 -0.5234856009483337 2.6801955699920654 0.9644352793693542 2.2105987071990967 -0.4654497504234314 0.9692822694778442 -0.2897948622703552 -1.9402164220809937 -0.7908574938774109 -0.3455839157104492 -0.12040600925683975 -1.6598671674728394 -0.4094706177711487 0.9419439435005188 -0.5841466784477234 -0.41351407766342163 2.130218029022217 1.018656849861145 0.7262730002403259 0.18890942633152008 -1.1002119779586792 -0.49080798029899597 -1.2636053562164307 0.3149859309196472 -0.27793776988983154 0.6209347248077393 0.9558785557746887 -0.1997671127319336 0.244009330868721 -0.14456327259540558 0.8648409247398376 0.3169841468334198 
vec19 -0.46583476662635803 -0.9136036038398743 -0.3167348802089691 -0.41350704431533813 0.14983396232128143 0.5607107281684875 0.09975503385066986 1.2442830801010132 -0.30605649948120117 -1.034185528755188 -1.1067638397216797 -0.8721508979797363 -1.3084074258804321 -1.1090492010116577 -0.22032782435417175 -0.8152461051940918 -0.05333873629570007 0.5577614903450012 2.0321218967437744 -0.2639754116535187 -0.17265665531158447 -1.1895875930786133 2.684718132019043 -0.22871792316436768 -1.032616376876831 -1.093306541442871 -0.10043469071388245 1.2474558353424072 -0.08800827711820602 0.4351194202899933 -0.9316428303718567 0.7018972635269165 -0.4084990918636322 -0.2650725543498993 -0.07476861029863358 -0.2864454984664917 1.253636360168457 0.04544032737612724 -2.368844747543335 0.575687825679779 1.0653756856918335 -0.915253221988678 1.3281376361846924 0.4351120889186859 -0.9525099396705627 2.6745858192443848 0.8711907863616943 1.8277965784072876 1.4568181037902832 -1.9959657192230225 0.1787334680557251 1.2162094116210938 0.3982398211956024 1.1110773086547852 -0.34619343280792236 -0.04625279828906059 1.7860217094421387 -0.44470471143722534 -1.163323163986206 -0.023456210270524025 -1.3944892883300781 0.37738627195358276 -0.9241331815719604 -0.30626001954078674 -1.3730354309082031 -0.1731385886669159 -0.1759672462940216 0.482837975025177 1.1875433921813965 1.673728108406067 -0.11057460308074951 -0.09684872627258301 0.21025031805038452 0.5324617028236389 -0.6527607440948486 -0.16664743423461914 -0.6262557506561279 -0.09943265467882156 -0.1948336511850357 0.05073065310716629 -0.7056511044502258 1.4333456754684448 1.627573847770691 0.24957425892353058 -0.700772762298584 -0.8765845894813538 -0.6759799122810364 1.227394938468933 -2.2704787254333496 0.21686768531799316 1.3683634996414185 -0.3147558569908142 -1.455780029296875 -0.00909273698925972 0.5366411805152893 -0.8625947833061218 -0.6932233572006226 -0.22919410467147827 0.32195013761520386 -0.3229079842567444 0.8751257061958313 -0.012324729934334755 0.7416490912437439 -1.1709932088851929 0.8844636082649231 1.5481795072555542 -1.8943705558776855 -0.20492249727249146 -1.3480570316314697 1.3444539308547974 -0.09374424070119858 -0.3479172885417938 1.1389318704605103 -0.23814155161380768 -0.4865206480026245 2.06449556350708 0.2952495217323303 0.1871870756149292 -0.851120114326477 -0.025732632726430893 -1.3657138347625732 1.335030436515808 0.2957368791103363 -2.45813250541687 -0.33165472745895386 -0.4184723496437073 -1.2427901029586792 -1.1661596298217773 0.40492889285087585 0.5918435454368591 0.5257827043533325 -0.0845494270324707 -0.8468306660652161 0.08440428972244263 1.413606882095337 1.683900237083435 -0.16451811790466309 0.30042406916618347 -0.09144368767738342 1.1562029123306274 -0.34455886483192444 -0.42047348618507385 -1.0397342443466187 0.10162382572889328 -0.8248915076255798 -0.2614215612411499 -0.8883898258209229 0.7855014801025391 0.15065933763980865 -0.06683050841093063 0.15121367573738098 0.9191751480102539 -0.6558923125267029 0.2877035439014435 1.0361422300338745 1.5452368259429932 -0.013447574339807034 -0.4345722198486328 0.18982550501823425 -0.2872333526611328 -1.2820687294006348 1.2942239046096802 0.7626969814300537 1.5654939413070679 1.3028686046600342 1.6683435440063477 0.24694956839084625 0.44099482893943787 1.3626439571380615 0.6686887145042419 1.8951385021209717 1.1887261867523193 -0.13448300957679749 -0.2135399729013443 -0.6628169417381287 -0.7417550683021545 -0.6015099287033081 -0.29304540157318115 0.5633784532546997 -1.881284236907959 0.8259173035621643 0.7931230068206787 -1.122385025024414 -1.1339151859283447 1.643798589706421 1.2742998600006104 -0.047416236251592636 -0.1400909125804901 -1.3661839962005615 0.0447610467672348 0.29869166016578674 -0.14146743714809418 -0.009206926450133324 -0.7444401979446411 1.1599122285842896 -0.8105554580688477 0.4741811454296112 -0.2392248660326004 2.190269708633423 -0.26203933358192444 
vec20 -0.8672744631767273 -0.42608073353767395 -1.0941108465194702 -1.5083739757537842 0.37220796942710876 -0.5641130805015564 -0.26407453417778015 0.9038698673248291 -1.9951726198196411 0.6728196144104004 -2.0663459300994873 -0.684949517250061 -0.7218481302261353 -0.9087421298027039 0.36217358708381653 -0.5042183995246887 -1.2398219108581543 0.18502862751483917 1.1717109680175781 0.3071516156196594 -2.581693172454834 -0.48445430397987366 1.6963183879852295 0.3749854862689972 -0.8797032237052917 0.26096630096435547 -0.5431126356124878 -0.1574236899614334 -0.7090950012207031 -0.6714569330215454 -0.5038142800331116 -0.310189425945282 0.14725376665592194 -0.09772297739982605 -0.4110068082809448 -1.3354520797729492 0.9658236503601074 -0.9274609088897705 -1.611138939857483 -1.4725091457366943 -0.2613459825515747 0.3024244010448456 1.2506364583969116 0.5551621317863464 -0.2804531455039978 1.019483208656311 1.403726577758789 0.8413046598434448 0.6417161822319031 -1.4895058870315552 0.0218155849725008 1.1661860942840576 1.0870531797409058 1.1289572715759277 0.49665287137031555 0.7109397053718567 1.402734637260437 0.0908622220158577 -1.119409441947937 -0.8593730926513672 -1.0159351825714111 -0.3927052319049835 -0.32245123386383057 0.996869683265686 -0.6969785094261169 -0.6009606719017029 -0.8632940053939819 0.287183552980423 -0.08092806488275528 0.8406378030776978 -0.2802436053752899 -0.7276287078857422 -0.4182054400444031 0.6251077651977539 -0.46668246388435364 -1.1194912195205688 0.648443877696991 -1.7448692321777344 0.7817972302436829 1.8871819972991943 0.2951604127883911 1.0960170030593872 2.489258050918579 0.6710640788078308 0.44776731729507446 -1.4060697555541992 -0.812836766242981 1.747556209564209 -1.6253148317337036 -1.9336179494857788 1.6201012134552002 0.6036399006843567 -0.8919640779495239 0.5892655849456787 0.856825053691864 -1.4201909303665161 -1.2649428844451904 1.141139268875122 -1.2190665006637573 -0.9386332035064697 0.5724139213562012 -0.010791347362101078 0.6752137541770935 0.09685028344392776 -0.8960182070732117 0.12627191841602325 -0.7844905853271484 -0.9549176692962646 -1.8079493045806885 0.6835551261901855 1.2387714385986328 0.07354950904846191 -1.0499197244644165 -0.22868895530700684 0.04000375419855118 1.7376712560653687 -0.2808563709259033 0.7289354205131531 -0.9426303505897522 -1.265809416770935 -1.665804147720337 0.5940501093864441 0.7938646078109741 -1.372137188911438 -0.41376104950904846 0.24854838848114014 -1.8629417419433594 -1.4654808044433594 0.6122974157333374 0.39524468779563904 0.4187144935131073 0.10193786770105362 0.7203513383865356 -0.5162486433982849 0.48069295287132263 0.3023090958595276 -0.021336041390895844 -0.356943279504776 0.46673551201820374 -0.41707855463027954 -1.557775616645813 -0.3371956944465637 -0.6114609241485596 -0.10614211112260818 -1.5728955268859863 -0.8305851221084595 -0.36994093656539917 0.18517719209194183 -0.8766060471534729 0.7235932946205139 1.297346591949463 -0.6189242601394653 -1.825730562210083 0.3269054591655731 2.4675676822662354 0.2286653220653534 -0.4620952010154724 -0.06277631968259811 1.0416491031646729 -0.5201793909072876 -2.2530832290649414 0.6881712675094604 1.0921024084091187 1.8667110204696655 1.677064299583435 1.0746243000030518 0.8762295246124268 1.8573431968688965 0.691945493221283 0.9510675072669983 0.2915359437465668 -0.05152451992034912 -0.31970277428627014 1.230893850326538 0.32648733258247375 -1.6580899953842163 -0.06139986962080002 -0.4321330785751343 -0.006726956460624933 -0.9277890920639038 -0.7821530699729919 0.6940461993217468 -0.8696668744087219 -1.160486102104187 2.606534719467163 1.0104783773422241 -0.21306948363780975 0.4547211527824402 -1.3867626190185547 -0.24247682094573975 -0.677407443523407 0.9250098466873169 -0.6055454611778259 0.355194091796875 0.8163318634033203 -0.72257399559021 1.485216498374939 -0.05933326482772827 2.4297940731048584 0.03684908151626587 
vec21 -0.1794613003730774 -0.16804076731204987 -1.6421246528625488 -1.4836219549179077 0.5775994658470154 0.3260436952114105 -0.5561286211013794 0.6679559946060181 -2.4579479694366455 -0.1579059213399887 -1.202653169631958 -0.3780982196331024 -0.2800920307636261 -1.3783493041992188 0.7605655789375305 -0.8709328770637512 -1.6534795761108398 0.9162892699241638 1.6566967964172363 -0.8019727468490601 -1.6814661026000977 0.5618652105331421 1.7203903198242188 0.6391981244087219 -1.2744734287261963 0.9359588623046875 -1.7099449634552002 2.287898302078247 -0.06237829849123955 0.1898614466190338 0.18774668872356415 -0.1574205905199051 -0.40675801038742065 -0.33931100368499756 0.4571692943572998 -1.7782295942306519 1.8107044696807861 -0.25434404611587524 -1.421493411064148 -0.20671896636486053 0.47000938653945923 -0.843582272529602 1.898606538772583 0.5604261755943298 -0.8743463158607483 0.8089213967323303 1.9430955648422241 0.9057952761650085 2.1378014087677 0.2555907070636749 0.7766540050506592 1.2699089050292969 -0.7576317191123962 1.2253577709197998 -0.4276999235153198 -0.12368705868721008 -0.8429446220397949 -0.885572075843811 -1.3875200748443604 -1.548018455505371 -0.8081156611442566 -0.19726139307022095 -0.7711174488067627 0.15773189067840576 -1.6718735694885254 -0.42154160141944885 -0.2963002622127533 0.6664024591445923 -0.3902595341205597 0.6402197480201721 -0.3611513674259186 -1.4130667448043823 1.9594261646270752 0.04421129450201988 -1.7080920934677124 0.80961674451828 1.482082724571228 -0.9031672477722168 0.8840718865394592 2.2174289226531982 -0.45974186062812805 1.1718921661376953 1.1031293869018555 2.5334722995758057 -1.1811962127685547 0.39096763730049133 -0.8691367506980896 1.05009925365448 -1.7403355836868286 -0.7027022838592529 1.4340262413024902 -1.0937578678131104 -0.7466015815734863 0.1400202512741089 0.7801721692085266 -1.557443380355835 -0.9491047859191895 1.2997491359710693 -0.0413629412651062 -0.37963125109672546 -1.0171489715576172 -0.34541115164756775 -0.8863425850868225 -0.07037895917892456 0.14512532949447632 1.4487367868423462 -1.28042471408844 -0.6330476403236389 -2.039647340774536 1.3191994428634644 -0.8912031650543213 -0.6797463893890381 -0.07220175117254257 -0.17027579247951508 0.09187041968107224 3.434441089630127 -0.6647196412086487 1.545745611190796 -1.3642979860305786 0.10199441015720367 -1.439608097076416 0.09035930037498474 1.0120819807052612 -1.2161329984664917 -1.3667222261428833 -0.5410240292549133 -1.4898897409439087 -1.1229195594787598 0.757409930229187 0.6567606329917908 0.6452383995056152 0.1382066160440445 -0.5354991555213928 0.6036444902420044 -0.778352677822113 -0.017053840681910515 -0.6007274389266968 0.41209328174591064 0.2363080382347107 -0.14592494070529938 -1.1513617038726807 0.8482213616371155 -0.8181859254837036 1.0592219829559326 -1.392125129699707 0.13869982957839966 -1.0112531185150146 0.04913555830717087 -0.11720135062932968 0.3596042990684509 -0.3194543421268463 -0.637972891330719 -0.1356486678123474 0.9337367415428162 1.699602484703064 0.9130756258964539 -0.40893372893333435 -0.08271978050470352 1.2168465852737427 -0.23254892230033875 -0.2138163149356842 0.35507601499557495 1.3090934753417969 1.007356882095337 1.1034523248672485 1.385807752609253 2.0589611530303955 1.3006478548049927 0.10664087533950806 2.478597640991211 1.786547064781189 1.8899661302566528 0.5727343559265137 0.9836322069168091 0.0719839483499527 -1.34893798828125 -0.7298870086669922 -0.3886430263519287 0.36318284273147583 -0.60108482837677 0.340711385011673 -0.1865472048521042 0.5107496976852417 -1.306410551071167 2.1611833572387695 0.6685158610343933 0.6755668520927429 -0.8866605758666992 -0.575523316860199 -1.1881346702575684 0.09864995628595352 0.9554019570350647 -0.3277537524700165 0.5618380308151245 1.7131328582763672 -0.7577185034751892 1.5840742588043213 -0.679792582988739 0.5645584464073181 0.7775483727455139 
vec22 -1.6684263944625854 0.0028929328545928 -1.3999418020248413 -0.4803684949874878 1.2325626611709595 -0.7047792673110962 -0.678647518157959 1.9145125150680542 -1.8715158700942993 -0.5157691836357117 -1.592583179473877 -0.5178079009056091 -1.0640076398849487 -1.004760503768921 0.44122883677482605 -0.3920367658138275 -0.9408477544784546 0.919868528842926 1.4823323488235474 -0.7225489020347595 -0.7604513764381409 -0.09174774587154388 1.4634490013122559 0.021827030926942825 -1.9574347734451294 -1.0682592391967773 -0.6099087595939636 0.8350027799606323 -0.5778167843818665 -1.6312631368637085 0.8270850777626038 0.1893267035484314 0.09581422060728073 -0.3718709349632263 0.05482333526015282 -0.7023369669914246 2.5819907188415527 0.9246707558631897 -0.7326117753982544 0.904975175857544 -0.23249001801013947 -0.22320052981376648 2.3246092796325684 0.8001614212989807 -0.08050413429737091 0.8952523469924927 0.8131523728370667 1.3312329053878784 1.4592845439910889 0.4343312382698059 0.6048460006713867 1.1634202003479004 1.0498454570770264 0.18499749898910522 -0.15601149201393127 1.0306309461593628 0.1377432942390442 -0.2467147260904312 -1.095137119293213 -0.12949615716934204 -0.5476217269897461 0.23243695497512817 -0.6171004176139832 0.13648678362369537 -1.4244956970214844 -1.0788252353668213 -1.1846553087234497 0.42687398195266724 0.052658211439847946 1.674851894378662 -0.16447265446186066 -0.7853207588195801 -0.8263232707977295 0.5938038229942322 -0.01969270035624504 -0.3907974660396576 -0.7633230090141296 -1.6620357036590576 -0.21423666179180145 2.0677080154418945 -1.1622896194458008 1.5723358392715454 1.6719696521759033 1.635703444480896 0.7260567545890808 -0.4622228741645813 -1.0685726404190063 2.0311787128448486 -2.0413663387298584 -0.6552559733390808 1.3444095849990845 0.14718276262283325 0.3390728831291199 -0.23000887036323547 0.5228099226951599 -2.035874843597412 -0.14740240573883057 1.3276035785675049 -1.3481642007827759 -0.5025081634521484 0.2577139437198639 0.6849370002746582 0.828201949596405 0.013303146697580814 -0.37299615144729614 1.485383152961731 -1.6064563989639282 -0.8852701187133789 -0.058228880167007446 1.5102238655090332 -0.9033631086349487 -0.1948661208152771 0.062032658606767654 -0.38731133937835693 1.1822941303253174 1.0165575742721558 -0.4697902798652649 0.5248681306838989 -0.6762067675590515 -0.3385700583457947 -1.1915464401245117 -0.6923825740814209 2.483591318130493 -0.5245361924171448 -0.3819684684276581 -1.1902109384536743 -1.0730512142181396 -0.09325341135263443 0.3931901454925537 0.02473197691142559 0.7915847897529602 0.9823036193847656 -0.183590367436409 -0.16845034062862396 0.5806156396865845 0.5452089309692383 -1.375082015991211 1.1584669351577759 -0.6264397501945496 0.14430800080299377 -0.7568970918655396 0.034970495849847794 -0.8145809769630432 -0.39125195145606995 -2.2851850986480713 0.29692375659942627 -0.6948249340057373 -0.09729143232107162 0.49752265214920044 0.13413946330547333 1.3493820428848267 0.101325124502182 -1.4197375774383545 -0.23071593046188354 1.1541061401367188 0.990827739238739 0.20000174641609192 1.4706904888153076 0.8492408394813538 -1.029494047164917 -0.4302639663219452 1.0151984691619873 0.5994488000869751 2.3329057693481445 1.4107638597488403 -0.5707092881202698 1.9608900547027588 1.020956039428711 0.7098489999771118 1.5534812211990356 0.2985510230064392 1.8661407232284546 1.1262141466140747 -0.5682705044746399 -0.5192760825157166 -0.563247799873352 -0.2928335666656494 -1.377532720565796 0.597155749797821 -1.0808459520339966 -0.1482371687889099 0.06866209208965302 0.15386717021465302 -1.295900583267212 0.7599189877510071 1.2524572610855103 -0.24429677426815033 -0.13370543718338013 -0.6227562427520752 -0.5373463034629822 -0.7270933389663696 0.12118599563837051 -0.35641488432884216 1.0117948055267334 1.043472170829773 -0.8022365570068359 0.48253369331359863 -0.46716099977493286 2.2388381958007812 -0.30977341532707214 
vec23 0.8179914951324463 -0.25122544169425964 -1.433449387550354 -0.07857614010572433 0.6881606578826904 0.42807015776634216 -0.3861906826496124 1.2826850414276123 -1.6830097436904907 0.1431702822446823 -1.0153164863586426 -1.4089194536209106 -1.5327683687210083 -1.373650074005127 0.4611735939979553 -1.268587350845337 -0.8601359724998474 0.19381839036941528 2.006669759750366 -0.7878018021583557 -1.4214856624603271 0.799278974533081 1.4930921792984009 -0.922382652759552 -1.3478095531463623 0.04709361866116524 -1.9088881015777588 0.9583218097686768 -0.8757235407829285 0.06643282622098923 -0.046784404665231705 0.8759565949440002 -1.1989080905914307 -0.7522047758102417 -0.9753047227859497 -0.5359167456626892 1.8098785877227783 -0.8056793212890625 -2.357434034347534 0.9654050469398499 0.4216633439064026 -0.18135838210582733 1.1239581108093262 0.3484362065792084 0.4761468768119812 1.6325761079788208 1.6369364261627197 -0.3894784152507782 1.323133111000061 -1.104090690612793 -0.28835633397102356 1.1808103322982788 1.4200860261917114 0.5278677940368652 -0.01073573436588049 1.047863245010376 -0.03816106170415878 -0.048306576907634735 -0.6554641127586365 0.29524481296539307 0.3198273181915283 0.08906428515911102 0.4788571000099182 0.2262536585330963 -0.6537729501724243 -0.6242247223854065 -0.6266114115715027 0.35924094915390015 1.0983242988586426 0.7704273462295532 -0.5597617626190186 -0.6396712064743042 0.6377539038658142 0.14457504451274872 -0.13345609605312347 0.3801988661289215 -0.7484029531478882 0.37384700775146484 0.942094624042511 1.5600576400756836 1.1579915285110474 0.928149402141571 2.1100001335144043 1.8728388547897339 0.8243340849876404 -1.401707649230957 -1.2015831470489502 0.8286949992179871 -1.6776623725891113 -1.1272367238998413 0.828746497631073 -0.25849801301956177 -1.8813546895980835 0.030413266271352768 0.28625279664993286 -0.7554875612258911 -0.6287176609039307 0.7386051416397095 -0.6968246102333069 -0.7321872115135193 -0.08048596978187561 0.4795384705066681 -0.6857686638832092 -0.9459226131439209 0.10812501609325409 2.3033127784729004 -2.1248157024383545 -1.5433859825134277 -1.3887923955917358 0.34726810455322266 0.2594129145145416 1.1214708089828491 -0.5706889033317566 0.2439381182193756 0.5097783207893372 0.9721229672431946 -1.130597472190857 0.5891090631484985 -0.5844787359237671 0.04989716410636902 -2.246375799179077 -0.5562722682952881 1.743848204612732 -1.0729739665985107 0.2611123025417328 -1.5738540887832642 0.03884996473789215 -1.9787689447402954 -0.48211607336997986 -0.25374218821525574 0.4435959458351135 0.8581610918045044 0.5298113822937012 -0.2951895296573639 1.5378258228302002 0.4254212975502014 0.4034082889556885 -0.23885999619960785 0.507980227470398 0.301553875207901 0.026078175753355026 0.5678663849830627 0.48737627267837524 0.0013561005471274257 -1.4463659524917603 -0.2706850469112396 -0.7173360586166382 -0.887345016002655 -0.859935998916626 1.3833909034729004 1.1504411697387695 0.4323078393936157 -0.9845919609069824 0.959229588508606 0.7320739030838013 0.5657278299331665 0.2781194746494293 0.9581323266029358 0.6751099228858948 -0.17297884821891785 -1.5010708570480347 0.7464187145233154 1.4430567026138306 2.1344525814056396 0.5286009311676025 0.8744018077850342 0.699233889579773 0.32698431611061096 0.0722968652844429 0.6070968508720398 2.013993740081787 -0.722480058670044 1.6210410594940186 -0.09025198221206665 -0.9388952255249023 -1.7579339742660522 -1.2179914712905884 0.7466452121734619 0.5026583075523376 0.2956863045692444 -0.0631597489118576 0.6396200060844421 -1.0759745836257935 -1.1093567609786987 1.7632969617843628 0.5892910957336426 0.03563244640827179 0.8238373398780823 0.8006502389907837 -0.6024786829948425 -1.312726616859436 0.31816500425338745 -0.29106321930885315 0.9541805982589722 0.5303766131401062 -0.7490026950836182 1.583355188369751 -0.0435476116836071 0.7341517210006714 0.5525491237640381 
vec24 -0.4070579707622528 -0.7203042507171631 -1.1204955577850342 -1.4654957056045532 0.6262103319168091 0.8974542617797852 0.17525839805603027 0.8150656223297119 -0.06474392861127853 -0.8286572694778442 0.06096811220049858 -1.1734304428100586 -1.1236146688461304 -1.9807418584823608 0.6027940511703491 -0.914885401725769 -1.4537688493728638 0.9730446338653564 1.4673737287521362 0.6393841505050659 -2.492033004760742 -0.4005224108695984 1.2149533033370972 0.08499372005462646 -1.4725217819213867 -0.2295364886522293 -0.2505936026573181 -0.4165761172771454 -0.6011533737182617 -0.2621561288833618 -0.0030334291514009237 0.31560763716697693 -0.12259017676115036 -1.1888818740844727 -0.41833868622779846 -1.0129122734069824 1.6534658670425415 -0.370166540145874 -2.52724027633667 -0.007908844389021397 0.14482538402080536 -0.38537928462028503 2.0529754161834717 1.3290956020355225 -0.47888505458831787 0.8843676447868347 0.3578440845012665 0.8532373905181885 -0.6072216629981995 -1.2821307182312012 0.7234591245651245 0.6080036163330078 1.230136513710022 1.263690710067749 0.4950740337371826 0.050903450697660446 0.7536786794662476 -2.1774299144744873 -0.8359349966049194 -0.45062652230262756 -0.30136218667030334 -0.19257695972919464 -0.764346182346344 -0.1179140955209732 0.15761053562164307 -0.5418891310691833 -1.260222315788269 -1.3488495349884033 -0.7809396982192993 1.476975679397583 -0.3960671126842499 -0.675904393196106 0.45587605237960815 1.225875973701477 -0.7493698000907898 -1.6953015327453613 -0.6998174786567688 -1.947763204574585 -0.6655561923980713 1.155860424041748 -0.08193393796682358 0.20389342308044434 1.9504822492599487 1.3920457363128662 0.6516994833946228 -0.8146200180053711 -1.119750738143921 1.2060288190841675 -3.067312717437744 -0.06538752466440201 1.827652931213379 -0.23773950338363647 -1.1067051887512207 -0.5732125043869019 -0.6955130696296692 -0.3936295807361603 -0.34917542338371277 -0.014798024669289589 -0.6161240935325623 1.5143835544586182 -0.5086098909378052 -0.8042781352996826 0.6080642938613892 -0.7294983863830566 -0.3706296682357788 2.1318647861480713 -2.546773910522461 -0.3146269619464874 -2.1398661136627197 1.7500563859939575 -0.3750048577785492 0.543286919593811 -0.19973039627075195 -0.571681559085846 0.009599856100976467 1.8842952251434326 -0.259935587644577 1.35623037815094 0.4187718629837036 -0.9900588393211365 -1.136277437210083 0.44786933064460754 0.9974460601806641 -0.9611310362815857 -1.0874521732330322 -0.2144983410835266 -0.518246591091156 -0.3459528684616089 0.045813027769327164 0.48699331283569336 0.8140925765037537 -0.12797296047210693 -0.22189049422740936 -0.7019619345664978 1.0441703796386719 1.7783814668655396 0.2351759523153305 -0.19378730654716492 -1.2261842489242554 -0.5146728754043579 -0.7459366321563721 -0.5795968770980835 -0.13735678791999817 0.173951655626297 -1.2781320810317993 -0.5166480541229248 -0.4345981478691101 -1.0110849142074585 -0.33141952753067017 0.5266802906990051 1.5655405521392822 0.5475455522537231 -1.2763800621032715 0.7076938152313232 1.167547345161438 0.9326621294021606 0.5466089248657227 0.523857831954956 1.0393154621124268 -0.4915671646595001 -0.397391676902771 1.5756947994232178 0.5645604729652405 1.4787291288375854 0.8959290385246277 -0.14243383705615997 2.070577383041382 0.6507182121276855 -0.8411341905593872 2.3861165046691895 0.13602696359157562 1.2249704599380493 0.4041498601436615 1.1661103963851929 0.36689257621765137 0.15730851888656616 -1.5517851114273071 -0.8108077049255371 0.3884991407394409 -1.021836519241333 0.44504591822624207 -0.2669055759906769 -1.1899149417877197 -1.457586646080017 1.8677092790603638 -0.05978279188275337 0.5680496692657471 0.4194430708885193 0.23069444298744202 0.2174052745103836 0.2864105701446533 0.7141366004943848 0.42109209299087524 -0.01821601390838623 0.6179333329200745 -0.4089982807636261 1.5162760019302368 0.1935676634311676 1.7875592708587646 0.04006829857826233 
