vec0 -1.020811915397644 0.8712580800056458 -1.03322172164917 1.055174708366394 -0.47044944763183594 0.21414661407470703 1.7652510404586792 -0.7298211455345154 -0.5650169253349304 -0.4188061058521271 -0.3997665047645569 0.1938551515340805 -0.24386663734912872 -0.4613058567047119 -1.8352988958358765 0.9656676650047302 -0.8826611638069153 -0.011682882905006409 1.4612435102462769 -1.3063427209854126 0.08034784346818924 0.2937769293785095 0.5544459223747253 -0.5067930221557617 -1.853016972541809 0.8270087838172913 -0.4902651607990265 -0.6096089482307434 0.5756832361221313 -0.3822462260723114 0.636704683303833 -1.1359806060791016 -0.5837621688842773 0.6239271759986877 0.8078585863113403 1.2886145114898682 0.8728349804878235 -0.4398273825645447 0.8333666920661926 2.182438373565674 0.6690837144851685 -0.8401905298233032 -0.8184245228767395 1.6075347661972046 -1.7378779649734497 -0.2086019366979599 -0.9267430305480957 -0.5147884488105774 0.6509991884231567 2.7497446537017822 -1.0161781311035156 -0.272697389125824 0.002654546871781349 -2.1379830837249756 -0.7644655704498291 0.2833511531352997 -0.36022019386291504 1.0781172513961792 0.714051365852356 1.1147164106369019 -0.9030979871749878 0.47757968306541443 0.427668958902359 -0.22693945467472076 0.362942636013031 -0.10941129922866821 -1.6233681440353394 1.0951299667358398 -0.43412044644355774 -0.08000002801418304 0.3908279538154602 -1.1596617698669434 0.902204155921936 -1.4960354566574097 0.06996138393878937 -0.15719234943389893 0.06099309027194977 1.5731021165847778 -0.5156876444816589 -0.9214364886283875 0.5487211346626282 -0.43542152643203735 -0.45137718319892883 -1.8877094984054565 0.33802226185798645 0.5799574851989746 -0.45016399025917053 1.474534034729004 -0.45713409781455994 0.4745035767555237 -0.22356155514717102 0.358467161655426 -1.5486605167388916 -1.9136388301849365 -1.4098002910614014 -0.5603349208831787 1.52388334274292 -0.19170530140399933 0.4769417643547058 0.19941076636314392 0.81228107213974 -0.4084344506263733 -0.5825283527374268 1.4363200664520264 0.4984479546546936 1.5771254301071167 -0.7981822490692139 -1.406840205192566 1.681453824043274 -0.2495756447315216 -1.3922966718673706 0.06317339837551117 -0.03805389255285263 0.48556143045425415 0.8889354467391968 -1.3154032230377197 -0.3507145345211029 1.6119420528411865 -2.0178487300872803 0.195281520485878 0.4169653058052063 -0.6058752536773682 -0.7009447813034058 -0.6378194689750671 0.47306394577026367 -1.26556396484375 -1.9320162534713745 1.4190231561660767 1.8908017873764038 0.6887454986572266 0.31673142313957214 -1.481651782989502 -0.24256066977977753 -0.919152557849884 1.2441909313201904 -1.5993114709854126 0.6810346245765686 1.1267462968826294 1.0699443817138672 -1.1869112253189087 -1.988115906715393 -0.5627604126930237 -1.0558404922485352 0.2641468048095703 1.2549711465835571 0.8423755168914795 -1.1578733921051025 1.094069004058838 -0.4050421118736267 -1.135043978691101 -0.5881885290145874 -0.49193984270095825 0.5289922952651978 1.0749834775924683 0.21481874585151672 0.370128333568573 2.5826597213745117 0.2407371997833252 1.5637321472167969 -0.7600468993186951 -0.33928653597831726 -0.11254487931728363 -0.09855548292398453 0.24811255931854248 0.3033258020877838 0.5784007906913757 -1.5146135091781616 -1.342575192451477 1.5154764652252197 -0.6723040342330933 -0.06966604292392731 -0.12539391219615936 0.8249908089637756 1.0243388414382935 -1.527273178100586 -2.272913932800293 -1.7651294469833374 0.7781314253807068 -0.19880034029483795 -0.2149694263935089 0.6598588824272156 -1.2662156820297241 0.34634703397750854 -0.6392927765846252 0.2819213271141052 0.3163501024246216 2.797213077545166 2.137967109680176 -1.4821804761886597 1.9622104167938232 -0.769679605960846 0.9726768732070923 -0.6967613101005554 -0.4978456497192383 0.5006053447723389 -1.7764090299606323 -1.2590467929840088 -0.9255023002624512 1.3726062774658203 1.6488053798675537 
vec1 -0.2608586549758911 0.5122292637825012 -1.3853706121444702 1.0301964282989502 -0.5666748285293579 -0.2522045969963074 1.9942048788070679 -0.4254228174686432 -0.755771815776825 0.05756957828998566 0.27514100074768066 0.16459660232067108 0.03164910525083542 -0.08586038649082184 -1.449914574623108 1.4057072401046753 -1.0566468238830566 -0.02507746033370495 1.7711808681488037 -1.238196611404419 -0.03902788832783699 0.5347797274589539 0.9638907313346863 -0.20034408569335938 -1.3442753553390503 0.6027336716651917 0.24301783740520477 -0.42202189564704895 0.6894594430923462 -0.43989798426628113 1.0309627056121826 -1.360206127166748 -0.31048858165740967 0.44657519459724426 1.3874551057815552 1.353995442390442 0.8926201462745667 -0.19274577498435974 1.3230241537094116 1.4440903663635254 0.6737124919891357 -0.37141597270965576 -0.5802934765815735 1.4528882503509521 -1.9692718982696533 0.29695239663124084 -1.4406009912490845 -0.5086039304733276 0.6405115127563477 2.3118183612823486 -0.6939457654953003 -0.6647346615791321 0.668228030204773 -1.5015618801116943 0.12477175891399384 0.22185677289962769 -0.9058942794799805 0.6624535322189331 0.2406371831893921 0.7265062928199768 -1.2655384540557861 0.2893204092979431 -0.29843810200691223 -0.2570849359035492 -0.8326905965805054 -0.39199334383010864 -1.4301061630249023 1.3584189414978027 -0.6451972126960754 -0.517723798751831 0.13533107936382294 -1.5422877073287964 0.9972826242446899 -1.439312219619751 -0.11802224069833755 0.44576138257980347 0.8378351330757141 1.3624777793884277 -0.4912278950214386 -0.14720040559768677 0.676663875579834 -0.15942230820655823 -1.061285138130188 -1.8118178844451904 0.19528397917747498 0.3277105391025543 -1.6118971109390259 0.5258675217628479 -0.8210013508796692 0.33313244581222534 -0.6864328980445862 -0.8490096926689148 -1.5804443359375 -1.4914478063583374 -0.7844488024711609 -1.1186583042144775 1.1872055530548096 -0.7315161824226379 0.018223850056529045 -0.44252824783325195 0.665968120098114 -0.8137415647506714 -0.622289776802063 0.9651412963867188 1.0274741649627686 1.1848498582839966 -0.3254568874835968 -0.7089295387268066 1.7980921268463135 -0.812847912311554 -1.6479477882385254 -0.05283229425549507 -0.4376693665981293 0.29816773533821106 0.02562747709453106 -1.0250256061553955 -1.0015358924865723 1.2120558023452759 -1.2628685235977173 0.19402672350406647 -0.08464615792036057 -0.6068808436393738 -0.15028347074985504 -0.6483253836631775 0.7846534848213196 -1.3441455364227295 -2.254885196685791 0.8089824318885803 2.1658527851104736 0.07532768696546555 0.24588634073734283 -1.448237657546997 -0.6041983962059021 -0.7496036291122437 1.7765179872512817 -1.019199013710022 -0.10201329737901688 0.809175968170166 0.9621264338493347 -1.1632479429244995 -2.405541181564331 -0.435563325881958 -1.2449142932891846 0.43434032797813416 1.5024793148040771 1.2919399738311768 -0.8694984912872314 1.2059391736984253 -0.30431681871414185 -0.7722553610801697 -0.38879913091659546 -0.43547695875167847 0.17481687664985657 0.9671862125396729 0.9039470553398132 -0.4469424784183502 2.0690791606903076 0.2663826644420624 0.7363579869270325 -0.4341222643852234 -1.0449507236480713 0.24338358640670776 0.1597185879945755 0.44863003492355347 0.3688897490501404 0.08810849487781525 -1.1666172742843628 -1.9199047088623047 1.5820671319961548 0.24975815415382385 0.04623822495341301 -0.20910431444644928 1.3202683925628662 1.1277756690979004 -1.013899803161621 -1.9196908473968506 -1.0081781148910522 -0.11646672338247299 0.1121058464050293 -0.3697708249092102 1.0882914066314697 -1.1365959644317627 1.1087428331375122 -1.4462984800338745 0.8541464805603027 0.3918253481388092 2.7227115631103516 1.8498730659484863 -1.0511574745178223 2.200561046600342 -0.5828045010566711 1.109765887260437 -0.7238778471946716 0.18596218526363373 0.829192578792572 -1.5067543983459473 -1.7864543199539185 -1.3488004207611084 0.9366492033004761 1.3611016273498535 
vec2 -0.6799719929695129 0.5413829684257507 -1.299208402633667 1.3304494619369507 -0.4527797996997833 -0.14095979928970337 2.113349199295044 0.10529118776321411 -0.7439890503883362 -0.6037041544914246 -0.787018895149231 -0.303145170211792 -0.0907822847366333 -0.7067012786865234 -1.6258749961853027 0.8419691920280457 -1.3683571815490723 -0.11994613707065582 2.1242387294769287 -1.6062630414962769 -0.023297149688005447 0.5829082131385803 0.2196459323167801 0.008928059600293636 -1.0644675493240356 1.3416835069656372 0.3286225199699402 -0.6482516527175903 0.22439095377922058 -0.12259858846664429 0.9475735425949097 -0.9356486797332764 -0.29643234610557556 0.9564330577850342 0.6584473252296448 1.1545850038528442 0.7482070922851562 -0.21026211977005005 0.5916415452957153 2.1808266639709473 0.11216764152050018 -0.03312116861343384 -0.5683906674385071 1.6279195547103882 -0.994357168674469 0.0913601666688919 -1.0803799629211426 -0.7861347794532776 0.813316822052002 1.9947178363800049 -1.0224745273590088 -0.42344412207603455 0.3818541467189789 -1.9741871356964111 -0.7964805960655212 0.809921145439148 -1.2035547494888306 0.6693881154060364 0.07570134103298187 0.7562005519866943 -0.8980581164360046 1.0861355066299438 -0.2808426022529602 -0.4250201880931854 -0.5102006196975708 -0.2964518070220947 -1.3820332288742065 0.9372090101242065 -0.9667278528213501 -0.17816999554634094 0.5609663724899292 -0.8528533577919006 0.8426810503005981 -1.3963463306427002 -0.1025562509894371 0.03941602259874344 0.6447851657867432 1.1749370098114014 -0.5028818845748901 -0.564778208732605 0.47606176137924194 -0.22245115041732788 -0.7966784834861755 -1.4248896837234497 0.12148530781269073 0.6499584913253784 -1.3908408880233765 1.7320539951324463 -0.2537592351436615 0.21751751005649567 -0.5076133608818054 -0.5456669330596924 -1.4649850130081177 -1.9895262718200684 -0.9094926118850708 -0.13923965394496918 1.8139728307724 -0.2554264962673187 0.5254084467887878 0.48589712381362915 0.9149335622787476 -0.5261436700820923 -0.638746976852417 1.0843384265899658 0.7947810888290405 0.8935032486915588 -1.0188838243484497 -0.8646551966667175 1.823354721069336 -0.571346640586853 -1.6964420080184937 0.020199986174702644 -0.7085984349250793 -0.08086224645376205 0.42783185839653015 -1.2161731719970703 -0.6566904783248901 1.4676780700683594 -2.467275857925415 -0.45712050795555115 0.2098080962896347 -0.7711451053619385 0.253014475107193 0.019424326717853546 0.38974422216415405 -1.486618995666504 -2.030059337615967 0.8936305642127991 1.7292498350143433 0.5883577466011047 0.35027003288269043 -2.224797248840332 -0.35641759634017944 -0.9881394505500793 1.259347915649414 -1.431542992591858 -0.30988216400146484 1.262669324874878 1.3351894617080688 -0.6587391495704651 -2.989020586013794 -1.119175672531128 -1.0945498943328857 0.11011982709169388 1.5563827753067017 0.5633687973022461 -0.46564552187919617 1.3410964012145996 -0.1001562848687172 -1.6790077686309814 -0.26879873871803284 -0.6935433149337769 0.465392142534256 0.9035531878471375 0.5627086162567139 0.1291482001543045 2.4653425216674805 0.49528905749320984 0.9416996836662292 -0.9685375094413757 -1.0263952016830444 -0.4040718972682953 0.406803697347641 0.06457463651895523 0.7857948541641235 0.03714940324425697 -1.2827706336975098 -1.4037284851074219 1.2523220777511597 -0.21656739711761475 -0.08423667401075363 -0.18664389848709106 1.3686532974243164 0.5576032400131226 -0.7061237096786499 -1.6684741973876953 -1.2679675817489624 0.4750705361366272 -0.27366408705711365 -0.5167869329452515 1.0525693893432617 -1.3168703317642212 0.719724178314209 -0.28812533617019653 0.36665451526641846 0.5092175602912903 3.4439241886138916 2.079028844833374 -0.17439958453178406 1.7879499197006226 -0.5754330158233643 0.8916159868240356 -0.3728516101837158 0.015213510021567345 0.8087430596351624 -1.2561345100402832 -1.3921918869018555 -1.1163464784622192 1.0965404510498047 1.5822418928146362 
vec3 -0.44383764266967773 1.170024037361145 -1.0820889472961426 1.3136757612228394 -0.5950435996055603 -0.148089200258255 1.9711580276489258 -0.459364652633667 -1.0837916135787964 -0.3159405291080475 -0.40034863352775574 0.0021524205803871155 0.08524031192064285 -0.5033736228942871 -1.3682546615600586 1.48955500125885 -1.0122804641723633 0.017625004053115845 2.052333116531372 -1.0873339176177979 -0.17107968032360077 0.7505122423171997 0.5290482044219971 0.20539060235023499 -1.8829615116119385 0.5082987546920776 0.20545397698879242 -0.394381046295166 0.0299136471003294 -0.398854523897171 0.5900886058807373 -1.1560460329055786 -0.623741626739502 1.0416492223739624 1.3071117401123047 1.1931406259536743 0.9907459020614624 -0.3991418182849884 1.3487592935562134 1.7431421279907227 0.45089787244796753 -0.3404393196105957 -1.0643712282180786 1.6626335382461548 -1.7276254892349243 -0.18767733871936798 -0.8463236689567566 -0.7193761467933655 0.5806459188461304 2.2366409301757812 -0.5772806406021118 -0.30513086915016174 0.043416671454906464 -2.3271913528442383 -0.48101145029067993 0.7462574243545532 -0.8900604844093323 0.8816782832145691 0.7147741913795471 0.9750742316246033 -1.0969058275222778 0.5389478802680969 -0.45573359727859497 -0.15988405048847198 -0.3944106101989746 -0.3090430200099945 -0.4267100393772125 0.8819324970245361 -1.248454213142395 0.20172534883022308 1.1385533809661865 -0.773131787776947 0.9615290760993958 -1.2285221815109253 0.12802422046661377 -0.21076856553554535 0.8825761675834656 0.9792927503585815 -0.6136830449104309 -0.44253331422805786 0.24957101047039032 -0.17810270190238953 -1.3290218114852905 -1.6603583097457886 -0.10393954068422318 1.0114667415618896 -0.60196852684021 1.0366971492767334 -0.1713314652442932 0.36398035287857056 -0.23582541942596436 -0.9891881346702576 -0.9283430576324463 -1.547751784324646 -1.3284645080566406 -0.577426552772522 1.4588956832885742 0.05971484258770943 0.16797392070293427 0.4883532226085663 0.3919253647327423 -0.8981835842132568 -0.07825981080532074 0.7218270301818848 0.8698053359985352 1.0111945867538452 -0.7643522024154663 -1.0544743537902832 1.7940402030944824 -0.5609267354011536 -1.3361362218856812 0.2997787594795227 -0.26237785816192627 -0.09276983141899109 1.2560147047042847 -1.4640989303588867 -0.14664797484874725 1.1456502676010132 -1.6125762462615967 -0.39841070771217346 -0.06993833184242249 -0.4901989698410034 -0.35412538051605225 -0.13018018007278442 -0.09245515614748001 -1.0888501405715942 -2.319032907485962 1.5778218507766724 2.156677722930908 0.4949800372123718 0.2739824652671814 -1.491111397743225 0.024106983095407486 -0.12822593748569489 0.8100345134735107 -0.9448137283325195 -0.4570160508155823 0.9463604092597961 1.2047091722488403 -0.6026215553283691 -2.0550336837768555 -0.9204739332199097 -0.6522532105445862 0.49864640831947327 2.153775691986084 1.4314289093017578 -1.0646992921829224 1.3962501287460327 -0.6081256866455078 -0.9230983257293701 -0.3059237003326416 -0.9818811416625977 0.7188390493392944 1.137844204902649 0.34497568011283875 0.48819974064826965 2.2242493629455566 -0.11538554728031158 -0.18787412345409393 -0.10314293950796127 -1.3541334867477417 -0.520426332950592 -0.13178418576717377 0.3837108910083771 0.1427556276321411 0.8477152585983276 -1.5807570219039917 -1.4779239892959595 0.9677768349647522 0.4047687351703644 0.40743473172187805 0.7303758263587952 1.6287206411361694 0.8847336769104004 -1.1089322566986084 -1.1702858209609985 -1.3890321254730225 0.5804816484451294 -0.22708792984485626 0.4265671372413635 1.001057744026184 -1.204235553741455 0.8275430798530579 -0.540074348449707 -0.08410073816776276 0.6885004639625549 2.1017978191375732 1.7673587799072266 -1.1611852645874023 2.3195998668670654 -0.6174511313438416 0.7272994518280029 -0.446871817111969 -0.5277929306030273 1.1848247051239014 -1.3472455739974976 -1.7178668975830078 -0.8650715947151184 1.1344650983810425 1.4853014945983887 
vec4 -0.5090817809104919 0.9070848822593689 -1.4737792015075684 0.7897119522094727 -0.37868890166282654 -0.6264574527740479 1.6956526041030884 -0.9342584609985352 -1.023064136505127 -0.472481369972229 0.0388198122382164 0.09387341141700745 -0.14436458051204681 -0.7440460324287415 -1.292710304260254 1.087738275527954 -0.9791255593299866 -0.33071595430374146 2.5499730110168457 -1.5252721309661865 -0.5646787285804749 0.7185142636299133 1.0371272563934326 -0.6248466968536377 -1.670944333076477 0.8348599672317505 -0.4843458831310272 -0.6028314232826233 0.24303510785102844 -0.6537899374961853 0.9939792156219482 -1.1813418865203857 -0.5709661841392517 0.6117585897445679 0.6178356409072876 0.7837978601455688 0.8486053943634033 -0.6474881172180176 0.4207470417022705 2.4142696857452393 -0.09320572763681412 -0.6332857012748718 -1.2489821910858154 2.3565785884857178 -1.5750330686569214 -0.06609264016151428 -0.649224042892456 -0.5048978328704834 0.2354089319705963 1.896565318107605 -1.1292041540145874 -0.32182401418685913 0.24893908202648163 -1.8991870880126953 -0.31871652603149414 0.49233996868133545 -0.2866803705692291 0.5459099411964417 0.751202404499054 1.1959336996078491 -1.0434640645980835 1.038747787475586 0.13513104617595673 -0.027090702205896378 -0.9059618711471558 0.024151066318154335 -1.016016960144043 1.245746374130249 -0.5871398448944092 -0.6167135238647461 0.8485419750213623 -0.9435365796089172 1.1154645681381226 -1.758178949356079 -0.3499097526073456 0.20256683230400085 0.5794297456741333 0.7868107557296753 -0.46763890981674194 -1.2503842115402222 1.080523133277893 0.3071797490119934 -1.0184249877929688 -1.675926685333252 0.17085295915603638 -0.03726305812597275 -0.8699904084205627 1.236000418663025 -0.07682394981384277 0.48386889696121216 -0.5837284922599792 -0.1381850391626358 -2.0823113918304443 -1.0767697095870972 -1.3970192670822144 -0.4232850670814514 2.1111245155334473 -0.32061582803726196 0.8742133975028992 -0.6413813233375549 0.13935454189777374 -0.6197932958602905 0.02573850378394127 0.5982699990272522 0.6831099390983582 1.4807416200637817 -0.8776946663856506 -0.4660871624946594 1.9417654275894165 -0.3787088394165039 -1.2220131158828735 0.12300257384777069 -0.976099967956543 0.10034748911857605 0.12515339255332947 -0.6330126523971558 -0.24003370106220245 0.7821632623672485 -1.9751274585723877 -0.40046435594558716 -0.49881017208099365 -1.1672191619873047 0.15902450680732727 -0.2358679473400116 -0.05302075669169426 -0.9633674025535583 -1.911439061164856 1.120459794998169 1.456723928451538 0.5943178534507751 0.4817618131637573 -1.336900234222412 -0.13375820219516754 -0.7343415021896362 1.3036004304885864 -1.6099748611450195 -0.015276138670742512 0.5943166017532349 1.241194486618042 -1.939251184463501 -2.460545539855957 -0.9782053828239441 -0.2718028724193573 0.7642563581466675 1.5006386041641235 1.6525156497955322 -0.9031718969345093 1.230530858039856 -0.5927944183349609 -0.5395215749740601 -0.5364183783531189 -0.4149746596813202 0.11763747036457062 1.021889090538025 0.21508683264255524 -0.1561339646577835 2.0977783203125 0.5692633390426636 0.9323614835739136 -1.4134917259216309 -0.4016641080379486 -0.6885620951652527 0.43063727021217346 0.0019890207331627607 -0.11637203395366669 0.277891606092453 -1.793558120727539 -0.6923946738243103 1.183782935142517 -0.03814951702952385 0.5691351294517517 0.15915533900260925 1.1545835733413696 0.8743219971656799 -1.0273263454437256 -2.164248466491699 -1.0037879943847656 0.3643520772457123 0.3554586172103882 -0.3957858085632324 0.64741051197052 -1.51305091381073 1.1054778099060059 -1.1395115852355957 0.470603346824646 0.6411135792732239 2.3094301223754883 1.850996732711792 -1.145053505897522 2.1767685413360596 -1.0440722703933716 0.8536427021026611 0.0073003810830414295 -0.0597563162446022 1.1016731262207031 -0.7433585524559021 -1.4048134088516235 -1.7104796171188354 0.9298630952835083 0.5939430594444275 
vec5 -0.8680629134178162 1.1540404558181763 -1.867422342300415 0.7036991715431213 -0.9809693098068237 -0.22236721217632294 2.0749642848968506 -0.5184661746025085 -0.38957035541534424 -0.31343305110931396 -0.4515049159526825 -0.29898181557655334 -0.2655349671840668 -0.04046763479709625 -1.7217302322387695 1.1812734603881836 -0.4347069561481476 -0.5088976621627808 1.4768950939178467 -1.4949339628219604 -0.2706257998943329 1.0703247785568237 0.9908715486526489 -0.6924341917037964 -1.5968294143676758 0.5779898166656494 0.2918931543827057 0.11486566066741943 0.40128016471862793 -0.4175223708152771 0.21341127157211304 -1.4177851676940918 -0.5428727865219116 1.2497828006744385 0.5857176184654236 1.224959135055542 0.9080789089202881 -0.6310691237449646 0.8155407309532166 1.7516660690307617 -0.10505424439907074 -0.4374452233314514 -0.5203216075897217 1.65955650806427 -1.2466115951538086 -0.20711176097393036 -0.7026934623718262 -1.1321295499801636 0.19460073113441467 2.4937329292297363 -0.6679220199584961 0.07443869113922119 -0.7501770853996277 -1.857041835784912 -0.4024154543876648 0.8430242538452148 -1.070245623588562 0.7307997345924377 0.9073612093925476 1.0175611972808838 -1.3272769451141357 0.6944993138313293 -0.6494482159614563 -0.6370354294776917 -0.9855116009712219 0.08253150433301926 -1.1518757343292236 0.826579749584198 -1.1405243873596191 -0.3927943706512451 0.3809379041194916 -1.2004268169403076 0.9916463494300842 -1.6391098499298096 -0.4879968464374542 0.05859442427754402 0.510309636592865 1.132490873336792 -0.09644894301891327 0.15711212158203125 0.8502346873283386 -0.7386550307273865 -1.2933003902435303 -1.7358306646347046 -0.036725424230098724 0.6083909869194031 -0.9579235315322876 1.1452711820602417 -0.16054563224315643 0.010584356263279915 -0.497932106256485 -0.11171029508113861 -1.4248403310775757 -1.481964349746704 -1.0459285974502563 -0.5088405013084412 1.4573256969451904 -0.2673899233341217 0.09262322634458542 -0.475116491317749 -0.11101562529802322 -0.7546809911727905 -0.5157336592674255 0.6279268264770508 0.33120855689048767 0.9465463757514954 0.0447208546102047 -0.9174731969833374 1.7669352293014526 -0.9706099033355713 -1.2964571714401245 0.1483042687177658 -0.17104807496070862 -0.014878559857606888 0.23681864142417908 -0.8063878417015076 -0.4976862668991089 0.9363450407981873 -2.497091293334961 -0.1979728490114212 0.046819157898426056 -0.7245378494262695 -0.40869826078414917 -0.39519476890563965 0.273273766040802 -1.0277349948883057 -2.1649162769317627 1.4835476875305176 1.950138807296753 0.4471375048160553 0.5500801801681519 -1.7811241149902344 0.44512346386909485 -0.7122174501419067 1.0876909494400024 -1.1126476526260376 -0.05940863862633705 1.0746673345565796 1.2737345695495605 -0.6142390370368958 -2.441544532775879 -0.9363139271736145 -0.6794524788856506 0.7667058706283569 2.0667781829833984 1.6581202745437622 -0.6448193788528442 1.0893586874008179 -0.14714154601097107 -0.6282452940940857 -0.6490223407745361 -0.27138298749923706 0.6130182147026062 1.0847645998001099 -0.09690136462450027 0.04265809431672096 2.0238828659057617 0.066993348300457 0.5386810302734375 -0.5595529675483704 -0.8718657493591309 -0.5293190479278564 0.5216771364212036 0.2474752813577652 -0.04670286178588867 0.2898632287979126 -1.2112677097320557 -1.4879424571990967 1.0905762910842896 -0.20581145584583282 0.9311039447784424 -0.15147364139556885 1.0279337167739868 0.4942227602005005 -1.7371363639831543 -1.5840559005737305 -1.608351707458496 -0.07064445316791534 -0.3476109504699707 -0.5179052352905273 0.35118013620376587 -1.0723644495010376 0.3840232789516449 -0.6762885451316833 0.00702274264767766 0.7401243448257446 1.7830655574798584 2.2296690940856934 -1.0939289331436157 1.78707754611969 -1.0143208503723145 0.624771773815155 -0.7185574173927307 -0.3142090141773224 1.375893235206604 -1.509445309638977 -1.1768027544021606 -1.0952807664871216 1.0206202268600464 1.1794908046722412 
vec6 -0.6699553728103638 0.9551388025283813 -1.077603816986084 0.9330107569694519 -0.8002537488937378 -0.05800064653158188 1.5247128009796143 -0.6032207608222961 -0.7710171937942505 -0.15368691086769104 0.34449198842048645 0.19512484967708588 0.3501780331134796 -0.3058449625968933 -1.273332118988037 0.8410898447036743 -0.4759216010570526 -0.2935686409473419 1.413521647453308 -1.1766268014907837 -0.19396643340587616 0.19540764391422272 0.782509982585907 -0.2640138864517212 -2.171827793121338 0.4148978292942047 0.494960218667984 -0.6429311633110046 0.12015006691217422 -0.15664835274219513 0.5570709109306335 -1.5048037767410278 -0.9390097856521606 0.8039316534996033 1.379014253616333 0.7952126860618591 1.2229843139648438 -0.3769749104976654 0.5560155510902405 1.8176300525665283 0.6527003049850464 -0.77862149477005 -0.15314516425132751 2.051086664199829 -1.3510273694992065 -0.188832089304924 -1.4463435411453247 -0.34968823194503784 0.2560400366783142 2.128643751144409 -0.041980430483818054 -0.08218950778245926 -0.3934161961078644 -1.6907992362976074 -1.1849472522735596 0.5254666209220886 -0.5878129601478577 0.602100133895874 0.4838999807834625 1.1051777601242065 -1.1406021118164062 0.38689228892326355 -0.2717023491859436 -1.0258463621139526 -0.09279841184616089 -0.11197499930858612 -1.4885448217391968 1.076600432395935 -0.3561564087867737 -0.0289490707218647 0.42052745819091797 -1.2258648872375488 1.4238096475601196 -1.5136252641677856 0.32354843616485596 0.11188486963510513 0.5310111045837402 0.7451406121253967 -0.1438770443201065 -1.0467957258224487 0.6317117810249329 -0.5531458258628845 -1.9715121984481812 -1.7457201480865479 -0.13927429914474487 0.2877407968044281 -0.6914308667182922 1.2391067743301392 -0.29450997710227966 0.27354907989501953 -0.7102274894714355 0.012350297532975674 -1.7621623277664185 -1.618691086769104 -1.0253798961639404 -0.639927327632904 1.6768608093261719 -0.33222129940986633 0.5600787997245789 -0.3280959725379944 0.5789169073104858 -0.611180305480957 -0.2090901881456375 0.8264776468276978 0.7166624069213867 0.9286292195320129 -0.3197029232978821 -0.7329080104827881 1.795892357826233 -0.4882971942424774 -1.7846534252166748 0.042773038148880005 -0.419157475233078 0.08676047623157501 0.472364217042923 -0.8553721308708191 -0.7302292585372925 0.9955074787139893 -2.183967113494873 0.10107322782278061 -0.37471550703048706 -0.5605215430259705 -0.42721009254455566 0.06979786604642868 0.7493758201599121 -1.1129155158996582 -2.0779294967651367 1.2032008171081543 1.5896927118301392 0.8799654245376587 0.19607317447662354 -1.7433570623397827 -0.8655262589454651 0.06274838000535965 0.9147740602493286 -1.3430533409118652 0.0627460852265358 1.5396571159362793 1.3259562253952026 -0.9069863557815552 -2.139247179031372 -1.043135643005371 -1.0663636922836304 0.1730002760887146 2.117017984390259 0.7105371356010437 -0.9186074733734131 1.2565689086914062 -0.30906859040260315 -1.1772823333740234 -0.48284202814102173 -0.5132739543914795 0.8589795231819153 0.829166829586029 1.018899917602539 0.3291161060333252 2.5566256046295166 0.35975319147109985 0.9957602620124817 -0.2727363407611847 -1.3318355083465576 -0.1426698863506317 -0.06913873553276062 0.43092986941337585 0.48825520277023315 0.9676027894020081 -0.8408358097076416 -1.4951335191726685 1.5056415796279907 0.3402639627456665 0.4199065864086151 0.06009666994214058 1.387424349784851 0.27608630061149597 -1.3287181854248047 -2.3184680938720703 -1.4341022968292236 0.7321676015853882 -0.5322176814079285 -0.22277496755123138 0.2684479057788849 -1.305572509765625 0.820282518863678 -0.12455809116363525 0.2569742202758789 0.31560370326042175 2.5038108825683594 1.6024117469787598 -0.9792476296424866 2.1166093349456787 -0.6953698396682739 0.6875816583633423 -0.5078797936439514 -0.8917288184165955 0.9025969505310059 -1.7187734842300415 -0.9163708090782166 -1.2853899002075195 1.4409865140914917 2.006974935531616 
vec7 -1.1145776510238647 1.3565760850906372 -1.367971420288086 0.5285205245018005 -0.3108477294445038 -0.5367889404296875 1.8302347660064697 -0.5408168435096741 -0.7463528513908386 -0.4810806214809418 0.1700619012117386 -0.7410863041877747 -0.4313705265522003 -0.6625589728355408 -2.2473814487457275 0.6471049189567566 -1.0689826011657715 -0.1737775057554245 1.9730170965194702 -0.8149093985557556 -0.5563169121742249 -0.49991482496261597 0.7968898415565491 -0.5534531474113464 -1.6624298095703125 0.898177444934845 0.5104919075965881 -0.09588747471570969 0.739103376865387 -0.7621988654136658 0.8924172520637512 -1.5278531312942505 -0.3815861642360687 1.3881889581680298 0.8816392421722412 0.8551065921783447 0.8602045178413391 -0.8093026280403137 0.8793540000915527 1.7765705585479736 0.6753340363502502 -0.4081919193267822 -0.6179147362709045 2.1086697578430176 -1.9075899124145508 -0.35858026146888733 -1.123414158821106 -0.35444188117980957 0.8424052596092224 2.8388829231262207 -1.0815566778182983 0.21283943951129913 -0.16237889230251312 -1.970983862876892 0.003945009782910347 0.9978222846984863 -0.7749314904212952 0.3309239447116852 0.7862102389335632 1.1122961044311523 -1.0662598609924316 0.6522385478019714 0.0343346893787384 -0.08888431638479233 -1.3199301958084106 -0.27570220828056335 -1.0319329500198364 0.5337187647819519 -0.685767412185669 -0.4956386387348175 1.0025535821914673 -0.9378520250320435 1.3907432556152344 -0.8577093482017517 0.34262028336524963 0.41536030173301697 0.10436739027500153 1.5822945833206177 -0.3289645314216614 -1.2740212678909302 0.6645221710205078 0.21802981197834015 -0.9424635171890259 -1.6791049242019653 0.014395770616829395 0.884091317653656 -0.9775466918945312 0.6586941480636597 -0.26538580656051636 0.17307181656360626 -0.46245577931404114 0.29326266050338745 -1.9214617013931274 -1.767677664756775 -0.9959582090377808 -1.0509427785873413 0.8637496829032898 -0.12624962627887726 0.4196634888648987 0.5009064674377441 0.24213740229606628 0.08295906335115433 -0.08167679607868195 1.1950397491455078 1.0119012594223022 1.4747897386550903 0.07426095008850098 -1.0232043266296387 1.775708794593811 -0.18527868390083313 -1.8780324459075928 0.02312014438211918 -0.30379605293273926 -0.5757046341896057 0.9363649487495422 -0.4745285212993622 -0.3908425271511078 0.7145889401435852 -2.2181396484375 -0.5732361078262329 0.18829374015331268 -0.4819841682910919 -0.2499173879623413 0.09637100994586945 0.6542975902557373 -0.9633132815361023 -1.6110719442367554 1.509761929512024 2.367779493331909 1.2406100034713745 -0.1770637184381485 -1.5878361463546753 -0.43367207050323486 -0.3764931261539459 1.3521449565887451 -1.397587537765503 -0.6518144011497498 0.6450687646865845 1.421134114265442 -1.0283875465393066 -2.2722785472869873 -1.3697624206542969 -0.7793408632278442 0.7652775645256042 2.218874216079712 0.4339751601219177 -0.3015698194503784 1.5087814331054688 -0.031251177191734314 -0.35992369055747986 -0.006144837010651827 -0.29220184683799744 1.1647700071334839 1.1677360534667969 0.64468914270401 -0.448225200176239 2.4957711696624756 0.418550580739975 0.6691885590553284 -0.5352182984352112 -0.09094633907079697 -0.14788302779197693 -0.2794283330440521 -0.2678440809249878 -0.26236480474472046 0.8558891415596008 -1.6391278505325317 -0.9491626620292664 1.3016300201416016 -0.21284517645835876 0.6464816927909851 -0.1388881802558899 0.986912727355957 0.9142676591873169 -1.3668432235717773 -1.48274827003479 -1.29399836063385 0.43869656324386597 -0.09925495833158493 -0.38481104373931885 0.7060418128967285 -1.6635701656341553 0.32376378774642944 -0.7584837079048157 0.45112136006355286 0.49332714080810547 2.099886178970337 1.8581751585006714 -0.9892050623893738 2.266016960144043 -1.1415871381759644 1.3422225713729858 -0.8649066090583801 -0.4326206147670746 0.9249535799026489 -1.0296140909194946 -1.3961399793624878 -0.9790467023849487 0.728524386882782 1.385878324508667 
vec8 -0.7614718079566956 1.430152177810669 -1.4386191368103027 1.0487531423568726 0.25556719303131104 -0.28908559679985046 1.5951937437057495 -0.36730504035949707 -1.0205888748168945 -0.8817615509033203 -0.12135037034749985 -0.1422741711139679 -0.3679423928260803 0.5550423264503479 -1.7383766174316406 1.252146601676941 -0.6828237175941467 0.12199731916189194 1.927857756614685 -1.3318803310394287 -0.44677382707595825 1.0905882120132446 0.5690373778343201 -0.09059950709342957 -1.1730444431304932 1.0645697116851807 0.32201892137527466 -0.4559454619884491 -0.16571581363677979 0.17210741341114044 0.3513808250427246 -1.4764600992202759 -0.8448404669761658 1.0942137241363525 0.7501482367515564 0.6046212911605835 0.8082529902458191 -0.3443131148815155 0.8475608229637146 1.8113377094268799 0.6753103137016296 -0.5939462184906006 -0.8396980166435242 1.2650483846664429 -1.3414196968078613 -0.3571081757545471 -0.6026148796081543 -0.2711857557296753 0.20081765949726105 2.4775679111480713 -1.1614649295806885 -0.43158432841300964 -0.026445303112268448 -1.9043270349502563 -0.5614444017410278 0.41191473603248596 -0.5554438233375549 0.7587262988090515 1.0221004486083984 0.5145947337150574 -0.7004042267799377 0.1637420356273651 -0.6395606398582458 0.14774978160858154 -1.1035146713256836 0.11477968841791153 -1.6525872945785522 0.7011083960533142 -0.8092756271362305 -0.36139315366744995 0.002864522160962224 -0.6128853559494019 1.541172981262207 -1.7912449836730957 -0.48129525780677795 0.027224861085414886 1.146888017654419 0.8529074192047119 -0.6661531329154968 -1.0733097791671753 -0.1167244166135788 -0.3598770797252655 -0.9070859551429749 -1.8471920490264893 -0.23634888231754303 0.05536423996090889 -0.7198137640953064 1.3413572311401367 -0.4763243496417999 0.1769191473722458 -0.5225533246994019 0.23294414579868317 -1.4884727001190186 -1.6496573686599731 -0.44866952300071716 -0.15354669094085693 1.2805851697921753 -0.10204936563968658 0.8485081791877747 0.02282952331006527 0.04504719376564026 -0.7478013634681702 -0.5923190116882324 1.4114774465560913 0.9049355387687683 1.1542853116989136 -0.18328966200351715 -1.021262288093567 2.111903190612793 -0.4708286225795746 -1.309010624885559 0.3278222978115082 -0.09839155524969101 0.11103200167417526 0.45448482036590576 -0.22332705557346344 -0.5821381211280823 1.528151512145996 -2.330526828765869 -0.02396516688168049 -0.04820689186453819 -0.9543145895004272 -0.015166763216257095 -0.8551007509231567 0.397392600774765 -1.1640108823776245 -1.6436374187469482 1.1535379886627197 1.228724718093872 0.5111053586006165 0.4968889057636261 -1.0152243375778198 -0.4295921325683594 -0.45739954710006714 0.9814855456352234 -1.936714768409729 -0.07048999518156052 0.8915241956710815 1.304794192314148 -0.5066446661949158 -2.411445379257202 -1.608734130859375 -0.9955533742904663 0.12199867516756058 2.076403856277466 0.9836036562919617 -0.3776494562625885 1.2223807573318481 -0.19932569563388824 -1.0484987497329712 -0.5644611716270447 -0.5638697743415833 0.79154372215271 0.9050235152244568 0.1980830878019333 0.39757922291755676 2.499443769454956 0.5603525042533875 1.0524661540985107 -1.080244779586792 -0.8330245018005371 -0.9175699353218079 -0.16419313848018646 0.15525846183300018 -0.13329321146011353 1.112951397895813 -1.51755952835083 -1.3844934701919556 1.3456963300704956 -0.6879488825798035 0.7556113004684448 -0.46082013845443726 1.0479356050491333 0.714561402797699 -0.9781067371368408 -2.0263309478759766 -1.7459838390350342 0.7534675598144531 0.25614747405052185 0.01581798493862152 0.9903221726417542 -0.9096724390983582 0.6286017298698425 -0.9806012511253357 0.4052959084510803 0.355081170797348 2.3174493312835693 1.7132848501205444 -1.0755878686904907 1.7869412899017334 -0.8885738849639893 0.6562395095825195 -0.76386559009552 0.21825899183750153 0.5783236622810364 -1.4868311882019043 -0.9650737047195435 -1.29460871219635 1.0988757610321045 1.6186217069625854 
vec9 -0.37267085909843445 0.8924029469490051 -1.5398478507995605 0.22458712756633759 -0.8438627123832703 -0.7602783441543579 1.783686637878418 -0.8755534291267395 -0.6722562909126282 -0.033054500818252563 -0.07054702192544937 -0.2963040769100189 -0.0391007699072361 -0.15520085394382477 -2.071807861328125 0.7768168449401855 -1.035351037979126 0.05917804688215256 1.960670828819275 -1.112778663635254 0.22047995030879974 0.32925066351890564 0.995843768119812 -0.30078035593032837 -1.7183681726455688 0.5000131726264954 0.5479283332824707 -0.5035213828086853 0.5099568367004395 -0.5329985618591309 0.38015440106391907 -1.2569316625595093 -0.15452693402767181 1.3192806243896484 1.0296878814697266 0.9481814503669739 1.01621675491333 0.14953088760375977 0.730928897857666 1.4656739234924316 0.3972574472427368 -0.4212307035923004 -0.5645244121551514 1.9807547330856323 -1.7810826301574707 -0.03023342788219452 -1.281417727470398 -0.9542434811592102 -0.07169152051210403 2.8124918937683105 -0.7434027791023254 -0.36473625898361206 -0.6635034084320068 -1.8019368648529053 -0.7017005085945129 0.3083629608154297 -0.4872172474861145 0.5870511531829834 1.1639478206634521 0.7820231914520264 -0.9592892527580261 0.23205313086509705 -0.8593060970306396 -0.6504249572753906 -0.09424807876348495 0.39364778995513916 -1.4187378883361816 1.0821501016616821 -0.9270122647285461 -0.5915468335151672 0.4473843276500702 -0.07889333367347717 1.0940947532653809 -1.4134793281555176 -0.27695536613464355 0.04155413433909416 0.2210572212934494 1.5648547410964966 -0.6915940046310425 -0.43478304147720337 0.5022485852241516 -0.3670221269130707 -1.1007388830184937 -1.2365670204162598 -0.1893526166677475 0.5014285445213318 -0.8512954711914062 0.971011221408844 -0.07082007825374603 0.11724162846803665 -0.3925667703151703 -0.12974627315998077 -1.4664448499679565 -1.4845025539398193 -0.4894784092903137 -0.8010719418525696 1.8838664293289185 -0.300365149974823 0.571506679058075 -0.8173264265060425 -0.041266657412052155 -0.7645789980888367 -0.6144724488258362 1.1306499242782593 0.27148425579071045 0.7976745963096619 -0.43350037932395935 -0.617472231388092 1.7408372163772583 -0.06268760561943054 -1.6741969585418701 0.1393769234418869 -0.44223883748054504 -0.21926584839820862 0.8358290791511536 -0.680923581123352 -0.6467815041542053 1.206925868988037 -2.152724504470825 0.022981202229857445 0.4214404821395874 -1.1332924365997314 -0.9453433752059937 -0.711948037147522 0.31525933742523193 -1.2705912590026855 -1.5002599954605103 1.1043968200683594 2.157874584197998 0.9365123510360718 0.21550428867340088 -1.6394613981246948 -0.3363178074359894 -0.9835306406021118 0.9265930652618408 -1.5388681888580322 0.24185577034950256 0.5586369633674622 1.4313440322875977 -0.7615732550621033 -2.5243775844573975 -0.837238073348999 -0.6341474056243896 0.834624171257019 2.183177947998047 0.8821058869361877 -0.8115177154541016 1.4265320301055908 -0.11402198672294617 -0.5617963075637817 -0.6851147413253784 -0.7026597857475281 0.46163883805274963 0.7923480272293091 0.9864999055862427 0.29410725831985474 2.429807662963867 -0.11979761719703674 0.580952525138855 -0.6347841620445251 -0.5165626406669617 -0.41771548986434937 0.13935723900794983 0.17227435111999512 0.21722792088985443 0.09878312796354294 -1.1356327533721924 -1.2620831727981567 1.0925582647323608 0.31700941920280457 0.09893511235713959 0.6236028075218201 1.38743257522583 0.8981677293777466 -1.339931845664978 -1.3812179565429688 -1.0331003665924072 0.7101026773452759 -0.1933622658252716 -0.4268365204334259 0.7791200876235962 -1.5602834224700928 0.7480376362800598 -0.8348810076713562 0.3288378417491913 0.8252846002578735 2.14052152633667 1.9438718557357788 -0.648934543132782 1.7582426071166992 -0.4384843111038208 0.7924661040306091 -0.6632955074310303 0.2954570949077606 0.7518677115440369 -2.0104799270629883 -1.4749188423156738 -1.4493824243545532 1.2200757265090942 1.3289921283721924 
vec10 -1.2224469184875488 1.0929996967315674 -1.78990638256073 1.0501153469085693 -0.2036559134721756 -0.02564113959670067 1.52687406539917 -0.1442832052707672 -0.3312252461910248 -0.20371216535568237 -0.3695853650569916 -0.3562030792236328 0.3080344796180725 0.15167127549648285 -1.4529262781143188 0.6576489806175232 -1.3721239566802979 -0.309912770986557 0.9097548127174377 -1.4629261493682861 -0.38149696588516235 0.8839589953422546 0.9746886491775513 0.013054718263447285 -1.2851437330245972 0.7582504153251648 -0.001203539315611124 -0.7008886337280273 -0.305070698261261 0.009989667683839798 0.3488636910915375 -0.6221946477890015 -0.42914801836013794 0.15560747683048248 0.8835020065307617 1.011171579360962 1.2802913188934326 0.351497620344162 0.5117043852806091 1.84071683883667 0.22408640384674072 0.482146292924881 -0.9315395355224609 1.5607144832611084 -1.3980849981307983 -0.18085773289203644 -1.063940405845642 -0.8090705275535583 0.7110349535942078 2.5341506004333496 -0.8994017839431763 -0.49226224422454834 -0.4149980843067169 -1.8983511924743652 -0.14845867455005646 0.357122540473938 -0.7514970898628235 0.6971570253372192 1.128753662109375 1.0243200063705444 -1.5126807689666748 0.49085310101509094 -0.021858928725123405 -0.09518513828516006 -0.8463385701179504 0.04323163628578186 -1.298043131828308 1.544518232345581 -0.17224320769309998 0.2860669195652008 0.18528884649276733 -1.085956335067749 0.7773498892784119 -1.1433931589126587 -0.7069036364555359 0.3782450258731842 0.34170252084732056 1.4422104358673096 -0.4409944415092468 -0.3436405062675476 0.7413012385368347 -0.051179610192775726 -1.0633749961853027 -2.167346239089966 -0.6385115385055542 0.4453352987766266 -0.9057317972183228 0.9230513572692871 0.08946752548217773 0.09716391563415527 -0.9340394735336304 0.36903586983680725 -1.8381646871566772 -1.2407994270324707 -1.1841001510620117 -0.5041456818580627 1.6515393257141113 -0.2656696140766144 0.37815171480178833 -0.16281792521476746 0.37427183985710144 -0.22722740471363068 -0.40611129999160767 1.0873106718063354 1.2760391235351562 1.2948135137557983 -0.3413906395435333 -1.4783241748809814 1.690048098564148 -0.021416539326310158 -1.5547733306884766 -0.07010693848133087 -0.16062813997268677 -0.39577150344848633 1.240714430809021 -1.1576870679855347 -0.27037230134010315 1.4557405710220337 -1.9666802883148193 -0.3737119734287262 0.3833009898662567 -0.8079262375831604 -0.5013857483863831 -0.04216115549206734 0.6630567908287048 -1.2225849628448486 -2.303736686706543 1.1203718185424805 2.2111518383026123 0.6374267339706421 0.5514014959335327 -1.4838136434555054 0.10610870271921158 -0.7450922131538391 1.4212270975112915 -1.4817520380020142 -0.3240170478820801 0.4156392514705658 0.9275573492050171 -1.1245392560958862 -2.810892105102539 -0.8487938642501831 -0.8633987307548523 0.544857919216156 1.5463372468948364 0.8841233253479004 -0.7766035795211792 0.9336042404174805 -0.2038373202085495 -0.6430553793907166 -0.25384148955345154 -0.4357270896434784 0.19677332043647766 1.241347312927246 0.3324374556541443 0.1366526335477829 3.254917860031128 0.5959142446517944 0.9123966097831726 -0.8811266422271729 -1.7355149984359741 -0.39848825335502625 0.22509737312793732 0.010740062221884727 0.05591713264584541 0.5850894451141357 -1.3473560810089111 -0.9667236804962158 1.015950322151184 -0.24412447214126587 0.319576233625412 0.013106768019497395 1.1241376399993896 1.3240070343017578 -1.4821693897247314 -1.8761825561523438 -1.5045242309570312 0.669039249420166 -0.3942307233810425 -0.2839662432670593 0.8931045532226562 -1.5537796020507812 1.0243678092956543 -0.6589844822883606 0.6662766337394714 0.762248694896698 2.5821475982666016 1.9989429712295532 -1.2874001264572144 2.077416181564331 -0.696941614151001 1.1296921968460083 -0.92426997423172 -0.3992258608341217 1.341748595237732 -1.3937723636627197 -0.9345893263816833 -1.1814746856689453 0.6205232739448547 1.4898415803909302 
vec11 -1.35843026638031 0.9690892100334167 -1.4787002801895142 0.6140032410621643 -0.8420643210411072 0.23576192557811737 1.342758297920227 -0.47137579321861267 -0.2717748284339905 -0.04208372160792351 -0.08087766915559769 -0.3184148669242859 0.3871830999851227 0.005208724178373814 -1.7257992029190063 1.2640591859817505 -0.8926653861999512 0.10712466388940811 1.418642520904541 -1.3546332120895386 -0.35291194915771484 0.15357205271720886 1.14479398727417 -0.027612823992967606 -1.853013277053833 0.29728415608406067 -0.15264488756656647 -0.19975993037223816 -0.6682143211364746 -0.3315163254737854 0.6339327692985535 -1.480604887008667 -0.7638895511627197 0.44546931982040405 0.968869149684906 1.0420535802841187 1.146443247795105 -0.558104932308197 1.1351048946380615 1.5584561824798584 0.65970379114151 -0.1225719302892685 -0.5584396123886108 1.4170222282409668 -1.616478681564331 0.20608146488666534 -1.3277435302734375 -0.6483237147331238 0.9502500891685486 2.3364174365997314 -0.381485253572464 -0.27082961797714233 0.024569256231188774 -1.6935378313064575 -0.8759570717811584 0.4707396924495697 -0.6424757838249207 0.2415134757757187 1.473605751991272 1.2989438772201538 -1.1380693912506104 0.9304506778717041 -0.9638291597366333 0.20369629561901093 -0.7255944013595581 0.0667472779750824 -1.4934961795806885 1.152346134185791 -0.4044654965400696 -0.29659703373908997 1.2611826658248901 -1.5592734813690186 0.811400830745697 -1.4976730346679688 0.2889877259731293 0.5205854773521423 0.6550955176353455 1.1770614385604858 -0.3235683739185333 -0.45842161774635315 0.6413363218307495 -0.32336509227752686 -1.5482513904571533 -2.095350742340088 -0.29279476404190063 0.293142169713974 -1.4117860794067383 1.1867767572402954 -0.1841503232717514 0.1908561736345291 -0.3794516324996948 0.13073576986789703 -1.3457057476043701 -0.18587900698184967 -1.8303217887878418 -0.4063374698162079 1.0447170734405518 -0.6882845759391785 0.8223168253898621 0.5297542214393616 0.9296801686286926 -0.5774874687194824 -0.3211785852909088 0.828943133354187 0.9737927317619324 1.2116382122039795 -0.1769574135541916 -1.087561011314392 2.2539801597595215 -0.25570738315582275 -1.8218897581100464 -0.23273064196109772 -0.2802318334579468 -0.23223334550857544 0.7462593913078308 -1.2361211776733398 -0.19633357226848602 1.7444849014282227 -1.661217451095581 -0.11218202859163284 -0.48704367876052856 -0.3881615102291107 -0.36762315034866333 -0.20179139077663422 0.030842449516057968 -1.2319101095199585 -1.6264593601226807 1.2849619388580322 2.1650102138519287 0.6828476786613464 -0.06802179664373398 -1.8318541049957275 0.195420503616333 -0.9967723488807678 1.268418550491333 -1.4815454483032227 0.510880708694458 0.9998638033866882 0.6148006319999695 -0.6643000841140747 -1.9692680835723877 -0.7664260864257812 -1.2038644552230835 0.5254040956497192 2.2978169918060303 0.6912578344345093 -0.7562143206596375 0.8534104228019714 -1.0004173517227173 -1.0425961017608643 0.0949222669005394 0.09642978012561798 0.260572224855423 0.4783090054988861 0.15514960885047913 0.5867480635643005 3.061340093612671 0.25953927636146545 0.5814415216445923 -1.0865561962127686 -1.0125125646591187 -0.07463405281305313 0.1235809251666069 0.2975473999977112 -0.5101025700569153 0.5937752723693848 -1.6134058237075806 -1.6805542707443237 1.3865267038345337 -0.09346472471952438 0.7512449026107788 0.17888198792934418 0.44859832525253296 1.3475991487503052 -1.3685317039489746 -1.8922433853149414 -0.9074104428291321 0.3526427745819092 -0.21485014259815216 0.06853587180376053 0.9515820741653442 -0.9210276007652283 0.5270928740501404 -0.49327486753463745 0.28188270330429077 0.9470949769020081 2.00727915763855 2.032396078109741 -0.9624444246292114 1.8581844568252563 -0.7840209603309631 1.1182451248168945 -0.9830697178840637 -0.22081322968006134 0.8034566640853882 -0.98288494348526 -1.055036187171936 -2.2364389896392822 1.4161611795425415 1.1043007373809814 
vec12 -0.9352617263793945 1.2214642763137817 -0.855928897857666 0.7497621774673462 -0.8825881481170654 -0.44766148924827576 1.8343029022216797 -0.6564961671829224 -0.5178877115249634 -0.31336018443107605 -0.3347579538822174 -0.09260400384664536 -0.2681911289691925 -0.6309219002723694 -1.347886562347412 0.6274171471595764 -0.9689755439758301 -0.6364095211029053 1.7126154899597168 -1.14352548122406 -0.07906793802976608 0.6941275596618652 0.718086302280426 -0.10124389082193375 -1.554671287536621 0.8018555045127869 0.2759596109390259 -0.524822473526001 0.24326562881469727 -0.4407086670398712 0.6635761857032776 -1.2565112113952637 -0.3538009524345398 0.8423509001731873 0.2579788267612457 1.381602168083191 1.0989069938659668 -0.45933830738067627 0.7706307172775269 1.8839607238769531 0.7776469588279724 -0.2719774842262268 -0.07598352432250977 1.8251038789749146 -2.191739797592163 -0.16658927500247955 -0.7863786220550537 0.5225046873092651 0.2195228487253189 2.1055901050567627 -0.5986083149909973 -0.16659246385097504 0.13335570693016052 -2.2937395572662354 -0.49511268734931946 -0.07672354578971863 -0.7833718657493591 0.7853153347969055 0.6913291215896606 0.49693769216537476 -0.8875626921653748 0.5573883652687073 -0.5437954664230347 -0.41890808939933777 -1.1125242710113525 0.29231375455856323 -1.237192153930664 1.3737326860427856 0.06866028904914856 -0.4734693467617035 0.8985546827316284 -0.808265745639801 0.9774599671363831 -1.153403401374817 -0.5168050527572632 0.7323488593101501 0.48275119066238403 0.9597974419593811 -0.19311818480491638 -0.14822068810462952 0.3082573711872101 -0.0019002999179065228 -1.1017088890075684 -1.5124101638793945 -0.5270811915397644 0.24642612040042877 -0.8959643840789795 1.0883406400680542 -0.22526372969150543 0.3222893178462982 -0.7115312218666077 0.046539630740880966 -1.9969844818115234 -1.0688621997833252 -1.1461963653564453 -0.78440260887146 1.4421682357788086 -0.28089141845703125 0.5753892660140991 0.7100903391838074 1.1244271993637085 -0.798362672328949 -0.43847420811653137 1.361999750137329 0.6962597370147705 1.0141880512237549 -0.557470440864563 -1.253177523612976 1.9334328174591064 -0.526144802570343 -1.9076294898986816 0.1321183443069458 -0.26108962297439575 -0.1342439204454422 0.8784403800964355 -1.2604643106460571 0.11033730208873749 0.7776332497596741 -1.8287255764007568 0.241799458861351 -0.2781200706958771 -0.4090746343135834 -0.46371933817863464 -0.7310091853141785 -0.0259037334471941 -0.7565809488296509 -1.7972352504730225 0.6754043698310852 2.6770660877227783 0.5196676254272461 0.48561957478523254 -1.26361083984375 -0.3492394685745239 -0.9648778438568115 0.8512113690376282 -1.0609127283096313 0.28893473744392395 0.8368692994117737 1.3280997276306152 -1.357667088508606 -2.184462070465088 -0.6843571066856384 -0.058364223688840866 0.4551776945590973 1.9026702642440796 0.018828226253390312 -0.495793879032135 0.6994187235832214 -1.0002506971359253 -0.8444597721099854 -0.37807169556617737 -0.8196965456008911 1.3406198024749756 0.279062956571579 0.30253857374191284 -0.0939580425620079 2.3368988037109375 -0.05110788345336914 0.8902229070663452 -0.8151649832725525 -1.0843958854675293 -0.5202867984771729 0.2143990397453308 -0.07307670265436172 0.5687550902366638 0.39414650201797485 -1.7036536931991577 -0.8423480987548828 1.9724395275115967 0.053336210548877716 0.39980465173721313 0.245759055018425 1.059226155281067 0.8393652439117432 -0.9301928281784058 -2.0092363357543945 -1.2507052421569824 0.795080304145813 0.10747069120407104 -0.15215374529361725 1.3362210988998413 -1.1884034872055054 0.9281381964683533 -0.2742815613746643 0.39029553532600403 0.7515273094177246 2.6657564640045166 1.4584994316101074 -1.0833243131637573 1.7462306022644043 -0.7129164934158325 0.9769496321678162 -0.6835713386535645 -0.8088746070861816 0.9820746183395386 -1.4879978895187378 -0.6569883823394775 -0.9591201543807983 0.9822754859924316 1.5169252157211304 
vec13 -1.779468297958374 0.949489951133728 -1.490661382675171 0.7478722333908081 -0.1424274891614914 0.017369410023093224 1.4748932123184204 -1.433698296546936 -0.7304427623748779 -0.39403247833251953 -0.11511185765266418 -0.1954856514930725 -0.12579345703125 -0.12640196084976196 -1.7823477983474731 0.7870816588401794 -1.308167815208435 -0.6781360507011414 1.5490158796310425 -1.5082907676696777 -0.22020260989665985 0.48773929476737976 0.9857228994369507 -0.26972144842147827 -1.2570300102233887 1.0815011262893677 0.009664125740528107 -0.32941409945487976 -0.005726093426346779 0.06721001863479614 -0.019517820328474045 -1.6193816661834717 -1.1206899881362915 1.0661890506744385 1.9173611402511597 0.6252405047416687 1.1898680925369263 -0.9102847576141357 1.19981050491333 1.7556407451629639 0.5119999051094055 -0.5342794060707092 -0.19047509133815765 1.93846595287323 -1.6418291330337524 0.11377307027578354 -1.1663037538528442 -0.7511024475097656 0.3074711859226227 2.406555652618408 -0.04405071213841438 -0.5585432052612305 0.15481726825237274 -2.025301456451416 -0.5698524117469788 0.22208966314792633 -0.5213030576705933 0.8845483660697937 0.7243735194206238 0.942812979221344 -1.4896243810653687 1.224231243133545 -0.6089339256286621 -0.6632367968559265 -0.09872946888208389 0.142405167222023 -0.7916691303253174 1.219159483909607 -0.9524946808815002 -1.00661039352417 0.7294029593467712 -1.6458462476730347 0.9804736971855164 -1.5712616443634033 -0.11069563776254654 0.02333769015967846 0.7440428733825684 1.5093392133712769 -0.30872225761413574 -0.6457881331443787 0.7122611403465271 -0.16658473014831543 -1.543859601020813 -1.5402252674102783 -0.18324784934520721 0.5984301567077637 -1.0303443670272827 0.8131945729255676 -0.61641526222229 0.1354074776172638 -0.5264209508895874 -0.24998535215854645 -2.182859182357788 -1.3414733409881592 -0.8582637906074524 0.1452179253101349 2.0844357013702393 -0.475601464509964 0.1626388132572174 -0.44320565462112427 0.29754653573036194 -0.880186140537262 0.05685881897807121 1.7264683246612549 0.7881203889846802 1.1643640995025635 -0.4466260075569153 -0.6181448101997375 2.3278701305389404 -0.5585530400276184 -1.3839102983474731 0.02608061395585537 -0.5737537741661072 0.39345428347587585 0.5313182473182678 -0.30397456884384155 -0.6621851325035095 0.4522855877876282 -1.7368171215057373 -0.22353455424308777 -0.39437970519065857 -1.1506153345108032 -0.36285725235939026 -0.6881905198097229 0.650425374507904 -1.2865413427352905 -1.8724817037582397 1.4892042875289917 1.8366833925247192 0.5030653476715088 0.964795708656311 -1.925061583518982 0.21251848340034485 -0.5593374371528625 0.5074744820594788 -1.10585355758667 -0.09865175932645798 0.8648431301116943 0.9856716394424438 -1.3640905618667603 -2.4838199615478516 -1.1138907670974731 -1.095472812652588 0.8854289054870605 2.495598316192627 0.8233400583267212 -0.5839787721633911 1.2514210939407349 -0.5941852331161499 -0.7635012269020081 -0.385100394487381 -0.9188316464424133 0.7826966643333435 1.1424773931503296 0.7469627857208252 -0.004150883294641972 2.215665578842163 0.31127622723579407 0.7968776226043701 -0.7757353782653809 -1.0499271154403687 0.07769560813903809 0.5623410940170288 0.49387574195861816 -0.052417851984500885 -0.06342541426420212 -0.9878257513046265 -1.1246991157531738 1.067421317100525 0.5798231959342957 0.4200006425380707 0.7266937494277954 0.6460922360420227 0.9414755702018738 -0.8772092461585999 -1.758651852607727 -1.2110660076141357 -0.10316835343837738 0.006675083655864 0.005400093272328377 0.6220137476921082 -0.9746175408363342 0.6919359564781189 -0.5390793681144714 0.7239906787872314 1.1189755201339722 2.1525936126708984 1.964252233505249 -1.0089199542999268 1.7431561946868896 -0.985204815864563 1.1909071207046509 -1.2501026391983032 -0.3268339931964874 1.0557130575180054 -0.946046769618988 -1.600894570350647 -0.9158707857131958 0.8574034571647644 2.312448740005493 
vec14 -0.9165777564048767 0.850528359413147 -1.1957939863204956 0.9470713138580322 -0.4352981448173523 -0.9137915968894958 1.8870882987976074 -0.5091982483863831 -0.23421184718608856 -0.03239034488797188 -0.44733837246894836 -0.005505490116775036 -0.3103867173194885 -0.40489286184310913 -1.658006191253662 1.1347891092300415 -1.2451481819152832 -0.20113328099250793 1.7057749032974243 -1.4051262140274048 0.015413615852594376 -0.05148056149482727 0.7072333097457886 0.1484336256980896 -1.6332244873046875 0.3238207697868347 0.31282174587249756 -0.41161784529685974 0.31188735365867615 -0.43947723507881165 0.6858891248703003 -1.3213460445404053 -0.5381218194961548 0.856552243232727 1.1986976861953735 1.393975019454956 0.8359026312828064 -0.11820876598358154 0.5595916509628296 1.8909153938293457 0.18084119260311127 -0.28400149941444397 -0.12636682391166687 1.3399137258529663 -1.6206532716751099 -0.25780269503593445 -0.4941520094871521 -0.7850615978240967 0.8517396450042725 2.4492244720458984 -0.5032668113708496 0.19938848912715912 0.01122206635773182 -1.339372158050537 -0.8353939652442932 0.7082435488700867 -0.4033805727958679 0.7261373996734619 0.6700904369354248 0.8076101541519165 -0.941337525844574 -0.13002850115299225 -0.33509987592697144 -0.29784828424453735 -0.37411707639694214 0.05124868452548981 -1.3653122186660767 1.0653663873672485 -0.5930731892585754 -0.3942723274230957 0.6589910984039307 -1.723879337310791 0.9345598816871643 -1.3242547512054443 -0.0853264108300209 0.2988831400871277 -0.3763362169265747 0.9671887159347534 -0.5193905234336853 -0.08867575973272324 0.4433451294898987 -0.49229028820991516 -0.7572601437568665 -1.6391264200210571 -0.3372400403022766 0.6414757966995239 -1.5919241905212402 1.3587851524353027 -0.326273113489151 0.5249984860420227 0.18015405535697937 -0.27887582778930664 -1.8272024393081665 -1.2465956211090088 -1.2531620264053345 -0.8038824796676636 1.18317449092865 -1.1267623901367188 0.6957924962043762 0.43483757972717285 0.32210907340049744 -0.19120562076568604 -0.6451739072799683 0.6797909736633301 0.7287058234214783 1.1532710790634155 -0.8673688769340515 -1.2726998329162598 2.025425434112549 -0.8727819919586182 -2.1297974586486816 0.0207173191010952 -0.8278042078018188 0.6448684930801392 1.0583597421646118 -1.005681037902832 0.08645768463611603 1.738318681716919 -1.877129077911377 -0.590509295463562 -0.23906660079956055 -0.4125576913356781 -0.10155288875102997 -0.9040293097496033 0.5506998896598816 -1.4322700500488281 -2.0547285079956055 1.2185040712356567 1.7888484001159668 0.7150043249130249 0.707416296005249 -1.4735205173492432 0.12011810392141342 -0.4194755554199219 2.21452260017395 -1.6952046155929565 -0.5686406493186951 0.47956281900405884 1.0224417448043823 -0.662384033203125 -3.1288604736328125 -1.0564098358154297 -1.0990791320800781 0.20606771111488342 1.874284267425537 0.9490833282470703 -0.7322251200675964 1.1112622022628784 -0.23991309106349945 -0.4342901408672333 0.04148615896701813 0.20764902234077454 0.5372886061668396 0.30341145396232605 0.6204728484153748 0.9351316094398499 2.8378148078918457 0.383993923664093 0.8535508513450623 -0.8347265720367432 -0.13144835829734802 -0.35625529289245605 0.18898053467273712 -0.1836555451154709 -0.4717042148113251 0.4227747619152069 -1.2218610048294067 -1.0554219484329224 1.541358232498169 -0.004068770911544561 0.19030846655368805 -0.6036669015884399 1.410929799079895 0.5376825332641602 -1.259230136871338 -1.941420078277588 -1.2206929922103882 1.1551141738891602 -0.40671610832214355 -0.22184330224990845 0.8831799626350403 -0.7893944382667542 0.3810042142868042 -0.26352664828300476 0.400323748588562 0.2278452068567276 2.410191535949707 2.0929243564605713 -0.8113045692443848 1.8618321418762207 -0.7413561940193176 0.31343334913253784 -0.05467121675610542 -0.10207168757915497 0.6929051876068115 -1.2233892679214478 -1.7270009517669678 -1.6787219047546387 1.1452198028564453 1.760254144668579 
vec15 -0.6377156972885132 1.3872562646865845 -1.5409057140350342 1.176730990409851 -0.5092709064483643 -0.2508597671985626 1.853724479675293 -0.18878982961177826 -0.5296174883842468 -0.09758707135915756 -0.6687431931495667 -0.038327764719724655 1.0102828741073608 -0.6741959452629089 -0.9217975735664368 0.5229389667510986 -0.738973081111908 0.25769922137260437 1.3963755369186401 -1.076382040977478 -0.505081057548523 0.7605888843536377 0.16608376801013947 -0.24194851517677307 -1.157527208328247 0.9540850520133972 -0.005896564573049545 0.036446698009967804 -0.11564070731401443 -0.5314179062843323 0.5938828587532043 -1.2209895849227905 -0.49909836053848267 0.526303768157959 0.8028347492218018 1.203048586845398 1.1179401874542236 -0.6219615936279297 1.1717108488082886 1.6161798238754272 0.5102014541625977 -0.04375334456562996 -0.12909245491027832 1.8992377519607544 -1.4501330852508545 0.22240620851516724 -1.016498327255249 -0.902588427066803 1.3973286151885986 2.183454990386963 -0.4055645763874054 -0.7112995982170105 -0.07926556468009949 -2.0102639198303223 -0.860965371131897 0.6254716515541077 -0.09412982314825058 1.3248991966247559 1.121203899383545 1.3253873586654663 -1.235971212387085 0.22741985321044922 -0.48787057399749756 -0.0692707821726799 -0.2055814266204834 -0.6650511622428894 -1.2662636041641235 1.3934423923492432 -0.13046474754810333 -0.1038384810090065 0.2325734794139862 -1.1027206182479858 0.992867648601532 -1.041109323501587 0.17582155764102936 0.17781394720077515 0.6773872375488281 1.7309333086013794 -0.35749515891075134 -0.6129639744758606 0.840701699256897 -0.11891631782054901 -0.7426875829696655 -1.9897655248641968 0.5663061738014221 0.7460859417915344 -1.4163671731948853 0.5397400856018066 -0.05774891376495361 0.5249935984611511 -0.6590513586997986 -0.1263016313314438 -1.69313645362854 -1.2609885931015015 -0.8360636234283447 -0.8850118517875671 1.3257801532745361 -0.27724066376686096 0.7449894547462463 0.019264675676822662 0.5401071906089783 -0.7007189989089966 -0.5983237624168396 1.5457264184951782 1.206088662147522 0.7477174997329712 -0.6972624063491821 -1.091944694519043 2.096041679382324 -0.4591982364654541 -1.8592578172683716 -0.10402955859899521 -0.4558717906475067 0.06190428137779236 1.1688222885131836 -0.6723452210426331 -0.7498944997787476 1.3000152111053467 -2.222961902618408 0.5190747976303101 0.34120410680770874 -0.64822918176651 -0.6424152851104736 0.38228240609169006 0.45597267150878906 -1.93901789188385 -1.8437167406082153 1.0753521919250488 1.706278920173645 0.7876858711242676 0.2449789196252823 -1.8673784732818604 0.2612870931625366 -0.9163833260536194 1.4393315315246582 -0.999254047870636 0.10255786776542664 1.5415253639221191 1.0986790657043457 -1.2897858619689941 -2.7453951835632324 -0.14530086517333984 -0.8759970664978027 0.7673035264015198 1.9902654886245728 1.0971508026123047 -0.9741584658622742 0.7074028849601746 -0.19911609590053558 -0.8162529468536377 -0.4205467998981476 -0.5455493330955505 0.910670816898346 0.8889500498771667 -0.02477220632135868 0.04717708006501198 1.8650784492492676 0.49876371026039124 0.5367658138275146 -1.4471627473831177 -1.002759337425232 -0.09983336180448532 0.40140488743782043 -0.14285042881965637 0.14657624065876007 0.7929896712303162 -1.7171355485916138 -0.5425602793693542 1.402708649635315 0.27563509345054626 0.04510948061943054 0.31536340713500977 0.9860572814941406 0.8144761919975281 -0.6482418179512024 -1.7765307426452637 -1.3876713514328003 0.5263387560844421 -0.32460296154022217 -0.43820086121559143 0.6334848999977112 -1.382828712463379 0.669988214969635 -0.005647182930260897 0.38786596059799194 0.8907936811447144 2.5230891704559326 2.309718370437622 -1.7862873077392578 1.792752742767334 -0.651881754398346 1.0772504806518555 -0.30435070395469666 -0.2158629447221756 0.5133253931999207 -1.3025262355804443 -1.1620848178863525 -1.3070255517959595 1.423306941986084 1.858092188835144 
vec16 -1.5585795640945435 1.2297027111053467 -1.3107414245605469 0.9165754914283752 -0.6790093779563904 0.09774886071681976 1.4967224597930908 -0.5542821288108826 -0.8097594976425171 -0.40704572200775146 -0.606948733329773 -0.04218478128314018 -0.06361021101474762 -0.5151486396789551 -1.9523086547851562 0.8843379616737366 -0.4413245618343353 -0.24244092404842377 1.579063892364502 -1.6201324462890625 -0.31806379556655884 0.5617271065711975 0.2982499301433563 -0.30647388100624084 -1.787735939025879 0.4760863482952118 0.30565932393074036 -0.34977293014526367 -0.47504886984825134 -0.2905280292034149 0.5331481695175171 -1.4567947387695312 -0.345517098903656 0.2876780927181244 0.6047309041023254 1.2113838195800781 1.4246611595153809 0.3327789902687073 0.9516127705574036 1.4561209678649902 0.5585466027259827 -0.33816835284233093 -1.032078504562378 1.659271240234375 -2.095944404602051 -0.17818954586982727 -0.5127242207527161 -0.6947139501571655 0.4769000709056854 2.5101020336151123 -1.038958191871643 -0.8279885649681091 -0.6310459971427917 -2.0722599029541016 -0.702484667301178 0.4230130612850189 -0.6646331548690796 0.5386837124824524 1.3125802278518677 0.7062540650367737 -1.2102588415145874 1.0730364322662354 -0.7114613056182861 -0.2920120060443878 -0.2870596647262573 -0.4358126223087311 -1.3075629472732544 1.2022664546966553 -1.1472375392913818 -0.4560759663581848 0.8594282865524292 -1.32284414768219 0.790128767490387 -1.0581636428833008 -0.7115037441253662 0.23974542319774628 1.0647571086883545 1.5628620386123657 -0.2772860825061798 -0.7818109393119812 0.47515228390693665 -0.43055886030197144 -1.3772680759429932 -1.7861123085021973 0.28215402364730835 0.2845018208026886 -0.7782590389251709 0.732595682144165 -0.8134303092956543 0.3320850729942322 0.04789038375020027 -0.383701354265213 -1.586040735244751 -0.8947529196739197 -1.3843752145767212 -1.124292254447937 1.5064438581466675 -0.6116095781326294 0.18834270536899567 -0.059508807957172394 0.5708931684494019 -1.3243316411972046 0.035932522267103195 0.6557648777961731 1.417643666267395 0.5767741203308105 -0.3700551986694336 -1.5687415599822998 1.637101650238037 -0.5231267809867859 -1.5798710584640503 0.32528820633888245 0.21876032650470734 0.8037776350975037 1.08139169216156 -0.716299831867218 -0.7105780839920044 1.4939473867416382 -1.553182601928711 -0.046218011528253555 -0.16639550030231476 -0.9976009130477905 -0.09891106188297272 -0.6173451542854309 0.9443928003311157 -0.868285596370697 -1.856722116470337 1.5147215127944946 1.9846996068954468 0.9373091459274292 0.2958003878593445 -1.3886109590530396 -0.08370272070169449 -0.7537824511528015 1.4514127969741821 -1.5601623058319092 0.07548237591981888 1.0709073543548584 0.9747985005378723 -1.593422770500183 -2.3626670837402344 -0.594542920589447 -0.9065196514129639 -0.05989350378513336 1.7515232563018799 0.4257458746433258 -0.8985548615455627 1.2199928760528564 -0.6375047564506531 -1.0647438764572144 0.07091233134269714 -0.6993160843849182 1.0745316743850708 0.21619997918605804 0.524250328540802 -0.05325935781002045 2.7117624282836914 0.2963595688343048 0.5067631602287292 -0.46018481254577637 -0.32016992568969727 -0.4536512494087219 0.19862693548202515 0.20401759445667267 0.030102835968136787 0.22226384282112122 -1.3599706888198853 -1.637004017829895 1.1671781539916992 0.22157242894172668 -0.11456712335348129 0.40885818004608154 0.8262603878974915 1.223019003868103 -0.9993600845336914 -1.9010541439056396 -1.4882941246032715 0.33420366048812866 0.6383939385414124 -0.0338720828294754 0.7617428302764893 -0.9530999064445496 0.8244394063949585 -0.673438310623169 0.4677533507347107 0.7088282108306885 2.3390116691589355 2.258976459503174 -1.2424862384796143 2.1072914600372314 0.11094770580530167 0.46588173508644104 -0.3950050175189972 0.10425463318824768 0.8562957048416138 -0.9537476897239685 -0.9649745225906372 -1.0408790111541748 0.73735511302948 1.6485093832015991 
vec17 -0.7320137023925781 1.5900081396102905 -1.174116611480713 1.0580928325653076 -1.072715401649475 0.1583569049835205 2.0091397762298584 -0.6607469916343689 -0.9585607647895813 -0.8757372498512268 -0.47202935814857483 0.05794375017285347 0.21062053740024567 -0.5214917659759521 -1.1691986322402954 1.1302694082260132 -1.691679835319519 -0.6306163668632507 1.937172532081604 -0.9310449361801147 -0.5859048962593079 0.2572205066680908 0.2892565131187439 -0.27404019236564636 -1.8605058193206787 0.4972488284111023 0.05079250782728195 -0.6824383735656738 0.08061739057302475 -0.11115115880966187 1.1006108522415161 -1.25455641746521 -0.05488380789756775 1.082734227180481 1.2514550685882568 0.5744279623031616 0.8566684722900391 -0.2414374202489853 0.6529569029808044 1.777063012123108 0.11681251972913742 -0.4200580418109894 -1.147050142288208 1.3132225275039673 -1.0910987854003906 -0.5441029667854309 -0.9202313423156738 -0.019791986793279648 0.5871406197547913 2.373950242996216 -0.5505195260047913 -0.35364705324172974 -0.8808770179748535 -1.9588905572891235 -0.3341599702835083 0.4340987503528595 -0.36963000893592834 0.032727960497140884 0.9295631051063538 0.685147762298584 -1.0654172897338867 0.40785372257232666 -0.23671139776706696 0.12904062867164612 -0.5936705470085144 0.23952943086624146 -1.0639715194702148 1.4340975284576416 -1.0807548761367798 -0.2087535560131073 1.0798146724700928 -1.2007189989089966 0.6215315461158752 -1.0947649478912354 -0.26992595195770264 0.49666231870651245 0.2722663879394531 1.7408353090286255 0.0928325280547142 -0.32798975706100464 0.09576323628425598 -0.36011049151420593 -1.2463352680206299 -1.6952403783798218 0.07787416130304337 0.6112991571426392 -1.0202585458755493 0.9179669618606567 0.0007773853722028434 0.24670228362083435 -0.4121464192867279 -0.31650015711784363 -0.6125306487083435 -1.325355052947998 -1.6985585689544678 -0.5049415826797485 1.7381001710891724 0.19762645661830902 0.8891725540161133 -0.46039238572120667 0.5621193051338196 -0.5071648955345154 -0.7029535174369812 1.5516571998596191 0.9969552159309387 1.3062100410461426 -0.3630802631378174 -0.9409510493278503 2.0108416080474854 0.18099284172058105 -1.7361713647842407 0.37502044439315796 -0.06576407700777054 -0.08988387137651443 0.2198360413312912 -0.4874884784221649 -0.526616632938385 1.0064640045166016 -1.9571199417114258 -0.46739527583122253 0.10851874947547913 -0.9713050127029419 -0.5092999935150146 -0.6400048136711121 0.8705998659133911 -0.964776337146759 -2.1342391967773438 1.604752540588379 1.1205214262008667 0.548795759677887 0.012382764369249344 -0.9489340782165527 0.2890298664569855 -0.6078887581825256 1.102373719215393 -1.4934245347976685 0.39839813113212585 1.1346975564956665 1.1649868488311768 -0.7056163549423218 -2.236889123916626 -0.5388014912605286 -0.5962204933166504 0.7170034050941467 2.3595516681671143 1.250731348991394 -0.840060830116272 1.6503539085388184 -0.4130750894546509 -1.1499892473220825 -0.2098463624715805 -0.5621281266212463 0.4309920370578766 0.6303395628929138 0.21462245285511017 0.5241637825965881 2.3381869792938232 0.3986532986164093 0.8067871332168579 -0.9221080541610718 -0.6586182117462158 0.1303614377975464 -0.10055322200059891 0.12896974384784698 0.15016891062259674 0.8445625901222229 -1.1497098207473755 -1.0197656154632568 1.5611847639083862 0.30181413888931274 0.3764858841896057 0.13723339140415192 0.9263301491737366 1.39447021484375 -1.386919379234314 -1.6560031175613403 -1.1442774534225464 0.3296802043914795 -0.36270245909690857 -0.4383133053779602 1.0810083150863647 -1.6633436679840088 0.8841789364814758 -0.9204992055892944 0.4047873616218567 0.36921295523643494 2.5455682277679443 2.1384828090667725 -0.5922853350639343 2.179121494293213 -0.536183774471283 1.1922856569290161 -0.6408641338348389 -0.28928178548812866 0.37805455923080444 -1.4440066814422607 -0.6484553217887878 -1.5102405548095703 1.6594152450561523 1.2392842769622803 
vec18 -0.5436797142028809 1.5439581871032715 -1.011121392250061 1.065462589263916 -0.8160403966903687 -0.8605209589004517 1.6741456985473633 -0.4614315629005432 -0.9309625029563904 -0.2681114971637726 0.03223424404859543 -0.09351616352796555 -0.0536465160548687 -0.40145301818847656 -1.4707410335540771 1.1282483339309692 -0.4680922329425812 0.3382801413536072 2.242918014526367 -1.452942132949829 -0.6018436551094055 0.3869743049144745 0.9610225558280945 -0.24485866725444794 -1.7822940349578857 0.10132879763841629 0.36374515295028687 -0.5058634281158447 -0.00023050836171023548 -0.700918436050415 0.5953383445739746 -1.1182861328125 -0.10741421580314636 0.3802397549152374 0.6341564059257507 1.1827380657196045 0.4519292116165161 -0.260754257440567 0.5556126832962036 2.061030864715576 0.15875409543514252 -0.9458622336387634 -0.1597382128238678 1.7399545907974243 -1.9199883937835693 0.5852541923522949 -0.7780086994171143 -0.3597033619880676 0.9551348686218262 2.1600825786590576 -0.7820426225662231 -0.2118963599205017 -0.2928483784198761 -1.7928844690322876 -0.06670496612787247 0.6906906962394714 -0.7864696979522705 0.9968960881233215 1.4764000177383423 0.7199755311012268 -0.7992881536483765 0.33836257457733154 -0.36839592456817627 -0.6594910025596619 -0.44141367077827454 -0.0068665193393826485 -1.0139859914779663 1.1805098056793213 -0.7445209622383118 -1.305464744567871 0.7063594460487366 -1.4497097730636597 0.6053585410118103 -0.5387076735496521 -0.22869010269641876 -0.15583136677742004 0.49547678232192993 1.104711890220642 -0.5683162212371826 -0.5051550269126892 0.5580325126647949 -0.203340545296669 -0.8246064186096191 -0.876078724861145 -0.42425161600112915 -0.04195446893572807 -0.8849847912788391 0.6070717573165894 -0.36633747816085815 0.37751635909080505 -0.0044349548406898975 -0.023181581869721413 -1.869329571723938 -1.413770318031311 -1.0578747987747192 -0.8136535286903381 1.2291361093521118 -0.43220359086990356 0.9901848435401917 -0.23678889870643616 0.4331229627132416 -0.5649158954620361 0.16057933866977692 1.6503039598464966 0.988960325717926 1.561406135559082 -0.8127695918083191 -1.38496994972229 1.5234302282333374 -0.6553813219070435 -1.5193829536437988 0.3498755395412445 -0.36081382632255554 -0.5038271546363831 0.3839818835258484 -1.1265666484832764 -0.6284721493721008 1.1713591814041138 -1.299473524093628 0.15178333222866058 0.13239145278930664 -0.7255966663360596 -0.7508766651153564 0.1996629387140274 0.7688410878181458 -0.7164616584777832 -1.8121211528778076 1.579793095588684 1.774774193763733 0.9509029388427734 0.43163129687309265 -1.782555103302002 -0.6345391869544983 -0.319301575422287 1.2666922807693481 -1.7802397012710571 -0.6029822826385498 1.4614166021347046 1.072670817375183 -1.1237351894378662 -2.368612051010132 -1.1305338144302368 -0.8872025012969971 0.034535158425569534 2.200860023498535 0.6734637022018433 -1.0222504138946533 1.3256348371505737 -0.6924247741699219 -1.200174331665039 0.021129006519913673 -0.7884535193443298 0.4129217863082886 1.0770405530929565 0.8350314497947693 0.43696773052215576 1.863560676574707 0.02098437398672104 0.8962823748588562 -0.7145518064498901 -1.4067480564117432 -0.40903931856155396 0.13812145590782166 -0.11276927590370178 0.19628842175006866 0.37335315346717834 -1.292169451713562 -1.4739758968353271 1.1134918928146362 -0.4171546995639801 0.29562467336654663 -0.6836240887641907 1.048329472541809 1.0558041334152222 -0.8545978665351868 -1.757440447807312 -0.8274672031402588 0.6283021569252014 -0.25948190689086914 0.20803458988666534 1.0507162809371948 -1.2788572311401367 1.5183558464050293 -0.4811622202396393 0.15367744863033295 0.5285779237747192 1.8528259992599487 1.3933758735656738 -1.0292589664459229 2.1017489433288574 -0.9472941160202026 1.1647521257400513 -0.578929603099823 0.06460638344287872 0.8184884190559387 -1.0603926181793213 -1.1216955184936523 -1.762568473815918 1.3004186153411865 1.3808904886245728 
vec19 -0.9121193289756775 1.6154242753982544 -1.4613211154937744 0.5892266035079956 -1.0261796712875366 0.051328763365745544 1.5124629735946655 -0.3020533621311188 -0.6352987289428711 -0.16950151324272156 -0.4623217284679413 0.0034753342624753714 0.2232923060655594 0.14954301714897156 -1.6439259052276611 1.0218346118927002 -1.0201010704040527 -0.22839614748954773 1.7652686834335327 -1.0364348888397217 0.0531727597117424 0.22521908581256866 0.45703595876693726 -0.342011421918869 -1.5227434635162354 0.6326598525047302 0.4539230167865753 -0.40967732667922974 0.23979270458221436 0.18867148458957672 0.6233396530151367 -1.2104421854019165 -0.1440107524394989 0.05820639431476593 0.574365496635437 1.2845462560653687 0.43014705181121826 -0.6722371578216553 0.7460872530937195 1.5095254182815552 0.8987311720848083 -0.23155412077903748 -0.5328037142753601 1.8150475025177002 -1.9788343906402588 -0.17758837342262268 -0.5679974555969238 -0.48930272459983826 0.23978164792060852 2.470175266265869 -0.498058021068573 -0.3349740505218506 -0.3583545684814453 -2.1514275074005127 -0.7649751305580139 0.7708759307861328 -0.6192023158073425 0.5362097024917603 0.7536939382553101 0.8300912976264954 -0.9328759908676147 0.9050041437149048 -0.5275112390518188 -0.004293515346944332 -0.4268001317977905 -0.3733401894569397 -1.638119101524353 0.7835401892662048 -0.7360631227493286 0.16333502531051636 0.20164178311824799 -1.466767430305481 0.7950131893157959 -1.238223671913147 -0.6073201894760132 0.06948484480381012 0.6085312962532043 1.3763742446899414 -0.4676315486431122 -0.5544604063034058 0.7568336129188538 -0.3438401222229004 -1.1692391633987427 -1.3194530010223389 0.4693983793258667 0.2466093897819519 -1.047810673713684 0.8675060272216797 -0.1807011514902115 0.13371694087982178 -0.08989720791578293 -0.26767095923423767 -2.2744972705841064 -0.8454886078834534 -1.0518969297409058 -0.0725519061088562 2.0282955169677734 -0.6350948810577393 0.3282082974910736 -0.391588032245636 0.4117375910282135 -0.3137960731983185 -0.06609374284744263 1.0785948038101196 0.9460740089416504 1.474124789237976 -0.30021795630455017 -1.8173738718032837 1.8098692893981934 -0.9550573825836182 -1.318070888519287 0.49707895517349243 -0.30230847001075745 0.03664964810013771 0.4362252354621887 -0.9411529898643494 -0.20198635756969452 1.3774386644363403 -1.9506973028182983 -0.5926359295845032 -0.5891753435134888 -1.450393795967102 -0.9089528322219849 -0.17227956652641296 0.22400163114070892 -1.6099069118499756 -2.140857696533203 1.4851133823394775 2.19506573677063 0.3640001714229584 0.7185808420181274 -1.1144500970840454 -0.11584574729204178 -1.2148926258087158 1.0327256917953491 -1.5526618957519531 0.6592835187911987 1.0846349000930786 0.825742781162262 -1.131748080253601 -1.9980493783950806 -1.095929741859436 -0.6153767108917236 0.6755298376083374 2.1754679679870605 0.39588961005210876 -0.22822262346744537 1.9445339441299438 -0.0591554269194603 -1.0337462425231934 0.015511902049183846 0.06349389255046844 0.5700861811637878 0.5083343386650085 0.42702439427375793 -0.32109612226486206 2.6566522121429443 0.4332338273525238 0.5818123817443848 -0.9921886324882507 -0.8859339356422424 -0.12391991168260574 0.04162893444299698 0.42588183283805847 0.3905116021633148 0.8166136145591736 -1.5571255683898926 -1.4860516786575317 1.5917454957962036 -0.009358622133731842 0.14502744376659393 -0.11554722487926483 1.04389226436615 0.5644208192825317 -1.145434021949768 -1.764649510383606 -1.1248434782028198 1.3752753734588623 -0.18388740718364716 -0.012536149471998215 0.9051684141159058 -1.0719834566116333 0.6922652721405029 -1.2972102165222168 0.4400780200958252 0.2269853800535202 2.1801607608795166 2.0209507942199707 -0.7681283950805664 2.499962568283081 -0.8996557593345642 1.0081640481948853 -0.5341576933860779 -0.16078689694404602 0.09055154025554657 -0.9149333834648132 -1.1656692028045654 -0.8250197768211365 0.8507344126701355 1.5284956693649292 
vec20 -0.7607041001319885 0.8932625651359558 -1.3028457164764404 1.1435576677322388 -1.3069757223129272 -0.6493826508522034 1.5987327098846436 -1.097605586051941 -0.6674174070358276 -0.23899655044078827 -0.8548128604888916 0.08186975121498108 -0.38697564601898193 0.4340146780014038 -1.2318322658538818 0.6554199457168579 -1.01149582862854 0.3516332507133484 2.278172254562378 -1.3418424129486084 -0.06513027101755142 0.2877083420753479 0.214973583817482 -0.9747850894927979 -2.177562713623047 0.06915564835071564 0.1742630898952484 -0.7132768630981445 -0.04503067955374718 0.01247171126306057 0.7055515646934509 -1.3481557369232178 -0.1637915074825287 0.9994953870773315 1.0905427932739258 1.730911135673523 0.8278568387031555 -0.42916250228881836 0.48346590995788574 2.169755458831787 0.1403719037771225 -0.9566069841384888 -1.1256933212280273 1.8080531358718872 -1.261681318283081 -0.2522523105144501 -1.0365718603134155 -0.6522244811058044 0.5959604382514954 1.9761587381362915 -1.0156683921813965 -0.35626837611198425 0.5133181214332581 -1.8129459619522095 -0.19549816846847534 0.6331811547279358 -0.8181992769241333 0.34213316440582275 0.8398943543434143 0.7981534600257874 -1.119425892829895 -0.017180675640702248 -0.4872559905052185 -0.6780204176902771 -0.47394272685050964 -0.6232489943504333 -1.4243453741073608 1.4315526485443115 -0.6668155193328857 -1.0156075954437256 0.7565274834632874 -0.6772207021713257 0.9939337968826294 -0.935360312461853 -0.6789482235908508 -0.34359946846961975 0.8443103432655334 1.1026229858398438 -0.36169660091400146 -0.5751672387123108 0.21783384680747986 -0.8690612316131592 -1.2684985399246216 -1.869759440422058 -0.18510009348392487 0.3744727075099945 -0.9127582311630249 1.0457286834716797 0.11078593134880066 -0.014902865514159203 -0.6611282825469971 -0.26244252920150757 -1.1970258951187134 -1.2644213438034058 -1.5734435319900513 -1.245964765548706 1.2592772245407104 -0.7806731462478638 1.191077470779419 -0.3419283926486969 0.40258166193962097 -0.08511389046907425 -0.3394240438938141 1.0354044437408447 1.1282539367675781 1.5067651271820068 -0.3114624321460724 -0.9550540447235107 1.7428655624389648 -0.6094668507575989 -2.5623691082000732 0.44460436701774597 -0.17380894720554352 -0.002526561263948679 0.08315449208021164 -0.9851865768432617 -0.611045241355896 1.1734981536865234 -2.2561917304992676 0.11849777400493622 -0.44039350748062134 -0.8952085971832275 -0.06550475209951401 -0.21459023654460907 0.36357858777046204 -1.2139846086502075 -2.116441011428833 1.1530306339263916 2.0319221019744873 0.6257177591323853 0.7953019738197327 -0.8999066948890686 -0.8716302514076233 -0.4468365013599396 1.6598893404006958 -1.3627488613128662 0.11113020777702332 0.9997687339782715 0.8405523896217346 -0.9434704780578613 -2.7763445377349854 -1.1769003868103027 -0.9637424349784851 0.23612453043460846 1.723710298538208 1.1914228200912476 -0.7056441903114319 1.5229918956756592 -0.29469814896583557 -0.5721777081489563 -0.00359458033926785 -0.6820186972618103 1.0293463468551636 0.8962513208389282 0.8592153191566467 0.14762429893016815 1.8877335786819458 0.1292540580034256 0.2915007174015045 -1.0022010803222656 -1.1656913757324219 -0.6084442734718323 0.22617733478546143 0.08503267168998718 -0.03017881140112877 1.0103768110275269 -1.0051238536834717 -1.3886431455612183 1.7429234981536865 0.5644314289093018 0.07396852970123291 0.0742560476064682 1.740520715713501 0.09682903438806534 -0.9703283309936523 -1.7945574522018433 -0.9672734141349792 0.8969727158546448 0.4586624205112457 -0.24874074757099152 0.6383552551269531 -1.6153590679168701 0.7816997170448303 -0.3228476345539093 0.8770188689231873 0.8040403723716736 2.173809051513672 2.357142448425293 -0.7972578406333923 2.2133004665374756 -0.194746196269989 0.7921319603919983 -0.523514986038208 -0.12968634068965912 0.8368730545043945 -1.5978803634643555 -0.5810670256614685 -0.7478984594345093 1.5283856391906738 1.6107603311538696 
vec21 -0.7627556920051575 0.9011011719703674 -1.3613567352294922 0.7213692665100098 -0.8641233444213867 -0.45765334367752075 1.8418887853622437 -1.1131285429000854 -0.7491195201873779 -0.35684913396835327 0.301676869392395 -0.7438751459121704 0.10198048502206802 -0.6694089770317078 -1.679101586341858 1.126341700553894 -0.7691411375999451 0.3359089195728302 1.8283284902572632 -0.9525312185287476 -0.4505174160003662 0.23176297545433044 0.3765947222709656 -0.8546944856643677 -1.6866819858551025 0.816606879234314 0.20637746155261993 -0.3204684853553772 0.1646251678466797 -0.1753736287355423 -0.04431889206171036 -1.6056817770004272 -0.9344176650047302 0.9637534618377686 0.9352779388427734 1.2064372301101685 0.7067515850067139 -0.34070783853530884 0.6816676259040833 1.4853143692016602 0.732378363609314 -0.33017387986183167 -1.0116245746612549 1.6180628538131714 -1.9955402612686157 0.1058022603392601 -1.1650512218475342 -0.35240980982780457 0.26915478706359863 2.1350209712982178 -1.1901726722717285 -0.41157349944114685 -0.6520494222640991 -1.7104741334915161 -0.515359103679657 0.2409340739250183 -0.9169489145278931 0.8056202530860901 0.5994932651519775 1.2717477083206177 -0.886187732219696 0.8296210169792175 -0.42110443115234375 -0.6678147912025452 -0.6643595099449158 0.021409722045063972 -0.9131803512573242 1.016263723373413 -0.4934209883213043 -0.7608119249343872 0.33517488837242126 -1.1148256063461304 1.0452677011489868 -1.4304704666137695 -0.0404687337577343 0.36722058057785034 0.4720138609409332 1.586730718612671 -0.2960968315601349 -0.16309389472007751 -0.2616945803165436 0.04072124883532524 -0.6097946763038635 -1.149021029472351 0.08179394155740738 0.49177101254463196 -1.3155587911605835 1.7932236194610596 -0.25730395317077637 -0.23473069071769714 -0.872258186340332 0.1520027071237564 -1.8113493919372559 -1.1939845085144043 -1.0630509853363037 -0.8189184665679932 1.2087684869766235 0.13722778856754303 -0.31595566868782043 0.39914873242378235 0.3692515790462494 -0.5300096273422241 0.08194071054458618 1.3619048595428467 0.528527557849884 1.5348589420318604 -0.19240924715995789 -1.0507079362869263 2.329638957977295 -1.0833014249801636 -1.9656376838684082 0.3337489366531372 0.03397811949253082 0.4498240351676941 0.552020788192749 -0.9755933880805969 -0.3421725034713745 0.3198816478252411 -1.5992642641067505 -0.46107620000839233 -0.0861145555973053 -0.11925369501113892 -0.39024534821510315 -0.3800221085548401 0.46973392367362976 -0.4451011121273041 -1.714930534362793 1.5649346113204956 1.3350518941879272 0.6897977590560913 0.3781334161758423 -1.4695779085159302 -0.7159255146980286 -0.9385707974433899 1.09317147731781 -1.7479087114334106 -0.21289248764514923 0.7785436511039734 1.1116617918014526 -0.896395206451416 -2.4725778102874756 -0.9254137277603149 -0.5634937882423401 -0.004149397369474173 2.2388787269592285 1.4011141061782837 -1.032557487487793 0.903932511806488 -0.8307525515556335 -0.6285864114761353 -0.4509011209011078 0.05025475472211838 0.7543314099311829 0.6568186283111572 0.3170674741268158 0.05187482386827469 2.4644241333007812 -0.20638766884803772 1.1982616186141968 -1.2032461166381836 -1.0083909034729004 -0.06981489062309265 0.290088415145874 0.5628925561904907 -0.14128614962100983 0.7323856949806213 -1.5770241022109985 -1.9768704175949097 1.0473345518112183 -0.1917247623205185 0.17087630927562714 0.2986747920513153 0.8904651999473572 0.972350537776947 -0.8032081723213196 -1.8163485527038574 -0.6339073181152344 0.4565947651863098 0.14116917550563812 -0.6467998027801514 0.556065559387207 -0.9031473398208618 0.8907730579376221 -0.4722999036312103 0.17481140792369843 0.853182852268219 2.2740225791931152 2.035998821258545 -1.1223235130310059 2.0341637134552 -1.2988542318344116 1.2947795391082764 -0.9833492040634155 -0.36994409561157227 0.9325292110443115 -0.8127011060714722 -0.7772939205169678 -1.5262020826339722 0.8405492901802063 1.3375804424285889 
vec22 -0.5361270904541016 0.9505051970481873 -1.2527518272399902 0.6023605465888977 -0.4469311237335205 -0.0686861202120781 1.9152562618255615 -0.8225588202476501 -0.9208248257637024 -0.2557709515094757 0.35479456186294556 -0.48560085892677307 0.17017434537410736 -0.1286327987909317 -1.169608473777771 1.1512837409973145 -0.692622721195221 -0.2040645331144333 1.8529963493347168 -1.0973562002182007 0.00897541269659996 0.30374181270599365 0.7784583568572998 -0.021861553192138672 -1.787842035293579 0.6798505187034607 -0.0044208853505551815 -0.19371823966503143 0.03391621261835098 -0.489300012588501 0.24426978826522827 -1.226289987564087 -0.3250768780708313 0.766586422920227 1.477738857269287 1.1413943767547607 0.7533964514732361 0.27533578872680664 0.8675069212913513 1.666102409362793 0.854525625705719 -1.010087251663208 -0.6393035650253296 1.2776901721954346 -1.3745704889297485 -0.6516908407211304 -1.0685189962387085 -0.12499689310789108 0.2508354187011719 2.4682486057281494 -0.5856879353523254 0.007209295406937599 -0.25015342235565186 -1.4403643608093262 -0.5569083094596863 0.5523949265480042 -0.4159390926361084 1.4099456071853638 1.1515281200408936 0.7786444425582886 -1.0779060125350952 0.6233094930648804 -0.2087429165840149 -0.5405223965644836 -0.9542601704597473 -0.3897112011909485 -0.8310902118682861 0.8746706247329712 -1.066001534461975 -0.3972753882408142 1.0840657949447632 -1.849589467048645 1.0626811981201172 -0.9652398824691772 -0.6716000437736511 0.019634725525975227 0.35023418068885803 1.6795951128005981 -0.131153404712677 -0.3321549594402313 0.5071868300437927 -0.2324713170528412 -1.8190566301345825 -2.172006607055664 0.11428312212228775 1.3505316972732544 -1.03369140625 1.422303318977356 -0.9984765648841858 0.20994919538497925 -0.32840073108673096 -0.37131011486053467 -1.424670696258545 -0.6471856832504272 -0.9128789305686951 -0.5348894596099854 1.4848159551620483 0.047389935702085495 0.5059192180633545 -0.29637473821640015 0.32269924879074097 -0.48813575506210327 -0.029977139085531235 1.3361643552780151 1.6148532629013062 0.830933153629303 -1.1006771326065063 -1.2249605655670166 2.2294816970825195 -0.20072486996650696 -1.6107299327850342 -0.2830713391304016 0.10594839602708817 0.6238166689872742 0.8985854387283325 -0.34083980321884155 -0.8091576099395752 1.0561844110488892 -1.6963495016098022 -0.27508068084716797 -0.18025104701519012 -0.12389077991247177 -0.6633265614509583 -0.5766568779945374 -0.2504386007785797 -1.0013786554336548 -1.579621434211731 1.3361186981201172 1.9924616813659668 1.3499889373779297 -0.29243940114974976 -1.9331145286560059 -0.14989064633846283 -0.50257408618927 1.2789939641952515 -1.047011137008667 -0.11652371287345886 1.6943942308425903 0.8218404054641724 -0.8070536255836487 -2.818964719772339 -0.5941067337989807 -0.7258691191673279 0.5672382116317749 1.6472138166427612 0.5059146881103516 -0.6160175204277039 1.1003161668777466 -0.16957412660121918 -1.229313611984253 -0.2778187692165375 -0.19367806613445282 0.9115961790084839 0.8391813039779663 1.0301594734191895 0.45098575949668884 1.9050500392913818 0.3839532136917114 0.6438924670219421 -0.5639272928237915 -0.6331388354301453 -0.16626422107219696 0.22703754901885986 0.3740333914756775 0.0117154810577631 0.41872596740722656 -1.3710476160049438 -1.9211944341659546 1.2833342552185059 0.2136041522026062 0.7168700695037842 0.2874564826488495 1.1835917234420776 1.0000616312026978 -0.7581850290298462 -2.4178876876831055 -0.9330838918685913 1.1592191457748413 0.08958474546670914 -0.41749322414398193 0.9264583587646484 -0.7413540482521057 0.5972200632095337 -0.5128776431083679 0.7137747406959534 0.8254997134208679 3.2452800273895264 1.7224485874176025 -1.484641432762146 1.7921226024627686 -0.5739789605140686 0.9863490462303162 -0.8622578978538513 -0.09275977313518524 0.5243421792984009 -1.0323861837387085 -0.8809296488761902 -0.652426540851593 0.6558208465576172 1.2606812715530396 
vec23 -0.4026550352573395 1.4267627000808716 -1.4806160926818848 1.2976512908935547 -0.6930999755859375 -0.21085166931152344 1.9607008695602417 -0.01989976316690445 -1.2559502124786377 -1.0332378149032593 -0.11442317813634872 -0.5242398977279663 0.2130560427904129 -0.3545975089073181 -1.696255087852478 0.7889556288719177 -1.0085209608078003 -0.886664628982544 1.8794423341751099 -1.2126712799072266 -0.031074879691004753 0.599128246307373 0.2355317771434784 -0.28011611104011536 -1.4001322984695435 0.36754289269447327 -0.46806949377059937 -0.05429057404398918 0.2631557881832123 -0.5755138397216797 0.6435611844062805 -1.4885649681091309 0.039149489253759384 0.09469228237867355 1.1578710079193115 1.4207265377044678 1.3413769006729126 -0.2450861930847168 0.7082607746124268 1.1314549446105957 0.38043472170829773 0.32168322801589966 -0.5872364044189453 1.8419435024261475 -1.1607356071472168 -0.046122316271066666 -0.8475385904312134 -0.48471900820732117 0.21354535222053528 2.736954689025879 -0.4618677794933319 -0.5565702319145203 -0.37377581000328064 -1.5685173273086548 -0.8375291228294373 0.5936356782913208 -0.9371984601020813 0.8563356995582581 0.9154754281044006 1.045432686805725 -1.2883461713790894 0.9131787419319153 -0.9406730532646179 -0.18819095194339752 -0.8729222416877747 0.08299119770526886 -0.5364370942115784 0.8714845776557922 -0.5055361986160278 -0.8536022305488586 0.33295440673828125 -1.8204032182693481 1.2150695323944092 -1.3183789253234863 -0.1697525531053543 -0.23122788965702057 0.6448776125907898 1.6433695554733276 -0.738178551197052 0.0024073426611721516 0.4321979582309723 -0.6993149518966675 -0.4932081699371338 -1.1932103633880615 -0.4038045108318329 0.7640630006790161 -1.360615849494934 1.3570044040679932 -0.880118727684021 -0.09198358654975891 0.0232946015894413 -0.3888944089412689 -1.9484853744506836 -0.44220268726348877 -1.0321942567825317 -0.601085901260376 1.4175471067428589 -0.6914244294166565 -0.25597867369651794 0.14982792735099792 0.8606759309768677 -0.16098858416080475 -0.2358667552471161 1.0176116228103638 1.0868381261825562 0.6687924861907959 -0.5634225010871887 -1.6337933540344238 1.967894196510315 -0.8863615393638611 -1.4083126783370972 -0.4786297380924225 -0.350371778011322 -0.1834559142589569 1.05690336227417 -1.6551977396011353 -1.00517737865448 1.583256721496582 -1.6863855123519897 -0.9188145399093628 0.05874225124716759 -0.7769923210144043 -0.4586886763572693 -0.4466691017150879 0.3388911485671997 -1.1542352437973022 -2.673462152481079 1.6335523128509521 1.6398050785064697 0.6532817482948303 0.42066389322280884 -0.9079176187515259 0.1361333131790161 -0.4038166403770447 1.387900948524475 -1.7741013765335083 -0.03421885520219803 0.8314997553825378 1.224461555480957 -0.8002326488494873 -2.1964006423950195 -0.52214115858078 -0.05787268280982971 0.967728316783905 1.8755602836608887 1.3468689918518066 -0.9707748293876648 1.0729373693466187 -0.5341550707817078 -0.6593796610832214 -0.47097232937812805 -0.8096980452537537 0.7253562211990356 0.8571111559867859 -0.04944771155714989 -0.004310524556785822 1.7692903280258179 0.20069481432437897 0.7781229615211487 -0.4018612802028656 -0.6331949830055237 -0.3641890287399292 -0.15942201018333435 -0.33607223629951477 0.6802266240119934 0.8983591198921204 -1.3145567178726196 -1.7359302043914795 1.4324933290481567 0.3164790868759155 0.801727831363678 -0.4575032591819763 1.0189459323883057 1.0226103067398071 -1.2958821058273315 -1.701185703277588 -1.3567934036254883 0.6686900854110718 0.01903424970805645 0.41908568143844604 0.8890147805213928 -1.628218650817871 0.7047302722930908 -0.34411129355430603 0.4831254780292511 0.5047985911369324 2.431520462036133 1.6023998260498047 -0.7420893311500549 2.5774433612823486 -0.8406081199645996 0.9983386397361755 -0.5902875661849976 -0.3879714608192444 0.3970063030719757 -1.0642164945602417 -0.941855251789093 -1.0800436735153198 1.5294930934906006 1.302545189857483 
vec24 -0.8180339336395264 0.6620519161224365 -1.2116692066192627 0.6379169821739197 -0.7461731433868408 0.44303184747695923 1.2686537504196167 -0.8636689186096191 -1.2418583631515503 -0.3442627191543579 -0.20606926083564758 0.31078040599823 -0.1490207314491272 -0.5506809949874878 -1.6710841655731201 1.0307618379592896 -0.8786699175834656 0.12680500745773315 1.6891316175460815 -1.246070146560669 0.15747767686843872 0.36305660009384155 0.2917245328426361 -0.6635735630989075 -1.8231744766235352 0.7396087050437927 0.19380542635917664 -0.2996240556240082 -0.3328307867050171 -0.3102070391178131 0.48776817321777344 -1.118922472000122 -0.7582857608795166 0.20057882368564606 0.423257052898407 1.5530997514724731 0.5199335813522339 -0.7485272288322449 0.5125064253807068 1.5139962434768677 0.8154823184013367 -0.2522452473640442 -0.4691217243671417 1.876236081123352 -2.1652684211730957 -0.10946135967969894 -0.9375215768814087 0.14042718708515167 0.6750948429107666 1.908789873123169 -0.3950868546962738 -0.7295292615890503 -0.21514731645584106 -1.966106653213501 -0.5518448948860168 1.13215172290802 -0.6170026659965515 0.8047476410865784 0.8211849927902222 0.9321712255477905 -0.8408570289611816 0.20506155490875244 -0.5794715881347656 0.08544551581144333 -0.42243921756744385 -0.32682323455810547 -1.9298491477966309 0.9298830628395081 0.11959026008844376 -0.04153713211417198 0.5527333617210388 -1.0470777750015259 1.3002935647964478 -1.4799383878707886 -0.47560712695121765 0.0966028943657875 0.18115520477294922 0.9155616760253906 -0.31327611207962036 -0.5430102944374084 0.7439121603965759 -0.48257768154144287 -1.0513309240341187 -1.3413095474243164 0.32082873582839966 0.8331364393234253 -0.707038938999176 1.5210152864456177 -1.0254526138305664 0.028229905292391777 -0.09885469824075699 -0.25773364305496216 -1.6356374025344849 -1.2502809762954712 -1.082520842552185 -0.6191417574882507 1.1235953569412231 0.1362120360136032 -0.008031879551708698 -0.4457757771015167 0.2957558035850525 -0.6106494665145874 0.1617947220802307 1.2801852226257324 0.7620314359664917 0.9352509379386902 -0.07932917773723602 -0.9199394583702087 1.5215427875518799 -0.7880481481552124 -1.769912600517273 -0.1366932988166809 -0.0662415474653244 0.16762608289718628 1.0326095819473267 -0.46032512187957764 -0.8182294964790344 1.3292055130004883 -2.8139617443084717 -0.08594098687171936 0.126697838306427 -0.8544926047325134 -0.11814521253108978 -0.12840816378593445 0.7934438586235046 -1.1937146186828613 -2.288484573364258 0.6799508333206177 2.3134963512420654 0.7276674509048462 0.34315401315689087 -1.3466283082962036 0.30310070514678955 0.005683742929250002 1.2943671941757202 -1.5853195190429688 -0.524340808391571 1.1707758903503418 1.0460213422775269 -0.8476676344871521 -1.642081618309021 -0.78191077709198 -0.5531742572784424 0.4003548324108124 2.428637742996216 0.14394918084144592 -0.6335938572883606 1.4782567024230957 -0.5827674269676208 -0.9231276512145996 -0.35930246114730835 0.07117055356502533 0.9753382802009583 1.166020393371582 0.3477475643157959 0.04164675623178482 2.0653584003448486 0.5611735582351685 0.9849355816841125 -1.2549982070922852 -1.007960319519043 -0.11603397876024246 -0.15436823666095734 0.07449713349342346 0.4683086574077606 0.35601475834846497 -1.4813168048858643 -1.7196625471115112 1.700286865234375 -0.42816564440727234 0.14698292315006256 0.4382617771625519 1.3652372360229492 0.8125079870223999 -1.1047232151031494 -1.4114587306976318 -1.0445448160171509 0.34091317653656006 -0.30272865295410156 -0.43402180075645447 1.3445912599563599 -1.1695523262023926 0.9456971287727356 -0.17536552250385284 0.5378347039222717 1.1426454782485962 2.6773178577423096 1.6551669836044312 -0.781029999256134 1.5589419603347778 -0.22518523037433624 1.272523283958435 -0.6479435563087463 -0.24808132648468018 0.39113128185272217 -1.2690584659576416 -1.13541841506958 -1.190737009048462 1.323716640472412 0.9976996779441833 
