vec0 0.009458898566663265 2.428990602493286 0.5332038402557373 -0.12303917855024338 -0.7084925770759583 1.6738488674163818 -0.24779556691646576 0.6451642513275146 -0.5626662969589233 -0.33494216203689575 0.7301350831985474 -0.7394692897796631 -0.43144479393959045 -0.179759219288826 0.8679019808769226 -0.4953887462615967 0.8924286365509033 -0.07450976967811584 0.49562546610832214 -0.36108458042144775 0.4820064902305603 -0.48026710748672485 -0.21453693509101868 0.7489060759544373 -0.1645067036151886 -0.8749352097511292 1.071466326713562 0.36304593086242676 1.4446994066238403 -0.2284124493598938 0.16951283812522888 -2.5936858654022217 -0.5012253522872925 0.2140638381242752 -0.27992701530456543 -1.0776429176330566 0.6443641185760498 -1.257121205329895 0.2835077941417694 0.8245372772216797 0.25312548875808716 -1.0105639696121216 0.0793694481253624 1.214078664779663 -0.1895458847284317 2.7026994228363037 0.07927900552749634 -0.801522433757782 1.0014011859893799 -0.48559027910232544 0.5634912252426147 0.823157787322998 -0.2477332353591919 -0.6195088028907776 -2.224954605102539 -0.07349459081888199 0.5061452388763428 -0.09718681871891022 0.04542994126677513 -0.0719493106007576 -0.6559576392173767 1.0690094232559204 -0.4271799325942993 0.13024578988552094 0.3218638300895691 -0.11424118280410767 -0.38225165009498596 1.1987251043319702 -1.6412814855575562 -0.9490084052085876 0.08185841143131256 0.7773517370223999 -0.42142656445503235 0.420709490776062 -1.4371885061264038 0.30233922600746155 -0.9357777833938599 -0.8123297691345215 -1.308923363685608 0.9213355779647827 -0.2295929342508316 -1.1106927394866943 1.7717710733413696 -0.5188701152801514 -1.041277289390564 0.8324190378189087 -0.18465790152549744 0.5838252902030945 1.9830578565597534 -0.6427111029624939 0.12875248491764069 -0.14539490640163422 -0.3798249661922455 0.40839892625808716 -0.3151906132698059 0.6228493452072144 -0.42837172746658325 1.0905711650848389 -0.7818703651428223 -0.1332055777311325 -1.2264494895935059 0.962364137172699 0.42366117238998413 0.09657619893550873 0.3642391264438629 0.9731404781341553 1.5641838312149048 -0.8670682907104492 -0.27583613991737366 -1.3836463689804077 -0.7579343318939209 -1.162074089050293 -1.116736888885498 0.0832180455327034 -2.3916127681732178 1.717490315437317 -0.8902257680892944 -0.8370366096496582 1.1538835763931274 0.06319670379161835 -0.22826917469501495 -1.8082709312438965 0.04713953658938408 0.668038010597229 -1.1717801094055176 1.253046989440918 0.8220266103744507 0.2078978270292282 -0.6242253184318542 -1.4530667066574097 -0.7907474040985107 0.3422717750072479 -0.4551631510257721 -0.6817165613174438 1.1168805360794067 -0.5524901747703552 1.4922523498535156 -2.324111223220825 0.7539944648742676 0.8724654316902161 1.1241689920425415 -1.447911024093628 -0.5974642038345337 0.7952672243118286 -1.3856369256973267 -0.2004057615995407 0.6626266241073608 -1.6379870176315308 0.8700699210166931 0.5934497117996216 -0.6342340707778931 -0.817564070224762 -1.0707957744598389 -1.6449333429336548 -0.10924419015645981 0.7621629238128662 -0.9529116749763489 1.7019846439361572 -0.2053287774324417 -1.4383974075317383 -0.9233562350273132 -0.37981921434402466 0.5362160205841064 0.4837942123413086 -0.14743846654891968 -1.6754084825515747 -0.3571717143058777 0.9436092972755432 0.959469735622406 1.2295973300933838 -1.0667879581451416 -0.9006325602531433 -0.8726181983947754 -0.26025739312171936 0.5463507175445557 0.6269170045852661 -1.3148142099380493 0.5716857314109802 -0.9646691679954529 0.5681332349777222 -0.2029534876346588 -0.4150453209877014 0.625250518321991 -0.8651436567306519 -0.4256666898727417 -0.12489217519760132 0.10924255847930908 -1.4653122425079346 0.617859959602356 0.21351240575313568 -0.4193115532398224 0.5188856720924377 -0.6281627416610718 0.01724999025464058 -0.9787738919258118 -0.16642402112483978 1.0050125122070312 -0.04627372324466705 -2.3667731285095215 -0.8677623271942139 
vec1 0.9031788110733032 2.139988660812378 1.346032977104187 -0.434557169675827 0.13575834035873413 -0.2890607714653015 0.768662691116333 1.8780863285064697 -0.5148928165435791 1.3427402973175049 1.2962749004364014 1.19766104221344 0.5998998284339905 -0.15002062916755676 1.1174551248550415 0.733660101890564 1.3514113426208496 0.061061348766088486 1.2711414098739624 0.6428715586662292 -0.10928726196289062 0.34411105513572693 -1.9273960590362549 0.5290160179138184 -1.522062063217163 -1.1570929288864136 0.13042055070400238 0.08530328422784805 1.8270294666290283 -0.7557997703552246 0.6437409520149231 -0.3645760416984558 -0.9313679933547974 -0.5362462997436523 0.10227112472057343 -0.6944542527198792 0.6524323225021362 -1.67525315284729 -0.5858964920043945 -0.8193774819374084 0.1356818974018097 -1.9498642683029175 0.5022090673446655 -0.18417955935001373 0.47471269965171814 1.3485411405563354 0.9558795690536499 0.8480199575424194 -0.5743219256401062 -0.3865694999694824 0.5607497692108154 0.044275444000959396 -0.9430521726608276 0.28461435437202454 0.10784023255109787 0.7268581986427307 -2.525299310684204 0.867339015007019 -0.7199116945266724 1.339526653289795 0.5801058411598206 -0.6728222966194153 1.146832823753357 0.16212444007396698 -2.353563070297241 -0.29726508259773254 -0.10977177321910858 -0.32559579610824585 0.26063716411590576 -0.8905724883079529 1.2544915676116943 1.8942654132843018 0.012609892524778843 -0.5658337473869324 -0.19975601136684418 -0.4525569975376129 -1.4263012409210205 0.46754732728004456 -1.7638185024261475 2.36812162399292 -0.25488343834877014 -1.0265183448791504 1.7990986108779907 0.5214242935180664 0.8999760746955872 0.732715368270874 0.5816065669059753 0.8323734998703003 -0.08858741074800491 -0.4819324016571045 -2.410219430923462 -1.0606307983398438 0.6250951290130615 -0.8236518502235413 -0.14290893077850342 0.13126741349697113 -0.1063704565167427 1.1033841371536255 -0.7475342750549316 1.3147541284561157 -1.4877710342407227 0.4723372459411621 0.13640764355659485 -0.21407142281532288 0.16262459754943848 1.4916325807571411 0.8898237943649292 -0.6709135174751282 -0.09378227591514587 -0.23515981435775757 0.4885667562484741 -0.9534804224967957 -0.9237656593322754 0.038401734083890915 -1.899020791053772 -0.7722150087356567 0.10408160090446472 0.79483562707901 1.812868595123291 0.3035614490509033 -0.5460246801376343 -0.7917923927307129 -0.4890764355659485 -1.610571026802063 -1.9078319072723389 1.7557759284973145 0.14247123897075653 -0.15467554330825806 -0.7094088196754456 -1.66010320186615 -0.3279646337032318 0.011584131047129631 -1.5280617475509644 -0.6496815085411072 0.6169202923774719 0.8325062990188599 -0.015017582103610039 -0.3321467638015747 2.1913044452667236 0.055513154715299606 0.21623122692108154 -1.6956205368041992 0.10453519970178604 0.8586426973342896 -0.854170560836792 -1.8420456647872925 1.3657559156417847 0.35638177394866943 1.2208969593048096 1.2108569145202637 -1.2590112686157227 -0.08884812891483307 -0.8947240710258484 0.1944722682237625 0.06318598240613937 0.6887089610099792 -1.2384580373764038 2.1750526428222656 -0.7718252539634705 -0.33887097239494324 1.010468602180481 -0.19571490585803986 -0.6803221702575684 -0.22975432872772217 -1.0532190799713135 -0.38563159108161926 -0.03612932935357094 0.4505903422832489 0.7184706330299377 1.0934019088745117 -2.023926019668579 1.3167566061019897 -0.9146594405174255 0.5392534732818604 -0.3399912118911743 0.7610886693000793 0.5016624927520752 -0.061913665384054184 -0.9827240705490112 0.9755464792251587 -1.5046212673187256 0.055086784064769745 -1.0960103273391724 0.23787309229373932 -0.7311228513717651 0.09148494154214859 0.7985578179359436 -0.6892442107200623 0.5080713033676147 0.9339225888252258 1.7693384885787964 -1.0003162622451782 0.7199424505233765 -0.7766745686531067 -0.2933896780014038 -1.0623003244400024 -0.14554156363010406 0.2602287530899048 -0.925616443157196 1.2517454624176025 
vec2 0.18325459957122803 2.835495948791504 0.007488482631742954 -0.9517775177955627 -0.8419838547706604 0.3968765139579773 0.7760857343673706 0.8587116003036499 -1.0161097049713135 1.2391914129257202 0.7261030077934265 -0.5292624831199646 0.07441096752882004 -0.29269129037857056 -0.1853991597890854 -0.10978163778781891 0.2792855501174927 0.4963255822658539 3.0668222904205322 0.9575130939483643 0.2583853602409363 -0.9573142528533936 -0.1675073355436325 0.7787829637527466 -0.8620495796203613 -1.4747569561004639 -0.3479239046573639 0.37908777594566345 1.5443530082702637 -0.4626563489437103 0.09004751592874527 0.006504065822809935 -0.7624674439430237 -0.019340727478265762 0.7558053731918335 0.15275992453098297 -0.1145167276263237 -0.370282918214798 0.40521472692489624 0.1972351372241974 -0.33878251910209656 -1.8723044395446777 -0.928007185459137 1.879736065864563 2.2105612754821777 1.3667312860488892 -0.39715775847435 0.3222656548023224 -0.060642365366220474 -1.065625786781311 1.042410135269165 0.043892066925764084 -0.3397899568080902 -1.1576615571975708 -1.1828804016113281 -0.11103413999080658 -0.7241957783699036 0.8249690532684326 0.20409992337226868 1.1647573709487915 0.9198068380355835 1.4587754011154175 -0.5174721479415894 -0.7314795255661011 -1.0858250856399536 0.2668200433254242 -0.8519529700279236 -0.819018542766571 -0.15378664433956146 -1.0329713821411133 -1.05963933467865 0.8505212664604187 0.6339826583862305 -0.05831758677959442 -0.18424713611602783 -0.7778703570365906 -1.47526216506958 0.6407312154769897 0.5354565978050232 2.2161381244659424 -1.032025933265686 -0.986240565776825 0.4597591459751129 -1.310167908668518 0.024783501401543617 1.7880916595458984 -0.6944171786308289 0.7878968715667725 -0.23224075138568878 -0.5400804877281189 -0.32176074385643005 -0.40885403752326965 0.8913785815238953 1.006983757019043 0.0018853532383218408 0.22302275896072388 -1.4087104797363281 0.9395490884780884 -0.36214011907577515 0.9247473478317261 -1.578211784362793 0.09511979669332504 1.4863429069519043 -1.182299017906189 -1.407901406288147 0.9531920552253723 1.5091584920883179 -1.5665792226791382 0.5537351965904236 -0.5855066180229187 1.238606572151184 -0.7959514260292053 -1.772923469543457 -0.46444281935691833 -0.9590810537338257 1.1119322776794434 0.5298911929130554 -0.6606147289276123 1.0545709133148193 -0.1754535287618637 -0.8169180750846863 -2.3055315017700195 0.5931324362754822 -0.49839985370635986 -0.00931297242641449 2.4424691200256348 -0.2189033478498459 -0.4884703457355499 0.37521618604660034 -1.193274974822998 -2.1045379638671875 -0.5113637447357178 -0.6605712175369263 -0.0002344117674510926 0.4619195759296417 0.542569637298584 -0.04267740994691849 -0.6036220788955688 -0.7684786915779114 -0.5819087028503418 0.46916916966438293 -0.9746025204658508 -1.6180957555770874 0.9339868426322937 -1.0847982168197632 -0.47511401772499084 1.9952133893966675 -0.16235069930553436 0.7376173138618469 -0.0014227245701476932 -0.7909299731254578 -0.26658451557159424 -1.402159333229065 -0.7926898002624512 0.7227480411529541 0.8776340484619141 -0.6514405012130737 0.86504065990448 0.3124690651893616 -1.4191815853118896 -0.21616056561470032 0.5362033843994141 -0.5723411440849304 -0.5786481499671936 -0.7196412682533264 -1.0231897830963135 2.0466020107269287 0.5872184634208679 1.6736223697662354 1.904921293258667 -0.7494522929191589 0.6751236915588379 -1.3846417665481567 -2.435335159301758 0.6832655072212219 0.5057691335678101 -0.22122587263584137 0.5150814056396484 -2.354067802429199 0.824183464050293 -0.5841882824897766 -0.7004666328430176 0.5386042594909668 -0.5401312708854675 -0.1417721062898636 -1.1901742219924927 0.0936170294880867 -1.165099859237671 -1.1338059902191162 -0.08485912531614304 -0.28313496708869934 0.17935693264007568 1.8669253587722778 -0.43454959988594055 1.5155103206634521 -1.7583649158477783 -0.5396345853805542 -0.08780817687511444 -0.5321529507637024 -0.7041931748390198 
vec3 -0.6395193934440613 1.3863966464996338 0.591307520866394 -0.9572986960411072 -0.7761857509613037 0.28554341197013855 -0.26693132519721985 0.2696665823459625 -1.0810458660125732 0.08739940077066422 1.1955291032791138 0.13989748060703278 -1.662419080734253 0.1974211037158966 1.420725703239441 0.2107853889465332 1.1316019296646118 0.5245407819747925 1.3701205253601074 -0.8756105303764343 0.09729933738708496 0.6982216835021973 -0.24328236281871796 1.0799903869628906 0.2904891073703766 -0.05164876580238342 -0.2266843020915985 -0.5987046360969543 0.9375917315483093 0.1686476320028305 0.07496629655361176 -1.2376731634140015 -0.9941332340240479 1.2358745336532593 -0.5042914152145386 -0.12281397730112076 0.11387524753808975 -1.2680286169052124 -0.5258662700653076 0.46056437492370605 1.7080172300338745 -1.067291021347046 0.9433789849281311 1.1249703168869019 1.1259191036224365 2.088440179824829 -0.5581793785095215 0.808812141418457 -0.044314343482255936 -0.4771867096424103 2.0184011459350586 0.8146206140518188 -0.143342062830925 0.5501269102096558 -0.15475673973560333 0.7121133804321289 -1.4443984031677246 2.35801362991333 -0.5624723434448242 1.6712830066680908 -1.2150013446807861 0.31105726957321167 1.969835877418518 1.522539734840393 -0.24448451399803162 -0.47063180804252625 -1.1692677736282349 0.7964844107627869 -2.305382013320923 -0.601458728313446 0.8209859132766724 0.5331131815910339 -0.6291013360023499 -0.6936801671981812 0.7577199935913086 0.438524454832077 -0.16701628267765045 0.08965248614549637 -0.5969767570495605 0.5316155552864075 -0.5228080153465271 0.9805197715759277 3.0059187412261963 0.041139595210552216 -0.5707611441612244 -0.5287672281265259 -0.23830850422382355 0.19625593721866608 1.320026159286499 -1.002186894416809 -0.5206509232521057 0.732115626335144 1.6928638219833374 0.0673242062330246 0.30144840478897095 0.959204912185669 -0.7249975800514221 0.1386411339044571 -1.049073338508606 0.09615820646286011 -1.1592304706573486 -0.09964808076620102 1.487728238105774 -0.2205018401145935 0.11818594485521317 0.5647448897361755 2.279768228530884 0.3347426652908325 0.19076235592365265 -0.734135627746582 1.5166022777557373 -1.3648326396942139 0.23565302789211273 -0.01886247657239437 -2.132660388946533 2.1237494945526123 -0.47881582379341125 -0.603607714176178 -0.30578839778900146 1.1912856101989746 1.6184314489364624 -2.39579701423645 0.8556639552116394 -0.14521338045597076 -0.5031586289405823 1.4511100053787231 0.02107466384768486 0.38400769233703613 -0.5152087807655334 -0.4210231304168701 -0.3020414113998413 1.4579342603683472 -0.2622668445110321 -0.6695987582206726 0.7843342423439026 0.8199761509895325 -0.9207211136817932 -1.664185643196106 1.165367841720581 0.9016667604446411 0.4772967994213104 -0.68501216173172 -0.2836683690547943 0.7687421441078186 -0.24593432247638702 -1.259637713432312 2.068613290786743 0.6292086243629456 0.9092305898666382 -0.273533433675766 -0.07786832749843597 -0.27703648805618286 0.42965519428253174 -0.14192603528499603 0.5921587347984314 0.41160210967063904 -0.9022286534309387 1.1807669401168823 1.2999151945114136 -1.4750561714172363 0.37165260314941406 -0.8636751770973206 -0.22504985332489014 2.1447579860687256 -0.41881516575813293 0.35638847947120667 2.073636293411255 0.8955851197242737 1.54054594039917 0.23785190284252167 -0.8921104073524475 1.8974117040634155 0.6113876700401306 -0.09999694675207138 0.8093276023864746 0.8726771473884583 -0.2821691036224365 0.8084276914596558 -1.6712262630462646 0.1126328632235527 -0.9542018175125122 0.740153968334198 -0.3869650065898895 -0.5097289681434631 -0.33483096957206726 1.0261059999465942 0.8081552386283875 -0.7730270028114319 -0.33421990275382996 0.9411824345588684 -0.10941197723150253 -0.7377927303314209 0.8857644200325012 0.9381309151649475 -0.2991317808628082 0.1605542004108429 1.2990058660507202 0.5823286771774292 -2.1097307205200195 0.24939711391925812 
vec4 -0.6510921120643616 2.7381818294525146 -1.009202241897583 -2.096266984939575 -0.741896390914917 2.0078861713409424 -0.8641428351402283 0.7225280404090881 -1.519743800163269 0.9755699634552002 -0.6811480522155762 -1.2415199279785156 0.09882570803165436 -1.4591795206069946 0.45275330543518066 -0.43866628408432007 1.8649743795394897 1.655426025390625 1.1682292222976685 -0.7530924677848816 -0.827490508556366 1.551147222518921 0.2269066870212555 1.8785340785980225 -0.18911033868789673 0.013678916729986668 0.03972141444683075 1.147837519645691 0.9882790446281433 0.4131167232990265 -0.6002327799797058 0.43936124444007874 -1.3153196573257446 0.4339812099933624 0.5784498453140259 -1.3332850933074951 1.2555477619171143 -0.5183928608894348 -1.537808895111084 -0.7842669486999512 0.6092990636825562 -0.023731689900159836 -0.11286831647157669 1.107247233390808 1.084973931312561 1.532724380493164 -0.02575315348803997 -0.7927699685096741 0.3963819146156311 0.3838951587677002 0.9172188639640808 0.7742152214050293 0.2055191546678543 0.3044103980064392 -0.3867771029472351 -0.2743987441062927 -1.4303700923919678 0.6512813568115234 -1.3895765542984009 0.11719092726707458 0.40616387128829956 0.5955037474632263 0.9849397540092468 0.16358418762683868 -1.8245664834976196 -0.062055353075265884 -0.3784087300300598 1.1304211616516113 -2.8515594005584717 -0.037890661507844925 0.264230877161026 1.5986229181289673 -0.024551209062337875 -0.09686283022165298 0.47030895948410034 1.5771088600158691 -0.38420096039772034 -3.0540413856506348 -1.5348881483078003 1.695533037185669 -1.8532226085662842 0.3120553195476532 0.4869653880596161 0.01634504832327366 0.1158059611916542 0.4032776951789856 -0.08218541741371155 0.5992910861968994 1.6682589054107666 0.4732794463634491 -0.9387261867523193 -0.937303364276886 -0.34926706552505493 -0.5813553333282471 -0.46248164772987366 0.1162804439663887 -0.9024170637130737 -0.4644363820552826 -1.6167583465576172 1.944919466972351 -2.0007035732269287 1.0378001928329468 -0.38052815198898315 -1.1045448780059814 -0.2020401507616043 0.4824856221675873 1.9243518114089966 -0.42644402384757996 0.828952431678772 -0.13966362178325653 0.7070587873458862 -1.4706095457077026 0.1047510877251625 -0.26805534958839417 -1.421830177307129 1.389227271080017 -1.6255953311920166 -0.3314493000507355 -0.15847407281398773 0.37938210368156433 -0.31527987122535706 -2.1014416217803955 -0.5535106062889099 -0.027056831866502762 -0.9779874086380005 0.769680917263031 1.4593961238861084 0.4711305797100067 -0.30987420678138733 -1.4414047002792358 -1.131378173828125 0.8481752276420593 -0.7420850396156311 0.2431614100933075 0.7338227033615112 1.271865963935852 0.2599007785320282 -1.2029845714569092 0.4213552176952362 0.19888639450073242 0.9614620804786682 -0.6031273603439331 -1.5464521646499634 -0.07565850764513016 0.08667705208063126 -0.36635395884513855 1.6076910495758057 0.20925402641296387 0.9823283553123474 0.0360080860555172 -0.2021629959344864 -1.355928659439087 -0.42717742919921875 -0.7230579853057861 0.07416430860757828 1.7141865491867065 -1.0407308340072632 0.5373552441596985 0.2372036725282669 -0.6496938467025757 -0.8016464710235596 0.42553168535232544 -0.8479844331741333 -1.719719648361206 0.3454364836215973 -0.18363505601882935 1.3403639793395996 0.11392397433519363 2.3697566986083984 0.6012796759605408 -1.1136400699615479 0.12940408289432526 -1.8422002792358398 -0.2308841049671173 0.46968159079551697 -0.5005564093589783 -1.041058897972107 -0.01032552495598793 -0.2174311727285385 0.836337685585022 -0.32073694467544556 -1.5753543376922607 -0.6544197797775269 -0.6407127380371094 -0.12005410343408585 -0.24789497256278992 -0.08430947363376617 -0.3485557436943054 -1.202675700187683 0.5341819524765015 1.0480618476867676 -0.9245923757553101 -0.5184926986694336 -0.18648090958595276 0.9282569885253906 -0.8550764322280884 0.07293961197137833 0.6477526426315308 -1.7693922519683838 -2.0128419399261475 
vec5 1.1098673343658447 2.1083171367645264 1.7120331525802612 -0.23220600187778473 0.721479594707489 0.7821137309074402 0.17230071127414703 0.3929780125617981 -2.4925453662872314 0.69331955909729 0.1425439566373825 -0.05096547678112984 -0.38188791275024414 0.9240581393241882 1.5302202701568604 0.2769145369529724 1.6245779991149902 0.6379902958869934 1.82084059715271 -0.6644114255905151 0.1695559322834015 -0.0686025321483612 -0.23825529217720032 1.193844199180603 -1.5468157529830933 -0.7622157335281372 0.8270423412322998 -0.25032997131347656 2.3093461990356445 -1.6780675649642944 0.014388738200068474 -1.3276925086975098 -0.7670119404792786 0.1942150890827179 0.3521789610385895 -0.2676730751991272 -0.050669506192207336 -1.5534783601760864 -1.436409831047058 -0.6605489253997803 0.18836987018585205 -0.15679791569709778 0.6548617482185364 0.6874428987503052 0.779221773147583 2.7393786907196045 0.9600500464439392 0.9966055154800415 -0.4004570543766022 -1.3135960102081299 1.917314052581787 0.7641690969467163 0.10572124272584915 0.5791409611701965 -1.3408504724502563 0.8945908546447754 -0.0892292931675911 1.5654653310775757 -0.6877090930938721 0.24880139529705048 0.5382855534553528 0.0554128997027874 0.1346704661846161 -1.3057585954666138 0.34584009647369385 -1.735446810722351 0.09331770241260529 1.3608261346817017 -0.7876130938529968 -1.135136604309082 0.8505734205245972 0.6389464139938354 0.5921030640602112 -0.056081779301166534 -0.05729759484529495 -0.29725897312164307 0.192003071308136 0.538410484790802 -0.5930625200271606 1.4829065799713135 -0.9384834170341492 1.2660635709762573 1.028597354888916 0.48718583583831787 -0.13511620461940765 -2.194812059402466 0.24949029088020325 0.22463031113147736 1.8102803230285645 -1.5298445224761963 1.1870853900909424 1.2570008039474487 1.5797629356384277 -0.08244869858026505 -0.5034580230712891 1.4273223876953125 -0.008856987580657005 0.6574238538742065 -0.36114150285720825 -0.04854259639978409 -0.15649515390396118 1.0511448383331299 0.11622560024261475 -1.4806715250015259 0.11049064248800278 1.9512543678283691 1.7901560068130493 -0.060072850435972214 0.2473718672990799 -1.1578551530838013 -0.3451403081417084 -1.458912968635559 0.3380616307258606 -0.0774698555469513 -1.6305500268936157 -0.5089182257652283 -0.9636788368225098 0.26805540919303894 1.9822075366973877 1.0599421262741089 0.3560154139995575 -0.6328047513961792 -0.8841238617897034 0.7953181266784668 -0.20446738600730896 1.5668939352035522 1.1226915121078491 -0.2521146833896637 0.1582157015800476 -0.27394899725914 -0.3666301965713501 -0.3305702209472656 -0.7728628516197205 -0.11171379685401917 1.2648327350616455 1.4452036619186401 -0.5610716342926025 -0.522416889667511 2.638699769973755 0.7818532586097717 0.8757701516151428 -0.2289775162935257 -1.0529756546020508 -0.4457418620586395 -2.0662031173706055 0.6529520153999329 1.5315080881118774 -0.05364416539669037 1.3432844877243042 0.8832782506942749 -1.4306230545043945 -1.491683006286621 -0.9353275895118713 -0.34284695982933044 2.250617027282715 0.9134379625320435 -0.9199181795120239 1.8241878747940063 0.8299382925033569 -0.4519381523132324 -0.11013565212488174 0.06671027094125748 0.43984946608543396 0.6922876238822937 -0.6441389918327332 -0.39211446046829224 1.179929494857788 2.350634813308716 1.1019262075424194 0.5057467222213745 -1.8331575393676758 0.7734377384185791 -1.3063983917236328 -0.7533330917358398 -1.0286729335784912 0.42932406067848206 -0.8510738015174866 0.8326818346977234 -0.5227965712547302 1.3160758018493652 -0.13145236670970917 0.0049886987544596195 -0.22879086434841156 -0.010279339738190174 -0.4481075406074524 0.5457040071487427 1.4880683422088623 -0.8174610733985901 0.09748729318380356 1.520310878753662 0.45976683497428894 0.4060331881046295 0.17456097900867462 -0.15505781769752502 -0.9035452008247375 -2.033595323562622 -0.06865627318620682 0.3443496823310852 0.14071352779865265 -0.7118421196937561 
vec6 0.46059924364089966 1.8510626554489136 0.816081702709198 -0.9944297671318054 0.4178227186203003 0.45696982741355896 -0.43583324551582336 -0.058431368321180344 -0.36074623465538025 0.42445555329322815 -0.2871747612953186 0.28735122084617615 0.6638082265853882 -0.3811188042163849 0.9602348208427429 -0.762143611907959 1.0083036422729492 0.2605515718460083 1.1062874794006348 -0.43736860156059265 -0.8579650521278381 -0.23429088294506073 -0.2434420883655548 1.113181710243225 0.024920737370848656 -0.9083880186080933 -0.17976261675357819 0.7643016576766968 1.1986626386642456 -1.4834741353988647 0.36351749300956726 -0.21438218653202057 -0.5960983633995056 2.2519712448120117 -0.816440999507904 0.1749710738658905 0.3504240810871124 -2.736037254333496 -0.18382665514945984 -0.5824659466743469 -0.15965403616428375 0.10187871754169464 -0.7298029065132141 0.015248138457536697 1.3964567184448242 1.9164284467697144 0.23517575860023499 1.4766346216201782 -1.0409518480300903 -0.06855181604623795 2.2498741149902344 1.8076624870300293 1.2161071300506592 0.09082787483930588 -1.2259482145309448 1.0637258291244507 -0.25855153799057007 2.1831791400909424 -1.1443413496017456 0.6187832355499268 -1.5416256189346313 0.7322709560394287 0.6024826765060425 -0.8583092093467712 -0.9776298403739929 -0.5452228784561157 0.685566782951355 1.4206408262252808 -0.7143387198448181 0.3289839029312134 -0.007575676776468754 1.5268195867538452 0.26753783226013184 -0.15427836775779724 -0.8490293622016907 -0.773073136806488 -0.4634581208229065 0.20619918406009674 -0.8379162549972534 -0.3515479862689972 -0.0455658845603466 0.11872733384370804 0.5270663499832153 0.09969710558652878 0.5751860737800598 -0.13887858390808105 0.02054549939930439 0.4079250693321228 0.14196383953094482 -0.6486703157424927 -0.445974200963974 -1.5790246725082397 -0.3102068603038788 -0.4897269904613495 -1.254034161567688 -0.3235638439655304 -1.3698149919509888 0.005321154370903969 -0.5548415184020996 0.10878652334213257 -1.168695330619812 -0.5350742340087891 0.6288689970970154 -0.18792690336704254 -1.3366199731826782 0.3944457769393921 0.9688951373100281 -1.2669917345046997 1.0618858337402344 -0.7270034551620483 -0.9650067687034607 -1.5151029825210571 -0.03989439457654953 0.030246544629335403 -1.3308199644088745 1.7144473791122437 0.09595314413309097 0.5665816068649292 0.5633386373519897 -0.15034843981266022 -0.7005414366722107 -1.9586169719696045 1.1865134239196777 -0.2905147671699524 -1.2441179752349854 1.406603455543518 1.7768915891647339 0.6848793625831604 -0.6338075995445251 -1.6515130996704102 -1.5721708536148071 0.3942287266254425 0.497705340385437 0.34504756331443787 -0.26741474866867065 0.37793031334877014 1.0752300024032593 -0.7095704078674316 1.7477425336837769 -0.7851729989051819 0.7756680846214294 -1.436039924621582 -0.08455323427915573 0.6157971620559692 -0.7111630439758301 -1.388039231300354 1.565809726715088 0.5798057317733765 0.4066724479198456 0.5992085337638855 -1.5773435831069946 -0.16126194596290588 -0.7908180356025696 -0.40292441844940186 0.25990357995033264 1.1928081512451172 0.3812538981437683 0.04627799242734909 0.469048410654068 -1.3131881952285767 0.36415690183639526 -1.247058629989624 0.8056129217147827 1.6320805549621582 0.6810838580131531 -0.17260143160820007 2.1740119457244873 0.4799640476703644 1.5653516054153442 1.2422964572906494 -2.3106744289398193 0.014820586889982224 0.9962368011474609 -1.9264358282089233 -0.40655121207237244 1.329160213470459 -0.5826076865196228 1.1572531461715698 0.523823082447052 -0.05523760989308357 0.5273430943489075 0.2349085658788681 -0.9687271118164062 -0.4249635934829712 -0.8799859285354614 0.9609180092811584 0.585613489151001 -0.07563481479883194 -1.1024963855743408 1.604936122894287 0.11975704878568649 -0.9064509272575378 1.007859706878662 -1.4147162437438965 -0.2555975615978241 0.3997821509838104 1.297413945198059 -0.3830457329750061 -0.8870017528533936 -1.2759184837341309 
vec7 -1.1054153442382812 3.5736165046691895 2.603224992752075 -1.0915664434432983 -1.4864542484283447 0.9964151978492737 0.4144858121871948 0.04484005272388458 -0.8810749053955078 0.7410795092582703 -1.0108942985534668 1.2708145380020142 -0.4815140664577484 -1.0420728921890259 0.7150339484214783 0.7608692646026611 0.6018573045730591 0.4399903416633606 0.8350276350975037 0.0910058468580246 -0.6396876573562622 0.6500803232192993 0.9142597913742065 0.9836597442626953 -0.8078282475471497 -0.8626916408538818 0.9940019845962524 0.17111828923225403 2.7276313304901123 -0.272036612033844 0.34441542625427246 -0.47214433550834656 -0.6390812397003174 1.1679898500442505 0.2916167974472046 0.06641099601984024 0.5093374848365784 -0.8032225966453552 -0.8886685967445374 0.5087829232215881 0.19165262579917908 -1.737438678741455 -0.8642200827598572 0.2391836941242218 0.3796307146549225 1.7097628116607666 0.9156441688537598 0.0870332345366478 -0.31401535868644714 -1.894256591796875 0.3300177752971649 0.6593941450119019 0.27353349328041077 -0.24517770111560822 -1.7689870595932007 0.6087539196014404 0.21342182159423828 1.6114227771759033 0.5586254596710205 1.549731731414795 0.6060813665390015 0.48725977540016174 1.3653298616409302 0.5051389336585999 0.4475904703140259 -1.1246675252914429 -1.2236275672912598 2.2944743633270264 -1.2849010229110718 -0.17778970301151276 -0.316964328289032 0.2899816334247589 -0.1576986461877823 -0.23733964562416077 -0.8620728850364685 -0.6119170784950256 -1.4424302577972412 -0.7276870608329773 -1.7536453008651733 1.8073642253875732 -0.4369305968284607 0.5073410272598267 0.9992780685424805 1.4027512073516846 -1.2045409679412842 -0.3232559859752655 -0.6201146245002747 -0.12339556217193604 1.1781692504882812 -0.40616852045059204 -0.6957135796546936 -0.5198537111282349 -0.5153764486312866 0.25185179710388184 -0.43467947840690613 -0.11064227670431137 -0.12045732885599136 1.3825684785842896 -1.151099443435669 0.8205608129501343 -0.4347726106643677 0.13772301375865936 -0.4058356285095215 -0.8172951936721802 0.07797794789075851 0.4082946479320526 -0.17243319749832153 0.11692538857460022 -0.35075488686561584 0.25013676285743713 0.1497955024242401 -1.661267876625061 -0.31469643115997314 0.10285451263189316 -1.4369328022003174 1.8518744707107544 -1.6479060649871826 -0.8117035627365112 0.40539005398750305 0.07273689657449722 -0.12636953592300415 -1.1265597343444824 0.48044824600219727 0.06755827367305756 0.8166394233703613 1.7530282735824585 0.35660508275032043 -0.40777587890625 -0.1746574342250824 -1.0032826662063599 -1.065654993057251 1.019638180732727 0.4062151610851288 0.47619515657424927 0.005139651242643595 1.0105737447738647 -0.7189421653747559 -2.2946345806121826 1.1816720962524414 -0.6682766079902649 0.9083309769630432 -0.1716894805431366 -1.3483859300613403 0.8246709704399109 -1.2929707765579224 -2.091766357421875 -0.013446071185171604 -0.43961721658706665 1.7974122762680054 0.9493536353111267 -1.4045648574829102 -0.45227524638175964 0.18567292392253876 -0.4389089345932007 0.7782835960388184 1.345423698425293 -0.5009099245071411 1.2730923891067505 -0.2766546905040741 -0.7902753949165344 -0.576623797416687 -0.9517167210578918 -0.7087954878807068 1.1759291887283325 0.01947367563843727 -0.5147815346717834 1.2079291343688965 0.46259763836860657 1.2644602060317993 1.2856783866882324 -1.0809780359268188 -0.2866889536380768 -2.1110048294067383 -0.36824795603752136 -0.6488687992095947 2.0097744464874268 -0.8571276068687439 0.012537410482764244 -1.71021568775177 0.43779444694519043 -0.3185195028781891 0.4153844714164734 -0.4659050703048706 -0.5490760207176208 -0.8354878425598145 0.14065200090408325 0.9443933963775635 -1.2425519227981567 1.1287733316421509 0.4684031307697296 1.1756572723388672 -0.15845884382724762 -0.08387978374958038 -0.643457293510437 -0.054046712815761566 -0.5941895842552185 0.22380436956882477 0.8592244982719421 -1.24406898021698 -0.6059713959693909 
vec8 0.1929469257593155 3.1852052211761475 1.8153928518295288 -1.272438406944275 0.1927272230386734 0.3690113127231598 -0.34535303711891174 0.8953558802604675 -0.8681744933128357 0.8748465776443481 -1.5409882068634033 -2.032489538192749 -0.7566320300102234 -1.765960693359375 0.3233276903629303 -1.394187092781067 0.6138774156570435 -1.0332342386245728 1.5980677604675293 -1.294091820716858 -0.10276614874601364 0.1056729108095169 0.28795698285102844 1.2256804704666138 -1.6618527173995972 -1.8825774192810059 0.4905215799808502 0.3555934727191925 0.8808298707008362 -1.0018645524978638 0.394225537776947 -1.5083048343658447 -0.7421534061431885 1.316035270690918 0.17422109842300415 0.651717483997345 2.1204466819763184 -0.5031587481498718 -0.44032853841781616 0.7566587328910828 1.8138703107833862 -1.0744813680648804 -0.10133267939090729 0.31912633776664734 0.04753722995519638 2.1326403617858887 -0.07725630700588226 0.6768808960914612 0.09339626878499985 -0.9564618468284607 0.8713390827178955 -0.6888692378997803 -1.1990360021591187 -0.3043200373649597 -0.971768319606781 0.22753587365150452 -0.8166108727455139 1.726026177406311 -0.04395127296447754 0.5511093139648438 -0.1951155960559845 1.1972023248672485 0.7812678217887878 -1.70989191532135 -1.5735487937927246 -0.9452840089797974 -0.8777533769607544 1.1499660015106201 -0.9683135747909546 -0.9019818902015686 0.10937242954969406 1.1173126697540283 -1.7982956171035767 0.3566631078720093 0.4077564477920532 0.028102047741413116 0.7053828835487366 0.27228933572769165 -0.7658734321594238 1.8200491666793823 -0.5887913107872009 -0.7077640891075134 0.1426776796579361 -0.3274883031845093 0.16869637370109558 1.5388399362564087 2.2842533588409424 0.6527318954467773 -0.4091990888118744 -0.5415498614311218 -0.8635162711143494 -0.4387489855289459 0.01200623344630003 -1.137233853340149 0.2797938287258148 0.9172053933143616 0.315927654504776 1.3458205461502075 -0.5940192341804504 1.0704832077026367 -0.3841046988964081 -0.4124707877635956 0.2201106995344162 -0.3792417645454407 -0.5983796119689941 0.4349863827228546 2.4803709983825684 0.6083593368530273 0.8264690637588501 0.3488599956035614 0.1525912582874298 -1.0284276008605957 -0.00917715672403574 0.775371789932251 -0.49036115407943726 0.36785465478897095 -0.6235285997390747 -0.847640872001648 0.6785553097724915 0.4055115580558777 -1.1463720798492432 -1.0813961029052734 -0.15510614216327667 -0.4961957633495331 0.3983128070831299 1.936194658279419 0.32611843943595886 0.44153067469596863 -0.6705968976020813 -0.9987595677375793 0.7128021717071533 0.9113638997077942 -0.7136489748954773 0.27066320180892944 0.957839846611023 0.4402826130390167 -0.8384835124015808 -0.6198035478591919 1.9075753688812256 0.6713827848434448 0.9478132128715515 -0.9764763116836548 -0.1874610185623169 0.47430211305618286 -0.12276943027973175 -0.9666339159011841 1.275180697441101 0.2614385783672333 0.4726148545742035 1.2092138528823853 -0.17607837915420532 0.3159733712673187 -0.043121110647916794 -0.006697671487927437 -0.4196632206439972 0.1982267200946808 -1.1499756574630737 0.9837564826011658 1.0923371315002441 -1.3769536018371582 0.394133597612381 -0.9782230257987976 -0.7952628135681152 1.0344388484954834 0.2617465555667877 -0.36574798822402954 -0.4428780674934387 1.234328269958496 0.47386834025382996 1.1369915008544922 -1.2296396493911743 0.7545391917228699 -0.7143625020980835 -0.2197572886943817 -0.24728646874427795 0.9028295278549194 -0.02056169882416725 -1.3125213384628296 -0.9061315059661865 0.12671934068202972 -0.30224961042404175 0.8251020908355713 -1.223134994506836 0.5438423156738281 0.05071099475026131 0.8185437321662903 0.799787163734436 -0.22998160123825073 -1.0632116794586182 1.1523956060409546 0.15665943920612335 0.9399136900901794 0.5706906318664551 -0.40854087471961975 0.03121238574385643 -1.1897307634353638 -0.2966475784778595 0.15379448235034943 0.3862246870994568 -1.078260064125061 
vec9 -0.18052567541599274 1.92979896068573 0.34085220098495483 0.4130345284938812 -0.6413313746452332 0.9599248766899109 -0.35838231444358826 0.6915623545646667 -0.9089377522468567 0.27168896794319153 1.9954631328582764 -0.11695342510938644 1.0154359340667725 -0.8565992712974548 -0.2970980703830719 0.26997441053390503 1.5611584186553955 1.7239248752593994 0.6969190239906311 -0.0324900858104229 -1.0213624238967896 -0.1448429971933365 -1.0886213779449463 0.4123842716217041 -0.5714417099952698 -1.1124382019042969 0.30323612689971924 0.30894798040390015 2.380254030227661 -0.8830943703651428 -1.3117979764938354 -2.293911933898926 -1.1917611360549927 1.0081658363342285 1.0568865537643433 0.35090407729148865 0.5603254437446594 -2.0989444255828857 -0.5641419887542725 0.05990006402134895 1.5881927013397217 -1.0972658395767212 -0.24348728358745575 1.5483498573303223 0.007572597358375788 1.8353314399719238 -0.3378537893295288 0.0015324883861467242 0.9185152053833008 -1.4871044158935547 0.17989946901798248 -0.5761654376983643 -0.630171000957489 0.9653629064559937 -0.5682783722877502 1.455605149269104 -1.0589009523391724 0.8657210469245911 0.21720151603221893 1.6932547092437744 -0.8171905279159546 2.192711353302002 -0.16288867592811584 0.12995240092277527 -1.2497895956039429 -0.7676403522491455 0.8408241271972656 1.4114394187927246 -0.9940829277038574 -1.4458223581314087 0.954845666885376 1.4116624593734741 -1.505027413368225 -0.41161131858825684 -0.6377220749855042 0.0755779966711998 0.01094303373247385 -0.7582065463066101 -1.324657917022705 1.918318510055542 1.733007788658142 0.009676231071352959 1.172183632850647 -0.10155915468931198 0.34761855006217957 0.2811896502971649 0.6011976003646851 1.6039730310440063 0.42412182688713074 -0.7162603735923767 0.2638341188430786 -0.2554294466972351 -0.4016857445240021 -0.303410142660141 -0.16176199913024902 0.3337192237377167 -0.2334439903497696 0.06625783443450928 0.05358327552676201 -0.04957011714577675 -1.5396610498428345 -0.17385946214199066 0.46769869327545166 -2.7521650791168213 -0.4095090925693512 2.3852052688598633 2.0082178115844727 0.32052356004714966 0.09937535971403122 -0.21208998560905457 0.9963293075561523 -2.3180980682373047 -0.8774591684341431 -0.2277907133102417 -0.7650793194770813 0.881112277507782 -1.1814581155776978 1.319368839263916 -0.03868923708796501 0.24260805547237396 -0.1308058202266693 -0.962238609790802 1.5280108451843262 -0.27031394839286804 -0.24239471554756165 1.3106448650360107 0.5336865782737732 -0.09536756575107574 0.1344904899597168 -1.1485543251037598 -1.1483824253082275 -0.5394299030303955 -0.039758991450071335 0.7958307266235352 0.08988256007432938 -0.8418644666671753 0.8656976222991943 -1.0336098670959473 0.7573336958885193 -0.024913983419537544 1.8008707761764526 -1.0921831130981445 -1.3076491355895996 0.02214505523443222 -1.2400872707366943 -2.371922016143799 2.187156915664673 -0.33555957674980164 -0.5703978538513184 0.015158494003117085 -1.1108568906784058 -1.282981514930725 -1.0993069410324097 -2.0194928646087646 0.271791011095047 0.8675616383552551 -1.9443460702896118 0.49249452352523804 -0.04666823521256447 -0.30608880519866943 -0.8263213038444519 -0.05934687331318855 0.20069058239459991 -0.3709160387516022 -0.6878381967544556 -0.7037063241004944 2.6482810974121094 -0.39667758345603943 1.2769367694854736 1.4519870281219482 -1.2514598369598389 2.218873977661133 -0.9396768808364868 -0.7156142592430115 0.7573505640029907 1.3093384504318237 -0.08174865692853928 0.06399350613355637 -0.6861239075660706 -0.2824360132217407 -0.3780505657196045 0.7831434607505798 0.0900467187166214 0.6288400292396545 -0.9231977462768555 -0.2439052164554596 0.5003140568733215 -0.5148566961288452 -0.4957093894481659 0.8139942288398743 1.339482069015503 -1.8506443500518799 0.26398202776908875 -0.508075475692749 0.3635156452655792 -1.2374234199523926 1.8892487287521362 1.0724176168441772 -1.5938531160354614 1.4740943908691406 
vec10 0.33279290795326233 4.083853721618652 1.7291555404663086 -1.3448445796966553 1.0609872341156006 0.06797516345977783 1.2192860841751099 1.1813786029815674 -1.0110400915145874 -0.05820648372173309 0.725010871887207 1.0183184146881104 0.6315491199493408 -1.5143628120422363 0.336395263671875 -0.20629402995109558 1.044495701789856 -0.4450555741786957 1.5055756568908691 -0.08810204267501831 -0.020834168419241905 -0.6586806178092957 1.3109077215194702 1.3650401830673218 -1.123291015625 -0.9392625093460083 -0.6109163761138916 1.2511531114578247 3.0449025630950928 -2.0052783489227295 0.5842085480690002 -1.504289984703064 -0.2964867949485779 0.479106068611145 0.08279228955507278 -0.4773290455341339 0.5155594944953918 -1.4372656345367432 -1.6162152290344238 0.5766070485115051 1.3026190996170044 -0.25998714566230774 0.04384062811732292 -0.5527018308639526 0.9235212206840515 0.42626482248306274 0.21918785572052002 0.07907023280858994 0.5763474702835083 0.6123674511909485 0.9300884008407593 1.1641955375671387 0.2368643581867218 -1.08048677444458 -1.6797155141830444 -0.4962333142757416 -0.13826622068881989 0.8677600622177124 0.0008785910904407501 0.14231888949871063 -0.40505558252334595 0.9924635887145996 1.6646746397018433 -0.14577816426753998 -0.1651439070701599 -0.10008027404546738 0.10561367869377136 -1.0079723596572876 -1.1524702310562134 -1.4487335681915283 -0.1378745436668396 0.82752525806427 -0.6430445909500122 0.6675645112991333 0.09470747411251068 0.23571069538593292 -0.09419374167919159 -0.5816709995269775 -2.3057775497436523 2.4703614711761475 0.5191510319709778 0.4825070798397064 0.9334725737571716 -0.20881617069244385 0.6245238780975342 0.26536843180656433 -0.2638709843158722 0.3430972993373871 1.0833357572555542 -0.07903219014406204 0.7295053601264954 -1.3432550430297852 1.112823486328125 -0.6312874555587769 0.32298094034194946 -0.1956721693277359 0.05397442355751991 0.6717084646224976 -0.032017894089221954 -0.3311358690261841 -1.420776605606079 2.1573259830474854 0.4117227792739868 -1.495586633682251 1.07106351852417 1.0827701091766357 1.8952319622039795 -0.5516694784164429 -0.07639020681381226 -1.2354470491409302 -0.03637530282139778 -0.6486701965332031 -0.6918743252754211 0.0835326537489891 -0.8384509086608887 -0.12427522242069244 0.49700427055358887 -0.024406922981142998 1.054520606994629 -0.020088955760002136 -0.1607629358768463 -0.09369757026433945 0.2847960591316223 0.02483261004090309 -1.345029592514038 2.0803518295288086 -0.37478920817375183 1.4427461624145508 0.6274041533470154 -1.5249851942062378 -1.200242519378662 0.9324824213981628 0.33638569712638855 0.6540213823318481 1.6910125017166138 0.10666345059871674 0.5839247703552246 -1.89385187625885 0.4973755180835724 0.5438534617424011 1.0015313625335693 -0.21313093602657318 -0.5291466116905212 0.21865060925483704 -0.12270208448171616 -1.0061842203140259 1.5614465475082397 -2.0656769275665283 -0.9957749843597412 0.23092736303806305 -1.5769673585891724 -0.8814864158630371 -1.954352855682373 -0.6902400851249695 0.11309918016195297 -0.20860618352890015 -2.5711421966552734 1.430449366569519 -0.21620845794677734 -1.9500688314437866 -1.1528139114379883 0.02080574817955494 1.7170491218566895 0.11993545293807983 -0.4286242127418518 -1.0137853622436523 2.3041160106658936 0.0890737771987915 1.4233059883117676 0.5546941757202148 -1.3278769254684448 0.2703515291213989 -1.4790384769439697 1.2675634622573853 -0.7751264572143555 2.86832594871521 -1.2479312419891357 -0.4600081443786621 -1.598105549812317 1.1172277927398682 -1.138641595840454 0.823085367679596 -1.0509051084518433 0.6465424299240112 0.472220778465271 2.0890393257141113 0.9841946363449097 0.10700095444917679 -2.091390609741211 -0.2576395869255066 -1.1019724607467651 -0.5325269103050232 1.2100419998168945 -0.44905418157577515 -0.5731662511825562 -0.5455342531204224 1.918321132659912 -0.007407180033624172 -1.9562469720840454 -0.5901964902877808 
vec11 0.8431533575057983 2.7864017486572266 0.35061731934547424 -0.5564364790916443 -1.17219078540802 0.27861878275871277 0.5747543573379517 1.3352954387664795 -0.80577552318573 1.0460351705551147 0.37441936135292053 -0.1853981763124466 -0.5388602614402771 1.140662431716919 1.3180066347122192 -0.05880824103951454 2.1831910610198975 -0.7443398833274841 1.0282632112503052 -1.0579172372817993 0.641435444355011 1.127849817276001 -0.3990151882171631 1.333475112915039 -1.387076497077942 -1.3099130392074585 0.7530031204223633 0.2321707010269165 2.0124990940093994 -0.8307973742485046 1.599356770515442 -1.7815712690353394 -1.2217177152633667 0.2367246150970459 0.34375134110450745 -0.5167192816734314 0.1909780353307724 -2.9414222240448 -0.03922632336616516 -0.8781800866127014 0.6110581755638123 -1.3854382038116455 -0.7677034139633179 -0.019335947930812836 0.22979044914245605 0.49873852729797363 -1.1100338697433472 1.0705218315124512 -0.08683343231678009 -0.01953742839396 0.5081195831298828 0.14191344380378723 -0.37857571244239807 0.6610346436500549 -0.1337350755929947 0.6324845552444458 -1.4303948879241943 2.0506036281585693 0.3555695414543152 0.33817654848098755 0.8579462766647339 1.6177237033843994 0.7968690991401672 -0.02264438010752201 -0.9858914017677307 -0.8495690226554871 -0.022784391418099403 1.4550421237945557 -0.8858058452606201 -0.14311550557613373 -0.08800266683101654 1.0954698324203491 0.3005414605140686 -0.7565991282463074 -0.6212257146835327 -0.5310655236244202 -0.09831494837999344 -0.4155578315258026 0.033558573573827744 0.4194782078266144 0.11331763118505478 0.8303042054176331 0.9265243411064148 0.14443111419677734 0.35937947034835815 0.02602529712021351 0.5255631804466248 0.38533899188041687 2.4992401599884033 -2.6420397758483887 0.09105386584997177 -0.34798121452331543 -0.17469629645347595 -0.29350295662879944 0.01718531735241413 0.7314291596412659 0.4005517065525055 1.429679274559021 0.49657654762268066 1.77154541015625 -1.3593504428863525 -0.12050230801105499 -0.41447126865386963 -0.7892347574234009 0.3830810487270355 0.3697446584701538 1.9128766059875488 -0.16040824353694916 1.0009002685546875 -0.5566893219947815 0.22784237563610077 -1.9331306219100952 -1.2135498523712158 -0.12942682206630707 -1.151982069015503 -0.25820162892341614 -0.30763885378837585 -1.4847207069396973 -0.3372834026813507 0.0784272849559784 0.5886718034744263 -1.4844043254852295 -1.0844244956970215 0.11765405535697937 -1.4061206579208374 3.150754451751709 -0.7839889526367188 -0.2924170196056366 -0.23101168870925903 -0.8850430250167847 0.1993657946586609 0.7481992244720459 -0.7246859669685364 1.114753246307373 0.21883636713027954 1.338590145111084 -0.07225290685892105 -1.9424089193344116 1.1234403848648071 -0.02337588742375374 0.7976425290107727 -0.3759365379810333 -0.9141998291015625 1.4119112491607666 -0.32269200682640076 -1.4566092491149902 1.2717170715332031 -0.6319841742515564 0.09744826704263687 1.1446025371551514 -1.5846412181854248 0.603114128112793 0.3530707359313965 -0.7274697422981262 0.7781530022621155 0.2324913740158081 -1.3190542459487915 0.7134094834327698 0.9728703498840332 -0.6325588822364807 -1.2862548828125 -1.2742654085159302 -0.3143337368965149 1.0159329175949097 0.7684171199798584 -1.0887216329574585 0.17629125714302063 0.9128465056419373 1.450755000114441 -0.5809738636016846 -0.7200077176094055 0.5679107904434204 -0.8357666730880737 0.43338337540626526 -0.865796685218811 0.5217656493186951 -0.07337913662195206 0.5602178573608398 -1.4011459350585938 1.524431586265564 -0.9659246206283569 0.07528889179229736 0.6957332491874695 1.1305757761001587 0.3582289218902588 0.26100319623947144 0.8160090446472168 -0.729906439781189 0.31193968653678894 1.1024914979934692 0.6341749429702759 -0.41822558641433716 0.7510668635368347 -0.23459547758102417 1.5307202339172363 -0.4315778315067291 -0.4652985632419586 0.0038854004815220833 -2.050689697265625 -0.3590227961540222 
vec12 0.4906412363052368 2.1476051807403564 2.7476561069488525 -0.8156558275222778 -1.1904858350753784 1.7286173105239868 -0.8295341730117798 1.3209078311920166 -0.909638524055481 1.0289056301116943 -0.6105474233627319 0.11579276621341705 -0.23227186501026154 -1.0948039293289185 0.4482634961605072 0.1064777672290802 1.1429530382156372 -0.37320181727409363 1.3330357074737549 -0.11092770844697952 -1.2251375913619995 0.585949182510376 0.4789724349975586 1.2129203081130981 -0.8943532109260559 -1.7470080852508545 2.125938892364502 0.15831105411052704 1.0262119770050049 -1.6585779190063477 -0.3036169111728668 -0.6864241361618042 -2.061842203140259 0.03988724574446678 0.5113508701324463 -0.10111264884471893 0.7878598570823669 -1.1960657835006714 -0.9981471300125122 -0.15790514647960663 1.158658742904663 -1.6103637218475342 0.22865156829357147 -0.11136353760957718 0.3278387784957886 2.043541431427002 0.39880913496017456 0.9257895350456238 0.9582415223121643 -0.9551608562469482 1.8437044620513916 0.4440980553627014 -1.254637598991394 0.5263190865516663 -1.251338243484497 0.6426717042922974 -0.04375746473670006 0.9618150591850281 -1.3178901672363281 -0.07943537086248398 -1.1868396997451782 1.431966781616211 0.38141027092933655 0.008335866965353489 0.9496908783912659 0.035568855702877045 0.7109808325767517 1.5315784215927124 -1.8291127681732178 -2.0749738216400146 0.6807640790939331 0.13342145085334778 -0.12286094576120377 1.2672375440597534 -0.7248952388763428 0.14356587827205658 -0.44754451513290405 -0.1994577944278717 -0.4294215440750122 1.1775516271591187 1.4608227014541626 -0.6680159568786621 0.877962052822113 -0.7922273874282837 0.7466319799423218 1.1158314943313599 -0.9004142880439758 0.33281373977661133 0.505841076374054 -1.480238914489746 -0.16195173561573029 -0.9184427261352539 1.2529537677764893 -0.21290041506290436 0.39183518290519714 -0.3365985155105591 -1.069371223449707 0.8517406582832336 -0.23934993147850037 -0.4009421467781067 -1.16006338596344 0.9905620813369751 -1.2977677583694458 -1.2708284854888916 1.2131845951080322 0.934770405292511 1.62662935256958 -0.3800962567329407 -0.23401384055614471 -0.03926975280046463 -0.4998970031738281 -0.9343997836112976 0.19718539714813232 -0.9240796566009521 -1.314812421798706 0.8346486687660217 -0.03346791863441467 -0.9610030055046082 -0.6147395968437195 -1.093821406364441 -0.6396985054016113 -2.235334873199463 0.3911304771900177 0.30249086022377014 0.004585950635373592 1.566057562828064 0.7504987716674805 0.3187108635902405 0.14022883772850037 -1.396718144416809 -1.617796778678894 0.4425504207611084 0.33826693892478943 0.5100849270820618 0.052976179867982864 2.1670584678649902 -0.860954999923706 -0.9513406157493591 1.6425024271011353 0.3446323275566101 1.4831147193908691 -1.560091257095337 0.6777786612510681 0.9630788564682007 -0.3347950577735901 -1.0761098861694336 2.097431182861328 0.2965414226055145 0.9515987038612366 -1.200843334197998 -1.6672017574310303 -0.37141475081443787 -1.2672934532165527 -0.21135777235031128 0.642119824886322 1.1140027046203613 -0.9972093105316162 -0.08960430324077606 -0.39096859097480774 -1.179634928703308 -0.034247104078531265 -0.7038214802742004 1.6139832735061646 1.5537906885147095 -0.5321425795555115 -1.8937602043151855 1.6052483320236206 1.4927419424057007 1.640418291091919 0.852508544921875 -1.1263301372528076 0.005829232279211283 -0.5454562306404114 -1.0282032489776611 -0.4720038175582886 -0.028905726969242096 -0.8775613307952881 -0.11184443533420563 -0.9019131064414978 1.6438230276107788 -0.9354066848754883 0.3132343590259552 -1.4790693521499634 0.2590508460998535 -0.49628108739852905 0.6287753582000732 0.3308957815170288 -1.0527747869491577 -0.36246758699417114 1.6171644926071167 0.8572924137115479 -0.2294575721025467 0.29906225204467773 0.24684098362922668 2.449863910675049 0.31698012351989746 1.1598788499832153 -0.07173936069011688 -2.551193952560425 -0.4828557074069977 
vec13 -0.2867404818534851 1.9364255666732788 1.7664446830749512 -1.2739479541778564 0.6533856391906738 1.7887095212936401 -0.10109088569879532 2.1773788928985596 -1.2106395959854126 0.4255388677120209 -0.6201558113098145 0.22110089659690857 0.5790627598762512 -1.6572303771972656 1.2786545753479004 -0.4911321997642517 1.74258291721344 1.0848238468170166 0.6936649680137634 -0.8509707450866699 -0.6096060276031494 -0.5074553489685059 -1.027695655822754 -0.27119383215904236 -0.49304068088531494 -0.7194096446037292 -0.00204734830185771 0.36078155040740967 1.2027779817581177 0.41594967246055603 0.6382019519805908 -1.205008625984192 -0.7474398016929626 1.6738797426223755 0.4734076261520386 -0.5171688795089722 -0.9464858770370483 -1.3390867710113525 0.0693880096077919 -0.5229235291481018 0.7179450988769531 -0.9138430953025818 0.16603420674800873 0.48502588272094727 -0.35428810119628906 2.028454303741455 -0.7106631994247437 0.20563024282455444 -0.9786861538887024 0.6890012621879578 -0.16061663627624512 0.8654074668884277 -1.1040114164352417 -0.7622590065002441 -1.5124424695968628 1.1725609302520752 -1.7352080345153809 1.5702401399612427 0.7418003082275391 1.9128531217575073 0.8529790639877319 0.8442131876945496 -0.2521572709083557 0.25900396704673767 -0.46651768684387207 -0.44156429171562195 -0.5388762950897217 0.9747068881988525 -0.8182474374771118 -0.4443787932395935 -0.7688621282577515 1.0785335302352905 -0.471466600894928 -0.5567460060119629 -0.557643473148346 0.14245600998401642 0.4387683570384979 0.06960034370422363 -1.1178940534591675 1.3838828802108765 -2.1210484504699707 0.27448728680610657 1.351150631904602 -0.8944272398948669 0.8439093828201294 1.4097602367401123 0.30058398842811584 1.358435869216919 0.515919029712677 -1.7550840377807617 -1.1472331285476685 -0.29999566078186035 -0.32650429010391235 -0.05690216273069382 -0.4407205581665039 0.7277997136116028 -0.2841082513332367 -0.17883621156215668 -1.0522127151489258 0.47035959362983704 -0.4193771481513977 -1.2026638984680176 -1.4150238037109375 -0.49188342690467834 0.3007647395133972 1.2364352941513062 1.3759393692016602 -2.0150325298309326 -0.002637473400682211 0.8815984129905701 -0.8257587552070618 -0.8791995644569397 -0.4526146650314331 -0.8958108425140381 -1.031460165977478 -0.7543889284133911 -0.6206079721450806 0.09352238476276398 0.008042694069445133 0.2629726827144623 -0.5689495205879211 -0.41692227125167847 -0.11716867238283157 -0.515846848487854 -1.1166683435440063 2.9820430278778076 0.26012206077575684 1.1206270456314087 -0.043956510722637177 -0.4669976532459259 -0.32984620332717896 1.119794249534607 -1.3912252187728882 0.3328278660774231 1.6852800846099854 0.09629084169864655 -0.6028851866722107 -0.3672867715358734 0.5247895121574402 0.34605327248573303 0.5102505087852478 -1.323111653327942 -1.1634466648101807 1.2114099264144897 -0.4424949586391449 -1.5381245613098145 1.3591535091400146 -0.7867511510848999 0.400545209646225 1.5039687156677246 0.9073028564453125 -0.11826819181442261 -0.4777419865131378 0.1058344766497612 -0.4503423869609833 1.1325796842575073 -0.9978604912757874 2.3271703720092773 2.2206761837005615 -1.5568495988845825 -0.6403474807739258 -0.021961886435747147 -0.2645358741283417 -0.06243041157722473 -0.2327529639005661 0.9116953015327454 0.5186563730239868 0.4260047376155853 1.738491415977478 1.0337625741958618 -1.2962740659713745 -0.3070836067199707 -0.4799182116985321 0.04752185568213463 1.2335774898529053 1.046356439590454 -0.6158363819122314 0.3323531150817871 -1.973177433013916 0.19455599784851074 -1.1711629629135132 -0.6579508185386658 -0.8953729867935181 -0.31171414256095886 -0.04886217415332794 0.8609861731529236 0.5260666012763977 -0.2439696341753006 -1.2767677307128906 0.67654949426651 1.23690664768219 -1.7789292335510254 0.3334232270717621 0.23918290436267853 -0.21911408007144928 -1.2741223573684692 1.8992544412612915 0.4741363525390625 0.7346858978271484 -0.22932490706443787 
vec14 -0.5803555250167847 2.560077667236328 1.0658679008483887 -1.0566506385803223 0.15100227296352386 0.6627472043037415 0.7665229439735413 1.2991598844528198 -1.0605967044830322 -0.7772186398506165 1.056357979774475 -0.284817636013031 0.18606485426425934 1.4739277362823486 2.355712413787842 -0.08508499711751938 0.7120648622512817 0.48214244842529297 0.7797487378120422 1.8508199453353882 -0.707421064376831 -0.34600964188575745 -0.3449993133544922 0.12832483649253845 0.037805020809173584 -1.7866719961166382 1.348834753036499 0.552751898765564 0.8467521667480469 -0.34917041659355164 0.5693123936653137 -1.723860740661621 -0.5999255180358887 0.8179665803909302 0.03490258380770683 -0.6427706480026245 0.8253619074821472 -0.8342592716217041 0.38929277658462524 -1.1825588941574097 0.14299875497817993 -0.1960362046957016 -0.5201364159584045 1.129184603691101 1.89621102809906 1.5216305255889893 0.19792059063911438 -0.14123544096946716 0.5032400488853455 -0.46780166029930115 1.024206519126892 0.27581605315208435 0.4538748860359192 0.6429155468940735 -1.8449617624282837 0.680416464805603 -1.2031772136688232 2.4609482288360596 -0.6901372075080872 -0.36262983083724976 -1.0603582859039307 0.6209738850593567 0.8010532259941101 0.17006535828113556 -1.4293943643569946 -1.1898170709609985 0.5629599094390869 0.8586958646774292 -1.193180799484253 -1.0574040412902832 0.49542632699012756 -0.3602648675441742 0.8530231714248657 1.1285430192947388 1.6015321016311646 -0.3149518370628357 0.1687936931848526 0.15339086949825287 -1.1071470975875854 0.8895702362060547 -0.5642395615577698 0.1743774116039276 1.1536359786987305 -1.1630033254623413 0.18754060566425323 -0.5384641885757446 -1.0366804599761963 0.5355944633483887 0.9497842192649841 -0.8399632573127747 -1.1594058275222778 -0.7712095379829407 0.4086720645427704 -1.11111581325531 0.9602336287498474 1.3238847255706787 -0.9270254373550415 1.4892634153366089 -0.9802579879760742 0.2411877065896988 -1.9183076620101929 1.5155097246170044 0.0836532860994339 -0.12797239422798157 0.5045300126075745 1.6691206693649292 2.2304837703704834 0.11835022270679474 -0.86421138048172 -0.7448421716690063 -0.35345181822776794 0.1781349629163742 -0.7931827902793884 -0.5849069952964783 -1.7761955261230469 1.8390402793884277 -0.19105829298496246 -0.13677120208740234 -0.48319095373153687 -1.023770809173584 0.982638418674469 -0.25864046812057495 0.7766206860542297 -0.08132264018058777 0.08191346377134323 1.411028504371643 0.9873128533363342 -0.09705514460802078 -0.2650642395019531 -0.987056314945221 -1.4561032056808472 0.693297266960144 0.18627068400382996 1.432631015777588 1.8740111589431763 0.3178269863128662 -0.9419134855270386 -2.2740564346313477 0.6413784623146057 0.005280087236315012 -0.3255133330821991 -1.1561733484268188 -1.2380590438842773 -0.4193522036075592 -0.8827436566352844 -1.336438536643982 -0.30870068073272705 -1.371519684791565 -0.19264306128025055 0.9533356428146362 -1.289939045906067 0.09919087588787079 -0.34033799171447754 -1.6908419132232666 -0.21746216714382172 1.2482067346572876 -0.5856157541275024 2.4904427528381348 -0.7387858629226685 -0.8047311305999756 -0.36504533886909485 -0.9632614850997925 0.22280514240264893 0.5297826528549194 0.2790343463420868 0.9676729440689087 1.607811689376831 -0.31346839666366577 -0.3509790003299713 -0.28656336665153503 -1.5539662837982178 0.08638493716716766 -0.008730395697057247 -1.4717514514923096 -1.1358330249786377 0.00020913939806632698 -0.5557030439376831 -0.264536589384079 -0.5768864154815674 0.13006052374839783 -1.1609820127487183 0.6927371621131897 1.246898889541626 -1.6261274814605713 -0.11830567568540573 1.3408840894699097 1.0793572664260864 -1.1345388889312744 -0.6831976771354675 0.4304894804954529 -0.034482453018426895 0.7780721783638 0.09141356498003006 0.22312982380390167 0.00048057682579383254 -0.7045697569847107 1.0501693487167358 0.05716512352228165 -1.4759509563446045 0.5884736776351929 
vec15 -0.5508581399917603 2.446326732635498 0.6901915669441223 0.07450895011425018 0.28919729590415955 1.5223252773284912 0.441585510969162 1.0265069007873535 -1.1340912580490112 0.4994840919971466 -0.3813351094722748 -0.44402042031288147 0.4464896023273468 -0.09817760437726974 0.32710370421409607 0.8813723921775818 1.3730688095092773 -0.33850982785224915 1.968479037284851 -0.7460430264472961 0.009472896344959736 -0.3449259400367737 0.05680553987622261 1.2905303239822388 -0.6700471043586731 -1.7658765316009521 0.11065002530813217 0.4771372675895691 1.7658888101577759 -1.7801856994628906 1.040419340133667 -0.5807468295097351 -0.6487966775894165 0.7301719784736633 0.4313470721244812 -0.9533745646476746 0.8197210431098938 -1.255057454109192 0.17672032117843628 0.3262335956096649 0.0360691137611866 -0.597058892250061 0.1436646729707718 -0.9651408791542053 0.7497162818908691 2.2279491424560547 0.39115795493125916 -0.7532309293746948 0.29641374945640564 -1.6474151611328125 0.9791469573974609 0.6114413738250732 -0.36437028646469116 -0.03620956465601921 -0.0006589362164959311 -1.2336170673370361 0.6241444945335388 2.2989349365234375 -0.006053070072084665 0.9159860014915466 0.7072256803512573 1.6199383735656738 1.8622169494628906 0.24066388607025146 -1.3359075784683228 -1.4484363794326782 -1.4767987728118896 0.9402720928192139 -1.4061558246612549 0.5810962915420532 -0.22530271112918854 0.6493701338768005 0.3383771479129791 -0.31285351514816284 -0.8781665563583374 -2.059213399887085 -1.22764253616333 -0.8040404319763184 -0.8978906869888306 1.684289813041687 -0.4769858121871948 -0.20764188468456268 1.6346020698547363 1.1977161169052124 -0.2636460065841675 -1.0588936805725098 0.9015014171600342 1.1042619943618774 0.06754747778177261 -2.1925711631774902 -0.023757170885801315 0.5785894393920898 0.4281962215900421 -0.7181152701377869 -1.4878238439559937 1.2875455617904663 -0.36256110668182373 -0.6627892255783081 -0.6859837770462036 0.8889337778091431 -1.8685353994369507 -0.015254219993948936 -0.36211133003234863 -1.3797820806503296 0.4698553681373596 0.7903007864952087 1.2819956541061401 -0.4405074417591095 0.6578113436698914 -0.11952447146177292 -0.023044908419251442 -0.6411131024360657 -0.12902991473674774 0.2985237240791321 -2.0418219566345215 0.32955679297447205 0.1181817352771759 0.5956398844718933 0.18333382904529572 1.074376106262207 2.084052324295044 -0.6465409398078918 0.693939745426178 1.377086877822876 -0.387785941362381 0.3020976185798645 0.3691301941871643 -0.9118128418922424 0.06041060760617256 1.0379917621612549 -0.31263840198516846 0.9628626704216003 0.03501848131418228 0.034187037497758865 0.7745941281318665 0.6141241192817688 -0.36824071407318115 -1.2106952667236328 1.516278862953186 0.631426215171814 0.6784480214118958 -1.86117422580719 0.20600588619709015 -0.6657946705818176 -0.9414631724357605 0.8372411131858826 0.2107146680355072 -0.4832821190357208 0.32110920548439026 -0.6081176400184631 -0.25469693541526794 -1.2810008525848389 -0.765038251876831 -0.8520728349685669 -0.18858548998832703 0.2966357469558716 -0.14580786228179932 1.6802701950073242 -1.039684534072876 -0.9106473326683044 -1.2873536348342896 -2.3373310565948486 -0.5505325794219971 0.7193970680236816 0.7131379246711731 -1.6828067302703857 1.1259965896606445 0.9118075370788574 1.463454008102417 0.3974933624267578 -0.9283396005630493 0.31931790709495544 -1.56740403175354 0.3162229359149933 -0.43461406230926514 0.6497166156768799 -0.5148074626922607 1.2206506729125977 -3.0650148391723633 0.5460964441299438 -0.6127230525016785 0.9827312231063843 0.572124183177948 0.19749288260936737 0.9411213994026184 1.5187406539916992 0.41655007004737854 -0.3548649847507477 -0.9475653171539307 2.520679473876953 -0.08819698542356491 0.2593795657157898 -0.9537455439567566 -0.43386563658714294 -0.8488888144493103 -0.3338373601436615 0.8889142274856567 0.7766665816307068 -1.0823220014572144 0.26120635867118835 
vec16 0.03776601329445839 3.1638286113739014 2.1317670345306396 -0.89681077003479 0.7574185729026794 0.8663210272789001 -0.6515466570854187 1.217724323272705 -1.3160889148712158 -0.09996479004621506 0.01458155270665884 -1.1322754621505737 0.9831652045249939 0.5980523228645325 0.5256104469299316 1.3822120428085327 0.6836732029914856 -0.022331126034259796 2.1738228797912598 0.1951342076063156 1.2333542108535767 -0.13707543909549713 -0.5742325186729431 1.1080269813537598 -0.9100117087364197 -0.5080885291099548 1.0514193773269653 0.8552308082580566 0.5005557537078857 -1.7213760614395142 0.6686455011367798 -1.5438809394836426 -1.1630486249923706 1.601885437965393 -0.22886213660240173 0.02468956634402275 0.26270538568496704 -0.27299654483795166 0.22158457338809967 -0.16131210327148438 -0.5518417954444885 0.10970822721719742 -1.0279898643493652 0.0824451819062233 1.3369252681732178 1.7246276140213013 -0.5227214097976685 -1.610860824584961 0.08578138053417206 -0.07312525808811188 -0.19036825001239777 1.2873823642730713 0.5813379883766174 -0.933001697063446 -0.9492316246032715 0.7041441202163696 -1.115601897239685 2.2222542762756348 -0.7111226320266724 -0.026621369644999504 -0.6132208704948425 0.05252619460225105 1.6299248933792114 0.14207875728607178 -0.7452502846717834 -1.0977461338043213 -0.17290529608726501 0.9827591776847839 -2.9882161617279053 -0.28571420907974243 0.7142098546028137 2.597273349761963 -0.6853836178779602 0.45464253425598145 -0.601489782333374 0.11267533153295517 -0.13104261457920074 0.387433260679245 0.12229853868484497 1.8227310180664062 -0.2787213623523712 0.4568190574645996 0.31189846992492676 -0.08738930523395538 1.1849048137664795 -0.40272459387779236 0.35156112909317017 0.3121412694454193 0.3702387809753418 -1.166536569595337 0.48614081740379333 0.685614287853241 0.6739894151687622 0.03377177566289902 1.2658324241638184 0.13475418090820312 -0.9272098541259766 1.2582588195800781 -0.6054700613021851 0.5524958968162537 -0.6451937556266785 1.2052925825119019 -0.4190865159034729 0.6265670657157898 -0.3722240626811981 0.058660078793764114 1.4933842420578003 0.9334419965744019 0.06841696798801422 -1.4925211668014526 -0.741365373134613 -0.853030800819397 -1.5670711994171143 -0.3110625445842743 -0.1634955108165741 0.3040831983089447 -1.2039016485214233 1.1575464010238647 0.33194199204444885 0.6723489165306091 1.3367758989334106 -1.8765970468521118 -0.5346276760101318 0.37691327929496765 -0.36028167605400085 0.9646458029747009 0.6471707820892334 -1.3609257936477661 -0.180494487285614 1.0791376829147339 -0.9725417494773865 1.3662375211715698 0.11280465126037598 0.23438307642936707 0.014687241986393929 0.9654539823532104 0.3684382736682892 -0.8350054621696472 1.9471492767333984 0.5053091645240784 0.10088428854942322 -0.5224615931510925 -1.1066217422485352 -0.5000085234642029 -1.2776048183441162 -1.6276923418045044 0.9630682468414307 0.6317617893218994 0.7623763084411621 1.5569446086883545 -0.20466674864292145 -1.495329737663269 -0.7131296396255493 -0.31601041555404663 -0.6625630259513855 1.4630776643753052 -0.9411064982414246 0.6417856216430664 0.813886284828186 -1.4442018270492554 -0.31493112444877625 -0.763404369354248 -2.1054773330688477 -0.8286040425300598 -1.6148200035095215 -1.3122732639312744 1.1406059265136719 -0.14950308203697205 0.8763636946678162 -0.4562396705150604 -0.9465548396110535 0.36516696214675903 -1.4837970733642578 -1.0443171262741089 -0.2198643982410431 -0.05173230171203613 -0.012659245170652866 0.6399032473564148 -1.377460241317749 0.9427367448806763 -0.7618085741996765 0.23622001707553864 -0.8869971632957458 -0.5913891196250916 -0.277913898229599 0.9519058465957642 0.9087688326835632 -1.4565372467041016 -0.21144309639930725 0.2672332227230072 -0.14899741113185883 0.1724407821893692 0.3294045627117157 -0.7969031929969788 0.24816040694713593 -0.3862841725349426 0.7455421686172485 -0.02770698256790638 -0.929263710975647 0.5747668147087097 
vec17 -1.2069467306137085 2.546851873397827 -0.011695274151861668 -0.3341062366962433 0.029353026300668716 0.5792929530143738 0.4918673634529114 1.284450888633728 -2.030043125152588 -0.3262416124343872 0.08618229627609253 -0.746146023273468 -0.9984680414199829 -0.8015581369400024 -0.04776550456881523 0.35465487837791443 0.5940598845481873 0.4585437774658203 2.036655902862549 1.1146024465560913 0.38157516717910767 -0.3517107367515564 -0.7628715634346008 -0.029195182025432587 0.3753963112831116 -1.4932692050933838 1.4028023481369019 0.06047005578875542 1.723168969154358 -2.199932098388672 -0.7334250211715698 -1.105581521987915 -2.2782680988311768 0.7793031334877014 -0.8104994297027588 -0.7871701121330261 0.906198263168335 -2.6065869331359863 -1.3311411142349243 0.036582253873348236 1.5726954936981201 -2.75384259223938 0.9162694811820984 1.9740439653396606 1.7013121843338013 0.6987391114234924 -0.28127074241638184 -0.11575187742710114 -0.2093905359506607 0.18393263220787048 1.8173235654830933 -0.1354069858789444 -0.32328829169273376 -0.8364412784576416 -0.5878106951713562 0.9702396392822266 -0.32076650857925415 1.251788854598999 -1.2370811700820923 -0.26886364817619324 0.19152598083019257 0.770961582660675 1.193212866783142 -0.9137344360351562 -1.4665770530700684 0.22937114536762238 -0.28881338238716125 1.7015249729156494 -2.2345190048217773 -2.118687629699707 -0.15499812364578247 0.6293429732322693 -0.848452627658844 -0.6374327540397644 0.31008508801460266 -1.2192257642745972 -0.30451613664627075 -0.23690776526927948 -1.426775336265564 0.5278615355491638 -1.0842974185943604 -0.7777839303016663 0.9218955636024475 -0.08126776665449142 -0.306058794260025 0.48714303970336914 -0.09029144793748856 0.5739484429359436 0.5704092979431152 -0.7259426712989807 -1.7055023908615112 0.41404956579208374 0.008971033617854118 0.5012410879135132 0.25916874408721924 2.010420322418213 -0.46445733308792114 1.6386603116989136 0.3989197909832001 1.6215481758117676 -1.244071125984192 -0.4504148066043854 -0.07919558882713318 -0.43699899315834045 -0.11056032031774521 1.409988284111023 1.4175825119018555 -1.1576292514801025 -1.128272294998169 0.5824527740478516 0.29984399676322937 -1.6052155494689941 0.04512208700180054 0.6428607702255249 -0.9570077657699585 1.2870320081710815 -1.2876005172729492 0.5342290997505188 -0.1571420580148697 1.855809211730957 1.0669537782669067 -0.045493047684431076 -0.01483183167874813 -0.21712683141231537 1.2407337427139282 1.5762758255004883 1.1529227495193481 0.09015071392059326 -0.2997497022151947 -0.27567240595817566 -1.0422343015670776 -0.2396971434354782 -0.6324994564056396 1.148729681968689 0.30831900238990784 0.3466131389141083 0.14088930189609528 -1.46699059009552 1.1872957944869995 -0.8629942536354065 0.36224955320358276 -0.8880924582481384 -1.1201289892196655 0.45468565821647644 0.47005248069763184 -0.0006294673657976091 1.8111002445220947 -1.123512625694275 1.8443094491958618 1.2429462671279907 0.2905753254890442 -0.8654265403747559 -1.1901899576187134 -0.6114544868469238 -0.3936781883239746 0.2049366533756256 -1.1089653968811035 -0.38320299983024597 -0.0938936248421669 -0.29705262184143066 -0.7721936702728271 -0.17496874928474426 -0.4868495464324951 0.7692405581474304 0.20589080452919006 -1.1615777015686035 1.9747824668884277 0.8359174728393555 2.6346983909606934 0.5690976977348328 -1.9010097980499268 1.4085325002670288 -0.1470257043838501 -0.19651909172534943 -0.10057661682367325 1.1573057174682617 -1.0547486543655396 0.6688193082809448 -2.9532623291015625 1.480732798576355 -1.4384504556655884 0.045059092342853546 -0.03707217797636986 -0.39573532342910767 -0.037432536482810974 0.010662773624062538 1.1191481351852417 -2.685556411743164 -1.1285748481750488 -0.011687777936458588 0.5187583565711975 0.2526005208492279 -0.7967628240585327 -1.6361885070800781 0.5224848985671997 0.06478453427553177 1.6887638568878174 0.9872123599052429 -1.3445924520492554 -1.2342556715011597 
vec18 1.1869925260543823 3.191072940826416 0.20483502745628357 -1.0320965051651 1.2719786167144775 0.3463708460330963 -1.067412257194519 0.9089933037757874 -0.5834910273551941 -0.7113388180732727 0.0743599608540535 -0.38793325424194336 -0.638270378112793 -0.2124251276254654 0.8604371547698975 -0.6098976731300354 0.6126811504364014 0.5250969529151917 1.43448805809021 0.08824190497398376 0.2708280682563782 -0.21451330184936523 0.30115699768066406 0.6652184128761292 0.5836016535758972 -0.9493529200553894 1.0241661071777344 0.43597856163978577 1.9553276300430298 -1.507491111755371 0.49154335260391235 -1.7187820672988892 -0.5715373754501343 1.5118640661239624 -0.7749094367027283 -0.23535291850566864 -0.6214830279350281 -0.882405698299408 0.01459457352757454 0.09600088000297546 1.2362573146820068 -0.29845407605171204 -0.023529628291726112 0.2453320026397705 1.49709153175354 3.4310288429260254 0.17830121517181396 0.867050051689148 -0.06307733803987503 -1.745725154876709 0.5937016010284424 0.07107646018266678 0.6089255213737488 -0.5985385179519653 -0.5892939567565918 0.7176915407180786 -0.01175497192889452 0.8793507218360901 -1.4071780443191528 0.4969460666179657 -1.55043363571167 -0.29846805334091187 0.887536346912384 -0.7229973673820496 -1.0587947368621826 -0.749583899974823 0.32025593519210815 0.16749534010887146 -1.0303930044174194 -1.662948727607727 -0.6295216679573059 0.7792778611183167 0.33664584159851074 -0.18226325511932373 -1.5504417419433594 -0.6447738409042358 0.30596935749053955 1.0529083013534546 -0.3270623981952667 1.1603350639343262 -0.2864554226398468 0.5957750678062439 1.754399061203003 0.7964165210723877 -0.01355768833309412 0.3737970292568207 0.4651517868041992 0.766074001789093 -0.19587108492851257 -0.6430756449699402 0.5764769315719604 0.6939477920532227 0.3007870614528656 -0.25197330117225647 0.4481305181980133 1.3792144060134888 0.5055340528488159 0.9777973890304565 -0.5257579684257507 0.7222092151641846 -1.191508412361145 -0.761460542678833 -0.033631253987550735 -0.8054494261741638 -0.06144950911402702 1.4183886051177979 1.2113252878189087 0.6584498286247253 0.324072927236557 1.1192432641983032 -1.3932267427444458 -0.6026467084884644 -0.27279436588287354 0.0875174030661583 -1.550761342048645 -0.5862110257148743 -0.12897813320159912 -1.1297008991241455 1.0261696577072144 0.8075764775276184 -0.24284246563911438 -1.1490103006362915 0.9604683518409729 0.5658438205718994 -0.12706983089447021 1.6259199380874634 0.4100288152694702 -0.3359934389591217 0.22365431487560272 -1.2646458148956299 -1.4643237590789795 0.12061795592308044 -0.33961963653564453 -0.8694780468940735 0.8858980536460876 -0.3795381486415863 1.3497700691223145 -0.16998516023159027 0.8366575837135315 0.8151419758796692 0.6822640299797058 -0.9599677324295044 -1.066051721572876 2.029292583465576 0.05460129305720329 -1.3662757873535156 0.3502088785171509 -0.41269585490226746 0.7886978983879089 0.10083058476448059 -1.2788848876953125 1.2659176588058472 -1.943823218345642 -0.9454898238182068 0.22372621297836304 0.8114514350891113 -1.8036404848098755 0.5769026875495911 -0.22773101925849915 -1.7285447120666504 -1.2310327291488647 1.1390665769577026 -0.3769673705101013 0.193808451294899 -0.749447762966156 -0.6353576183319092 1.9031944274902344 0.20812566578388214 1.6271440982818604 1.1870324611663818 -1.4986368417739868 0.9892242550849915 -0.4795251488685608 -0.8598673343658447 0.45427605509757996 -0.40935125946998596 -1.5641714334487915 -0.11217711120843887 -2.2761013507843018 0.3906770944595337 -1.2291737794876099 1.0587798357009888 -0.2744148075580597 -0.19136512279510498 1.0545103549957275 -0.11738123744726181 0.9167765378952026 -0.3509904444217682 -0.259562611579895 0.05367988720536232 1.9239270687103271 0.30148911476135254 -0.5071849226951599 -0.06173542141914368 -0.2629389464855194 -0.3852041959762573 0.5464527010917664 1.134313941001892 -1.0936973094940186 -1.208461046218872 
vec19 -1.2570009231567383 1.4758212566375732 1.660713791847229 -1.2821118831634521 -0.2643586993217468 0.2622297704219818 -0.18000297248363495 2.2192513942718506 -0.46691176295280457 1.038273811340332 -0.3070073425769806 -0.31756138801574707 -1.1900520324707031 -0.7265467047691345 0.9244422316551208 0.603958010673523 -0.4749710261821747 -0.2090744972229004 0.5176979303359985 -0.1052236557006836 -0.7970598936080933 0.10634444653987885 0.4614141881465912 1.1245803833007812 -0.5477182865142822 -0.5152498483657837 0.1743888109922409 -0.253149151802063 2.6791908740997314 0.7271285653114319 0.9078065156936646 0.5295704007148743 -0.42586201429367065 0.7532743811607361 0.3701735734939575 -0.03959923982620239 0.39639708399772644 -0.9511316418647766 -0.09152857959270477 -0.5467987656593323 0.0017901876708492637 -0.350771963596344 -1.0005375146865845 0.4746074378490448 0.6380706429481506 1.9388797283172607 -0.4665878117084503 0.564867377281189 -0.13560740649700165 -1.0934783220291138 1.982135534286499 0.3163636326789856 0.04831258952617645 -0.41870296001434326 -0.7300316095352173 0.831479549407959 -0.02735229954123497 0.2738606035709381 -0.07940863817930222 2.303354024887085 0.6749771237373352 1.6341954469680786 0.4162807762622833 0.420804888010025 -0.7711759209632874 -0.09454052150249481 -0.84885573387146 1.0745502710342407 -2.176680326461792 -0.022131267935037613 -0.4153457283973694 0.5147886276245117 0.44153115153312683 0.6655715703964233 -0.6328331232070923 -0.9498510956764221 -0.6527112722396851 0.4448973834514618 -2.0186712741851807 0.15222644805908203 -0.5779151320457458 -0.6679158210754395 0.8077015280723572 -0.7563450932502747 0.7935752272605896 -0.2863026261329651 1.2029919624328613 0.9327258467674255 1.3302953243255615 -0.30491364002227783 -1.4500095844268799 -0.09044996649026871 -0.598640501499176 -1.7604491710662842 1.9471473693847656 1.2928409576416016 -1.5183420181274414 1.0433366298675537 -1.4776321649551392 0.9237623810768127 -1.1260817050933838 1.4089000225067139 -0.6061483025550842 -0.2573758363723755 0.4923987090587616 0.2170846164226532 2.8082377910614014 0.0793796256184578 1.4150704145431519 0.6749435067176819 1.531986117362976 -0.598799467086792 -0.6830637454986572 -0.6106144189834595 -1.1271780729293823 1.213142991065979 0.9775110483169556 0.21120941638946533 0.49536070227622986 0.019597183912992477 0.4203493893146515 -1.6121643781661987 -0.21334269642829895 0.3069104850292206 -0.23972223699092865 1.2693034410476685 0.6164931654930115 -0.28996649384498596 0.2939293086528778 -1.2129123210906982 -0.22387272119522095 0.34373581409454346 -0.3331906199455261 -1.0669320821762085 0.2785447835922241 -0.8301548957824707 0.25491321086883545 -1.215924859046936 0.9971415996551514 1.6101131439208984 0.5358511209487915 -1.783206582069397 0.3918699622154236 0.3546736240386963 -0.6798403263092041 -0.1273522526025772 1.0928395986557007 -0.07404950261116028 0.2604185938835144 0.7840187549591064 -1.5913987159729004 -0.6683371067047119 -0.7360444664955139 -1.6509881019592285 -0.11488571763038635 0.6775729656219482 -0.56276535987854 0.41877058148384094 1.4273858070373535 -1.378610372543335 -1.2875124216079712 -0.009287054650485516 -0.05358452349901199 0.2591116726398468 -0.16220799088478088 0.11997411400079727 1.421898365020752 1.3399426937103271 1.5316520929336548 2.5516457557678223 0.7643160820007324 0.5567224621772766 -0.9155685305595398 0.2778432369232178 -0.6342822313308716 0.7331873178482056 -0.2183680236339569 -0.11093835532665253 -1.2382187843322754 0.7850838899612427 -1.413702368736267 0.7275131344795227 0.8692760467529297 -0.29658547043800354 -0.0709998607635498 -1.2000782489776611 0.4132981598377228 -0.4536203444004059 -0.975411057472229 0.14043980836868286 0.6857360601425171 0.18146483600139618 0.6337366700172424 0.21728064119815826 0.8335707187652588 -0.035559847950935364 1.1486653089523315 1.263090968132019 -1.1058424711227417 -0.6431015133857727 
vec20 0.33326107263565063 1.7094752788543701 1.4209623336791992 -0.6162739396095276 0.01680123060941696 0.38750168681144714 0.08584239333868027 -0.1657509058713913 -1.7620429992675781 0.870954692363739 1.3382296562194824 0.33038508892059326 -1.5311312675476074 0.32045942544937134 1.5266284942626953 0.3648499846458435 0.9555465579032898 0.9127519130706787 1.56565523147583 0.643952488899231 -0.6761160492897034 -0.017386773601174355 0.6534784436225891 1.0989971160888672 -2.1694276332855225 -0.10567665100097656 1.1893147230148315 -0.44168126583099365 1.5216268301010132 -0.37915855646133423 0.7922319173812866 0.7443752288818359 -0.6323729753494263 2.5471112728118896 0.13071772456169128 -0.7638028860092163 1.021467924118042 -0.8140385746955872 -0.5152273774147034 0.28621965646743774 0.01467538345605135 -0.43221524357795715 0.4555590748786926 0.332032710313797 0.9625722169876099 0.944907009601593 -1.0173659324645996 0.5525973439216614 -0.4876844882965088 -0.9158963561058044 1.7096779346466064 0.979518473148346 -0.8664031028747559 -0.5900870561599731 -0.7686215043067932 0.6487292051315308 -0.9616096615791321 1.4183770418167114 0.14664554595947266 0.33281195163726807 -0.4604837894439697 0.3944287598133087 1.7663785219192505 -0.6492648720741272 -1.5058975219726562 0.49739310145378113 -0.9298046827316284 0.2063109576702118 -1.141269564628601 0.5675333142280579 1.7972649335861206 2.5516297817230225 0.4127023220062256 -0.31876108050346375 1.2719300985336304 -0.18060867488384247 -0.7866509556770325 0.1608756184577942 -0.7112550139427185 0.6062240600585938 -0.048674169927835464 0.1611962467432022 1.1642853021621704 0.007753130979835987 1.7331674098968506 -0.05105062574148178 -0.9664073586463928 0.8969177603721619 1.2973885536193848 0.38570788502693176 -0.8434820175170898 -0.47908642888069153 1.533318281173706 0.5536913871765137 0.6813263893127441 0.887554943561554 -0.3322151303291321 0.08755216747522354 0.1304612159729004 0.691261351108551 -1.5441160202026367 1.1027328968048096 -1.1856151819229126 -0.17132499814033508 0.040435098111629486 1.790968894958496 2.054370403289795 0.33070921897888184 -0.5035607218742371 0.06779813766479492 -0.3612092137336731 0.7115665078163147 -0.49557673931121826 1.0397835969924927 -2.455533266067505 0.20442995429039001 -1.0015137195587158 0.044969476759433746 -0.2189180999994278 0.2299841344356537 0.8763158917427063 -0.9865832328796387 0.08724889159202576 0.4612564146518707 0.2515683174133301 1.9077824354171753 1.079069972038269 0.3235137462615967 0.9097360372543335 -1.9693692922592163 -0.9237827658653259 0.5327944159507751 0.4257461726665497 1.5158789157867432 -0.05864575877785683 0.055682361125946045 0.003944075666368008 -1.6640520095825195 0.9214107990264893 0.29041361808776855 0.19440646469593048 -0.7334699034690857 0.15704423189163208 0.06069929897785187 0.2509956955909729 -0.5695580840110779 1.6231383085250854 0.1323281228542328 0.3711022436618805 1.5688673257827759 -0.8662145733833313 0.5687880516052246 -0.9415541887283325 -0.35495930910110474 1.2187221050262451 1.2976644039154053 -1.5024133920669556 1.4296908378601074 1.0912413597106934 -1.624703288078308 -0.4322260320186615 -0.5082293152809143 -0.05074713006615639 0.3025212585926056 -0.44576209783554077 -0.10220140218734741 0.026142144575715065 0.32960447669029236 1.0507452487945557 0.8683038949966431 -0.6309809684753418 -0.11894359439611435 -2.0125627517700195 -1.229468822479248 0.35853487253189087 2.633471965789795 0.7721810340881348 1.191712498664856 -1.082027554512024 -0.6649034023284912 1.1609382629394531 1.977294683456421 -0.8475091457366943 -0.49099206924438477 1.6508874893188477 1.1907143592834473 0.221679225564003 -0.6608874797821045 -0.46590593457221985 0.8584046959877014 0.3002082407474518 0.9070004820823669 0.2784822881221771 0.5313673615455627 -0.7928493022918701 -0.5655021071434021 1.1969150304794312 0.5412324666976929 -0.6895128488540649 0.5826539993286133 
vec21 0.6489400863647461 1.088337779045105 0.8858550190925598 0.7308106422424316 0.23215831816196442 1.658250093460083 0.6530404090881348 1.1966941356658936 -0.9746185541152954 1.969233751296997 0.2920435965061188 -0.23540733754634857 0.8799789547920227 -0.4476037323474884 -0.04982447624206543 1.3155832290649414 0.22170762717723846 0.05786146968603134 -0.2320181429386139 -0.4866045117378235 0.1713682860136032 0.316770076751709 1.2987560033798218 -0.5659615397453308 -0.5819685459136963 -1.7721513509750366 0.0654277577996254 0.34310296177864075 2.1109209060668945 -0.8261685371398926 0.9954376220703125 -0.3768625855445862 -0.9908878207206726 2.1844708919525146 0.32714641094207764 0.9326108694076538 -0.580991268157959 -1.1883589029312134 -0.3020196259021759 -0.22289934754371643 0.27727511525154114 -0.543397068977356 -0.5715754628181458 -0.005521606653928757 1.3941766023635864 1.6987186670303345 -0.07415689527988434 0.6207476854324341 0.6379378437995911 -0.2024211436510086 0.050691235810518265 -0.13063450157642365 -0.24461224675178528 0.7576135993003845 -0.6438038349151611 0.3546510636806488 -0.5232301950454712 1.6824707984924316 0.031025519594550133 1.9728772640228271 -0.34542229771614075 1.1419867277145386 0.7057813405990601 -0.7087811827659607 -0.7012532949447632 0.5080495476722717 0.0379621721804142 -0.6254001259803772 -0.738574743270874 -0.30927854776382446 0.9378746151924133 1.1935439109802246 1.2973428964614868 0.5382475256919861 0.6281596422195435 -1.6925055980682373 -0.7751614451408386 -0.7931255102157593 -0.9846069812774658 1.3636882305145264 -1.0111843347549438 0.09531272947788239 0.7386815547943115 0.6925274729728699 -0.4361499547958374 0.23081476986408234 -0.45425501465797424 1.7790287733078003 1.5741908550262451 -0.561369776725769 -2.04659104347229 -1.8786815404891968 0.6628156900405884 0.9615629315376282 -0.0476340726017952 1.1790251731872559 -0.10058467090129852 0.2936617434024811 0.5780590772628784 2.036367893218994 -0.42353489995002747 0.8884150385856628 -0.591144859790802 -2.1345102787017822 -0.6699613928794861 0.2876878082752228 2.371464252471924 -0.8241956233978271 1.7340972423553467 -1.51743483543396 0.6859800219535828 -1.1024144887924194 -0.9085808992385864 -0.48921191692352295 -0.8444326519966125 0.8217180371284485 -0.45540252327919006 -0.05724024772644043 0.5517717003822327 0.3000190556049347 1.31050705909729 -2.454698324203491 1.2145061492919922 1.1287997961044312 -0.8990191221237183 2.0028936862945557 0.33661964535713196 1.0640618801116943 0.17692320048809052 -1.1385451555252075 -0.8028798699378967 -0.0324028804898262 0.3178761303424835 0.526497483253479 0.8013450503349304 -0.9312007427215576 -0.000413582194596529 -0.34789320826530457 1.4975812435150146 0.12587939202785492 -0.2070646435022354 -0.17907162010669708 0.03417551890015602 0.7905107736587524 -1.5536271333694458 0.4008979797363281 0.2718832194805145 -0.7744120359420776 0.40106818079948425 1.7173415422439575 -1.6566826105117798 -0.7641811370849609 -0.8418288826942444 -1.2630422115325928 0.5646014213562012 1.0097835063934326 -0.4860776960849762 1.0583791732788086 1.707296371459961 -1.5272738933563232 0.9467689990997314 -0.7561675906181335 -1.3385814428329468 0.9058016538619995 -1.0135349035263062 -0.6286192536354065 1.1701805591583252 1.2989296913146973 1.0425463914871216 0.9602056741714478 -1.520620346069336 0.47661536931991577 -1.104164958000183 0.07800104469060898 0.4392527937889099 0.9222521781921387 -1.3989964723587036 -0.995424747467041 -1.0166810750961304 0.12306356430053711 -1.002988338470459 -0.4293948709964752 0.14293156564235687 1.1116268634796143 -0.03126883879303932 0.27652454376220703 1.5329091548919678 -0.7473081946372986 -0.630641520023346 0.39224711060523987 -0.6720365881919861 0.5977417826652527 -0.5278384685516357 -1.1724494695663452 0.3075379431247711 -0.8312380909919739 1.7696683406829834 0.28543004393577576 -1.0292737483978271 0.5539966821670532 
vec22 1.4718633890151978 2.18621826171875 1.3261687755584717 -0.9036454558372498 1.0443662405014038 0.4219350516796112 0.8269268274307251 0.625684916973114 -2.4571263790130615 0.028673440217971802 -0.9514275193214417 0.7084869742393494 0.32115107774734497 -0.43822622299194336 0.32761695981025696 0.8038197159767151 1.051578164100647 0.08412005007266998 1.3920701742172241 -0.7182660102844238 0.16537898778915405 -0.12281780689954758 -0.9113426804542542 1.5675854682922363 -2.153085708618164 -1.6570463180541992 1.5753170251846313 0.0005761048523709178 0.07834113389253616 -1.3464634418487549 0.6756797432899475 -1.1887646913528442 -1.2282003164291382 0.8573739528656006 0.7337756752967834 -0.6372747421264648 1.76437246799469 -1.6349105834960938 -0.9881948828697205 0.18230827152729034 0.7445538640022278 -1.5643279552459717 0.35576584935188293 0.1706417351961136 2.7303719520568848 -0.11465424299240112 -0.4297392666339874 0.7965746521949768 -0.04480021074414253 -0.9856472015380859 0.6996503472328186 1.0772125720977783 -0.0022248048335313797 -0.7916005253791809 -1.1387042999267578 0.9698830842971802 0.4934627115726471 0.43784838914871216 -1.1449072360992432 0.8289259672164917 -0.011932365596294403 -1.721617341041565 1.816640019416809 0.42202630639076233 -0.9874471426010132 -1.640389323234558 0.07171889394521713 0.9016201496124268 -0.7142609357833862 -0.6974217891693115 -0.16125093400478363 0.14416253566741943 0.5133652687072754 0.040728818625211716 1.1993403434753418 -0.5392810106277466 0.08293703198432922 -0.8243952393531799 0.4843176007270813 1.493739366531372 0.6422107815742493 -1.422052025794983 1.763630986213684 0.03972849249839783 -1.8490688800811768 0.3579641282558441 0.0634276494383812 1.513378381729126 0.3367120325565338 -0.14452587068080902 0.1474718302488327 -0.09745337814092636 0.9692967534065247 -0.2338854819536209 -0.6824617981910706 1.0216336250305176 -0.8979383707046509 -0.6147083044052124 -1.098784327507019 1.6976943016052246 -1.3633707761764526 0.15157480537891388 -0.3472839295864105 -1.0095715522766113 0.6028836965560913 2.1173973083496094 1.243721842765808 -0.020160416141152382 0.5471749901771545 -0.12041360139846802 -0.46917563676834106 -1.6845511198043823 -0.13699999451637268 0.9179434180259705 -1.6094505786895752 1.44767427444458 -0.43547937273979187 -0.876209020614624 0.09472381323575974 0.8742157816886902 -1.0086207389831543 -0.9492042660713196 0.4651108682155609 0.12425560504198074 0.48776349425315857 0.8751713037490845 0.3051338493824005 0.48297953605651855 -0.5018475651741028 -1.2533931732177734 -1.1819214820861816 -0.05567476153373718 -1.0146708488464355 -0.05856215953826904 0.35852494835853577 0.47550395131111145 0.5604508519172668 -0.7329967021942139 0.4646105468273163 -0.021834317594766617 1.6523891687393188 -1.0992637872695923 -1.4832004308700562 0.727872371673584 -1.1608601808547974 0.30567991733551025 1.9615778923034668 -1.6950172185897827 -0.8056505918502808 0.5262269973754883 -1.0646378993988037 0.0680595263838768 -0.3241327404975891 0.6858952641487122 1.0499622821807861 1.0215436220169067 -0.6463124752044678 0.32715919613838196 -0.4021810293197632 -0.7008284330368042 -0.616207480430603 -0.41848433017730713 0.09265876561403275 0.16569937765598297 -0.6252181529998779 0.19175854325294495 2.0035624504089355 -1.1962147951126099 0.3415576219558716 0.5094874501228333 -2.069180488586426 0.9423491358757019 -1.1799054145812988 0.36337709426879883 -0.8909754157066345 0.9014578461647034 -0.3497234582901001 0.3891836404800415 -1.5650742053985596 0.5214839577674866 0.23028576374053955 -0.10257859528064728 0.7088367342948914 0.7196270227432251 -0.48153242468833923 -0.6566591262817383 0.45310497283935547 0.057828374207019806 -0.9222108721733093 1.3574295043945312 0.6689888834953308 -0.05046853423118591 0.3047080934047699 0.7855011820793152 0.5006266832351685 0.23431770503520966 -0.5124240517616272 -1.0579197406768799 -0.11945540457963943 -0.5581846237182617 
vec23 -0.0174411553889513 1.2260757684707642 0.5066137909889221 -1.159681797027588 -1.0664021968841553 -0.2484348565340042 0.19719523191452026 2.0690083503723145 0.12295527011156082 1.1678723096847534 -0.5446150898933411 -0.49143528938293457 -1.8202779293060303 -1.0849857330322266 0.30834412574768066 0.21236634254455566 0.7932358384132385 -0.42632269859313965 1.0373157262802124 -0.23703184723854065 -0.7363194227218628 0.44851258397102356 -0.2472604215145111 1.085354208946228 0.38326096534729004 -1.737537145614624 0.7974076271057129 0.011467160657048225 1.7547234296798706 -0.10481251031160355 0.01510307751595974 -1.3375357389450073 0.5617334842681885 1.5554425716400146 0.06862027198076248 -0.8525850772857666 2.0467305183410645 -0.9921138882637024 -0.45518288016319275 0.15224473178386688 -0.769692599773407 -1.052193522453308 0.35305076837539673 -0.10459363460540771 0.695015549659729 1.1165212392807007 -1.157043695449829 0.4431283175945282 -0.3460864722728729 -1.4921162128448486 1.2552396059036255 -0.12052863836288452 0.8618261814117432 0.3122008144855499 -0.3696964681148529 0.12304894626140594 -0.07289957255125046 1.1895126104354858 0.47676709294319153 1.5653905868530273 -0.371021568775177 -0.061368755996227264 1.0343564748764038 -0.19690924882888794 1.2240773439407349 -0.3067663908004761 1.0945308208465576 0.5650522708892822 -1.0731372833251953 0.18632879853248596 -0.06009884551167488 0.27135440707206726 -0.5482035279273987 -0.6023197770118713 0.36960721015930176 1.049731731414795 0.3727009892463684 -1.225262999534607 -0.6760480999946594 2.2391226291656494 -1.3435299396514893 0.3841966688632965 0.8320050835609436 1.254271388053894 0.26882559061050415 -0.05727797746658325 0.29259616136550903 0.7928998470306396 2.595569372177124 -1.1165821552276611 -0.540098249912262 -0.6803505420684814 0.4098166227340698 -0.9387165904045105 -0.5804057121276855 0.05163991078734398 -1.4880242347717285 0.08969366550445557 -0.3658630847930908 1.0999218225479126 -0.4652273952960968 0.2616492509841919 -1.370053768157959 -1.8963711261749268 -0.5545221567153931 2.0585217475891113 0.8315969109535217 0.7563313841819763 0.13603104650974274 0.07750503718852997 -0.3554514944553375 -0.6494329571723938 -1.1645113229751587 0.10804041475057602 -2.332331418991089 -0.273662269115448 -0.7706066370010376 -0.19296811521053314 -0.10414843261241913 -0.3586282730102539 -0.46054160594940186 -1.262341022491455 -0.4806484282016754 1.454186201095581 -0.34528452157974243 1.7820204496383667 1.3287063837051392 -0.5432912111282349 -0.7590015530586243 -0.24315445125102997 -0.4458175301551819 1.3428984880447388 0.5932127237319946 -0.521843671798706 1.4689050912857056 0.7557018399238586 -0.05722353607416153 -1.100111961364746 0.7423322200775146 -0.7035700678825378 1.4753021001815796 -1.2040575742721558 0.30829915404319763 1.7249207496643066 -0.2813833951950073 -1.5991586446762085 1.9080307483673096 0.21575655043125153 1.1583073139190674 -0.259121835231781 0.09737509489059448 -1.2357958555221558 -0.5830199718475342 -1.6124852895736694 -0.8470253944396973 0.5962522029876709 -0.873022198677063 1.9735033512115479 0.7209611535072327 -2.073945999145508 -1.248042106628418 -0.727486252784729 0.17175208032131195 -0.5178155899047852 -0.6442431211471558 -0.5225240588188171 2.0272841453552246 -0.07598500698804855 1.712626338005066 0.4818277657032013 -0.8895419239997864 0.12346646934747696 -0.1482975333929062 -0.5089063048362732 -0.461838960647583 1.1676291227340698 0.19581305980682373 1.0666645765304565 -2.706458330154419 0.8481206893920898 -1.0589252710342407 -0.46482914686203003 0.4240066111087799 -0.5407413840293884 -1.5578246116638184 0.2919205129146576 1.2932243347167969 -0.30406153202056885 -0.16003863513469696 0.7825392484664917 1.1167659759521484 -0.5350032448768616 -0.3244801163673401 -0.5241097211837769 0.2687963545322418 -0.3155534565448761 1.5597615242004395 0.4014357030391693 -0.821595311164856 -1.1265896558761597 
vec24 -0.5551442503929138 3.3054707050323486 1.6046758890151978 -0.4805469512939453 -1.6380867958068848 0.4818328022956848 -0.08000089228153229 0.6497086882591248 -1.1967980861663818 0.49512067437171936 0.8345562815666199 -0.21748577058315277 0.4514274001121521 -0.3991974890232086 0.2775140702724457 0.0029549365863204002 0.7768789529800415 0.16838712990283966 1.7839435338974 -0.7448674440383911 1.865187168121338 0.4955637753009796 -1.0552490949630737 1.2102775573730469 -0.8114603757858276 -1.8267802000045776 0.5275816321372986 0.3459608852863312 1.986986517906189 -0.5856532454490662 1.1016535758972168 -0.5431576371192932 -1.0325679779052734 0.9149949550628662 -0.15517227351665497 -0.10789252817630768 0.5850942134857178 -1.9999291896820068 -0.27967700362205505 -0.6350361704826355 -0.18163080513477325 -0.7390537261962891 -1.3690156936645508 -0.9211441874504089 0.7512858510017395 1.347825050354004 -0.2666689157485962 1.2945748567581177 1.3639940023422241 -1.456554651260376 0.210399329662323 1.212243914604187 0.033794570714235306 -0.9148463010787964 -1.306394100189209 0.9475702047348022 0.3982074558734894 0.7799116969108582 1.3714345693588257 -0.04784304276108742 -0.34802478551864624 0.33944547176361084 -0.2913326025009155 -1.2329589128494263 -1.5687388181686401 -0.07632195204496384 0.1559523493051529 0.6437253355979919 -0.8376038074493408 -1.5953774452209473 -0.19859860837459564 0.3564578890800476 -0.9816468358039856 -0.8564152121543884 -0.1600908488035202 0.42236730456352234 0.3797418773174286 -0.8060064911842346 -0.9838831424713135 0.33289697766304016 -0.1963305026292801 -0.5771278738975525 0.500786304473877 -1.2868281602859497 0.7330628037452698 0.6511619687080383 1.0056549310684204 -0.0905068963766098 1.0971263647079468 -0.8289583325386047 -0.4641726613044739 1.5856621265411377 0.5183588862419128 -0.585239827632904 0.5070935487747192 1.1681218147277832 -1.203537106513977 1.6708433628082275 -1.177376389503479 0.7121232748031616 -0.859527587890625 0.2846272587776184 -0.37303707003593445 -0.5014146566390991 -0.354136198759079 1.3665497303009033 1.0960304737091064 0.0019450623076409101 -0.7670891284942627 0.05173051729798317 -0.9094178080558777 -0.44219908118247986 -2.1848301887512207 1.1679834127426147 -1.385859727859497 0.7603438496589661 -0.5372886061668396 -0.676999568939209 0.6694607734680176 1.1597615480422974 0.06777985394001007 -1.7156786918640137 1.2489937543869019 0.28221771121025085 1.2765536308288574 2.372645378112793 1.4352037906646729 0.4378068745136261 -0.5369877219200134 -0.6000387668609619 -0.2981802821159363 1.3688501119613647 -0.6633792519569397 0.7877110242843628 2.900456428527832 0.8474773168563843 -0.5700916051864624 -1.4793288707733154 2.1913702487945557 -0.939757764339447 0.22489921748638153 -0.48710212111473083 -0.18898001313209534 1.1972944736480713 0.4615110754966736 -0.20967794954776764 0.5825996994972229 -0.33570075035095215 1.2995028495788574 1.9413965940475464 -1.1326395273208618 -0.6285653114318848 -0.5755434036254883 0.13164055347442627 0.5605332255363464 -0.03677747771143913 0.8954530954360962 -0.7896088361740112 0.40778717398643494 -0.8874075412750244 -0.24330005049705505 -1.1394845247268677 -0.25662171840667725 -0.3852595090866089 -0.053390901535749435 -0.216760516166687 0.9680414199829102 -0.7288739085197449 2.9183576107025146 0.8588475584983826 -1.7628592252731323 0.5893979668617249 -0.10831005871295929 0.4836951494216919 -0.13010290265083313 1.2409991025924683 0.24977484345436096 0.6708463430404663 -1.7180031538009644 1.4441258907318115 0.45926207304000854 -0.6245725750923157 -1.1135704517364502 -0.1653391718864441 -1.1261695623397827 1.4302538633346558 0.3597550392150879 -0.8670239448547363 0.10051056742668152 1.3098262548446655 0.4048927128314972 0.23574422299861908 0.25569218397140503 -0.06559921056032181 -0.5801927447319031 -1.7155452966690063 0.6238539814949036 -0.7480588555335999 -2.2926836013793945 -1.2901744842529297 
