vec0 1.103727102279663 2.490032911300659 2.0070102214813232 -1.144326090812683 -0.22035758197307587 1.0815950632095337 0.05047716572880745 0.12047149986028671 2.6329407691955566 0.9091913104057312 0.6340011954307556 1.1477543115615845 -0.12142563611268997 0.06315013021230698 0.1820092350244522 0.7714436650276184 -0.7660495042800903 -1.1390380859375 0.06980299949645996 1.2731136083602905 -0.9390299320220947 -1.6517435312271118 -0.24327953159809113 0.20033414661884308 1.790902018547058 -0.8678418397903442 -1.3298583030700684 0.5181581377983093 -1.0168417692184448 2.5892035961151123 0.8564899563789368 -0.046994905918836594 -1.1780184507369995 0.8454659581184387 -0.25225144624710083 -0.6865320205688477 0.5889587998390198 0.20135487616062164 -1.5058379173278809 2.288783311843872 -1.1826353073120117 1.338173508644104 -1.0985110998153687 0.4014877676963806 0.5725884437561035 0.6999049782752991 0.6259644627571106 -0.8953714370727539 0.1901184469461441 0.03578503057360649 -0.49063315987586975 -0.031808625906705856 -0.1414046287536621 -1.596922516822815 0.25531846284866333 0.8661485314369202 -0.48317793011665344 0.02898397296667099 1.1908540725708008 1.0150967836380005 -0.04071151837706566 0.5997821688652039 -0.11841440200805664 0.46784305572509766 -0.4999253749847412 0.42062854766845703 3.1792140007019043 -0.6275812387466431 -1.2707778215408325 0.1881016194820404 -1.680973768234253 0.774427592754364 0.13659197092056274 0.4579780697822571 -1.760475754737854 0.3748321235179901 -1.0731847286224365 0.3396839499473572 0.663051962852478 0.4703900218009949 -0.6606142520904541 0.06464036554098129 -0.8301221132278442 -0.8532067537307739 -0.21156907081604004 -0.20353446900844574 0.6510598659515381 1.1158283948898315 0.3593735992908478 0.16717787086963654 0.41159406304359436 0.9172782897949219 -0.6032992005348206 0.6002071499824524 0.14882341027259827 -1.4074844121932983 0.1753142923116684 0.1352277398109436 1.5929569005966187 0.4367726147174835 -0.24958263337612152 -0.17724522948265076 0.1629209816455841 0.6212313771247864 0.7847987413406372 0.37655219435691833 0.2218802273273468 1.6073188781738281 0.5514920949935913 -0.16012221574783325 0.4384366571903229 0.7014222145080566 -0.30056053400039673 0.02849121019244194 -0.0990343764424324 1.1419767141342163 -0.44507041573524475 0.4449470639228821 0.8001853823661804 1.5495103597640991 -0.8348407745361328 -0.7967154383659363 -0.518532931804657 0.5815986394882202 1.4596202373504639 -1.4624223709106445 0.17235852777957916 1.6231968402862549 0.7448340654373169 1.5809051990509033 0.11755590885877609 -0.20324315130710602 -0.5073067545890808 0.6265241503715515 0.2905976176261902 1.238389253616333 -1.8205273151397705 0.5091143846511841 1.668196201324463 1.3822885751724243 0.14126361906528473 -1.525884747505188 -1.7263245582580566 -0.7785640358924866 -0.9115313291549683 -0.8998114466667175 -0.2385517656803131 -0.3761746287345886 -0.20075668394565582 -0.03688007965683937 0.14598293602466583 -2.494764804840088 0.16239002346992493 0.6729214787483215 0.0208933986723423 -0.3668147921562195 -2.0761806964874268 -0.0920792743563652 0.37323492765426636 0.06513551622629166 -1.3726547956466675 2.2663779258728027 0.06837300956249237 -1.3800740242004395 -1.3587896823883057 1.6817673444747925 -0.6787384152412415 1.4297997951507568 0.629443347454071 -0.12132313847541809 3.5234787464141846 0.6226909160614014 0.746974527835846 1.29038405418396 -0.44351717829704285 1.365407109260559 0.6140071749687195 0.34781163930892944 0.10284063965082169 -0.4924495816230774 -1.5882607698440552 -1.1393353939056396 -0.256721168756485 -0.037336789071559906 1.5192220211029053 -0.4943845272064209 0.8350686430931091 0.06660277396440506 1.4329004287719727 -0.6130526065826416 -0.3320119082927704 -0.009156404994428158 0.1979924589395523 -0.5552253723144531 -1.5886845588684082 -1.5240240097045898 0.6980141997337341 -0.16698117554187775 -0.2229584902524948 -1.0259897708892822 
vec1 0.0247234795242548 0.5185902714729309 0.39124825596809387 0.5014724731445312 -1.6437790393829346 1.0397145748138428 0.11324486881494522 1.031521201133728 0.922894299030304 1.85200035572052 0.7378206849098206 1.216842770576477 0.31023845076560974 0.003390369238331914 -0.19654931128025055 0.1844807118177414 1.4191691875457764 0.7233619689941406 0.017622297629714012 1.110716700553894 1.0846164226531982 0.2651926577091217 -1.5381855964660645 -1.72533118724823 -0.4739364981651306 -1.4483482837677002 0.36189985275268555 1.3128348588943481 0.3561221659183502 0.7030816674232483 -0.330066442489624 -0.42162400484085083 -0.7948320508003235 -0.8231790065765381 -0.31480759382247925 1.9386885166168213 0.7159578204154968 -0.702630877494812 0.03192343935370445 -0.24424539506435394 -0.8314669728279114 1.2539162635803223 -1.700801968574524 -0.1631069928407669 0.29349884390830994 -0.8097688555717468 -0.16190004348754883 -1.5071278810501099 1.9940071105957031 1.7761625051498413 -1.4049251079559326 0.05888849496841431 0.27674606442451477 -1.8479893207550049 -1.100711703300476 -0.9928808212280273 0.11677466332912445 -0.3497079908847809 0.35490837693214417 2.3761990070343018 1.1009880304336548 -0.5236721038818359 0.451429158449173 0.7893364429473877 0.05197126045823097 -1.21695876121521 2.2117013931274414 -1.079410195350647 1.3372492790222168 0.3543795645236969 -0.9067111015319824 0.9362339973449707 0.4609449803829193 0.6762533783912659 -0.9497044682502747 -0.3272731602191925 -1.7925764322280884 0.9027346968650818 0.8326194286346436 1.0840270519256592 0.14026829600334167 -0.4767264127731323 -0.1205337792634964 -1.1232837438583374 2.080054759979248 -1.9725967645645142 -0.14937448501586914 -0.7099778056144714 1.8896464109420776 -0.8517178297042847 0.27912259101867676 0.2040487825870514 0.12122631072998047 -0.5304770469665527 0.5699600577354431 0.10424051433801651 -0.12622009217739105 -0.15679292380809784 0.23048794269561768 1.1020159721374512 -1.0131020545959473 -1.5399839878082275 0.0437721386551857 -0.3661309480667114 -1.1135132312774658 -1.123225212097168 0.409196674823761 -0.6454325914382935 1.1678247451782227 -0.9639520049095154 -0.8043974041938782 -1.4789419174194336 -1.065173625946045 0.7538385391235352 -0.8901143670082092 -1.2639111280441284 0.5672137141227722 0.4538049101829529 -0.3725537359714508 -1.1709167957305908 0.744423508644104 0.6900573372840881 -0.8887714147567749 0.915810763835907 0.5741304159164429 1.056238055229187 1.1286251544952393 -0.5336329936981201 1.6877022981643677 0.7309820055961609 0.4036882519721985 1.0277758836746216 -1.0424249172210693 0.41594383120536804 0.3152505159378052 -1.0032283067703247 -0.06768590956926346 1.2595375776290894 -0.7048336863517761 -0.06656552106142044 -0.2147890329360962 1.2468613386154175 -0.030749255791306496 -1.688604712486267 0.3691328465938568 -1.0655957460403442 -1.6981979608535767 -0.551408052444458 0.8804778456687927 -0.770390510559082 -0.6915048956871033 -0.8820866942405701 -0.75108402967453 0.7232384085655212 -0.6493309140205383 1.2833045721054077 1.3644193410873413 0.21912024915218353 -1.044467806816101 1.1032618284225464 1.0983335971832275 1.22666335105896 1.2482211589813232 -0.4964981973171234 0.12763507664203644 2.567136764526367 0.02183672785758972 0.7207005620002747 1.2454833984375 1.9588871002197266 0.2601436972618103 0.03955620154738426 -0.8691629767417908 0.8962790966033936 -0.01879403367638588 0.5811272263526917 0.39322522282600403 -0.7655652165412903 -0.9672685265541077 -1.420833706855774 1.1672834157943726 -1.0999213457107544 1.0282862186431885 0.29460442066192627 -0.06542990356683731 -0.6480157375335693 0.411356121301651 -0.16151393949985504 0.38241010904312134 -1.6510182619094849 0.4664123058319092 -1.0425550937652588 0.26909834146499634 -1.143966555595398 0.15118379890918732 0.7509838938713074 1.448228120803833 1.0346007347106934 -0.451224148273468 -1.895868182182312 
vec2 -0.53599613904953 -0.9660857319831848 -0.7515167593955994 1.0600855350494385 -0.10756485164165497 1.6261301040649414 0.4141346216201782 1.2757229804992676 0.9654386043548584 0.45812273025512695 1.0414373874664307 -0.4144293963909149 1.4438022375106812 0.19677911698818207 -1.6656826734542847 -1.1485587358474731 -0.024696895852684975 -0.8195356130599976 -0.6243443489074707 0.5142245888710022 1.4085830450057983 -1.158106803894043 -0.9394726753234863 -0.3234172761440277 -0.9064564108848572 -1.1777575016021729 0.8384309411048889 -0.3187216520309448 -1.603390097618103 -0.22013762593269348 0.49062079191207886 0.20632512867450714 1.203953742980957 -0.4148673415184021 -0.9364621043205261 -0.15891896188259125 0.47512751817703247 -0.3374220132827759 0.68602055311203 0.15625007450580597 -0.09818676859140396 1.0218509435653687 -1.8367080688476562 0.5234206914901733 1.4100956916809082 -1.1018799543380737 1.1257593631744385 0.48065468668937683 -0.30168983340263367 0.27747243642807007 0.6302821040153503 -1.5651280879974365 -0.18918228149414062 0.6472853422164917 0.6272610425949097 -1.2797890901565552 0.7787224054336548 0.5141028761863708 0.9059945940971375 0.6930708885192871 -0.19212444126605988 0.4957408607006073 1.0103741884231567 -1.4092704057693481 -0.8382139801979065 -0.7508878707885742 0.21726113557815552 -0.5485153198242188 -0.9414102435112 -1.245766043663025 -0.2974678575992584 -0.6237378716468811 0.44347575306892395 0.5835099220275879 -1.0317853689193726 -1.6947710514068604 1.110671043395996 1.2320204973220825 1.1485344171524048 -0.7430407404899597 -0.9961177706718445 -0.44278115034103394 0.9238811731338501 0.9348379969596863 -0.24028156697750092 0.354140967130661 1.2961913347244263 0.4288334250450134 0.2584848403930664 1.3596813678741455 -0.6133667230606079 -0.6133996844291687 1.701856017112732 -1.2616370916366577 0.3575737774372101 0.2274266630411148 1.1602270603179932 0.02506614848971367 2.1267991065979004 -0.11090636253356934 -0.1315479874610901 -0.947247326374054 0.7077381014823914 -0.300700306892395 0.6298602819442749 1.45600163936615 0.3875579535961151 0.25617465376853943 -1.9193705320358276 -1.9157224893569946 -0.9139285087585449 -1.2397096157073975 -2.929452657699585 -0.1034315750002861 -0.209242582321167 -1.3156025409698486 0.05191342532634735 1.3968759775161743 -0.7306960821151733 0.29153355956077576 -1.1135773658752441 -0.33452844619750977 0.9213917255401611 0.2002396434545517 -0.693725049495697 0.03544381633400917 -0.696505069732666 1.211913824081421 1.5673470497131348 -1.3569179773330688 1.1579984426498413 -2.8213284015655518 -0.6524366140365601 -0.5478016138076782 0.5633750557899475 0.1493522673845291 -1.848726749420166 -1.2680809497833252 -0.32050734758377075 0.4485437273979187 0.12057741731405258 -1.7849197387695312 -0.0025268150493502617 -0.0007516231271438301 -1.3686479330062866 -1.0196807384490967 0.4512438476085663 0.06716498732566833 0.13852937519550323 0.7827185988426208 0.8244416117668152 0.28085610270500183 -1.484850525856018 0.49046269059181213 0.5655085444450378 -0.8684407472610474 -0.6079624891281128 0.9233729243278503 0.3961869180202484 -1.3261058330535889 1.7157455682754517 -1.1415112018585205 -0.4610576927661896 -0.5860128998756409 -0.8285197615623474 -1.5490460395812988 0.52454674243927 0.5028061866760254 0.4202287495136261 -1.9867994785308838 0.5020630359649658 0.2498311698436737 -0.042808499187231064 0.08777060359716415 -0.019291086122393608 -0.592467188835144 0.06248614564538002 -0.21875999867916107 0.38884463906288147 -2.2676944732666016 -0.19105054438114166 1.141310214996338 -1.294306755065918 -0.07697533071041107 0.4158249795436859 -0.2548030912876129 -1.314947247505188 1.7591586112976074 -0.23343543708324432 -0.0764412209391594 -1.5815097093582153 -0.7028607726097107 0.8189008235931396 0.1478549987077713 0.20160025358200073 0.5869167447090149 1.609872579574585 1.668045163154602 0.09598907083272934 -0.05594518408179283 
vec3 -0.4520937204360962 -0.02196461148560047 -0.28999054431915283 -0.8781147599220276 -0.044251296669244766 3.1132514476776123 -0.33344343304634094 -1.4939169883728027 0.20415718853473663 1.7201398611068726 -0.11888637393712997 -0.1952957808971405 0.2089458554983139 -1.0760056972503662 -0.5634264349937439 0.6865989565849304 -1.0672062635421753 1.0172096490859985 0.030256133526563644 -1.0544918775558472 -1.1901379823684692 -1.0288292169570923 -0.7338896989822388 0.5805546641349792 -0.4588505029678345 0.8315474390983582 -1.2105121612548828 1.6740150451660156 0.07448040693998337 0.7595126628875732 -2.355468988418579 1.912421703338623 -0.9496778249740601 -0.37609612941741943 -1.1911776065826416 0.7057685256004333 -0.4697953462600708 -0.16635699570178986 1.0416234731674194 -0.4635229706764221 -1.2645608186721802 1.967267632484436 0.5304878950119019 -1.1625065803527832 0.06634281575679779 0.4160419702529907 -1.7168803215026855 -0.2689256966114044 -0.11831976473331451 -0.08743494004011154 -0.5437064170837402 -0.7454107403755188 -0.37833887338638306 -1.1658884286880493 0.7302206754684448 0.9698811769485474 0.045285776257514954 -0.6719759106636047 1.106821060180664 0.5826287269592285 -0.24995329976081848 -0.31147101521492004 0.08941729366779327 -0.5853619575500488 -0.7456451654434204 -0.09716111421585083 0.7766045928001404 0.835452675819397 0.2877645790576935 1.309948205947876 0.34976887702941895 -0.04252645745873451 0.07889681309461594 0.017438702285289764 1.1504052877426147 -0.8448020219802856 -0.18768852949142456 0.11300690472126007 -1.603371024131775 -2.675050973892212 -1.386936902999878 -0.39370420575141907 -0.5460953116416931 1.4734907150268555 0.32798251509666443 -0.29997721314430237 0.4778580665588379 1.0147289037704468 0.2555980682373047 -0.07020983099937439 1.497214913368225 -0.937792956829071 0.8198294043540955 -0.2900943458080292 0.15816187858581543 -0.46914249658584595 0.6846858263015747 0.584132194519043 0.25910255312919617 -1.1332111358642578 -1.1209512948989868 -0.006586906500160694 -0.5403494238853455 0.4343108534812927 0.5879046320915222 2.897092580795288 -0.2589391767978668 0.2664833068847656 -0.35850197076797485 -1.615600824356079 0.9916686415672302 -0.6936378479003906 -0.3489936590194702 1.2650026082992554 -1.7512809038162231 -1.3325512409210205 -1.2047778367996216 0.5129925608634949 -0.7728691697120667 1.029704213142395 -0.10950290411710739 -0.17861409485340118 1.4301908016204834 -1.1738975048065186 0.204654261469841 0.7477260828018188 0.003671901533380151 1.4312819242477417 -0.2242172211408615 0.08433917164802551 0.5523257255554199 -1.7160186767578125 -1.3461620807647705 -0.6736673712730408 0.7563139796257019 1.1202888488769531 0.09237943589687347 1.0819238424301147 -0.00982943456619978 2.328183174133301 -0.20304961502552032 1.628843903541565 0.36296460032463074 -0.1778155118227005 1.2463772296905518 2.401216983795166 0.6855555176734924 -0.0166956577450037 -0.05839838087558746 -0.2741648852825165 0.417146772146225 -0.6908363699913025 -1.7637828588485718 -0.6127927899360657 -0.08737808465957642 0.3360676169395447 1.229694128036499 0.6290397047996521 0.048772238194942474 1.0664889812469482 -1.018617033958435 -1.926766276359558 0.5701642036437988 0.30622658133506775 -0.055168092250823975 -1.7409090995788574 -0.3864619731903076 -0.04844443500041962 -0.14391487836837769 -0.7201749086380005 -0.44892117381095886 -0.710994303226471 0.7089906930923462 0.7811028957366943 0.8401508331298828 0.3599614202976227 -1.7689934968948364 0.5372024178504944 -0.9548797011375427 -0.6828324198722839 -0.9209620356559753 -2.3178393840789795 0.9038155674934387 0.8551751375198364 -1.8448656797409058 0.24967674911022186 0.7039644122123718 -0.3808450400829315 0.1294725388288498 -1.2670674324035645 -0.26759395003318787 0.8095849752426147 -1.2021842002868652 0.3622013032436371 -1.397481918334961 -0.3223942518234253 -1.0189660787582397 -0.41916707158088684 -0.3036777973175049 -1.5308114290237427 
vec4 0.07985055446624756 -0.011972376145422459 -0.49998265504837036 1.1700245141983032 0.6514425873756409 2.8812661170959473 0.8360312581062317 0.09578096866607666 0.9408524036407471 1.7379298210144043 -0.7292107939720154 -0.21398381888866425 1.9691739082336426 -1.1095157861709595 -0.19961130619049072 -0.7924054861068726 -0.4412631392478943 0.750038206577301 -0.47389844059944153 -1.542083978652954 -1.0641212463378906 0.5927903056144714 -1.2539713382720947 0.2735866606235504 1.9777377843856812 -0.9140961766242981 -1.2592757940292358 -0.42391613125801086 1.2361977100372314 -0.4515778422355652 -0.15983667969703674 0.047400325536727905 2.720806360244751 -1.9829570055007935 -1.4296835660934448 1.568406581878662 0.10864094644784927 0.13488733768463135 0.7069737911224365 0.9371167421340942 -1.000546932220459 0.12948957085609436 0.6130029559135437 -0.9578224420547485 -0.7342686653137207 -1.3050605058670044 -0.36414486169815063 0.14943474531173706 -1.5411871671676636 -0.44278451800346375 -0.5588449239730835 -1.479986310005188 1.4987958669662476 -0.20593829452991486 -1.8688514232635498 1.3122177124023438 -0.39406371116638184 -0.5258015394210815 -0.6871123313903809 -1.7295169830322266 0.5246568322181702 -1.4998009204864502 1.7277711629867554 -1.8185617923736572 -0.18960939347743988 1.0514572858810425 0.3653194010257721 -0.14837117493152618 0.00677138939499855 -0.6330900192260742 -0.10170204192399979 1.3769928216934204 -0.4535435736179352 -0.13091179728507996 0.7040655612945557 -1.444206714630127 0.5790221691131592 -0.6375346183776855 0.08572477847337723 -0.26049789786338806 0.4346608519554138 0.875861644744873 -0.841923713684082 0.42452970147132874 -0.3478796184062958 0.6328486800193787 1.804586410522461 -1.186537742614746 -0.7035015821456909 -0.8751051425933838 0.046473000198602676 -0.5174924731254578 0.1990601122379303 -0.0023855986073613167 1.230381965637207 -0.9558539390563965 1.01520574092865 -0.052259910851716995 1.0319781303405762 -0.4093835651874542 -0.46137702465057373 0.17319008708000183 0.4374387562274933 0.3955478072166443 1.6594994068145752 1.5463427305221558 -0.6001928448677063 -0.15150141716003418 -0.185716450214386 0.5585846304893494 -0.9266344904899597 0.20398347079753876 1.6313811540603638 -0.6832440495491028 -1.1555790901184082 -0.01777222938835621 -0.28116247057914734 1.6300804615020752 -0.5201853513717651 1.5734163522720337 -0.05006706714630127 -0.08897627890110016 -0.9236501455307007 -0.8155102133750916 -0.2714962065219879 1.8430074453353882 -0.9423899054527283 -0.09741520136594772 0.12440356612205505 -0.028040876612067223 0.6625462174415588 0.9747834801673889 0.12534916400909424 0.7704518437385559 0.45740342140197754 0.34335318207740784 -0.7663469910621643 -0.05911156162619591 -1.758208155632019 0.6209291815757751 0.17280875146389008 -0.3745051324367523 0.602773129940033 -2.312910795211792 1.7463603019714355 -1.4172704219818115 0.7652864456176758 -0.1571928709745407 1.46445894241333 -0.34877997636795044 -0.6559391021728516 -0.04895959794521332 1.279550552368164 0.7554164528846741 1.4563980102539062 -0.5746375918388367 -0.7641347050666809 1.207234501838684 -1.5094534158706665 -2.6208200454711914 -0.9149087071418762 1.0717045068740845 0.5968619585037231 -0.34495484828948975 1.2107304334640503 -0.6774452924728394 -1.6339982748031616 -1.0275330543518066 -1.9312785863876343 0.07522635906934738 1.9659013748168945 0.1039997935295105 -1.3936065435409546 1.8026082515716553 1.186747431755066 -0.4373757839202881 -0.8826412558555603 -1.5677824020385742 0.7986831665039062 0.019856249913573265 -0.557455837726593 1.3999160528182983 -1.3735347986221313 1.9922196865081787 1.1058446168899536 1.0895425081253052 -0.5612662434577942 0.23443706333637238 1.2859852313995361 -0.6013963222503662 0.47150835394859314 0.8014245629310608 0.40217795968055725 0.9758889079093933 2.2041869163513184 -1.5217359066009521 0.07252907752990723 0.6650078296661377 0.47272542119026184 2.046623945236206 
vec5 -0.14407892525196075 -0.157772958278656 -0.8997704386711121 0.25205644965171814 0.6876965761184692 1.3497107028961182 -0.1824505776166916 -0.15799129009246826 1.7334791421890259 2.0691781044006348 0.1555883288383484 0.46201154589653015 2.001239061355591 0.12306584417819977 -0.7780792713165283 -0.4248175621032715 -0.5985383987426758 0.9835397601127625 1.5781052112579346 -0.1099204421043396 0.8106886148452759 1.231171727180481 -0.0250546894967556 -0.6567583680152893 -0.2652350664138794 -1.3927886486053467 0.3023765981197357 -1.126857876777649 0.4983465373516083 -0.21073797345161438 -1.4524272680282593 -0.5470520257949829 1.0934633016586304 -1.4808473587036133 -0.12404706329107285 0.4663107693195343 0.3025563657283783 3.5486743450164795 -0.7538861036300659 0.8583114743232727 0.270159512758255 -0.14441026747226715 -1.540928602218628 0.2047203928232193 0.8649887442588806 2.0814762115478516 -0.6911338567733765 -0.10371149331331253 0.09740717709064484 -0.06477105617523193 -0.49822649359703064 -0.8530220985412598 1.6194883584976196 1.645233154296875 -0.7759051322937012 -2.381319522857666 1.5079081058502197 1.0131828784942627 -0.11503332108259201 0.615565299987793 -0.11906212568283081 -0.5711012482643127 1.2439956665039062 0.9336644411087036 -0.6253517270088196 -0.47343918681144714 -0.22160813212394714 -0.19484587013721466 -0.35327208042144775 -0.09859270602464676 -0.3026875853538513 -0.46250414848327637 -0.14360259473323822 -1.6872527599334717 -1.8735936880111694 0.9257574677467346 0.8692882061004639 -0.5044158101081848 1.5785200595855713 -0.2759285867214203 -1.6613283157348633 -0.9594017267227173 -1.3823797702789307 -1.0693457126617432 1.2048276662826538 -1.4187572002410889 -1.4844448566436768 0.539934515953064 1.1824185848236084 -0.7341549396514893 1.0130871534347534 1.4301832914352417 1.807590126991272 -0.5160974264144897 -1.604365587234497 0.01912926323711872 0.3716796636581421 -0.7653507590293884 0.40876632928848267 0.20326213538646698 -2.206583023071289 0.037482500076293945 -0.3959031105041504 0.6119905114173889 0.39644667506217957 -0.6452256441116333 2.1108713150024414 -0.42217621207237244 2.802266836166382 0.23260827362537384 -1.4682972431182861 -0.919560968875885 -2.3146719932556152 0.46205607056617737 -1.3386386632919312 -1.2748109102249146 1.1000360250473022 0.962661623954773 -0.8952873349189758 0.0016414392739534378 0.5640127062797546 -0.7302374839782715 -0.5937305688858032 0.311587929725647 0.7449933290481567 0.26646292209625244 -0.17725253105163574 0.27843067049980164 1.8201262950897217 2.557464599609375 -0.530174195766449 0.25216302275657654 0.8470548391342163 -2.963711738586426 -0.13704687356948853 -0.6133812069892883 -0.33958783745765686 -1.3876489400863647 0.20658665895462036 0.35633012652397156 -1.3324131965637207 0.7558282613754272 -1.6517657041549683 -0.8428279161453247 0.7570943832397461 -0.9483396410942078 -0.13618381321430206 -0.010562182404100895 1.908937692642212 1.2705614566802979 -0.050580624490976334 -1.187168836593628 -0.5678607225418091 -0.060118868947029114 1.0215442180633545 -0.45191624760627747 1.0450328588485718 1.16382896900177 -1.9480273723602295 -1.547770380973816 0.41669562458992004 1.4556496143341064 1.1993942260742188 1.2451272010803223 -0.36796724796295166 1.2227282524108887 -0.4826846420764923 0.9766104817390442 -1.2025362253189087 1.3646210432052612 1.3907194137573242 -0.9754436612129211 -0.3067100942134857 1.6572070121765137 -0.36643290519714355 -0.06536602973937988 -0.9051634669303894 -0.26824337244033813 1.43324613571167 -2.1418399810791016 0.07850322872400284 0.3572535514831543 -1.4444785118103027 0.012063344940543175 -1.6227620840072632 0.5664995908737183 1.1149060726165771 -1.2275937795639038 -0.8117090463638306 0.6016004681587219 0.9594590663909912 0.24435095489025116 -0.47739049792289734 2.129756212234497 0.35176241397857666 -0.038706421852111816 0.1646019071340561 0.3270212411880493 -0.313313752412796 0.5393056869506836 
vec6 -0.7569878101348877 -1.089213490486145 -0.9360830187797546 2.9181833267211914 0.4383796453475952 -0.8049501776695251 0.4680878818035126 -0.5202124118804932 0.6824588179588318 0.7556530237197876 -3.3746745586395264 0.04958575591444969 1.169628620147705 0.385429322719574 -1.3852671384811401 -1.261669635772705 -0.7636046409606934 -0.15959884226322174 -2.283353328704834 0.5854619741439819 -0.4842037558555603 -0.15514440834522247 0.1822047233581543 0.42100322246551514 -1.444342017173767 -2.21382999420166 1.2083643674850464 0.026785921305418015 0.34257587790489197 -0.023647164925932884 -0.22415411472320557 -0.23535741865634918 0.7549149990081787 -0.849524736404419 -0.10752870887517929 0.8398823142051697 0.3609766364097595 -0.042798273265361786 -1.6962097883224487 1.8655670881271362 0.47454357147216797 0.5321528911590576 -0.8056546449661255 0.4185730516910553 -1.5327503681182861 1.5234884023666382 -0.35247135162353516 -0.4895077049732208 1.5877841711044312 -0.10174022614955902 -0.05355308577418327 -0.5427989959716797 -0.2505466341972351 0.39509350061416626 2.1179893016815186 0.1117260679602623 -0.4391946792602539 0.7729346752166748 0.6830149292945862 0.391814649105072 -0.9637760519981384 -0.20735038816928864 -0.5546640753746033 -0.20329460501670837 1.3683240413665771 -1.8048043251037598 -0.6302821636199951 -0.7675091028213501 -0.0977821946144104 1.195354700088501 -2.2258405685424805 0.8156099915504456 0.5202442407608032 0.6215232014656067 0.74359130859375 1.1936191320419312 -1.0000500679016113 -2.5207104682922363 -0.8293246030807495 0.5964992642402649 0.7358018159866333 0.5779789686203003 -1.9296753406524658 0.7265788912773132 0.5107369422912598 0.3743823766708374 1.280950903892517 0.4371624290943146 0.7291203141212463 -2.4357035160064697 1.6499277353286743 1.7379900217056274 -1.1032286882400513 -0.5034669637680054 -0.7447903752326965 0.18905657529830933 -0.07675866037607193 -1.7013198137283325 1.3152211904525757 0.012473833747208118 -0.8148579597473145 -0.3206464648246765 0.9266993999481201 -0.058542557060718536 -0.6214412450790405 0.43535372614860535 2.4717764854431152 -0.11606106907129288 -0.7682679295539856 -0.7460918426513672 -1.1327095031738281 -0.494830459356308 0.06532086431980133 0.22984258830547333 -0.4195195436477661 0.13942646980285645 1.8474153280258179 1.3457283973693848 -0.3081444799900055 0.4612840712070465 -0.7408624887466431 1.689043402671814 0.6002811789512634 0.7947207689285278 0.4943595230579376 -0.02914600633084774 -0.04886337369680405 0.10542991757392883 0.9978014230728149 0.10656577348709106 0.7877603769302368 -1.777017593383789 1.0213992595672607 0.0017066089203581214 0.010070744901895523 -1.8774691820144653 -1.3997094631195068 0.22708603739738464 -0.9846146106719971 -0.9530017375946045 0.22327828407287598 -0.7650802731513977 -0.3579109013080597 -1.4800440073013306 -1.4983971118927002 -0.7753559350967407 -1.0129162073135376 -0.4579286277294159 1.199055552482605 -0.9439347386360168 1.7688177824020386 -1.1993359327316284 0.4889569580554962 0.3239606022834778 0.35499072074890137 1.347489356994629 0.04970860853791237 0.4296684265136719 0.13453932106494904 -1.7040934562683105 -0.23529019951820374 -0.525945782661438 -1.8269531726837158 1.2392728328704834 2.179226875305176 0.6534906029701233 0.09163449704647064 1.9855835437774658 -1.6525202989578247 -0.15863670408725739 2.0216410160064697 0.7933076620101929 2.0994455814361572 -0.4079858958721161 0.540992259979248 -2.128448247909546 1.0023307800292969 2.0169026851654053 0.25919464230537415 -0.4823899269104004 -0.10229314863681793 -1.2129936218261719 0.3454718589782715 0.2132529765367508 1.153139591217041 -0.8059116005897522 0.15288548171520233 1.04253089427948 0.5717667937278748 -0.7929677963256836 -0.8829157948493958 0.5426928997039795 -0.8706567883491516 -0.7162140011787415 -0.11096744239330292 -1.3748441934585571 0.4714810252189636 -0.13151815533638 -0.4427849054336548 0.4262382984161377 
vec7 -1.5144492387771606 -1.363905668258667 -0.21501511335372925 -0.272012859582901 1.029653549194336 -0.025342153385281563 1.6709097623825073 0.11625314503908157 1.130688190460205 -0.4067542850971222 0.8194382786750793 1.1726248264312744 -0.19927337765693665 -0.6339040994644165 -0.17207707464694977 -0.42305606603622437 -0.5626636743545532 -0.5152662396430969 0.39504262804985046 -0.6819895505905151 -1.0308318138122559 -2.160965919494629 1.7438125610351562 1.969306468963623 0.4105125963687897 -0.440883994102478 0.18275770545005798 -0.3217955231666565 1.7173786163330078 -0.5498352646827698 -1.1554900407791138 -0.798054575920105 -0.7914866805076599 -0.2896280884742737 0.5155860185623169 -0.44001203775405884 -0.7294272184371948 1.1707253456115723 -0.9666619896888733 -0.6299113035202026 2.474442958831787 -0.3718077540397644 0.2844773828983307 -0.8194541335105896 -0.7190200686454773 -1.2301262617111206 0.5518107414245605 1.2842496633529663 2.0667266845703125 -0.651725172996521 0.5038402080535889 -0.2945842742919922 0.6654555797576904 -2.3897523880004883 -0.11568066477775574 -0.39874371886253357 -0.24601951241493225 -0.33683857321739197 0.2957600951194763 1.6406376361846924 0.7176244258880615 -0.03751198947429657 0.8435888290405273 -1.717550277709961 -1.024833083152771 0.5421748757362366 1.6614362001419067 -0.21109162271022797 -0.0198358241468668 -0.09442172944545746 0.6469101309776306 0.06538928300142288 -1.2138841152191162 0.6374116539955139 0.19036369025707245 0.4335613250732422 1.8395925760269165 -0.1790408492088318 -0.4104683995246887 -0.5903909802436829 -1.2399945259094238 -1.0528796911239624 -0.5181344151496887 0.7094862461090088 0.1954774707555771 0.19060474634170532 -0.541465699672699 0.17524360120296478 0.5525086522102356 -1.0073763132095337 0.5755590200424194 -0.3688439428806305 1.4367583990097046 2.616809368133545 1.1572198867797852 0.33985990285873413 -0.2768085300922394 0.4212954044342041 1.5333881378173828 -0.2555658519268036 -0.2924366593360901 0.9968162775039673 0.4622112512588501 -0.49676162004470825 1.3326777219772339 0.5026780366897583 1.4839497804641724 0.46278926730155945 -0.7228924036026001 -0.24176090955734253 -0.9143943786621094 0.1781242936849594 -0.6437948346138 -1.4144408702850342 -2.004223108291626 -1.586525559425354 1.463926076889038 1.4416084289550781 -0.3819100260734558 1.0739161968231201 -0.8097977042198181 -0.6347547173500061 0.6893337368965149 1.7183419466018677 1.3131908178329468 -0.5784447193145752 -0.6489759683609009 0.1848607212305069 0.817595362663269 0.9622014164924622 1.1605533361434937 -1.773449182510376 0.9295246601104736 -0.7528083324432373 -0.3575045168399811 -1.3051029443740845 -1.0950084924697876 -1.3360888957977295 0.4860708713531494 -1.5432782173156738 -1.7575840950012207 -0.8436140418052673 0.5732342004776001 -0.4967159032821655 -0.7224377989768982 0.29831603169441223 -1.161418080329895 1.0974254608154297 0.9700866937637329 -1.187597393989563 0.13219913840293884 0.8890030980110168 0.415052592754364 0.8428121209144592 -2.035639524459839 -0.24750398099422455 -1.9224656820297241 1.1243177652359009 -1.4331423044204712 -1.852098822593689 -0.8793099522590637 -0.2149246782064438 1.369259238243103 -0.4458720088005066 -0.4533044397830963 -0.6341899633407593 1.1436736583709717 1.6978089809417725 -0.7591250538825989 -1.072124719619751 -0.23743359744548798 0.3154311776161194 -1.0276899337768555 0.23442451655864716 0.6980009078979492 -0.30149251222610474 1.955660104751587 -0.3334411680698395 0.3610856533050537 0.269124835729599 -0.8069605827331543 0.106334388256073 -0.8353208899497986 0.03142285346984863 -1.7927545309066772 0.1221042275428772 -0.7674905061721802 1.0182374715805054 0.3150506615638733 0.03141883388161659 1.132224440574646 0.40838465094566345 -0.7951628565788269 -0.6091970205307007 -0.7912217974662781 0.1705019772052765 0.3879971206188202 -0.32979249954223633 1.086698055267334 -0.179759681224823 
vec8 0.7580606341362 1.109397053718567 1.1948472261428833 1.0938894748687744 1.7364132404327393 1.0795445442199707 0.5994978547096252 -0.2992632985115051 1.3285616636276245 0.6466426849365234 -0.9328464269638062 -0.49318230152130127 0.04326936975121498 -1.2091224193572998 -1.0730475187301636 -0.8859274387359619 -1.0221000909805298 -0.8725317716598511 1.361209750175476 -0.6893706917762756 1.8805439472198486 0.03742736577987671 0.3853450417518616 1.1472574472427368 1.089415431022644 0.08708423376083374 0.532016932964325 -0.484745055437088 0.5359485149383545 1.6671913862228394 -0.5726974010467529 -2.3532097339630127 -0.7514652609825134 0.33185288310050964 -0.789186954498291 1.9025216102600098 -0.1962696760892868 0.2928037941455841 -0.4421088993549347 1.6199262142181396 -0.0068595195189118385 1.2042768001556396 -1.0321660041809082 1.0334972143173218 -0.31347671151161194 0.5246880054473877 -0.8149869441986084 -1.3567436933517456 0.7982348203659058 1.0736082792282104 -0.8117548823356628 -0.7383144497871399 -0.41440725326538086 1.616161584854126 2.014723062515259 -0.3941059410572052 0.5751367211341858 1.2005572319030762 0.031979408115148544 -0.5444296598434448 0.36982250213623047 -0.15263806283473969 -0.9303753972053528 -1.6136219501495361 -1.150429606437683 -0.808885931968689 1.0517133474349976 -0.7099483609199524 0.117874376475811 -1.1444196701049805 -0.9788259267807007 2.1615304946899414 -0.9429961442947388 1.4818387031555176 1.3630815744400024 -0.841516375541687 -0.3563096523284912 1.0867223739624023 2.2505741119384766 -0.5620161294937134 0.5568514466285706 0.6586693525314331 1.8577580451965332 0.7720211744308472 0.6212979555130005 -0.13542234897613525 1.6475965976715088 0.2205289751291275 -0.5084016919136047 1.688313364982605 0.7057890892028809 1.3649840354919434 -0.22711244225502014 -0.11953898519277573 -0.20309457182884216 -0.06510357558727264 1.013838768005371 0.03574775531888008 1.936161994934082 0.09823323786258698 1.371287226676941 1.2270091772079468 -0.9604445099830627 -0.7881442308425903 -0.22783608734607697 0.43115919828414917 -0.2961158752441406 0.06409335136413574 1.4367735385894775 -1.5666536092758179 -0.6229311227798462 0.2175244837999344 -1.713065505027771 -2.081615447998047 0.6057742238044739 -0.39105331897735596 0.40764814615249634 -0.3616280257701874 0.8880521059036255 1.200946569442749 -2.4389195442199707 -1.1875172853469849 -1.2823655605316162 -1.6693837642669678 -0.901161253452301 1.8254109621047974 -0.5761880874633789 0.037122927606105804 0.46494656801223755 -0.4832715690135956 1.0923718214035034 -1.0623135566711426 1.1636780500411987 -0.5039790868759155 -0.2811112403869629 1.5580639839172363 0.9219474792480469 0.4032394587993622 1.432612419128418 0.052702900022268295 -0.24663932621479034 -0.6879861950874329 0.003921220079064369 0.7670178413391113 0.06096829101443291 -0.19525893032550812 -0.6377967596054077 -1.149354338645935 -1.088486671447754 -0.8457294702529907 -0.021874573081731796 -0.12510967254638672 -1.0845587253570557 0.7598584890365601 -0.9000279307365417 0.3735680878162384 -0.7659944295883179 0.9802770614624023 0.5787999629974365 0.35461896657943726 -1.3822057247161865 0.1670396775007248 0.21710968017578125 -0.9643548727035522 1.1173720359802246 -0.3939940333366394 -0.874445378780365 1.6144294738769531 -0.030956365168094635 -0.49714112281799316 1.0030142068862915 0.3268856704235077 0.5828359127044678 -0.7603330016136169 0.011626869440078735 0.2246086299419403 0.8794649243354797 -0.8558074235916138 0.21534083783626556 1.204014778137207 -0.2114737182855606 -1.0601153373718262 -0.19823968410491943 0.838548481464386 -2.6192569732666016 -0.6414632797241211 -0.9366849660873413 0.18240012228488922 -0.46400853991508484 -1.3048059940338135 0.05006314814090729 -0.7368357181549072 0.23732323944568634 2.1669294834136963 -0.2960814833641052 -1.220603108406067 1.531172275543213 2.0245025157928467 -1.6868031024932861 1.2420604228973389 
vec9 -0.01429485809057951 1.2199774980545044 -0.21797902882099152 1.5431374311447144 0.23587338626384735 -0.16955700516700745 1.2701064348220825 -0.5362465381622314 -2.2240824699401855 1.6868200302124023 1.5793952941894531 -0.8159189820289612 -0.19190846383571625 -0.3095427453517914 -0.3654251992702484 0.1424197554588318 0.31282761693000793 0.8953853249549866 -3.0643935203552246 2.4974563121795654 -0.4123052656650543 -0.2419760525226593 -0.804942786693573 0.012839867733418941 0.6570320129394531 -1.7550979852676392 0.33198773860931396 -0.37468135356903076 -0.09604614228010178 -0.3317878842353821 0.8011912703514099 -0.40560829639434814 1.5733596086502075 0.2921493649482727 -0.05253584310412407 2.1757566928863525 -1.0837346315383911 1.1646815538406372 0.2539708614349365 1.080918550491333 -0.36532753705978394 -0.06403805315494537 -0.7472178936004639 0.4179384708404541 0.23257794976234436 -1.2779490947723389 -0.2914506196975708 0.13213695585727692 0.12754666805267334 0.6328650116920471 0.09750578552484512 0.7549728155136108 -0.6209518909454346 0.2247791737318039 -1.7684595584869385 0.19491319358348846 -0.6516112089157104 -0.3676260709762573 0.7047760486602783 -0.5633237361907959 -0.3189717233181 0.413744181394577 -0.303281307220459 -0.9755533337593079 0.41520944237709045 -1.1284418106079102 0.9333646893501282 -0.6272054314613342 -0.10273532569408417 -0.48007094860076904 0.3903879225254059 0.3481305241584778 0.7361910939216614 0.7820330262184143 1.647705078125 1.1232160329818726 1.7442817687988281 0.00898267887532711 0.6595945954322815 0.1346752643585205 -1.9858680963516235 -0.45575976371765137 0.30389320850372314 -1.7680115699768066 0.007961474359035492 1.968717098236084 0.6927674412727356 0.05983876809477806 1.593052864074707 -0.9258710145950317 -1.1612581014633179 -2.526740312576294 -0.41202545166015625 -1.7149027585983276 -1.2990854978561401 0.720520555973053 -0.29124322533607483 -0.08963841199874878 -0.6037408113479614 1.4985735416412354 0.5374597311019897 0.9721868634223938 -0.8907592296600342 1.149385929107666 0.5177886486053467 1.8941850662231445 -1.603712558746338 -1.1003068685531616 0.515791654586792 -0.6413627862930298 -0.7633402347564697 -0.6954871416091919 -0.9777799844741821 0.3896429240703583 -1.0347027778625488 -0.9635305404663086 0.12446561455726624 -0.04663240537047386 1.1677392721176147 0.4239291548728943 -1.1599698066711426 -0.27284154295921326 1.7113211154937744 -0.43521350622177124 -0.4324459433555603 0.14836618304252625 -0.9273949265480042 0.028955044224858284 -0.4292285442352295 -0.45241233706474304 -1.1498831510543823 1.6204737424850464 0.8012534379959106 0.0871904194355011 0.5943455696105957 -0.6172347664833069 -0.5420951843261719 -0.23187457025051117 0.73891681432724 1.0451722145080566 0.6205577254295349 -0.13929018378257751 -1.566360354423523 -0.9095892310142517 0.44110822677612305 0.42380428314208984 0.8916220664978027 -0.23218829929828644 -0.28774717450141907 -1.832614779472351 -0.043364547193050385 -0.4050058424472809 0.6111489534378052 -0.7868641018867493 0.02710258960723877 1.1108912229537964 0.7120953798294067 1.2621010541915894 -1.9308035373687744 -0.9941657185554504 0.41616398096084595 -1.090425968170166 0.7528383135795593 1.1617522239685059 -0.028312087059020996 -1.0536749362945557 0.1915358304977417 0.29628443717956543 -1.2860816717147827 0.8379147052764893 1.1379839181900024 -0.7592660188674927 0.16622218489646912 -0.3321300148963928 -2.3137667179107666 -1.5227608680725098 -0.00601948332041502 -0.6538975834846497 -1.0798195600509644 -1.9768471717834473 -1.1362204551696777 -1.1696076393127441 -0.9970449805259705 0.917011559009552 0.6499590873718262 -0.6129060387611389 -0.09300530701875687 1.9466495513916016 -0.26781171560287476 -0.9240732192993164 -0.7526353001594543 3.3069822788238525 -0.06450728327035904 1.0275111198425293 0.9016528129577637 0.21580804884433746 -0.9813117384910583 -0.6800030469894409 -0.6552250385284424 -1.6889194250106812 
vec10 -1.0921489000320435 0.20659655332565308 0.801969051361084 0.6701695322990417 0.6777828335762024 -0.18831922113895416 -0.5731871128082275 0.536588728427887 0.13539300858974457 -0.6115987300872803 -0.8601844906806946 -0.07213449478149414 1.11742103099823 -1.823109745979309 -1.6437658071517944 -0.618413507938385 -2.676461696624756 -0.6265861988067627 -0.4692258834838867 0.8637328147888184 -0.35220950841903687 -0.14661629498004913 -0.89271080493927 0.15559673309326172 0.8798680901527405 -0.482972115278244 -0.038606442511081696 -0.40885910391807556 -0.0837215706706047 -2.383084535598755 0.2702946662902832 0.5012546181678772 -0.5900490880012512 0.42406702041625977 -0.1357872188091278 1.0368777513504028 0.23518690466880798 1.2428086996078491 0.59455406665802 0.18990683555603027 1.040501356124878 -1.0351554155349731 -1.4117125272750854 -0.3353584110736847 -0.22987669706344604 0.15137556195259094 -0.030923279002308846 -1.2881261110305786 0.15511496365070343 1.0546388626098633 0.3151438236236572 1.1606043577194214 0.05948792025446892 -1.5946238040924072 -0.26935815811157227 0.34008079767227173 -0.27148839831352234 1.646384596824646 -0.07329554110765457 -0.5023934841156006 1.4714854955673218 -1.9295012950897217 -0.4874799847602844 -0.3885217308998108 -0.4297506809234619 -0.5990434885025024 -1.4185696840286255 -0.9245492815971375 -0.23435334861278534 -1.429439663887024 -2.340989351272583 1.1457018852233887 -0.7197765707969666 -0.1399250626564026 -0.43179214000701904 0.04084014147520065 0.24083682894706726 -2.263636350631714 0.13044266402721405 -0.2780923545360565 0.1570529192686081 -1.1860660314559937 0.5582963824272156 -0.7580061554908752 -0.1190362200140953 0.17204241454601288 0.9911438822746277 0.28455284237861633 1.3099876642227173 -2.4457521438598633 -1.2043352127075195 -0.5203403234481812 -0.5331067442893982 -0.46985048055648804 -0.002081562764942646 0.7014037370681763 1.044784426689148 -0.7150065898895264 -0.22037988901138306 -0.4321126341819763 -0.1836920529603958 0.7610155344009399 -0.09853041917085648 -1.1393883228302002 1.1072038412094116 0.4864729046821594 1.0820826292037964 -0.7427446842193604 0.14857850968837738 -0.15685094892978668 0.11508481204509735 -1.8396625518798828 -1.2018804550170898 -0.1957990527153015 0.2649986445903778 0.3549048602581024 1.1334398984909058 0.3817349672317505 -1.9186055660247803 -0.1175125241279602 0.5858708620071411 -0.39260661602020264 -1.6080950498580933 -0.1589265763759613 1.6808805465698242 0.2907799482345581 -0.9630945920944214 0.15029583871364594 0.6605615019798279 0.6915012001991272 -0.4585490822792053 1.1106764078140259 0.887695848941803 -0.19290730357170105 0.3925917148590088 1.002341389656067 0.7021282911300659 0.580988347530365 1.3839244842529297 0.5024380087852478 -0.47206369042396545 0.26002126932144165 0.421408087015152 -0.06647484004497528 -2.7899389266967773 -0.09200002998113632 -1.7864660024642944 -0.8375083208084106 0.43382108211517334 -0.8639208674430847 -1.121970295906067 -0.7004324793815613 -0.3337206244468689 0.13855817914009094 1.2389686107635498 -0.2589290738105774 -0.6978154182434082 0.135219544172287 0.03949114307761192 1.3070628643035889 -0.11578558385372162 -0.9296939373016357 -0.8687440156936646 1.0150126218795776 1.5172594785690308 -0.4734836220741272 -0.49831539392471313 0.6815290451049805 -1.4438154697418213 0.20336775481700897 0.21371616423130035 0.325331449508667 -1.5064899921417236 -0.012480719946324825 0.10725099593400955 -0.5019029378890991 1.3568564653396606 0.7910369634628296 -1.5224534273147583 0.10485242307186127 -0.2933467924594879 -1.0121002197265625 0.31922268867492676 -0.16171926259994507 -0.4569549262523651 -0.6332665681838989 0.8713027834892273 -1.037609577178955 -2.4837608337402344 0.7069289684295654 -1.6259374618530273 1.0678731203079224 0.8321731686592102 1.167332649230957 1.0916988849639893 0.19592927396297455 -0.5497415661811829 1.564399242401123 -0.8141441941261292 -1.7536715269088745 
vec11 -0.5008133053779602 -0.5626397728919983 1.389400601387024 1.6706247329711914 1.020742416381836 2.210836410522461 0.996615469455719 -0.7790445685386658 0.3809126019477844 0.873263418674469 0.8069750070571899 0.16300295293331146 0.7718977332115173 -0.999863862991333 -0.36206498742103577 0.1683400571346283 -1.0908342599868774 -0.43491703271865845 -0.10257561504840851 0.9367073774337769 0.31944870948791504 -0.9912164211273193 -1.265391230583191 0.8107645511627197 -0.7588631510734558 -0.9837990403175354 -0.16992396116256714 -1.2586170434951782 -2.4919216632843018 -0.2598062753677368 -0.1465126872062683 -1.235116958618164 -0.0474565327167511 -2.221615791320801 0.43581709265708923 -0.5682325959205627 0.25650787353515625 1.2293848991394043 0.5828724503517151 1.4344873428344727 -0.14636261761188507 -0.7456945776939392 -1.1935741901397705 0.33971869945526123 -0.48815637826919556 2.0141525268554688 0.14056028425693512 -0.6599293947219849 0.3470681607723236 -0.35974812507629395 -0.6263730525970459 -0.3235870599746704 -0.5524765253067017 -0.7163773775100708 0.572979211807251 1.1942600011825562 1.7053942680358887 0.2667263150215149 -0.4529880881309509 -0.11344005912542343 1.0469335317611694 -0.8245723247528076 1.2400304079055786 -0.833625316619873 -1.1765978336334229 -0.08084169030189514 0.7003700137138367 -0.24055801331996918 0.5404987335205078 -0.01583234965801239 -1.013934850692749 1.3939584493637085 0.9348142147064209 0.8126128315925598 -0.4052126109600067 0.616188645362854 -1.2324059009552002 -0.037062618881464005 -1.1874170303344727 -0.282781183719635 0.8936317563056946 1.0166078805923462 1.5704140663146973 -0.5512120127677917 -0.9174544811248779 2.6179728507995605 0.42511409521102905 1.631230115890503 -0.023186350241303444 -0.25763261318206787 -0.5585601925849915 -1.3400040864944458 -0.2134462147951126 -0.06433535367250443 -0.961342453956604 0.6422417759895325 1.1489049196243286 1.0493894815444946 0.19294990599155426 -0.4114988148212433 -1.9564560651779175 0.5833234786987305 1.6283022165298462 -1.0772279500961304 0.21468928456306458 0.3376578688621521 -0.7712228298187256 -1.0312564373016357 -1.1040561199188232 -0.2465057522058487 -0.7212343215942383 -0.44509780406951904 0.7875992655754089 -1.225904941558838 -0.8660691380500793 -0.9262508153915405 -0.8325158953666687 2.7429096698760986 -0.7441553473472595 0.6563766598701477 1.0438833236694336 -0.45166248083114624 -0.275344580411911 -1.0112417936325073 -1.0819129943847656 1.6363447904586792 -0.06289195269346237 -0.43098458647727966 -0.6108628511428833 0.647802472114563 -0.47929805517196655 -0.3160083591938019 -0.7576619982719421 -0.5154640078544617 -0.9285256862640381 -1.5793782472610474 -0.31647199392318726 -1.1914950609207153 0.5519699454307556 1.72400963306427 0.9201881885528564 -0.1238783672451973 -0.37791678309440613 0.3051549792289734 0.1748393028974533 0.3273211121559143 -0.5470913052558899 -0.11250646412372589 1.756441593170166 -0.5275295376777649 -0.23080521821975708 1.4366793632507324 1.7404110431671143 0.6651304960250854 1.4422451257705688 0.46143200993537903 0.3527763783931732 -0.006800782401114702 -1.3614494800567627 0.6927128434181213 0.37534916400909424 1.968362808227539 2.073399543762207 -1.264767050743103 -1.5932714939117432 -0.9124639630317688 2.201154947280884 0.642665445804596 0.36050817370414734 -0.7554133534431458 1.1224900484085083 0.6521748304367065 -0.12892548739910126 1.0675824880599976 -1.014836311340332 -0.4610023498535156 0.9030414819717407 -0.3401798605918884 -1.5050177574157715 -0.07627969980239868 -2.594428539276123 -0.9584327340126038 0.742408812046051 0.5709866881370544 -1.959909200668335 -1.1950541734695435 0.6434212327003479 -0.33623331785202026 0.3374349772930145 -0.30414944887161255 -0.1885029524564743 0.45516693592071533 -0.2545522451400757 1.2730870246887207 0.8670933842658997 1.106932520866394 0.5700099468231201 0.17133143544197083 0.3236052691936493 -0.19554737210273743 
vec12 -0.22465471923351288 0.15011350810527802 -0.522286593914032 0.5499602556228638 -0.9823465347290039 0.6065658330917358 0.1493329256772995 -0.3504171669483185 0.182083860039711 1.2292907238006592 0.5226561427116394 -0.6841537356376648 0.0710228905081749 0.2696388363838196 -1.0496667623519897 0.6457558274269104 -0.9486097097396851 -0.289599746465683 0.3220297396183014 -0.38138577342033386 -0.5513989925384521 0.5501424074172974 -0.6625621318817139 -1.2011475563049316 0.7505919933319092 0.7620269656181335 -0.7850918769836426 -0.5851308703422546 0.06990964710712433 -1.0832334756851196 -0.28494060039520264 -2.0941123962402344 -0.3269612789154053 -0.6954013109207153 0.5701398253440857 -0.5900427103042603 -0.7969847321510315 -0.5140392780303955 -0.35203832387924194 1.6881325244903564 -0.03914421796798706 0.00023639430582989007 0.2316962629556656 -0.352588027715683 -0.729753851890564 0.12154179811477661 -2.3602187633514404 -0.6774850487709045 -0.21835044026374817 0.14719049632549286 -1.3874086141586304 1.0161293745040894 0.008593733422458172 0.34808236360549927 0.023455806076526642 0.7172598242759705 -0.006779622286558151 -0.0876627117395401 0.7174858450889587 1.5764700174331665 -1.1951117515563965 -0.2610662877559662 1.7607303857803345 1.9010390043258667 0.6192037463188171 0.713711142539978 0.08097375184297562 -1.283408522605896 0.09029337018728256 -0.6578325629234314 -0.6571212410926819 0.6408632397651672 0.5994457602500916 1.3722240924835205 0.8034122586250305 -0.4211793839931488 0.5293645262718201 -0.9950457215309143 0.43703383207321167 -0.4027573764324188 -0.09575258940458298 -0.7696652412414551 0.9859852194786072 -0.6339960694313049 -1.0499982833862305 -1.0482476949691772 -0.041308969259262085 -0.4331813156604767 0.3117900788784027 -1.4822090864181519 0.7136403322219849 0.32317817211151123 -0.25544115900993347 -0.5596235990524292 0.42239996790885925 -0.013101424090564251 3.0102601051330566 0.6938239336013794 -0.32260456681251526 -0.6717483401298523 -1.1747078895568848 -0.8158190846443176 1.9938616752624512 0.17238500714302063 -0.02124003879725933 -1.0155043601989746 1.6184686422348022 -1.9610695838928223 -1.901242733001709 -0.5938456654548645 -0.06305786967277527 -1.2118022441864014 -1.655657172203064 0.18201041221618652 -0.31088313460350037 -1.908406138420105 0.5934344530105591 0.27810725569725037 -0.4155154228210449 0.4989655911922455 0.344631552696228 -2.0997955799102783 1.5597975254058838 0.5008981227874756 -1.464147925376892 -0.24058786034584045 -0.14760208129882812 -1.228417158126831 -1.0054267644882202 1.1420289278030396 1.1420936584472656 0.1804260015487671 -0.4522797763347626 0.9408604502677917 0.8454477787017822 -2.1200170516967773 -0.4170758128166199 0.3270154595375061 0.9638398289680481 1.0837242603302002 -1.044693112373352 -0.018158383667469025 0.9257813096046448 -1.5354602336883545 0.280951589345932 -0.9099552035331726 0.01951608806848526 0.3554799258708954 0.6328805088996887 -0.23745372891426086 -0.544393002986908 -1.102248191833496 1.5255483388900757 1.8183560371398926 0.8869889378547668 1.238804817199707 -0.296464741230011 0.38120323419570923 -1.6488888263702393 0.4069335460662842 0.3985697627067566 -0.06857865303754807 0.4125325381755829 1.8754576444625854 -0.5860199928283691 1.6404168605804443 -0.9402698278427124 0.8900141716003418 0.8588789105415344 0.41993600130081177 1.1913607120513916 0.6337503790855408 0.8126063942909241 0.6552649736404419 -0.4018963873386383 -0.36466336250305176 1.4863219261169434 -0.3766908645629883 -0.4229382872581482 -1.6495473384857178 0.5827315449714661 -0.9332148432731628 0.24419982731342316 0.6749745011329651 -1.0560356378555298 -0.052161965519189835 -1.2546573877334595 -0.2947700321674347 0.341124027967453 0.4998597800731659 0.7837477326393127 -0.6379911303520203 1.43519127368927 -1.1757805347442627 0.6664637923240662 -0.2976180613040924 1.9676021337509155 1.1706109046936035 1.513552188873291 -0.3449089825153351 
vec13 -1.960049033164978 -1.1827832460403442 -0.047562409192323685 0.2612227499485016 -0.08769306540489197 0.4724162817001343 -0.9495754837989807 -0.9461854100227356 1.6784549951553345 2.1696319580078125 1.047237515449524 -0.4044807553291321 -0.6754636764526367 -0.4142391085624695 0.4153255820274353 -0.36043307185173035 0.46286049485206604 -0.29857873916625977 -0.3772672116756439 -1.3831844329833984 0.9957323670387268 0.7916430830955505 0.06592921912670135 0.9419792890548706 1.583113670349121 -1.1361918449401855 -0.5808344483375549 -0.7773857116699219 0.5573548674583435 0.4072208106517792 -1.9522844552993774 -0.33372819423675537 2.041821002960205 -0.8100007772445679 0.6471691131591797 1.3077850341796875 0.6109116673469543 1.4396384954452515 0.25618481636047363 0.5019850134849548 0.1425604671239853 1.2811896800994873 -1.3288482427597046 -0.08884232491254807 -1.728192687034607 0.6199985146522522 0.15043221414089203 0.376813143491745 2.1167211532592773 2.4898784160614014 -0.47054874897003174 -0.681122362613678 0.008519978262484074 -0.03931581974029541 -1.16161048412323 -0.6850354671478271 -0.07229430228471756 -1.1189284324645996 0.10845638066530228 -0.6665461659431458 -0.34231406450271606 -0.3960095942020416 0.10850314050912857 -0.34361732006073 -0.6593188047409058 -3.097442388534546 1.3003828525543213 -1.4074571132659912 -0.4352038502693176 1.1476670503616333 0.1139724850654602 1.5484987497329712 0.36118221282958984 -0.5190397500991821 -0.14868707954883575 0.4727535545825958 0.5339815616607666 -0.11273635923862457 0.7591613531112671 -1.0899314880371094 0.44095197319984436 0.5747579336166382 -2.688675880432129 -1.1911215782165527 1.0535913705825806 -0.3742396831512451 0.44062966108322144 1.3692209720611572 -1.5799427032470703 -0.5469650626182556 -0.5859859585762024 -0.5485499501228333 0.19845910370349884 -1.7287564277648926 -1.682569980621338 1.802816390991211 0.3616025447845459 0.03186719864606857 -0.7634607553482056 -0.9035462737083435 0.8396944999694824 1.1267626285552979 1.0110665559768677 1.5702054500579834 1.4186354875564575 0.8589837551116943 1.4295598268508911 -0.5613850951194763 0.5403070449829102 0.0886448323726654 -0.17676159739494324 -0.13485512137413025 -0.27023831009864807 -0.03219929710030556 0.6395694613456726 -0.3289155662059784 1.0801228284835815 -0.4878760576248169 0.6221895813941956 0.7157317996025085 -3.08691668510437 -0.7597612738609314 -0.4077734351158142 0.3910974860191345 0.7629674077033997 0.16093379259109497 -1.8184970617294312 0.7323881983757019 2.125025987625122 0.17352575063705444 0.21370276808738708 -1.1390613317489624 0.3040168583393097 1.3265087604522705 0.6623681783676147 0.3237372934818268 -0.13409340381622314 0.7835112810134888 1.5356056690216064 0.8117795586585999 -1.455029845237732 -0.2430824488401413 0.17939142882823944 0.020159343257546425 -0.7026475071907043 -1.851275086402893 -0.10897724330425262 -0.44102245569229126 0.8492099642753601 0.3797663152217865 0.4572020173072815 -0.04153505340218544 0.45216667652130127 -0.06124848872423172 -0.6280685663223267 1.3010116815567017 -0.22059416770935059 0.884815514087677 -0.5557437539100647 -0.5927965044975281 0.6659800410270691 -1.1364448070526123 -2.587540626525879 0.08255821466445923 -0.21624755859375 0.4814750850200653 -0.4828299582004547 0.09837469458580017 -0.44992658495903015 0.29633933305740356 1.429013729095459 0.2769710123538971 2.013606309890747 0.6907681226730347 0.3779110610485077 0.04295405000448227 1.0045557022094727 -0.9167274832725525 -3.1213207244873047 0.25930920243263245 0.26338714361190796 0.7620012760162354 0.9736983180046082 -0.4821188151836395 -0.39103397727012634 0.45790308713912964 0.03675360977649689 0.3459160625934601 -0.1036776527762413 -1.6511116027832031 1.8160206079483032 0.5058999061584473 -0.7628933787345886 0.6961529850959778 -0.09812022000551224 -1.0776171684265137 -0.013701047748327255 0.2095070481300354 -0.27231621742248535 -0.7010852694511414 
vec14 2.1323325634002686 -0.8638731837272644 -0.12435691058635712 -0.2954830825328827 -0.47077202796936035 -0.21982665359973907 -0.9360278248786926 0.2466503381729126 1.2712363004684448 0.38681119680404663 -0.09397629648447037 -2.262312889099121 1.363197922706604 -1.027482271194458 -1.7527931928634644 1.074021339416504 -1.7879862785339355 -1.2792896032333374 0.22380931675434113 -0.8613834381103516 0.4697323143482208 -0.013325133360922337 0.21216481924057007 0.04359458386898041 0.4429813027381897 0.5224217772483826 -0.7258432507514954 -1.2186088562011719 2.1212539672851562 -0.20905697345733643 -0.9548868536949158 -1.5789870023727417 -0.5384329557418823 1.7588798999786377 -0.5154483914375305 -0.8380123972892761 1.2797825336456299 0.3208770751953125 0.09350890666246414 0.3801996111869812 4.16140604019165 -0.19828800857067108 0.5487268567085266 0.19661177694797516 1.412353277206421 1.535784363746643 -1.226849913597107 0.7400755286216736 0.06000664085149765 0.7454399466514587 -0.8251766562461853 -2.4468159675598145 -1.0208669900894165 -0.09976903349161148 0.44468751549720764 0.10006700456142426 0.9584651589393616 0.1030128076672554 0.10118439793586731 0.6364651918411255 -0.05009365454316139 -0.2931419014930725 -0.41090521216392517 -0.03239275515079498 1.9124923944473267 1.0960232019424438 -0.18739037215709686 -1.0187700986862183 -0.4310028851032257 -0.023959489539265633 -1.917255163192749 -1.7620466947555542 0.7492722868919373 0.0818684995174408 -0.36531394720077515 0.21339836716651917 1.1922351121902466 -1.4193956851959229 1.7326823472976685 0.9281130433082581 -0.3335287868976593 -1.1130855083465576 -1.5780104398727417 -0.11562936753034592 0.14069226384162903 -0.5251371264457703 0.5806154012680054 2.1002614498138428 -0.16534413397312164 -1.4134596586227417 1.57075035572052 -2.007040500640869 -0.35068798065185547 -0.2758134603500366 -0.7461492419242859 -0.5235394835472107 1.20658278465271 -1.1953016519546509 0.9741238355636597 2.070911169052124 -0.20345956087112427 0.22851786017417908 -0.3204330503940582 0.4041253924369812 0.14101192355155945 -0.07224821299314499 0.9917955994606018 0.2833489775657654 1.4675623178482056 -1.5416890382766724 -1.822571039199829 0.4500076174736023 -0.7875012159347534 0.08676175028085709 -0.48229384422302246 1.3926364183425903 0.509411096572876 1.2902514934539795 1.018816351890564 0.12049540877342224 -0.13956841826438904 -0.5788069367408752 -0.6538476943969727 -2.115898370742798 -0.8220076560974121 0.8879997730255127 -0.9869996309280396 2.062213182449341 0.5486122369766235 1.3766238689422607 0.724256694316864 0.8764668703079224 -0.7564667463302612 -0.2794196903705597 -0.15270890295505524 -0.3817286193370819 -1.3489577770233154 -0.5200709700584412 2.124351978302002 1.2662397623062134 -1.6149307489395142 1.0802887678146362 1.4545974731445312 0.6977790594100952 -0.19276030361652374 0.6298739910125732 0.4778522551059723 0.3803711533546448 0.9785344004631042 0.4061430096626282 0.7870193123817444 1.6559242010116577 -0.60132896900177 0.20159511268138885 0.5625158548355103 0.09400936961174011 0.8963457345962524 0.9254778623580933 -2.265059232711792 -0.5287227034568787 0.9378534555435181 0.7026798129081726 1.2966983318328857 -0.9279336333274841 1.009078025817871 -0.8667557835578918 0.9615973830223083 -0.04684813320636749 -1.3219544887542725 1.9684399366378784 0.6023966073989868 -0.047884464263916016 0.6107532978057861 -0.06497054547071457 -0.9893219470977783 -1.6473982334136963 0.9817906618118286 1.6980749368667603 -1.888398289680481 0.4478277862071991 -0.05193580314517021 -0.6222243309020996 -0.9762956500053406 -0.35864996910095215 -1.1251370906829834 0.131683811545372 -0.7793355584144592 0.5535488128662109 1.6245800256729126 0.6046996116638184 -0.1572830080986023 -0.1340540200471878 1.229549765586853 -0.5233701467514038 0.13044875860214233 0.2559942901134491 0.26803624629974365 0.6332356929779053 -1.0136996507644653 -0.4260958731174469 
vec15 -0.27216899394989014 0.5653369426727295 -1.1966614723205566 0.05911140888929367 -0.35340550541877747 1.967643141746521 0.48715919256210327 -0.015410552732646465 0.7114478349685669 -0.23336629569530487 -0.8352422118186951 1.2453993558883667 -0.07052727788686752 -0.2535242736339569 -1.2917448282241821 0.20152948796749115 -1.499667763710022 -0.7015282511711121 -0.24777831137180328 0.3798518776893616 0.06712711602449417 -1.0051590204238892 -1.8431411981582642 0.5926598906517029 -0.19867917895317078 0.6008855700492859 0.772572934627533 0.40693312883377075 -0.041654154658317566 1.452228307723999 0.585249125957489 -1.5756875276565552 0.7963241934776306 0.35438621044158936 0.7267090082168579 1.3566089868545532 -0.4836076498031616 1.202054738998413 -0.5081462860107422 1.6460367441177368 -1.1219992637634277 -1.4689435958862305 -1.038352370262146 0.3446776568889618 -0.3819099962711334 -0.6553931832313538 -1.230530858039856 -1.4479749202728271 2.611846923828125 2.2313365936279297 -0.2070399820804596 0.772386908531189 -1.3643524646759033 -1.085776448249817 0.055868007242679596 0.8105292320251465 0.3798454999923706 -0.15669693052768707 1.7793936729431152 -0.4887040853500366 2.3110122680664062 -0.8156604766845703 0.8678223490715027 -1.8071951866149902 -0.2996051609516144 1.0443894863128662 0.5050374269485474 -1.7906527519226074 -0.9202277064323425 0.5716139674186707 -0.8634040355682373 0.42173099517822266 0.560215175151825 -0.2514990270137787 1.0342795848846436 -0.8335766792297363 0.6459922790527344 -0.957009494304657 1.1711561679840088 -0.10573489218950272 -0.5488976240158081 -0.7554497718811035 -2.9376273155212402 -0.580833911895752 1.3633623123168945 -0.7147523760795593 0.7517189383506775 -1.0215736627578735 0.21883437037467957 -1.608449935913086 0.3974609375 -0.42367464303970337 1.0504393577575684 2.0729689598083496 0.8756071329116821 -0.399899423122406 1.2876571416854858 1.770120620727539 1.6981338262557983 0.7390756011009216 0.8794605731964111 -0.9356055855751038 1.0264116525650024 -0.07444560527801514 -0.14628657698631287 1.3280887603759766 0.25630855560302734 0.03556479513645172 -0.16847488284111023 0.17616888880729675 -1.0459473133087158 -0.1607493758201599 -0.034721240401268005 -0.6772781610488892 -1.9674819707870483 0.28624773025512695 0.4542752206325531 -0.015821341425180435 -1.4148180484771729 1.291096568107605 -0.9728277325630188 0.6535044312477112 -1.361804485321045 -0.789847731590271 -1.0020240545272827 0.23769241571426392 -0.4015483856201172 0.4494847357273102 1.4636808633804321 0.23226284980773926 2.445427894592285 -0.46431514620780945 -1.2580269575119019 0.18245352804660797 -0.8053545355796814 -0.6299644708633423 -1.1571444272994995 -0.06133216619491577 -0.6488503813743591 1.4703974723815918 1.2320797443389893 -0.2643900513648987 -0.04732988402247429 -0.618598222732544 -0.752648651599884 1.6100246906280518 0.7239859104156494 -0.5933827757835388 1.2106555700302124 0.6235064268112183 1.5744158029556274 0.930584728717804 0.4551793038845062 1.0009562969207764 0.9421669840812683 0.3804110586643219 -0.8560419082641602 -1.5370641946792603 0.870204746723175 0.3926865756511688 -0.6770105361938477 -0.2802734971046448 -1.602921485900879 -1.1606745719909668 -0.6543796062469482 0.1552399843931198 0.4112444221973419 0.8339059948921204 0.781646728515625 1.377698302268982 -0.6629999279975891 0.6668700575828552 1.904394507408142 0.07631945610046387 1.0823051929473877 -2.348186492919922 2.288191795349121 1.619652509689331 -1.4009591341018677 -0.1088038757443428 0.5806618332862854 0.6170988082885742 -0.7643622756004333 -1.8134276866912842 -0.748965859413147 -0.7414544224739075 0.3207470178604126 0.7378870248794556 1.079425573348999 -0.16461171209812164 0.6116920113563538 1.4283233880996704 0.180785670876503 -0.401893675327301 0.5532570481300354 -0.517011821269989 -0.5354233384132385 0.9739605784416199 -0.6552890539169312 -0.3186962306499481 
vec16 -0.02259942702949047 0.00956858042627573 -0.33791518211364746 0.3045197129249573 -0.9459388852119446 -1.613020658493042 -0.02712116949260235 0.2551831603050232 1.3628588914871216 -0.016418661922216415 0.023532193154096603 0.34367895126342773 -0.5575055480003357 0.15951502323150635 0.21503163874149323 -0.02815454639494419 -0.7417797446250916 1.9082874059677124 -0.22724029421806335 1.7655787467956543 -1.9532426595687866 1.5455585718154907 0.41612508893013 0.7196880578994751 1.071044921875 -1.0220867395401 -1.600743055343628 -0.6329466104507446 0.5256409645080566 -1.0257930755615234 0.1511499136686325 0.8072165846824646 1.7305281162261963 -0.8008738160133362 -0.12858225405216217 -1.1150344610214233 0.48891663551330566 1.6698665618896484 -0.35846322774887085 1.5916465520858765 -0.05893759801983833 -0.4695594012737274 0.2985915243625641 1.868844985961914 -0.8875832557678223 0.934967041015625 0.11438442021608353 0.027835719287395477 1.1326011419296265 2.0720322132110596 0.822408139705658 -0.43717023730278015 0.7700811624526978 -2.3928987979888916 1.3350754976272583 -1.7345062494277954 -1.1407428979873657 0.5933998227119446 0.3128049373626709 -0.6483913064002991 0.018348202109336853 -2.0988359451293945 -1.8822754621505737 0.9218601584434509 -0.10416453331708908 -0.927466094493866 -1.1033046245574951 -0.573593258857727 -0.5028904676437378 0.5822953581809998 0.0760393887758255 -0.23082493245601654 2.3712847232818604 0.6416820883750916 -1.0933185815811157 -1.9431779384613037 0.06059641391038895 -0.6490330696105957 0.011378387920558453 -1.5277210474014282 0.9798450469970703 -1.5533605813980103 -0.7972880601882935 0.11608466506004333 2.5731728076934814 1.1617376804351807 0.842682957649231 1.038331151008606 0.620062530040741 1.0508575439453125 0.4404180943965912 -0.9754458069801331 -0.4693836271762848 -0.3106939494609833 -0.3817023038864136 0.2205916941165924 1.7524298429489136 -0.04773417115211487 -0.809883177280426 0.22290055453777313 0.11386999487876892 0.6106592416763306 -1.300479769706726 1.8457245826721191 -0.46822410821914673 0.8487778902053833 0.5842387676239014 -0.18525002896785736 2.246417284011841 -0.20062962174415588 -1.781031847000122 -1.897629737854004 -0.6079304814338684 -1.4113223552703857 1.3087509870529175 -1.531158447265625 -0.406486451625824 0.8082250952720642 -0.9666637778282166 1.4396227598190308 0.17171619832515717 0.9712802171707153 -0.5834081172943115 1.851441502571106 -0.07063804566860199 1.6724833250045776 -0.6996847987174988 0.04782663658261299 0.23524819314479828 0.5249796509742737 0.9414409399032593 -1.507317304611206 0.3279540240764618 0.23166203498840332 -0.14094486832618713 -1.0244841575622559 -0.08699961751699448 -0.9452372193336487 -0.11452776193618774 -0.48927533626556396 -1.4835954904556274 0.4053296744823456 0.4783247411251068 -0.9074497818946838 -1.003910779953003 0.7687935829162598 -0.5857162475585938 1.071626901626587 -0.0451061949133873 -0.08772546797990799 0.3953306972980499 -0.663805365562439 0.8380783796310425 -0.8123002052307129 -0.18904531002044678 1.3172290325164795 -1.255500316619873 1.1194391250610352 0.32965967059135437 1.6582019329071045 -0.1441461145877838 -1.718401551246643 0.2080860584974289 -0.31010785698890686 0.04429512843489647 0.1034855917096138 -1.8234009742736816 -0.31637054681777954 -1.0840429067611694 1.4378790855407715 -0.7188119888305664 0.782489001750946 0.28696224093437195 -0.31269797682762146 -1.1203997135162354 -0.6027437448501587 0.04462809860706329 0.30995115637779236 1.5846775770187378 -1.8064770698547363 0.7619406580924988 -1.3812278509140015 -0.5596397519111633 -0.3600643277168274 0.3453112840652466 -0.1475689858198166 -0.7457832098007202 0.4010011553764343 -1.3156580924987793 -0.8181719779968262 0.08624488115310669 1.0504333972930908 0.2056356519460678 1.7044398784637451 0.6744664311408997 -0.8318814635276794 2.0566797256469727 -0.09672479331493378 -0.9830859303474426 -0.12247905880212784 
vec17 -1.309253454208374 1.9157425165176392 -0.3690902888774872 0.22869189083576202 0.12885932624340057 2.0908124446868896 -0.24881164729595184 0.32394734025001526 1.0958092212677002 -0.7722734808921814 -0.3452233374118805 0.5325397253036499 0.4149636924266815 -0.6719577312469482 -0.0469353087246418 -0.31875163316726685 0.5622190237045288 -1.2149418592453003 0.3579536974430084 -0.29988378286361694 -0.8074589371681213 -1.1460741758346558 0.512397050857544 -1.536816120147705 1.3777360916137695 -0.9807940721511841 0.4818190932273865 -1.125679850578308 -0.3605015277862549 0.021921003237366676 -0.7160821557044983 -3.2588319778442383 0.025790398940443993 -1.825264811515808 -0.34886419773101807 1.0965445041656494 -1.4641315937042236 0.7900108695030212 -2.435992479324341 1.5829554796218872 -1.1664537191390991 0.7595546841621399 0.9230151772499084 0.6560811996459961 -1.2278611660003662 -0.8368878364562988 -1.5389037132263184 0.9024659991264343 -0.17051152884960175 -0.7172576785087585 0.8412604928016663 0.4891347885131836 -1.4513696432113647 0.6372989416122437 -0.5060335993766785 -1.1926802396774292 1.5165185928344727 0.33903902769088745 0.16462942957878113 -0.030135521665215492 0.5722529888153076 -1.4226083755493164 -0.28886011242866516 -0.5475570559501648 0.3246752619743347 -0.08029333502054214 0.31328457593917847 -1.0462524890899658 0.22564899921417236 -0.26468178629875183 -0.837273359298706 -1.1553044319152832 -0.4384867548942566 0.4034886360168457 0.06904718279838562 -2.5364394187927246 1.027268648147583 -0.7456755042076111 -0.22967050969600677 0.09353559464216232 -0.938676118850708 0.9794972538948059 -1.9691818952560425 -1.325695514678955 2.60015606880188 -0.16485702991485596 -0.6971827745437622 1.1879719495773315 0.051890235394239426 -0.1619846373796463 1.9141877889633179 -0.01834472268819809 -0.038317225873470306 0.1608295440673828 0.619967520236969 -0.9905423521995544 1.1850579977035522 -0.3965136706829071 0.6980693936347961 2.0615899562835693 -0.10215260088443756 -0.8386320471763611 1.0158817768096924 0.18966710567474365 1.1578376293182373 0.8182991743087769 2.6924290657043457 -1.140631079673767 0.8492977023124695 -0.5873377919197083 -1.0695700645446777 -1.3154164552688599 -0.7244492173194885 0.528032660484314 -1.0865787267684937 -0.26069268584251404 0.6840552091598511 0.23258788883686066 -1.5372684001922607 0.9341501593589783 -1.3512710332870483 0.466975599527359 -1.3680495023727417 0.0989825651049614 1.3370388746261597 0.04088938236236572 -0.02010738104581833 0.37974292039871216 0.0020829560235142708 0.15575584769248962 -0.4805452525615692 -0.27034077048301697 -1.1991729736328125 0.7883710861206055 -0.15197807550430298 1.5881980657577515 -0.3724265992641449 -0.23554036021232605 0.6969545483589172 1.0838819742202759 -0.902878999710083 1.3239737749099731 -1.3523286581039429 -1.028765082359314 2.0304954051971436 -0.27963143587112427 0.008244641125202179 -1.1732901334762573 0.8246157765388489 -0.42224910855293274 1.579018473625183 -2.282935380935669 -1.2297062873840332 0.12330388277769089 3.0815842151641846 -0.5094671249389648 -0.5176267027854919 0.191301167011261 -0.06490503996610641 -2.4482338428497314 -0.657059907913208 1.5081475973129272 -0.23106233775615692 -1.2351162433624268 1.8133848905563354 -0.4845201075077057 -0.1867012083530426 0.6220926642417908 -0.7651302814483643 0.8064882755279541 0.3575592041015625 0.8528661131858826 0.5015875697135925 1.8024067878723145 -0.12578463554382324 -0.6005344986915588 0.25516000390052795 -1.6672313213348389 -0.15423539280891418 1.2247486114501953 -0.08117394149303436 0.08661940693855286 0.37329983711242676 0.7656012177467346 -0.9254266023635864 1.0465106964111328 -0.08535952866077423 -0.7629429697990417 -0.3458458483219147 -1.8109275102615356 -0.2119603008031845 0.674694836139679 -0.5973494052886963 -0.4896222949028015 -0.7626219987869263 0.8313215374946594 -1.1305230855941772 0.5384120941162109 -0.6336877942085266 0.7788102626800537 
vec18 1.0396887063980103 1.7403197288513184 0.6337397694587708 -0.5152132511138916 0.3623066246509552 0.17647643387317657 -1.0774422883987427 -1.151440978050232 0.9203119277954102 1.387047529220581 -0.91578209400177 -0.054717447608709335 0.042660683393478394 -1.68236243724823 -0.8598158359527588 -0.48568713665008545 -1.4372029304504395 -0.4411912262439728 -2.0975236892700195 0.4428260922431946 -0.7485876679420471 -0.1001681536436081 -0.2735990285873413 -0.016322657465934753 -0.07943998277187347 0.9777091145515442 -1.2179580926895142 -0.02042212523519993 0.2442125529050827 0.985427975654602 1.7221742868423462 -0.2617785632610321 -0.006844472140073776 -1.1437065601348877 1.6646581888198853 1.8434979915618896 -0.2656285762786865 0.9619309306144714 -0.21619939804077148 0.1312858760356903 -0.1633071005344391 0.13455331325531006 -0.42956963181495667 0.704725444316864 0.8016703128814697 -0.016116252169013023 0.6622936129570007 1.7018316984176636 -0.9586808681488037 1.131100058555603 -0.9026463627815247 -1.5614311695098877 1.5865684747695923 1.686757206916809 0.1474301666021347 -1.618949055671692 2.3177270889282227 0.02507317252457142 1.14566969871521 -0.6369298696517944 -0.6918969750404358 -1.987114429473877 0.23429886996746063 -1.0811017751693726 0.0018555477727204561 -1.364736795425415 0.5554200410842896 0.8628492951393127 0.6887767314910889 0.6595776677131653 -1.1224417686462402 2.705512762069702 0.768404483795166 0.12433231621980667 -0.509516716003418 0.4441949427127838 -0.1698070615530014 -0.7285841107368469 -1.6343327760696411 0.06752856820821762 -1.1383541822433472 -1.6471595764160156 -0.041046738624572754 1.0068457126617432 1.5978604555130005 -0.4439678192138672 -0.8852171897888184 1.0324729681015015 -0.2243129312992096 -0.5396052002906799 -0.6478846073150635 -1.6483275890350342 0.32817235589027405 -0.751766562461853 -0.4367220103740692 0.3302519619464874 1.12113356590271 0.7313728332519531 0.5916561484336853 1.8928693532943726 -0.7922584414482117 0.585747480392456 -1.112143635749817 0.08127637207508087 -0.5799329280853271 -0.9695878028869629 -0.9058505892753601 -0.19208598136901855 -0.5189833641052246 -0.5956087708473206 -0.13511523604393005 -1.0578460693359375 -0.49532604217529297 -0.25259190797805786 -1.159540057182312 0.896817684173584 0.6955389380455017 1.201560616493225 0.27121713757514954 3.029299020767212 0.02686815895140171 0.10794288665056229 -0.7687321901321411 -0.6762444376945496 -0.12297043949365616 -0.05785217881202698 2.505587339401245 -0.1423531472682953 0.15810251235961914 1.7899034023284912 0.613806962966919 -0.43769410252571106 -1.3064123392105103 -1.160185694694519 -0.3048447072505951 -0.11011309176683426 0.16575901210308075 -0.8434285521507263 1.7739557027816772 0.7274335026741028 -1.588395118713379 -1.1274064779281616 1.116684079170227 -0.0953514352440834 -0.18876151740550995 -0.7977882623672485 0.15992914140224457 1.3795069456100464 -1.304735541343689 0.896803081035614 -0.6448955535888672 -1.179770827293396 0.7698639035224915 0.6026859879493713 1.4419751167297363 -2.179117441177368 -0.42028146982192993 -1.0944665670394897 -0.32774773240089417 -0.2539616525173187 -0.002903144573792815 -1.4161922931671143 0.017855122685432434 0.5893290638923645 -1.2142106294631958 -0.9449387788772583 -0.16927531361579895 -1.6598104238510132 0.5522323250770569 0.5111526846885681 0.7336187362670898 0.9408495426177979 0.6356703042984009 0.14320577681064606 0.0686226338148117 0.6203956604003906 0.15276692807674408 -1.023557424545288 -2.5325100421905518 -0.8532491326332092 -0.8979507684707642 0.046805161982774734 -1.2548500299453735 0.5429094433784485 0.4826538860797882 -0.2956305146217346 1.1532807350158691 -0.1072191596031189 -0.35381385684013367 2.088332176208496 0.30714651942253113 -0.9571360945701599 -1.505496621131897 1.7401775121688843 0.15986494719982147 0.53729248046875 0.43937328457832336 1.9657912254333496 -1.400907039642334 -2.326631546020508 
vec19 1.0336695909500122 1.1761424541473389 0.0983385369181633 -1.6455023288726807 -0.8485180735588074 0.5216933488845825 -0.15714414417743683 -0.06325048208236694 -0.13367000222206116 0.07955712825059891 0.253556489944458 1.4636129140853882 1.1451952457427979 -0.7814480066299438 0.30236509442329407 0.08240827918052673 -1.3480141162872314 -0.7150824666023254 0.025320781394839287 -1.2152020931243896 -1.495003342628479 1.1113171577453613 -0.07986728847026825 -0.9222336411476135 0.5415050983428955 -1.9856873750686646 0.3942005932331085 0.6306948065757751 -1.447609543800354 2.5301713943481445 0.26060807704925537 -0.49848467111587524 -0.5140172839164734 -0.24918736517429352 -0.9291050434112549 -0.2818047106266022 -0.11948549002408981 1.0588492155075073 0.100941963493824 0.3230012357234955 0.7108010649681091 0.6771188378334045 0.7303447127342224 0.5559118986129761 -1.2798408269882202 0.17306117713451385 -0.4719792902469635 -0.4783657193183899 0.1560530811548233 -0.2674105763435364 0.20029036700725555 -0.17153091728687286 0.28926315903663635 0.9035271406173706 0.2813643217086792 -1.458421230316162 0.7613970637321472 1.002232313156128 1.1675599813461304 -0.050451572984457016 -0.2798357307910919 -1.3716058731079102 -1.235196828842163 0.5538371801376343 -0.4339075982570648 0.07796710729598999 1.0052231550216675 -0.42718005180358887 2.618234872817993 -0.9840067028999329 -0.20079383254051208 1.5062198638916016 1.293226957321167 -0.2670974135398865 0.002632125513628125 0.3278578519821167 -1.555714726448059 1.364667534828186 -0.07120002061128616 -0.6834290623664856 1.3560857772827148 0.4045419692993164 0.6442071795463562 -0.4196792542934418 0.600734293460846 1.3912163972854614 -1.0584033727645874 0.6854249238967896 -0.4716164469718933 0.9144484400749207 1.1225968599319458 0.24867010116577148 0.24092139303684235 0.7608698606491089 -0.9110918045043945 -0.38053396344184875 1.4789503812789917 1.7096935510635376 -0.35108962655067444 -0.21657498180866241 -0.605580747127533 0.32060685753822327 -0.2519221007823944 0.21964411437511444 0.6495630145072937 0.9112223982810974 -0.948360025882721 -1.5794055461883545 -0.1931207925081253 -1.9380605220794678 0.6262702345848083 1.4395521879196167 -0.9142346382141113 -0.018896695226430893 -0.20143185555934906 -0.49148592352867126 -0.6601620316505432 0.777781069278717 0.46360328793525696 -0.23470602929592133 -1.9913702011108398 0.90346360206604 -1.6852340698242188 2.2420296669006348 0.6303287148475647 0.5070833563804626 -0.16395801305770874 0.29718855023384094 -0.36121875047683716 1.2638638019561768 -0.5623012781143188 1.3393453359603882 -0.02746688574552536 -0.5204110145568848 -1.5288366079330444 -0.17658556997776031 -1.741977334022522 -1.1337904930114746 0.42550021409988403 0.8912497758865356 -0.09278526157140732 0.7460140585899353 1.0306062698364258 -2.285820245742798 -0.02740638703107834 -0.2267722338438034 0.7567607760429382 0.2502519488334656 1.5015530586242676 -0.46441662311553955 -0.038270045071840286 -1.2670915126800537 0.5783841013908386 2.8641135692596436 -0.8813197016716003 0.6726239323616028 0.8743630647659302 2.0870885848999023 0.7985915541648865 -1.0324714183807373 -0.4513833224773407 -0.03336360305547714 -0.03169778734445572 0.40447601675987244 -0.6105369329452515 0.8847669363021851 -0.8778082132339478 0.15146976709365845 -0.8433392643928528 -0.2613917589187622 1.177415370941162 0.06572325527667999 1.0148998498916626 0.8217365145683289 -1.3905138969421387 -1.2970521450042725 0.11794198304414749 0.3441457748413086 -0.7012454867362976 -0.802849531173706 -0.367552787065506 -1.2246650457382202 -0.8502367734909058 1.1063549518585205 -1.2995434999465942 -0.31126007437705994 1.8899682760238647 0.16287831962108612 1.0745183229446411 1.1108819246292114 -0.008991207927465439 0.32451218366622925 1.797825813293457 1.5387667417526245 -0.984125018119812 -0.9398410320281982 1.1897141933441162 -0.08179095387458801 -0.07981549948453903 0.9771521091461182 
vec20 0.8628276586532593 0.8785458207130432 2.40720796585083 0.589419960975647 0.6656914949417114 0.5983240604400635 -0.7617064118385315 -0.6813345551490784 0.6643457412719727 -0.2010229378938675 0.25977885723114014 -0.33364421129226685 0.8297178149223328 -0.2848946750164032 0.4596721827983856 0.21009527146816254 -0.3040795922279358 -0.05113695561885834 1.2659887075424194 0.6686926484107971 -0.6144310235977173 0.9989877939224243 1.211908221244812 0.5564600825309753 -0.1176326796412468 -0.5092214941978455 0.2206684798002243 1.7699795961380005 0.22590036690235138 1.250321626663208 -0.2621869146823883 0.523985743522644 -0.14070144295692444 0.6772199869155884 1.3254988193511963 -2.5538926124572754 0.5919837355613708 1.0133692026138306 -0.3206700384616852 0.02040395326912403 1.070427417755127 -1.480325698852539 -0.12997187674045563 -0.5431725382804871 -0.5217530727386475 -0.47503650188446045 -0.7862772345542908 -1.167106032371521 0.08602550625801086 -1.9476089477539062 -0.457823783159256 -1.2321946620941162 -0.8117430210113525 -0.6789857745170593 0.894319474697113 1.3441460132598877 -0.5605260133743286 -1.4429147243499756 -0.597723126411438 1.0539932250976562 -1.930119276046753 0.4192253649234772 0.4955621361732483 0.7641642093658447 -0.3702063262462616 0.8000900149345398 1.2191071510314941 -0.7244325280189514 -0.948029100894928 0.6628128290176392 -0.10506071150302887 -0.9676737785339355 -1.3619544506072998 -0.9226687550544739 -1.3665189743041992 0.2649036645889282 0.45468273758888245 -0.445035457611084 -0.5135412216186523 1.1540489196777344 1.5417336225509644 0.08268453925848007 -0.7073727250099182 -0.7918336987495422 0.7681774497032166 -0.6066797375679016 -1.218276858329773 -1.0960177183151245 -0.013685841113328934 -2.8008899688720703 -0.5277959108352661 -1.118687391281128 -0.0100548742339015 1.8145499229431152 -0.37198406457901 -1.2937703132629395 2.0194153785705566 -0.40980643033981323 0.6883316040039062 0.47352027893066406 0.2889588475227356 0.6128862500190735 1.8710031509399414 1.2373058795928955 -0.06375144422054291 -2.064439535140991 -0.6636261343955994 -0.8656378388404846 -0.6881352663040161 -0.942712664604187 0.04281260445713997 1.6125446557998657 -0.5774075388908386 0.9150612354278564 -1.646744966506958 0.03489452973008156 1.0277152061462402 1.332561731338501 -0.5151819586753845 0.3533779978752136 0.498475581407547 0.4481249749660492 0.35536107420921326 0.023078113794326782 -0.31562429666519165 0.8782594799995422 -1.4205960035324097 -0.12416239827871323 -1.062878131866455 1.766939640045166 -0.8535327911376953 1.851050853729248 1.3116779327392578 0.07434437423944473 1.231202244758606 -1.1193089485168457 0.5469772219657898 0.7660548686981201 0.4056890904903412 -1.7938430309295654 -1.2844734191894531 -1.6777961254119873 0.19217507541179657 -0.5465425848960876 -1.146532654762268 2.115525960922241 0.2067165970802307 1.3015440702438354 -0.9302767515182495 1.5595921277999878 0.6586147546768188 -1.2810850143432617 1.6399153470993042 1.501596212387085 1.538877248764038 0.9798202514648438 0.40989506244659424 1.9914495944976807 -1.470247745513916 -1.1960759162902832 1.6708184480667114 -0.5446699261665344 0.7085450291633606 -0.31614619493484497 -0.6386508941650391 0.23072278499603271 1.215952754020691 2.4045374393463135 -0.14465485513210297 1.4009491205215454 -0.5545688271522522 1.3083605766296387 0.7902271747589111 0.34165915846824646 0.03439497575163841 -0.839832603931427 -0.4380509853363037 -0.4579721689224243 -0.9886695146560669 1.0251588821411133 -0.5399687886238098 0.8949838280677795 -0.823639452457428 2.6606714725494385 -0.08764676004648209 0.5784129500389099 -0.24809598922729492 -0.11927425116300583 -1.7794580459594727 -1.4304156303405762 1.1163194179534912 1.0096030235290527 1.8145637512207031 -0.1361251324415207 0.8464952707290649 -0.463914692401886 3.3558189868927 0.44626161456108093 -1.1674824953079224 -2.7870287895202637 
vec21 0.5336679816246033 -0.04753000661730766 -0.009411284700036049 0.8206712007522583 -2.0827443599700928 1.6571507453918457 -1.6083297729492188 -0.9677059650421143 0.5034931302070618 -0.11696086823940277 -1.1854596138000488 -0.8934385776519775 -1.0331732034683228 -3.570779323577881 -1.97574782371521 -1.601514220237732 -2.2483835220336914 0.6204305291175842 0.8753764033317566 0.809624433517456 -0.8027524352073669 -0.6620742082595825 2.077284336090088 0.33042630553245544 -0.5642504692077637 -1.8438241481781006 -0.6509885787963867 -0.38597792387008667 -1.7812330722808838 -0.480689138174057 1.2470312118530273 -0.9142183065414429 -0.1323366016149521 -1.8013659715652466 -1.319421648979187 1.1807706356048584 -0.07413660734891891 1.3120747804641724 -0.10516548156738281 0.2855832576751709 0.823100209236145 1.0310956239700317 -0.5600629448890686 0.1203525960445404 -0.1844085156917572 -1.5756893157958984 -0.9152522683143616 -0.5207690596580505 0.4664696156978607 -0.3740816116333008 -1.9878259897232056 -1.188307523727417 -1.5379873514175415 -0.8217344880104065 -1.383035659790039 -0.12259840965270996 -0.08462245762348175 1.7782145738601685 1.8058147430419922 -0.8677417635917664 -0.49039581418037415 -0.24004043638706207 0.8437939286231995 -1.9791033267974854 -0.7388092875480652 1.6250126361846924 0.12789393961429596 -0.6825599670410156 1.2987042665481567 -0.4430457651615143 -0.16662991046905518 2.4240055084228516 -1.0128368139266968 -0.41847115755081177 -1.2362511157989502 -0.18850405514240265 0.3150847256183624 -0.3913390040397644 -0.479793906211853 -0.02803388424217701 -0.18373794853687286 -0.06675690412521362 0.989599347114563 -0.11135771125555038 1.2640070915222168 -1.6324423551559448 -0.5661168694496155 0.4621032476425171 0.8339862823486328 0.652700662612915 1.6801161766052246 1.2624027729034424 -0.40162208676338196 1.9127005338668823 -0.6203981041908264 -0.7320124506950378 0.07360849529504776 -0.4445782005786896 0.38935014605522156 1.2957578897476196 0.5500478148460388 2.0524535179138184 -0.925050675868988 -1.800763726234436 0.5873146653175354 -0.2832869589328766 -2.397503137588501 0.8221924304962158 -1.185036301612854 0.0525500513613224 -0.6318779587745667 -0.7780318260192871 -2.2160825729370117 0.5994553565979004 0.10767398029565811 -0.5875128507614136 -0.12305314838886261 1.6030482053756714 -1.367616057395935 1.0520985126495361 -1.1381160020828247 0.4229869842529297 0.10936354100704193 0.7228826284408569 -0.38017264008522034 -0.5184587836265564 1.5690017938613892 1.8643897771835327 -0.18458114564418793 0.5798812508583069 1.0396794080734253 -0.007686772383749485 -0.6629683375358582 -0.7537176609039307 -0.09877174347639084 -0.8526725769042969 0.4703426659107208 -0.5121321082115173 0.9752075672149658 -1.4494171142578125 -0.9319851398468018 0.24935239553451538 -0.6844563484191895 0.2323521375656128 -0.7015482783317566 0.9434007406234741 -2.762667655944824 0.29993438720703125 0.03005354106426239 0.6492682695388794 -0.1776752471923828 -3.213593006134033 1.059108018875122 -0.9301432967185974 -0.2282295674085617 0.6468752026557922 -1.9081169366836548 0.8109351992607117 1.7178516387939453 -0.6096943020820618 0.8071255087852478 0.6980762481689453 0.4494076073169708 -0.10801532119512558 0.24952341616153717 0.15255951881408691 -0.28826895356178284 0.5631085634231567 -0.9818245768547058 0.4356596767902374 -0.793429434299469 0.00022619497030973434 0.8870347738265991 0.09237176924943924 -0.3998908996582031 -0.42101621627807617 1.130260705947876 -0.35327795147895813 -1.7115932703018188 -0.9305469989776611 -0.8218998312950134 1.8797900676727295 -1.859153151512146 -0.0720486119389534 -0.07706864923238754 2.1592490673065186 -1.1680641174316406 0.9926674365997314 0.38105806708335876 -1.1980993747711182 -1.2004326581954956 -0.7713778018951416 -0.17162524163722992 -0.27083611488342285 1.13285493850708 0.3942853510379791 1.2458475828170776 0.2731701731681824 0.9548191428184509 0.8765026926994324 
vec22 0.4320320785045624 -0.5618449449539185 -1.9515026807785034 0.4533541798591614 0.21176262199878693 2.0413565635681152 -1.043850064277649 -0.3160625994205475 1.0061357021331787 1.0617598295211792 0.7397928833961487 2.239170551300049 -0.07768288999795914 -0.5154421329498291 -0.45595547556877136 -0.5325875878334045 -0.20299558341503143 -0.30416858196258545 -2.5362350940704346 0.2910136580467224 -0.4092758893966675 0.4579246938228607 0.2967139780521393 0.1470470428466797 -0.3468537926673889 0.35138189792633057 1.2755416631698608 0.3447103500366211 -1.0842857360839844 0.48566731810569763 -0.10834819823503494 1.2516835927963257 -1.0858142375946045 -1.1277666091918945 0.4024278521537781 0.03423134237527847 0.17457392811775208 2.500513792037964 -0.10736937820911407 0.9954723715782166 0.8453109860420227 0.6016965508460999 0.05863872915506363 -0.15027488768100739 0.07393568754196167 -1.0336313247680664 -0.2761782705783844 -1.669211506843567 0.02601769007742405 -0.5551762580871582 -0.6615259051322937 -0.10338637232780457 -0.24852722883224487 -1.1263518333435059 0.09568332880735397 -0.3240937292575836 1.0971380472183228 -0.8248369693756104 0.7922773361206055 1.1238666772842407 1.5753053426742554 -1.167920708656311 -0.6551015973091125 -0.559260368347168 1.1854300498962402 -1.0585004091262817 -0.15324048697948456 -0.8109847903251648 0.43815696239471436 0.2107771933078766 1.3971928358078003 0.47988390922546387 -0.6219618916511536 0.8219249844551086 -1.5792138576507568 -2.1638405323028564 0.15447993576526642 0.7102440595626831 0.05736831575632095 1.2747851610183716 -1.4113355875015259 -0.5010809302330017 -1.2819486856460571 -0.22819428145885468 0.35858315229415894 -0.6774890422821045 0.237237811088562 0.06171368807554245 -0.8314988017082214 -1.0626194477081299 -0.530737578868866 -0.1560487300157547 -0.7142943739891052 -0.5747246146202087 1.6834064722061157 -1.7296503782272339 -1.2585574388504028 0.6941173076629639 0.7676169276237488 0.8808997869491577 0.15334047377109528 -2.3418679237365723 -0.2853974401950836 1.020326852798462 -0.21470849215984344 1.9138731956481934 1.315610647201538 -0.16734962165355682 0.2906142771244049 -1.460166096687317 -0.3959272503852844 -1.1451760530471802 0.4200363755226135 -0.9378661513328552 -2.1777827739715576 0.5403459668159485 -0.4656193256378174 -0.28229108452796936 -0.7860108613967896 0.5650730729103088 -1.1828690767288208 1.3089693784713745 1.8537567853927612 0.17616885900497437 -0.5699726939201355 1.4996488094329834 1.2994893789291382 -1.022650122642517 1.0676037073135376 -1.2256393432617188 0.777076005935669 -0.2082148939371109 0.14238707721233368 -0.8143990635871887 0.19880837202072144 -0.11756684631109238 0.4482424259185791 0.6852903962135315 1.719883918762207 -1.863084316253662 -0.17688186466693878 0.09796429425477982 -2.0462989807128906 -0.4708060324192047 0.202840194106102 0.48231157660484314 1.8586429357528687 0.6807074546813965 0.8076499700546265 -0.40932342410087585 -1.3150451183319092 -0.04308357834815979 0.822331428527832 0.8291468620300293 1.527064323425293 -0.02628985047340393 -1.4376957416534424 1.719469666481018 1.6457628011703491 -1.1063181161880493 -1.0139102935791016 1.2328805923461914 2.168948173522949 -0.8125652074813843 0.1911679208278656 1.3926873207092285 0.598137617111206 2.167447805404663 -0.6005477905273438 -0.26960691809654236 0.48510897159576416 0.7621892094612122 0.4915696084499359 -0.9740859270095825 0.40931856632232666 0.10395987331867218 -0.1842414140701294 1.576202154159546 0.40074706077575684 0.8776847720146179 0.1836952567100525 -0.14954322576522827 -2.5495827198028564 1.014777660369873 0.5802649259567261 0.5719119310379028 -1.1259840726852417 -0.6201986074447632 0.5185542702674866 0.48044297099113464 1.9078088998794556 0.1267792135477066 0.29602906107902527 -0.7032754421234131 0.030633725225925446 1.8140891790390015 -0.6137056946754456 1.372031569480896 -2.4818599224090576 0.2622058391571045 
vec23 0.223016157746315 -0.5737962126731873 -0.8827686309814453 -0.5853630900382996 1.3296281099319458 0.7673444747924805 0.47448644042015076 -0.20594105124473572 1.6138784885406494 -0.9705789089202881 -1.4056484699249268 1.3649781942367554 2.6167197227478027 -0.10361972451210022 -1.328480839729309 -0.7203198671340942 -1.5235408544540405 -0.09235208481550217 -0.6285295486450195 -0.5855717062950134 0.7567798495292664 -0.5371716618537903 2.079375982284546 0.610457718372345 1.1990227699279785 -0.1982768028974533 1.2659224271774292 -0.6990146636962891 1.0241512060165405 0.9347186088562012 -0.21633708477020264 -0.7774339318275452 -0.27869173884391785 -1.8025168180465698 1.5568925142288208 -1.2136282920837402 0.5017572045326233 1.7618106603622437 0.8757175803184509 2.1109039783477783 -1.0170120000839233 -0.8606955409049988 0.8814404606819153 0.7106843590736389 0.21482548117637634 0.40784984827041626 -0.8982949256896973 0.7720165252685547 0.32352086901664734 1.570263385772705 -0.23634180426597595 0.48806649446487427 0.21103724837303162 0.45951855182647705 -0.8813509345054626 0.9667511582374573 -0.8243503570556641 0.42086440324783325 -0.21310944855213165 -2.0679166316986084 -0.22778445482254028 -1.556723713874817 1.0952564477920532 0.6518915295600891 -2.1484873294830322 -1.7686203718185425 1.7269649505615234 1.8603426218032837 1.8218799829483032 -0.38446274399757385 -0.6213900446891785 0.13911667466163635 1.1956439018249512 0.5040410161018372 -2.2402150630950928 -0.8932005763053894 2.2121524810791016 -1.1342488527297974 1.6972628831863403 1.1349316835403442 0.3495470881462097 -0.3108859360218048 0.6385753154754639 1.8338404893875122 -0.5884336829185486 0.11761447042226791 -0.6601629257202148 1.5185014009475708 0.029388196766376495 0.12813225388526917 -0.7758511900901794 -0.5332043170928955 1.569048523902893 0.9797865748405457 1.5209561586380005 -0.800941526889801 -0.4954330027103424 -1.826781988143921 0.9968646168708801 -0.17274203896522522 -1.4008665084838867 2.2254788875579834 1.5445184707641602 -0.42629191279411316 0.012194743379950523 -0.6250737905502319 0.9196999669075012 -0.5033431053161621 -0.0023964839056134224 -1.372322678565979 -0.29661065340042114 -0.21101799607276917 -0.9635492563247681 -0.00315477536059916 -2.279604196548462 1.7178314924240112 0.14034122228622437 -0.5130006074905396 1.6641322374343872 0.207851380109787 -1.0395632982254028 0.7656715512275696 0.6558418273925781 2.1868538856506348 0.9147760272026062 -0.03647053614258766 0.5086039900779724 1.2684837579727173 0.3107655346393585 -0.9691972136497498 -0.34371107816696167 -0.5701738595962524 -0.048281632363796234 0.5353020429611206 -1.209933876991272 0.06996145844459534 -0.0665363147854805 0.8315567970275879 0.388216108083725 -0.08531048893928528 -2.649818181991577 -0.0044142212718725204 -1.545607566833496 0.9148044586181641 0.6225710511207581 0.5002942085266113 -0.5180270075798035 0.9247217178344727 -0.5617856979370117 0.4199049770832062 0.9342359304428101 0.36211347579956055 0.4675838053226471 -0.2162390798330307 0.46661674976348877 -0.5393136143684387 -0.48657602071762085 -0.7931058406829834 -0.6289170384407043 0.43594563007354736 1.1047992706298828 -0.00529263261705637 1.1305161714553833 -0.43134942650794983 -0.33151090145111084 0.4016987383365631 -0.6265814900398254 1.310502529144287 -0.08219829946756363 -0.7877615094184875 -1.052472472190857 1.531256079673767 -0.13815340399742126 -0.817821741104126 -1.3234517574310303 -2.020151138305664 0.07743419706821442 -1.633812665939331 -1.9116244316101074 -1.065992832183838 -0.025019042193889618 -0.4157072901725769 0.7984126806259155 0.9335135221481323 0.5632644891738892 0.9834238290786743 0.9865082502365112 0.5718656778335571 -1.50586998462677 -0.1052900031208992 -0.19657468795776367 -0.862720787525177 0.48628249764442444 1.0218324661254883 0.6086474657058716 -0.7543573379516602 -0.5826973915100098 1.4652858972549438 -0.18927407264709473 -0.8156720995903015 
vec24 -1.3241900205612183 -0.4892432391643524 -0.20576317608356476 -0.9434500336647034 -0.7010502219200134 1.6320323944091797 0.2246161848306656 0.12828730046749115 1.3707823753356934 0.6370583176612854 0.8253210783004761 1.5807390213012695 0.21991603076457977 0.19467252492904663 0.3510764241218567 1.751922607421875 -2.409454107284546 0.731408953666687 -0.2716023623943329 2.0556018352508545 -0.4851069450378418 -0.9350866079330444 -0.5948711037635803 -0.33086779713630676 2.0518500804901123 1.1679039001464844 -0.01970518007874489 -1.3101338148117065 -0.5268686413764954 0.5299094915390015 -1.3400613069534302 -0.7138814926147461 1.1184977293014526 -0.04905667528510094 0.43311622738838196 0.2780900001525879 0.8126060962677002 0.8518798351287842 0.4684702754020691 -0.10324690490961075 1.0954821109771729 1.9025028944015503 -1.0202736854553223 0.5262848138809204 0.4073839783668518 -2.0516445636749268 -1.096232533454895 -0.1180756464600563 -1.7441093921661377 1.279248833656311 0.5669142603874207 0.025851307436823845 -0.09279367327690125 0.2916507124900818 0.9875246286392212 -2.4555249214172363 1.0068861246109009 -0.13671647012233734 0.09495461732149124 0.4076968729496002 1.7636610269546509 -0.5808466076850891 2.4788119792938232 -1.10867178440094 -0.1662902981042862 -0.2606488764286041 0.6088008284568787 0.1121230348944664 0.5542857646942139 -1.236682415008545 0.16654281318187714 -0.2724626660346985 -0.07347279787063599 1.9384691715240479 0.58334881067276 -0.6730060577392578 -1.5044466257095337 -1.1381410360336304 0.9863176345825195 0.36495253443717957 -0.6260313987731934 -1.4068797826766968 -0.7415348291397095 0.3794175982475281 -0.07546760141849518 0.3936173915863037 -1.3574861288070679 1.139993667602539 -0.3599795699119568 -0.5405353903770447 0.14116930961608887 0.6868590712547302 0.7861621975898743 0.33463943004608154 0.9724829792976379 0.15208473801612854 -0.8340813517570496 1.2901135683059692 -0.5078725814819336 -0.39709246158599854 -0.21955251693725586 -0.22764381766319275 -0.37074241042137146 0.0488005205988884 2.1404120922088623 0.24165686964988708 0.177291601896286 -0.04959219694137573 -0.776422381401062 -0.5757085680961609 0.41141822934150696 -0.16496117413043976 0.2112903594970703 0.3230571150779724 -0.7317407727241516 -0.8423390984535217 -0.0752827376127243 0.044841788709163666 -1.9897735118865967 0.6048270463943481 -1.0575698614120483 1.2066268920898438 0.057031016796827316 0.38872185349464417 0.3846018314361572 0.5541353821754456 -0.6657386422157288 1.5132107734680176 -0.7748369574546814 -0.9413195252418518 1.1524345874786377 0.24715447425842285 0.6310797333717346 -0.9341744780540466 -0.48587340116500854 0.4270983338356018 -1.6259044408798218 1.4869492053985596 2.8469460010528564 -1.2750048637390137 -0.8879303336143494 -0.10353340953588486 0.07246407121419907 0.7219510674476624 0.14098221063613892 0.9442534446716309 -1.464452862739563 -0.3023160398006439 0.11156817525625229 -0.622931718826294 1.8838832378387451 -1.0439876317977905 -0.24087701737880707 0.5668476223945618 0.19488424062728882 0.8564781546592712 0.4675396978855133 0.611939549446106 -1.0981652736663818 -1.2950695753097534 0.6562849283218384 -0.752680242061615 1.804680347442627 -0.17487524449825287 -2.1731340885162354 -0.3429572880268097 -2.2549378871917725 1.1450837850570679 0.10362418740987778 -2.025508403778076 -1.4169093370437622 1.1357805728912354 0.7762611508369446 -1.492393136024475 -1.8713420629501343 -0.8430362343788147 1.8092180490493774 1.1540392637252808 -0.946256697177887 0.8637552261352539 0.20966997742652893 -0.10791827738285065 -0.2689230442047119 1.7985858917236328 -2.4756546020507812 1.658635139465332 -1.6107007265090942 1.5375161170959473 0.8660730123519897 0.0796104148030281 -0.2067621350288391 -1.2686960697174072 -1.3416705131530762 -0.2919866144657135 0.2767859697341919 0.6466271877288818 0.1981218308210373 0.8865245580673218 0.4309028387069702 0.9218448996543884 
