vec0 -0.7753063440322876 -0.8097175359725952 -0.7038002610206604 -0.8599302768707275 0.31912142038345337 -1.1522573232650757 -0.42570412158966064 -0.640233039855957 -1.4820562601089478 -0.12974441051483154 0.7465152144432068 0.7477726340293884 0.9923443794250488 0.21030384302139282 -0.784387469291687 0.30304235219955444 0.8926814794540405 -0.003059715498238802 -0.3713664412498474 -1.2138793468475342 -2.1240689754486084 -1.1874127388000488 -0.12161330133676529 1.013476014137268 0.29001033306121826 -1.9319621324539185 -1.079684853553772 -2.2253668308258057 -0.4898444712162018 0.05178779736161232 -0.37095117568969727 -0.9483243227005005 -1.9222763776779175 0.42185184359550476 0.9256539344787598 -0.42625245451927185 0.5093614459037781 -1.2782951593399048 1.1503156423568726 -0.11630642414093018 -0.3533589541912079 0.8721482753753662 0.04260175675153732 0.1719861477613449 -0.6964107751846313 -1.6455528736114502 0.5554150342941284 -0.19499458372592926 -0.374631404876709 1.779313087463379 -0.006439252756536007 -0.3377816081047058 -0.27294784784317017 1.3812105655670166 -0.8640126585960388 -0.5499666929244995 0.6252353191375732 -0.1880902796983719 -0.610845148563385 0.1341649442911148 -0.8894884586334229 -1.058497667312622 0.005153029691427946 0.34056055545806885 -0.5315746665000916 0.8418555855751038 -0.9506512880325317 0.7519859671592712 0.9595643281936646 0.425645112991333 1.3322442770004272 0.7772098779678345 0.6278479099273682 0.22711890935897827 -2.702470541000366 -0.29204076528549194 -1.603489875793457 -0.5132436752319336 0.04838847741484642 -2.200831651687622 0.5247430205345154 0.3940450847148895 -1.6014729738235474 -0.5325803160667419 0.5422991514205933 0.480313241481781 -0.2920319736003876 0.6913284659385681 -1.1831283569335938 -0.2923821806907654 0.8192634582519531 -0.828059732913971 0.3952479660511017 0.7569246888160706 -2.4770984649658203 0.7179006338119507 0.45492127537727356 -0.07172388583421707 0.86418217420578 -0.5601811408996582 -1.3751232624053955 0.05628245696425438 -0.9399598836898804 -0.85747230052948 0.6064481735229492 0.8662711977958679 0.72206711769104 -0.4815855622291565 -0.757741391658783 -1.0863871574401855 1.461944580078125 -0.8799275755882263 -0.08397471904754639 -1.264868140220642 1.8892182111740112 -0.6029696464538574 -0.4950117766857147 -1.376960277557373 0.8849014639854431 -0.2021958827972412 1.0447099208831787 0.282743364572525 0.5827088356018066 0.04649984836578369 -0.4446789026260376 1.985392689704895 -3.47627329826355 -1.0577523708343506 -1.1586689949035645 0.25392529368400574 -1.7744964361190796 1.3262265920639038 1.2066618204116821 0.29004794359207153 1.808974027633667 0.8479508757591248 0.4900607168674469 0.008513759821653366 -0.7240355610847473 -0.3427349030971527 -0.3073377311229706 0.001299837022088468 -1.4987292289733887 -1.8470176458358765 0.3633843958377838 -1.1578341722488403 0.08681228756904602 -0.4809601604938507 1.3919105529785156 0.14641371369361877 -1.4841551780700684 -0.8888278603553772 0.05967749282717705 -0.5821196436882019 -1.1922873258590698 1.7878215312957764 -0.22949638962745667 0.38735371828079224 -0.5901858806610107 -0.0643778145313263 1.0166045427322388 -1.2346364259719849 -1.1260367631912231 -0.23272372782230377 1.4461954832077026 -0.9266476035118103 0.9554643630981445 -0.18656040728092194 1.9413834810256958 0.7341706156730652 -0.597123384475708 -1.3059009313583374 1.3265043497085571 -1.4002679586410522 0.09938719123601913 -2.3303511142730713 0.38710206747055054 -1.071761965751648 0.4037192463874817 -1.1106476783752441 -0.19393955171108246 0.1847759634256363 -0.39802756905555725 -0.006365043111145496 0.4204632341861725 0.6194185614585876 1.5870736837387085 -1.3145970106124878 -1.1734976768493652 1.156624674797058 1.1087998151779175 0.21211177110671997 1.2818529605865479 0.19359149038791656 1.415636658668518 0.056276965886354446 -0.3548521399497986 -0.609757125377655 1.7493358850479126 -0.6649518013000488 
vec1 -0.6664333343505859 -1.674411654472351 -0.2536243200302124 -0.6086186766624451 -0.31295934319496155 -0.22219187021255493 0.15431296825408936 -0.21095728874206543 -0.596406877040863 -0.3214011788368225 1.0716843605041504 0.2530875504016876 0.20086196064949036 -0.10581634193658829 -0.5631462931632996 0.6125183701515198 0.024618905037641525 -0.14570583403110504 -0.4778188467025757 -0.8185853958129883 -1.2826619148254395 -0.8147321343421936 -0.2923431098461151 1.3534507751464844 -0.9006019234657288 -2.3701114654541016 -0.3202533423900604 -1.6542052030563354 -0.46216851472854614 0.08660180121660233 -0.1789393424987793 -0.5480418801307678 -1.615295648574829 0.18273061513900757 2.229689836502075 -0.8960351943969727 0.9348196387290955 -0.9429948925971985 0.11606594920158386 -0.846397876739502 -0.158571258187294 0.548255205154419 1.0382263660430908 -0.1436036080121994 -0.20008181035518646 -1.42741060256958 0.614080548286438 0.7481856346130371 -0.24110352993011475 1.519900918006897 -0.9766531586647034 -1.4351829290390015 0.092708058655262 1.5615917444229126 -0.9741951823234558 -0.024183720350265503 -1.0488442182540894 -0.4287274479866028 -2.2182626724243164 0.09869799762964249 -0.9868735074996948 -0.9065646529197693 0.4526183605194092 0.8145442605018616 -1.196426272392273 0.47885122895240784 -1.0543991327285767 0.12039598077535629 0.7229350805282593 -0.15477971732616425 0.7912711501121521 -0.4256386160850525 0.8114708065986633 0.5373848676681519 -2.016657829284668 0.3245902955532074 -0.8782937526702881 -0.6188315749168396 0.1893274486064911 -2.4023993015289307 1.7290918827056885 0.06716521084308624 -1.7546005249023438 -0.16166947782039642 1.6321144104003906 0.1822587102651596 0.5028099417686462 0.04500536993145943 -1.2803176641464233 0.4644867777824402 0.29628998041152954 -0.6535682082176208 0.748100996017456 0.9496532082557678 -2.6580862998962402 0.2753429412841797 0.45484817028045654 -0.18472884595394135 1.991357445716858 -0.5834455490112305 -1.1824333667755127 -0.32385653257369995 -0.3532915413379669 -0.44040027260780334 -1.0078972578048706 0.27990299463272095 -0.0896555632352829 -0.9509674310684204 -0.7867283225059509 -2.079047918319702 1.3387888669967651 -0.48442816734313965 1.3343853950500488 -2.0665853023529053 1.8609371185302734 0.03409119322896004 -1.612711787223816 -0.601780116558075 0.3835158944129944 -0.23369720578193665 1.1799787282943726 0.0008557719411328435 0.04557584598660469 0.8983308672904968 0.5751486420631409 2.4849941730499268 -1.4510674476623535 -1.686441421508789 -0.5217478275299072 0.29351121187210083 -1.9297438859939575 1.8242992162704468 1.6773825883865356 -0.15441346168518066 0.8376586437225342 0.3755086064338684 0.5060871839523315 -0.8330959677696228 -0.19642551243305206 -0.16418197751045227 -1.452065110206604 -0.3129255473613739 -1.6301336288452148 -1.7003576755523682 -0.0030222979839891195 -0.5073235630989075 1.6549525260925293 -1.7254185676574707 0.5858190059661865 0.10305941849946976 -0.6034761667251587 0.11394395679235458 -0.2646106779575348 -0.8654823899269104 -0.418591171503067 2.4038774967193604 -0.15674440562725067 0.1638275384902954 -0.7262251377105713 0.30828842520713806 0.7648935914039612 -1.247157335281372 -0.32406631112098694 -0.12906508147716522 1.7747732400894165 -0.9415927529335022 0.3671957850456238 0.1412433236837387 2.0057947635650635 0.4728309214115143 -0.4530884623527527 -0.5835984945297241 1.2019685506820679 -1.0806679725646973 -0.8895894885063171 -1.2888401746749878 1.2805776596069336 -0.39404943585395813 0.4545338749885559 -1.1720778942108154 -0.24862299859523773 -0.1873459666967392 -0.19497047364711761 -0.6771661639213562 0.4273186922073364 0.1485849767923355 1.157974362373352 0.08773298561573029 -1.2164467573165894 1.0202142000198364 1.002397060394287 0.08077237755060196 0.8007510304450989 -0.6040194630622864 1.265188455581665 -0.05118771642446518 0.07687143981456757 -0.6486776471138 1.6275160312652588 -0.004426504950970411 
vec2 -1.525198221206665 -0.8244494199752808 0.24279682338237762 -1.51188063621521 -0.3674847185611725 -0.090795136988163 0.36155396699905396 -0.47153446078300476 -0.8900752067565918 0.005727371200919151 0.07979663461446762 -0.35321831703186035 0.08493511378765106 -0.21844227612018585 -1.6733341217041016 0.8636986613273621 1.388976812362671 0.06787154823541641 -0.6774715781211853 -2.3449654579162598 -2.5162572860717773 -0.7965356707572937 -1.4093587398529053 0.5239984393119812 -0.9747187495231628 -2.001337766647339 -0.05572594329714775 -2.285388469696045 -0.3289077877998352 0.14790306985378265 -0.42562544345855713 -0.614580512046814 -1.3870757818222046 0.7747658491134644 1.2600822448730469 -0.6874630451202393 0.6121708154678345 0.33646827936172485 0.42884561419487 -0.39085668325424194 -0.5009286403656006 0.5285369157791138 0.2700658142566681 -0.33593443036079407 -0.5495798587799072 -0.5677179098129272 1.1369078159332275 0.09240835160017014 -0.3606143891811371 0.8538345098495483 -0.5781745910644531 -1.7306699752807617 -0.9814022183418274 0.6506826281547546 -0.8569269776344299 0.10072349011898041 -0.5986153483390808 0.2170887589454651 -1.3861161470413208 -1.0981006622314453 -0.5531226992607117 -1.3807401657104492 0.807100236415863 0.8728845119476318 -1.025057315826416 1.071533203125 -0.8442785143852234 0.7974278926849365 0.5214004516601562 -0.636236846446991 1.1455795764923096 0.7936812043190002 0.7623308897018433 1.0963971614837646 -1.119462013244629 -0.21427933871746063 -1.3105530738830566 0.03617020696401596 0.5944433212280273 -2.070873737335205 0.4834020435810089 1.2918462753295898 -0.9931091070175171 -0.8784385919570923 0.5986276865005493 0.988799512386322 0.23975780606269836 1.0381438732147217 -0.33488720655441284 -0.1420043706893921 -0.04991766810417175 -0.2515663504600525 1.322756290435791 0.7801918387413025 -1.6752560138702393 -0.18965868651866913 0.9838429689407349 0.06581100821495056 0.6961570382118225 -0.7845841646194458 -1.2775295972824097 -0.09848760068416595 -1.0804113149642944 -0.5764118432998657 -0.06291558593511581 0.25886616110801697 0.7939258217811584 -0.5430346131324768 -0.7236320972442627 -1.7969021797180176 1.4902526140213013 -1.2031457424163818 1.2882040739059448 -1.4372220039367676 1.9166861772537231 0.5577470660209656 -0.251663476228714 -1.1565051078796387 0.9073865413665771 0.0327691026031971 0.9823630452156067 -0.34416982531547546 1.0089197158813477 0.7413352131843567 0.5433642268180847 1.1358236074447632 -1.6295621395111084 -1.2787967920303345 0.23710036277770996 0.41917183995246887 -1.8688559532165527 1.465616226196289 1.3934123516082764 -0.6389203071594238 1.5003395080566406 1.5407588481903076 1.2644996643066406 -1.5412020683288574 -0.6637053489685059 -0.6957739591598511 -1.1335232257843018 -0.4009309411048889 -1.476478934288025 -1.400049090385437 -0.9485165476799011 -0.6805080771446228 -0.11031700670719147 -0.5716969966888428 0.6053231954574585 -0.7455681562423706 -1.2687839269638062 -0.06808653473854065 -0.2234724909067154 -1.290515661239624 -0.9033133387565613 1.9207422733306885 0.09348797798156738 1.1025601625442505 -0.9338169097900391 0.36922696232795715 1.7182880640029907 -0.8900853991508484 -0.8730560541152954 -0.26742130517959595 1.5103505849838257 -1.5928866863250732 0.20202620327472687 0.30018165707588196 2.4536173343658447 1.0195432901382446 0.34886065125465393 -1.407335638999939 0.8449781537055969 -1.1745039224624634 -0.38781458139419556 -2.202458381652832 1.126485824584961 -1.5271998643875122 0.3753691613674164 -1.8178434371948242 -0.3351392447948456 0.617027223110199 0.6879702806472778 -1.3555963039398193 0.5083690285682678 0.30361223220825195 1.1989643573760986 -0.611046552658081 -1.3018136024475098 0.7676222920417786 0.06579312682151794 0.6894773244857788 1.4178794622421265 1.4454513788223267 0.67626953125 -0.19786034524440765 -0.37751853466033936 -0.26234111189842224 2.3421316146850586 -0.7265772223472595 
vec3 -1.3076612949371338 -0.4009545147418976 -0.5202317237854004 -1.3901299238204956 -1.4083201885223389 0.011263640597462654 -1.3960691690444946 -0.5296078324317932 -1.3647687435150146 -0.23242433369159698 1.1473660469055176 0.3999539017677307 0.6609653234481812 0.6191001534461975 -1.674664855003357 0.8361116647720337 1.4618146419525146 -0.7587118744850159 0.3014032244682312 -1.6380841732025146 -1.342421531677246 -0.6918691396713257 -0.6805947422981262 0.24758656322956085 -0.5882390141487122 -2.3436050415039062 0.42380020022392273 -2.158529043197632 -1.4078537225723267 -0.5106009840965271 -1.2053097486495972 -0.778887927532196 -1.399101734161377 -0.567057192325592 2.14374041557312 -1.0002273321151733 0.523154616355896 -0.7684720754623413 0.34919166564941406 -0.5277119874954224 -0.2211260050535202 0.8799033164978027 0.2553468644618988 -0.034994181245565414 -0.36514851450920105 -0.4431823492050171 -0.22492659091949463 -0.5507964491844177 1.2617336511611938 1.9793931245803833 -0.45189863443374634 -1.1572259664535522 -0.8809274435043335 1.3426932096481323 -1.3632514476776123 0.9632890224456787 -0.13342897593975067 0.36900007724761963 -1.6876232624053955 -0.3573024272918701 -0.8171108365058899 -0.41801899671554565 -0.36263540387153625 0.3191668689250946 -1.5599472522735596 0.3234442472457886 -1.5772677659988403 0.5201173424720764 -0.01729733496904373 -0.5198661684989929 0.574865996837616 0.4096170961856842 0.3612004816532135 1.1489744186401367 -1.8110705614089966 0.09988303482532501 -1.357982873916626 0.03262197971343994 1.2501099109649658 -1.5735831260681152 0.2498098462820053 0.3949972689151764 -1.4943363666534424 -0.240057110786438 1.1079204082489014 1.415815830230713 -0.08874448388814926 0.10979123413562775 -0.505568265914917 -0.7222734689712524 0.6894305944442749 -0.5583536028862 1.7082433700561523 1.29318106174469 -2.192056894302368 0.2730233669281006 0.7237849235534668 0.16225917637348175 1.3298283815383911 -0.9795132875442505 -1.208507776260376 -0.423369824886322 0.09991001337766647 -0.6412334442138672 0.025760170072317123 0.574722945690155 -0.007380571216344833 -0.6965087056159973 -0.4764725863933563 -1.1917221546173096 2.1622331142425537 -1.319216251373291 0.40402188897132874 -1.025654673576355 1.6053705215454102 0.010112516582012177 -0.8192471861839294 -1.1069709062576294 0.5256024599075317 -0.10311111062765121 1.0376304388046265 0.280650794506073 0.9057492017745972 1.1635746955871582 0.34735140204429626 1.5295826196670532 -1.6170052289962769 -1.0316561460494995 -0.35638314485549927 0.08772759139537811 -1.0264126062393188 1.2405340671539307 1.3305026292800903 -0.5710729956626892 1.0883630514144897 1.2947146892547607 0.2510615289211273 -0.3727683424949646 -0.1720554381608963 -0.8530256748199463 -0.3951895534992218 0.24762192368507385 -1.5769881010055542 -0.9725290536880493 -0.874081552028656 -0.9531537294387817 -1.0658202171325684 -1.2386071681976318 0.2561706304550171 -0.20937149226665497 -0.36907869577407837 -0.37010258436203003 -0.37331879138946533 -0.07488851994276047 -0.5878939628601074 1.5103884935379028 -0.4598154127597809 0.5089585781097412 0.31893590092658997 -0.10452750325202942 1.865496277809143 -1.5966086387634277 -0.7555720210075378 0.9767624139785767 1.0224554538726807 -0.9386107325553894 -0.029461009427905083 -0.8539491295814514 2.889897584915161 0.055170439183712006 -0.22073639929294586 -0.4918505847454071 -0.9367448091506958 -2.172126054763794 0.07989732176065445 -1.4351009130477905 0.5763348340988159 -2.0068509578704834 1.2817152738571167 -1.262431263923645 -1.2367838621139526 0.5205140113830566 0.3959718346595764 -1.114667296409607 0.5284315943717957 0.8139398694038391 2.1410634517669678 -0.4821174144744873 -0.9762069582939148 0.9343948364257812 0.4544036090373993 -0.308485209941864 0.9555827379226685 -0.05989691987633705 0.8946851491928101 1.1084352731704712 -1.1405284404754639 0.3750244081020355 1.3775262832641602 -0.1214694008231163 
vec4 -1.292336106300354 -0.28177180886268616 -0.16584788262844086 0.08115185797214508 -0.41235676407814026 -1.0803948640823364 -0.5660003423690796 -0.7104493975639343 -1.339733362197876 -0.8189926743507385 0.3311123847961426 1.0401513576507568 -0.055745817720890045 0.45449700951576233 -1.19155752658844 0.8108101487159729 0.5697615742683411 -0.6707232594490051 0.14972877502441406 -1.4161304235458374 -2.388291597366333 -1.309553623199463 -1.2393147945404053 -0.43661436438560486 -1.1644681692123413 -2.0889883041381836 0.0963456928730011 -2.2861738204956055 0.09061887115240097 0.06477740406990051 0.0183345228433609 -0.49687808752059937 -2.2794928550720215 0.47748303413391113 1.5323431491851807 -0.9426586627960205 0.5998374819755554 -0.8444321751594543 0.9185714721679688 -0.3900110125541687 0.4613964855670929 -0.13473770022392273 -0.3443322777748108 0.7074180245399475 -0.009181206114590168 -1.0882961750030518 0.14463576674461365 -0.5382932424545288 0.5322125554084778 2.1801533699035645 -0.2596968412399292 -2.111854076385498 -0.9138829708099365 1.5389083623886108 -0.9649416208267212 -0.4667196571826935 -0.7916382551193237 -0.15592962503433228 -2.436711549758911 -1.1559853553771973 -0.5696151852607727 -1.2549651861190796 0.6491060853004456 1.5540258884429932 -1.1847741603851318 1.0542230606079102 -1.0612714290618896 0.9707964658737183 0.08647427707910538 -0.3796614110469818 1.6248172521591187 0.9658321738243103 -0.0669705718755722 1.4749623537063599 -2.719219923019409 -0.6964630484580994 -0.8600655198097229 -0.6083803772926331 -0.32270482182502747 -2.0589277744293213 0.8333391547203064 0.9186009168624878 -1.6510522365570068 -0.7034849524497986 0.1470901221036911 1.5594583749771118 -0.006172084715217352 0.8275376558303833 -1.406644344329834 0.6108822822570801 1.626141905784607 -0.4600619673728943 1.0453472137451172 0.7649540901184082 -3.3567700386047363 -0.21545252203941345 0.6951714158058167 -0.6487830281257629 1.4558769464492798 -0.42627617716789246 -0.6629270315170288 0.3150838315486908 -0.46327099204063416 -0.03370412811636925 0.6302540302276611 0.12799817323684692 0.06718260794878006 -1.5288859605789185 -0.374983549118042 -1.6043781042099 1.7075061798095703 -0.012834878638386726 0.6706190705299377 -2.409682273864746 1.8597240447998047 -0.09563164412975311 -0.9087414145469666 -1.1949458122253418 0.7573297619819641 -0.983579158782959 0.011566251516342163 0.9805379509925842 0.6370967030525208 0.7883933782577515 -0.2353646457195282 1.09109365940094 -1.8935450315475464 -1.2836393117904663 -0.5699441432952881 -0.03648657724261284 -1.4047636985778809 0.49096569418907166 2.2384872436523438 0.6027769446372986 1.631192922592163 1.0488929748535156 0.4666294455528259 -0.23138459026813507 -1.1114016771316528 -0.771135151386261 0.24985408782958984 0.36371245980262756 -1.505854845046997 -1.3189787864685059 -0.5813992023468018 -0.6237407326698303 -0.07728772610425949 -0.764026403427124 0.2660972774028778 -0.4443718492984772 -0.9140029549598694 -0.3574365973472595 -1.0176060199737549 -0.1186133474111557 -1.3733147382736206 1.783950686454773 0.3325326442718506 0.6721506714820862 -0.499075710773468 -0.014866228215396404 1.2008143663406372 -1.4838541746139526 -0.27617812156677246 0.4036441445350647 1.8831114768981934 -0.1644202172756195 0.8935656547546387 0.43662229180336 1.78401780128479 0.534766435623169 -0.3956211507320404 -1.4653892517089844 1.0442579984664917 -0.30809715390205383 0.5689114928245544 -1.7784106731414795 0.9914017915725708 -1.57133948802948 0.8181546926498413 -2.2483744621276855 0.14627443253993988 0.8719040155410767 0.22134274244308472 -0.6565096974372864 0.36489856243133545 0.28233346343040466 0.84228515625 -0.6344213485717773 -1.2491562366485596 0.38917669653892517 0.4871954023838043 0.16703017055988312 0.218938410282135 0.16898474097251892 2.00522780418396 0.41169461607933044 -0.7070852518081665 -0.15321993827819824 1.3832387924194336 -0.578371524810791 
vec5 -1.229026198387146 0.19836659729480743 0.06400935351848602 -0.594743013381958 -1.2288925647735596 -0.35879918932914734 -0.06318165361881256 -1.4460539817810059 -0.9883027076721191 -0.8172484040260315 0.40669095516204834 1.12943696975708 0.5197691917419434 0.37820762395858765 -0.8962157368659973 0.48381924629211426 0.23192036151885986 -1.1872767210006714 -0.7193818688392639 -0.3638198971748352 -2.2671055793762207 -0.7605264186859131 -0.44961580634117126 0.7593317031860352 -0.032166603952646255 -3.2592265605926514 -0.5459824204444885 -1.7098710536956787 -0.4242435693740845 -0.33515816926956177 -0.6961161494255066 0.11273322254419327 -1.3629200458526611 0.030668385326862335 1.666942834854126 -0.6001361608505249 0.4025517404079437 -1.208571195602417 0.7521067261695862 0.8901008367538452 -0.3562980890274048 1.5188250541687012 1.556114912033081 0.8854255080223083 -0.27666813135147095 -1.0246129035949707 0.3124639093875885 -0.44107678532600403 -0.5167580842971802 1.4802600145339966 0.37211498618125916 -1.5931859016418457 -0.28572362661361694 1.5264309644699097 -0.9959697127342224 0.5784638524055481 0.3200431764125824 0.21589909493923187 -1.9673547744750977 -0.6189325451850891 -0.8724798560142517 -1.0843794345855713 -0.3267393708229065 0.927706241607666 -1.0588573217391968 0.1377134472131729 -1.751401424407959 1.090706467628479 -0.10071219503879547 -0.7182982563972473 0.9814079999923706 0.4085294008255005 0.22416752576828003 0.6625123620033264 -1.5128980875015259 -0.36582058668136597 -0.504276692867279 -0.7142238616943359 0.998660683631897 -2.595364809036255 0.719649612903595 1.1509202718734741 -1.7026082277297974 -0.5239081382751465 1.0356961488723755 0.6996359825134277 -0.6829000115394592 0.18393509089946747 -0.5601037740707397 0.05517089366912842 0.8908726572990417 -0.3374973237514496 0.4769729971885681 0.905922532081604 -2.1415412425994873 0.3316015899181366 1.4609286785125732 -0.6169266700744629 1.879378318786621 0.2753331661224365 -1.568327784538269 0.9429675936698914 -1.8947405815124512 0.043357089161872864 -0.27746856212615967 1.1745367050170898 0.6558263301849365 -1.1271058320999146 -1.2061179876327515 -1.339996099472046 1.1939833164215088 -0.749751627445221 1.1575417518615723 -0.930726170539856 1.8251866102218628 -0.947516143321991 -1.513123869895935 -1.7737022638320923 0.5020381808280945 -0.1550498902797699 0.5647786259651184 0.35391998291015625 0.579487144947052 0.8062739372253418 -0.31023016571998596 2.1804609298706055 -1.4072562456130981 -1.157989263534546 -0.09385432302951813 -0.023858260363340378 -1.6772692203521729 1.221034288406372 1.5937793254852295 -0.18658959865570068 1.9472540616989136 0.6165118217468262 0.5751901268959045 -0.021038878709077835 0.050303101539611816 -1.0639455318450928 -0.22453448176383972 0.3162066638469696 -0.8658914566040039 -0.7870869040489197 -0.8260802626609802 -0.32939624786376953 0.3498914837837219 -0.24736054241657257 1.4677516222000122 -0.6870478391647339 -1.1402976512908936 -0.6699981689453125 -0.4177192747592926 -0.42375075817108154 -1.0902491807937622 1.838159441947937 0.2274859994649887 0.8173040747642517 0.07558359950780869 -0.27017199993133545 0.9669212698936462 -1.193540096282959 -0.0935734361410141 0.2001110166311264 1.573946475982666 -0.2669254243373871 -0.33091410994529724 -0.5240090489387512 2.5332412719726562 0.37763360142707825 -0.942916214466095 -0.4417359530925751 0.3237163722515106 -1.2216567993164062 -0.1624731421470642 -1.9854644536972046 0.9412238001823425 -1.012834906578064 0.7563323378562927 -1.2394987344741821 -0.7378554940223694 1.0265631675720215 0.3170606791973114 -1.3549994230270386 0.6394624710083008 0.04956788569688797 1.2810035943984985 -0.40094250440597534 -1.8577969074249268 0.9867849946022034 1.4925209283828735 0.4551332890987396 1.6117219924926758 0.4990055561065674 0.9926634430885315 1.5965180397033691 -1.4970625638961792 -0.19605021178722382 2.8200318813323975 -0.3195909559726715 
vec6 -1.2480334043502808 -0.44332078099250793 0.3352889120578766 -0.39736735820770264 -0.9337562918663025 -0.3885972499847412 -0.20557820796966553 -1.4999357461929321 -1.8968534469604492 -0.765342116355896 0.8201666474342346 0.05737217888236046 0.997794508934021 0.2972021698951721 -0.021957525983452797 0.5518625378608704 0.9385491609573364 -0.26695647835731506 0.041793592274188995 -0.7088361978530884 -2.276012897491455 -0.38547250628471375 -0.9173462986946106 0.47541412711143494 -0.4598480463027954 -2.397603750228882 0.7955520153045654 -2.152803897857666 0.02317425236105919 0.7544553279876709 0.1594397872686386 0.26817062497138977 -1.5837066173553467 0.668887734413147 1.9374666213989258 -0.38829296827316284 0.7801516056060791 -0.582471489906311 1.1025488376617432 -1.0308947563171387 0.5272006392478943 0.3510322868824005 -0.31773480772972107 -0.029885703697800636 -0.3656405210494995 -1.5674866437911987 0.41167351603507996 0.579506516456604 0.37199851870536804 1.2269225120544434 0.11266091465950012 -0.9923303127288818 -1.1039003133773804 1.3550783395767212 -0.6884393692016602 0.5346149802207947 0.09649448096752167 -0.31923484802246094 -2.3829596042633057 -0.14406713843345642 -0.010729983448982239 -0.8123892545700073 0.3759823143482208 1.1239413022994995 -1.5730831623077393 0.4638083279132843 -0.4107831120491028 0.6606103777885437 0.2829640209674835 -0.8522822856903076 1.2389589548110962 0.12044572830200195 0.6164531707763672 1.2381864786148071 -1.9619009494781494 -0.16382688283920288 -1.266862392425537 -0.6436024308204651 1.0754923820495605 -2.981084108352661 0.962838888168335 0.04806919023394585 -1.861817479133606 -0.5809540748596191 1.7871227264404297 1.0686390399932861 -0.06863126903772354 -0.1054915189743042 -0.6884905695915222 0.2087199091911316 0.7237884402275085 -0.2748301029205322 0.46563735604286194 0.4714938700199127 -1.5106176137924194 -0.22347837686538696 0.30116987228393555 -0.5146678686141968 1.8692424297332764 0.07642742991447449 -1.5591514110565186 -0.06675641238689423 0.02125713787972927 0.07631253451108932 -0.1661411076784134 0.012001673690974712 0.22966834902763367 -1.503197431564331 -0.47994372248649597 -1.4444183111190796 1.8439722061157227 -1.1773258447647095 0.38450637459754944 -1.338363766670227 1.6885826587677002 -0.7676101326942444 -1.7112386226654053 -1.3406727313995361 1.110735297203064 -0.8201101422309875 1.0098369121551514 -0.05934835597872734 0.21805396676063538 0.046739738434553146 0.5165100693702698 1.9365898370742798 -1.9483609199523926 -1.7012521028518677 0.7230294942855835 0.04244333505630493 -1.566929578781128 1.0674387216567993 1.2488141059875488 0.2480979859828949 1.5847194194793701 0.4349370002746582 0.16921670734882355 -0.18523629009723663 -1.0737152099609375 0.04831242188811302 -1.0004490613937378 0.07283547520637512 -1.1904661655426025 -1.41215980052948 -1.2593681812286377 -0.3814256489276886 -0.003492766758427024 -0.33540889620780945 0.4847036302089691 -0.4591991603374481 -0.7781147956848145 0.23542940616607666 -0.3370913863182068 -0.32241734862327576 -0.6594676375389099 1.8769876956939697 0.22672642767429352 0.22507773339748383 -0.26769521832466125 0.6799507141113281 1.2677134275436401 -1.8348108530044556 -0.3623926639556885 -0.17267587780952454 2.186673879623413 -1.3308382034301758 -0.5762092471122742 -0.5446082949638367 2.379589796066284 0.6490507125854492 -0.11989317089319229 -0.9683265089988708 0.9560086727142334 -1.1572917699813843 0.02054022066295147 -2.388936758041382 0.858322024345398 -0.7070776224136353 0.5820123553276062 -1.5344902276992798 0.21878714859485626 0.04181046038866043 -0.03259330987930298 -0.6488094925880432 0.12314518541097641 0.7305839657783508 1.512132167816162 -0.12355632334947586 -0.8860825896263123 0.7559692859649658 0.7584301233291626 -0.8928723931312561 0.7241452932357788 0.23286771774291992 1.3927018642425537 0.5939361453056335 -0.6065137386322021 -1.3166753053665161 2.537018299102783 -0.10559788346290588 
vec7 -1.0816253423690796 -0.6828128099441528 -0.8931852579116821 -0.714342474937439 -0.5678869485855103 -0.7610549926757812 -0.5239363312721252 -0.30018776655197144 -1.563727617263794 -0.3741016685962677 0.38258591294288635 0.4779561161994934 0.2473023533821106 0.2359762191772461 -1.1878409385681152 0.45915481448173523 0.8456194996833801 0.13583004474639893 0.3356631398200989 -0.8912081122398376 -1.4390244483947754 -0.9368736743927002 -0.48934710025787354 0.6104873418807983 0.22269482910633087 -2.683189868927002 -0.7008565068244934 -1.9046036005020142 -0.23005525767803192 -0.2543744444847107 0.4388834834098816 -0.2953171133995056 -1.5825780630111694 0.6315800547599792 1.9700206518173218 -0.3059285283088684 0.6642109155654907 -0.9060180187225342 0.848060131072998 -0.8015495538711548 0.2229520082473755 0.2631247937679291 0.015927184373140335 0.1739758998155594 -0.4694661498069763 -1.6647586822509766 -0.568551778793335 0.6126001477241516 0.24955584108829498 1.5975863933563232 -0.21629829704761505 -1.0836567878723145 -0.21745434403419495 1.586679458618164 -1.1029877662658691 -0.01458546333014965 -1.058495283126831 -0.465480774641037 -0.8880234360694885 -0.6983217597007751 -0.426858127117157 -0.8050777316093445 0.8533499240875244 0.1977963000535965 -1.4479272365570068 0.3205750584602356 -0.6782406568527222 1.5920360088348389 0.11289077252149582 -0.722457230091095 0.44762223958969116 0.5468505024909973 0.520374596118927 1.7144778966903687 -0.7120614051818848 -0.7935970425605774 -1.4351812601089478 0.6441487669944763 0.979936420917511 -2.5073976516723633 0.7006359696388245 1.6925197839736938 -1.4198588132858276 -1.500136375427246 0.6933968663215637 0.16211119294166565 -0.2598167359828949 0.5373157262802124 -0.47805657982826233 -0.6927559971809387 2.0474629402160645 -0.4963286221027374 0.8322351574897766 1.8470780849456787 -2.222259283065796 -0.09090588241815567 1.1365504264831543 0.41083821654319763 1.8961114883422852 -0.3628979027271271 -1.0092852115631104 -0.3071173131465912 -0.9501983523368835 0.06692899018526077 -0.19510683417320251 0.5060901045799255 0.85579514503479 -1.3102492094039917 -1.417829990386963 -2.0513899326324463 1.5529381036758423 0.041526176035404205 0.2900853157043457 -1.5210641622543335 1.600954294204712 0.1291232854127884 -1.6032392978668213 -0.9456987977027893 0.6619479656219482 0.25680598616600037 0.8286920785903931 0.2143440544605255 -0.19140605628490448 0.641514003276825 0.5935751795768738 1.2739474773406982 -0.9435211420059204 -2.088388442993164 -0.2043578028678894 -0.42104414105415344 -1.773369312286377 0.5279495716094971 1.1961711645126343 0.12626975774765015 1.2374989986419678 1.0053690671920776 0.46449097990989685 -0.15600380301475525 -0.23956991732120514 -0.6518610119819641 -0.2300962209701538 0.07264885306358337 -1.6447608470916748 -1.6401927471160889 0.09017018228769302 -0.11641187965869904 0.9482579827308655 -0.3919656276702881 1.4873474836349487 -0.39697787165641785 -0.333184152841568 -0.12170683592557907 -0.1905420422554016 -0.0012206218671053648 -1.0561389923095703 1.2458467483520508 0.6081961393356323 0.8366357088088989 -0.27607643604278564 -0.03388379141688347 1.1736071109771729 -1.910482406616211 -1.222182035446167 0.20393233001232147 1.8993090391159058 -1.1815781593322754 0.1161549985408783 0.3978852927684784 2.038928270339966 0.1275569051504135 0.20693020522594452 -0.3839086890220642 0.2900107502937317 -1.6333906650543213 -0.18981091678142548 -2.118985414505005 0.5924264192581177 -0.6903446912765503 -0.31165874004364014 -1.19664466381073 -0.24965912103652954 -0.7070635557174683 0.03033730946481228 -0.9637269973754883 0.6872564554214478 1.0237030982971191 0.6276458501815796 -0.3978636562824249 -1.2763397693634033 1.1933692693710327 0.1543138027191162 -0.21647660434246063 1.8381242752075195 0.28268635272979736 1.8418495655059814 0.7286405563354492 -1.2439876794815063 0.2887462377548218 1.9258586168289185 -0.2164696902036667 
vec8 -1.1990718841552734 -1.3993207216262817 -0.331135094165802 -0.482041597366333 -1.0694913864135742 -0.1675792783498764 -0.3924853503704071 -0.13767890632152557 -2.1597466468811035 -1.0051356554031372 0.4158264994621277 0.8852656483650208 0.613542914390564 0.34219759702682495 -0.9706600904464722 0.2925838530063629 1.3374086618423462 -0.5158106684684753 0.43234983086586 -1.3381389379501343 -2.005364418029785 -1.3262789249420166 -0.4501136541366577 1.485705852508545 -1.0741335153579712 -2.1989428997039795 -0.07516074925661087 -1.3840222358703613 -1.0442960262298584 0.39740461111068726 -0.5387793183326721 -0.34633690118789673 -1.97422194480896 0.3594786822795868 1.6937185525894165 -0.6431690454483032 0.6395010948181152 -1.51068115234375 0.41372987627983093 -0.2520269751548767 -0.42471593618392944 0.04010762646794319 0.25731390714645386 1.3105542659759521 -0.21898320317268372 -0.9359133839607239 0.533074140548706 -0.12772072851657867 0.19409936666488647 1.9768203496932983 -0.6601362228393555 -1.1677075624465942 -0.3819078207015991 0.9876039624214172 -0.6876843571662903 -0.006420444697141647 -0.017925644293427467 -0.0310150608420372 -0.8095411062240601 -0.2471446841955185 -0.3226822316646576 -0.337607741355896 -0.1676035374403 0.4757552444934845 -1.6463079452514648 0.6132728457450867 -1.0241488218307495 0.6943793296813965 0.5365899205207825 0.329362154006958 1.7976760864257812 0.044728849083185196 1.0997625589370728 1.3257672786712646 -1.1492191553115845 -0.7985230684280396 -1.286553144454956 -0.5260275602340698 0.748755693435669 -2.201173782348633 1.037112832069397 1.1129493713378906 -1.1684226989746094 -0.3600408732891083 0.8264347910881042 0.284844309091568 0.11341717094182968 -0.17902666330337524 -1.3464417457580566 0.5332043170928955 0.17924544215202332 -0.7555755376815796 0.4039990305900574 0.9032442569732666 -2.255809783935547 -0.24571006000041962 0.3493526875972748 -0.28861182928085327 0.9860242009162903 -0.18219022452831268 -0.8031312227249146 -0.8190968632698059 -0.44585129618644714 -0.9353235960006714 0.1774044632911682 0.7078306674957275 0.6205134391784668 -2.0351181030273438 -0.7195156216621399 -1.4222804307937622 1.9344879388809204 -0.7634517550468445 0.3457678556442261 -1.0295617580413818 2.544191837310791 0.020353330299258232 -1.2426609992980957 -2.071486473083496 0.5485917329788208 0.17939162254333496 1.762148380279541 0.4971660375595093 -0.026252225041389465 0.6712512969970703 0.020555775612592697 1.7575057744979858 -1.474488615989685 -1.3212065696716309 0.0014818048803135753 0.7145292162895203 -2.3076205253601074 0.7219847440719604 1.0884511470794678 -0.2495187222957611 1.781067132949829 1.6858165264129639 0.3405568301677704 -0.6539053916931152 -0.5957342982292175 -0.15837742388248444 -0.6863290667533875 -0.24521148204803467 -1.9242230653762817 -1.380527138710022 -0.09810072183609009 -0.20163746178150177 0.7361823916435242 -0.8462479114532471 1.0472053289413452 0.3125198483467102 -1.1488298177719116 -0.4820990562438965 -0.2898077070713043 -0.2737092673778534 -0.8241931796073914 1.9785609245300293 0.4803272783756256 0.5140984654426575 -0.7087323665618896 -0.2326539009809494 1.9259846210479736 -1.830104947090149 -0.20826059579849243 -0.1760827898979187 2.518489360809326 -1.2767889499664307 0.6064751744270325 -0.3729945719242096 2.84879207611084 0.510191023349762 -0.779656171798706 -1.2409822940826416 0.36396148800849915 -1.673325538635254 -0.33121421933174133 -1.1943855285644531 0.8416916728019714 -0.9595123529434204 0.7277976870536804 -1.3862173557281494 -0.36817842721939087 -0.4073508083820343 0.78657066822052 -1.5576549768447876 1.0257967710494995 0.6218900680541992 1.8900086879730225 -1.441409707069397 -1.367182731628418 0.548658013343811 0.8838081359863281 -0.23556073009967804 1.1570254564285278 0.8501322865486145 1.824895977973938 0.9665461182594299 -0.07277242094278336 -0.3563668131828308 0.9859796762466431 -0.0361228883266449 
vec9 -1.4171699285507202 -1.0823770761489868 0.3734267055988312 -1.3159337043762207 -1.1056838035583496 0.03528427705168724 -0.3334738314151764 -1.1210274696350098 -1.209155797958374 -1.0708563327789307 0.023653000593185425 0.3508022129535675 0.006284624803811312 0.4083583652973175 -0.07456602156162262 0.6581231951713562 1.391392469406128 -0.4431558847427368 -0.02699676714837551 -0.7591551542282104 -2.5855116844177246 -1.8860642910003662 -0.7463243007659912 1.6334246397018433 -0.10086246579885483 -2.1685335636138916 0.03642970696091652 -2.363492488861084 -0.3740008473396301 -1.2012300491333008 0.030638642609119415 -0.6417527198791504 -0.8840048909187317 -1.2473227977752686 1.6701281070709229 -1.2242281436920166 0.949989914894104 -0.7855591773986816 0.8743408918380737 0.30243879556655884 -0.36435985565185547 0.6776145696640015 0.66622394323349 1.3841050863265991 -0.5587323307991028 -0.14666211605072021 0.17129908502101898 -0.4155553877353668 0.5325599312782288 0.9643418788909912 0.3636972904205322 -1.3644250631332397 -0.45437946915626526 1.218499779701233 -0.1652032732963562 0.155769482254982 -0.40221118927001953 -0.3208857774734497 -1.4053778648376465 -0.8351794481277466 0.4684794545173645 -1.092647910118103 0.7342556715011597 0.6488852500915527 -1.531252145767212 0.5259623527526855 -1.7786818742752075 1.321405053138733 -0.3100475072860718 -0.7632032632827759 1.0154675245285034 0.15834389626979828 0.6126736998558044 0.46165597438812256 -1.5956259965896606 -0.607452392578125 -1.9223244190216064 -0.10678881406784058 0.4688434302806854 -2.6335201263427734 0.6542115807533264 0.6790838837623596 -1.374557614326477 -0.6973317861557007 0.5126492381095886 0.28409892320632935 -0.3691959083080292 0.4815694987773895 -0.6389575600624084 -0.2571856379508972 1.3571975231170654 0.17054922878742218 1.517471432685852 -0.22543399035930634 -2.6106698513031006 -0.0396338626742363 0.37901920080184937 -0.6792919635772705 1.037671685218811 -0.7164400219917297 -1.059872031211853 -0.33464568853378296 -0.24070999026298523 0.08245787769556046 -0.3816361427307129 0.6158749461174011 -0.07732690870761871 -0.48003092408180237 -1.298693299293518 -1.535271167755127 1.2791179418563843 -0.8818110227584839 0.4278219938278198 -1.3140077590942383 1.8891016244888306 -0.04859762266278267 -1.2991138696670532 -0.6537166833877563 0.6350178122520447 -0.24942022562026978 -0.2468409240245819 0.6791747212409973 0.5699766874313354 0.7943938970565796 0.8589957356452942 1.7970855236053467 -1.091732144355774 -1.7560690641403198 -1.1883786916732788 0.5523830056190491 -2.280036211013794 0.6225952506065369 1.4711891412734985 -0.18689726293087006 1.9994176626205444 0.48329123854637146 0.732162356376648 -1.0923718214035034 -0.6281697750091553 -1.4176899194717407 -0.9046502113342285 0.2244313657283783 -1.4270198345184326 -1.2882920503616333 0.7617253065109253 -1.1692099571228027 0.5935404896736145 -0.5427073836326599 1.0658438205718994 0.5540266633033752 -0.45553943514823914 0.2959711253643036 -0.13630220293998718 -0.8760671019554138 -0.7389447093009949 1.3016854524612427 0.07150709629058838 0.23846924304962158 -1.4199867248535156 -0.7149871587753296 1.5692458152770996 -2.5619516372680664 -0.648716151714325 -0.31794941425323486 1.6055405139923096 -0.880743682384491 -0.10539928078651428 -0.5085306763648987 1.930555820465088 0.43831387162208557 -0.09187926352024078 -0.5055907368659973 0.3065384030342102 -1.7919009923934937 -0.5677049160003662 -2.593191146850586 1.1361750364303589 -1.2878153324127197 0.30535441637039185 -1.129366159439087 0.06504543125629425 0.45592427253723145 -0.8800177574157715 -0.7691599726676941 0.9601395726203918 -0.0042326548136770725 1.3397353887557983 -0.05337562784552574 -1.6843969821929932 0.4491097331047058 1.1629464626312256 0.43836504220962524 2.061566114425659 -0.6989278793334961 1.8211326599121094 0.8273977041244507 0.19657588005065918 0.5047140717506409 1.6527321338653564 -1.1751351356506348 
vec10 -1.9661115407943726 -0.5740624070167542 -0.035277146846055984 -1.174195408821106 -1.5232363939285278 0.0014748361427336931 -0.5613734126091003 -0.5716601014137268 -1.3324060440063477 -0.7950301766395569 0.7185183763504028 0.8804976344108582 -0.007327005732804537 0.7561102509498596 -0.8149800896644592 0.6239376664161682 0.8617875576019287 -0.29230228066444397 -0.3923526108264923 -1.320831537246704 -2.372610330581665 -1.3123291730880737 -0.020159397274255753 0.7221677303314209 -0.25871267914772034 -2.986826181411743 -0.580214262008667 -1.7784509658813477 0.1154661625623703 0.2453673928976059 -0.9663968682289124 -0.5658073425292969 -1.3145241737365723 -0.11946597695350647 1.892525315284729 -1.859919786453247 0.9113298058509827 -0.3501935601234436 0.9796872138977051 -0.01887046918272972 -0.4168991148471832 -0.5610669255256653 0.32060760259628296 0.38689157366752625 -1.1520953178405762 -1.6167161464691162 -0.11034072935581207 -0.37377142906188965 -0.6124604344367981 1.7785115242004395 0.39383044838905334 -1.842150092124939 -1.381124496459961 2.080747604370117 -0.5088728070259094 -0.2469266951084137 0.2081322968006134 0.05765777826309204 -1.9158837795257568 0.13774417340755463 -0.9122684001922607 -0.7808336615562439 0.5500548481941223 1.106271743774414 -1.4611130952835083 1.4152740240097046 -0.673551619052887 0.9094991683959961 0.10774285346269608 -0.30841973423957825 0.3457810580730438 0.4151710569858551 0.1228872537612915 1.0212993621826172 -1.741096019744873 -0.7825539708137512 -1.0937089920043945 0.296866238117218 0.30274882912635803 -2.3282642364501953 0.42530590295791626 0.186665341258049 -1.4605268239974976 -0.8980185389518738 1.1763325929641724 0.6944553256034851 0.10466708242893219 -0.13896435499191284 -0.5330976247787476 -0.369199275970459 0.9405638575553894 -0.1564072072505951 1.48491632938385 0.7403836846351624 -2.8462886810302734 -0.203888937830925 1.472299337387085 -0.5308802723884583 1.3111464977264404 -0.7365731596946716 -1.7624751329421997 -0.6789529919624329 -0.38672176003456116 -0.532832682132721 0.5582659244537354 0.7861099243164062 0.8032059669494629 -0.5444352030754089 -0.9110629558563232 -1.3846510648727417 1.6457830667495728 -1.394892930984497 0.8354533314704895 -1.1612619161605835 2.0626022815704346 -0.6306862831115723 -1.0589675903320312 -1.7610632181167603 1.1795871257781982 0.05209118872880936 0.7677802443504333 0.005631997250020504 0.22725975513458252 0.10337209701538086 0.7593920826911926 1.088160753250122 -1.4185484647750854 -1.7685668468475342 -0.34584906697273254 -0.7765766382217407 -1.8852330446243286 1.1365556716918945 1.5084214210510254 -0.007111113052815199 0.9336795210838318 1.0190882682800293 0.2637515664100647 0.2994125187397003 -0.4203493893146515 -0.6329736113548279 -1.1561414003372192 0.048699069768190384 -2.0690858364105225 -1.4460997581481934 -0.9728906154632568 -0.7150157690048218 0.8851655721664429 -0.1581135243177414 -0.19757653772830963 0.13272082805633545 -0.8278718590736389 0.28286391496658325 -0.00774003192782402 -0.6110453605651855 -1.0665229558944702 1.2013680934906006 -0.6500450372695923 0.7137882113456726 -0.5026494264602661 -0.4685232639312744 1.6520637273788452 -1.3879698514938354 -0.8917946815490723 -0.6890416145324707 1.8206679821014404 -1.4401848316192627 0.020448436960577965 0.5402376055717468 2.8714540004730225 0.9806077480316162 0.34053462743759155 -1.4676687717437744 0.9475077986717224 -0.9929081201553345 0.069811150431633 -1.7420363426208496 1.0758368968963623 -1.6563892364501953 0.7903820276260376 -1.3818484544754028 0.22048339247703552 0.6939111948013306 -0.29264310002326965 -1.3361142873764038 0.002212646882981062 1.2596813440322876 1.5748629570007324 -1.3179670572280884 -1.2345619201660156 1.0343165397644043 0.9640796780586243 -0.13377708196640015 1.0996414422988892 0.1371573656797409 1.3686069250106812 0.36474865674972534 0.4001522958278656 -0.31052854657173157 1.7422329187393188 -0.7982485294342041 
vec11 -0.6231318712234497 -0.5902935266494751 0.018286317586898804 -1.0840049982070923 -1.0391019582748413 -1.449622392654419 -0.00033514591632410884 -1.518725872039795 -0.6784946322441101 -0.5757825970649719 0.4947700500488281 1.3174262046813965 -0.04577471688389778 0.3887167274951935 -0.5821653604507446 1.03114914894104 1.3370416164398193 -0.39519453048706055 0.3252740204334259 -0.9790678024291992 -2.360581874847412 -0.5887424349784851 -0.5419663190841675 1.3055418729782104 -0.538260817527771 -1.63833487033844 0.09504854679107666 -1.169068455696106 -0.7869070172309875 -0.015948664397001266 -0.5362765789031982 -0.7014193534851074 -1.215225100517273 0.17018230259418488 1.6908284425735474 -0.3147260248661041 0.9542650580406189 -0.6840154528617859 0.5903264880180359 0.3086089491844177 -0.7144132256507874 0.775274932384491 0.1668328493833542 1.3383923768997192 -1.1474326848983765 -1.2457730770111084 0.3558124303817749 -0.2243538200855255 0.4792233407497406 1.531941294670105 -0.15683379769325256 -1.2462607622146606 -0.5676115155220032 0.46263137459754944 -0.8080280423164368 -0.7713994383811951 -0.6276456117630005 -0.05935869738459587 -1.3784124851226807 -0.9810686111450195 -0.9697266221046448 -0.7632279396057129 0.565582811832428 0.5498385429382324 -1.3497638702392578 0.24777477979660034 -1.8294785022735596 1.9081374406814575 0.11252383887767792 -0.2392781376838684 1.2024036645889282 0.20254287123680115 1.0232042074203491 0.3756621181964874 -1.6517136096954346 -0.48974549770355225 -0.9598566293716431 0.09809324145317078 -0.051437437534332275 -0.9731847643852234 0.8520423769950867 0.5169073343276978 -1.495312213897705 -0.03510776907205582 1.0947648286819458 1.1243395805358887 -0.10024189203977585 0.45952972769737244 -0.42311808466911316 -0.6312586069107056 0.1601480096578598 -0.08898632228374481 0.31077638268470764 0.9459105730056763 -2.3675601482391357 -0.0703827366232872 1.1413471698760986 -0.272813081741333 1.810692548751831 -0.04439542442560196 -1.1480218172073364 -0.537455677986145 -0.4251846671104431 -0.1339222639799118 -0.7199221849441528 0.43193739652633667 0.6323456764221191 -0.97043776512146 -0.4988236129283905 -2.1807219982147217 2.0742549896240234 -0.0019405892817303538 1.5404340028762817 -0.9233903884887695 1.7950958013534546 -0.07355889678001404 -1.019450068473816 -1.298632264137268 0.9241538047790527 -0.6103930473327637 1.315889835357666 1.349206805229187 0.274395227432251 2.0589544773101807 0.3804081380367279 2.125495433807373 -1.5389001369476318 -0.9798356294631958 -0.9373170733451843 0.3819175660610199 -2.037975311279297 1.1117404699325562 1.3076515197753906 -1.4173846244812012 1.5801454782485962 0.9787362813949585 1.070844292640686 -0.5250676274299622 -0.06148064509034157 -1.0980677604675293 -0.3571791648864746 0.3281424343585968 -2.1045820713043213 -1.4518437385559082 0.05175265297293663 0.3367747366428375 0.0841854140162468 -0.530816912651062 1.297104835510254 0.3307628333568573 -0.2706499695777893 0.48624593019485474 -0.38474124670028687 -0.7069317102432251 -1.525000810623169 1.4679241180419922 -0.2445799708366394 0.6140305399894714 -1.294987440109253 -1.1635468006134033 1.844260811805725 -1.3248696327209473 -0.6599805355072021 -0.7175171375274658 1.376448631286621 -0.7706631422042847 -0.19031929969787598 1.194904088973999 2.4678947925567627 0.20651991665363312 -0.23853138089179993 0.07103744894266129 0.7316428422927856 -1.4686286449432373 -0.17048883438110352 -1.5543073415756226 0.47571489214897156 -0.622349739074707 0.978025496006012 -2.036921501159668 -0.0914066806435585 -0.49144354462623596 0.2818743884563446 -1.376781940460205 0.045783378183841705 -0.08420699089765549 0.7866114974021912 -0.8377789855003357 -1.1408578157424927 0.8269210457801819 0.8387845754623413 0.5592305660247803 2.0730085372924805 0.8647125959396362 1.2829538583755493 1.240156888961792 -0.11036493629217148 0.28278103470802307 1.672179937362671 0.24710476398468018 
vec12 -0.7218940258026123 -0.6467489004135132 0.5337634682655334 -0.9400090575218201 -0.839227020740509 -0.5917342305183411 0.12792742252349854 0.1330273449420929 -0.9884440898895264 -0.40013638138771057 -0.13292884826660156 1.3837988376617432 0.04239420220255852 -0.1542573869228363 -0.7452089190483093 0.46989449858665466 0.7214397192001343 -1.2359654903411865 0.5154593586921692 -0.8348314166069031 -1.7540547847747803 -1.1732094287872314 -0.2851986885070801 0.7707687020301819 -0.020949682220816612 -1.729759931564331 0.588961124420166 -2.679417610168457 -0.5795904994010925 -0.32201576232910156 -0.13316717743873596 -1.033386468887329 -0.6051547527313232 0.8160115480422974 2.0501487255096436 -0.9628798365592957 0.5801953077316284 -0.6362050175666809 0.898163378238678 -0.7585896849632263 0.515001118183136 0.4764716923236847 0.6433428525924683 1.0573197603225708 -0.4858570694923401 -0.8253194093704224 1.1901394128799438 -0.03277415782213211 0.7226923108100891 1.4629356861114502 0.6719834804534912 -1.171637773513794 -0.9227627515792847 1.0165345668792725 -1.8169320821762085 -0.15331104397773743 -0.9126467704772949 -0.007319711148738861 -1.0071953535079956 -0.314694344997406 -0.7185817956924438 -0.8989854454994202 -0.2051052451133728 0.8351450562477112 -1.46477210521698 0.4617951810359955 -1.0747430324554443 0.8579974174499512 0.9871378540992737 -0.595300555229187 1.3099268674850464 1.5766713619232178 0.704194962978363 0.7178373336791992 -1.0596201419830322 -0.9982891082763672 -0.7505342364311218 -0.2126007080078125 0.5950697064399719 -1.663912057876587 0.15534545481204987 0.5184051990509033 -0.4491753578186035 -0.21883489191532135 0.3268783688545227 0.9040151834487915 -0.0015958588337525725 0.5197327136993408 -0.4155789017677307 0.36371150612831116 0.9018826484680176 -0.7613329887390137 0.48765885829925537 1.1228837966918945 -2.405839204788208 0.4052867591381073 0.6144387722015381 -0.9998475313186646 2.356959581375122 -0.34215059876441956 -1.5147569179534912 0.08898167312145233 -1.3234148025512695 -0.05543651804327965 -0.14773812890052795 0.5057375431060791 1.0444958209991455 -1.308836579322815 -0.9276816844940186 -1.5345888137817383 1.3902814388275146 -0.8887940645217896 0.19995339214801788 -0.8414895534515381 1.5814515352249146 -0.8361926674842834 -0.7146178483963013 -1.1652506589889526 0.24684393405914307 -0.15467101335525513 1.7594355344772339 0.38096359372138977 0.8075782060623169 1.1642465591430664 0.22986294329166412 2.2465567588806152 -1.5532093048095703 -0.6098951101303101 -0.7031811475753784 -0.16205883026123047 -1.4201866388320923 1.3381346464157104 0.3246118426322937 -0.23238062858581543 1.4968059062957764 0.4778483211994171 0.5372998714447021 -0.14568640291690826 -0.12827400863170624 -0.2502944767475128 -0.1436380296945572 0.662205159664154 -2.2127037048339844 -1.5586622953414917 -1.0329090356826782 -0.8124738335609436 1.222516655921936 0.22040659189224243 0.8706220388412476 -0.15749962627887726 -0.8094910979270935 -0.09478666633367538 0.0286498311907053 -0.7837542295455933 -0.8625313639640808 1.678928256034851 0.13809797167778015 0.49384862184524536 -1.019991159439087 -0.2835068106651306 1.4408830404281616 -1.6713831424713135 -0.10654539614915848 -0.4132438898086548 1.5919623374938965 -1.567183256149292 0.2341083288192749 0.5278356671333313 2.418656349182129 -0.07089857012033463 -1.0700515508651733 -1.171318531036377 0.05969509854912758 -1.053604245185852 0.7193207144737244 -2.3514041900634766 0.812216579914093 -1.571970820426941 0.06329536437988281 -1.2381256818771362 0.14536188542842865 0.5422695875167847 0.14946715533733368 -0.05246473476290703 0.639742374420166 0.2634088099002838 0.7969399690628052 -1.2203662395477295 -0.5991882085800171 0.7007396817207336 0.1353118121623993 -0.2962367534637451 1.4469547271728516 0.05543237179517746 1.1739836931228638 0.6371465921401978 0.4011327028274536 0.49826672673225403 1.5429364442825317 -0.8750805854797363 
vec13 -1.1859278678894043 -1.150540828704834 -0.6639750599861145 -1.5054289102554321 -0.09960585087537766 -1.0665202140808105 0.49075162410736084 -0.30755606293678284 -1.441351056098938 -0.924323320388794 0.14455817639827728 0.08634662628173828 0.27448591589927673 -0.5577505826950073 -0.8827703595161438 -0.22609858214855194 0.012941563501954079 0.01088719442486763 -0.1024538204073906 -0.011709041893482208 -2.0066802501678467 -1.383131742477417 -0.7876890301704407 1.2004340887069702 -0.9988217353820801 -2.628209352493286 -0.7041070461273193 -2.3090455532073975 -0.016018062829971313 -0.024583566933870316 -1.1494369506835938 -0.1521100550889969 -1.5509480237960815 -0.8417977690696716 1.7638145685195923 -0.46743735671043396 0.15286612510681152 -1.0159945487976074 0.08284372836351395 -0.5358791947364807 -0.1191057562828064 -0.04421970993280411 -0.035103149712085724 0.45450559258461 -0.5113296508789062 -0.28074371814727783 0.4472958445549011 0.4257301092147827 0.4293065071105957 1.895479440689087 0.4219127893447876 -0.880394458770752 -0.6427364945411682 1.1669821739196777 -0.38565075397491455 0.2830134630203247 -0.9566367268562317 -0.34548184275627136 -2.447279930114746 -0.7047890424728394 -0.829741895198822 -0.3947663903236389 -0.6051118969917297 0.31959816813468933 -1.2584131956100464 0.9081539511680603 -1.1689567565917969 0.9586781859397888 0.44037362933158875 0.2643949091434479 1.0583196878433228 0.4030570089817047 0.6987919807434082 1.1594773530960083 -1.7459229230880737 -0.49007701873779297 -1.2533947229385376 0.10649710893630981 -0.11139289289712906 -2.334038734436035 0.78306645154953 1.1205610036849976 -0.5271602272987366 -0.825620710849762 1.424601674079895 0.5472235679626465 -0.08904115855693817 0.7182483077049255 -1.2234389781951904 0.117006316781044 0.44563210010528564 -0.6317191123962402 0.8501314520835876 0.2454705834388733 -2.7919304370880127 -0.2182692438364029 0.6121359467506409 -0.2769779860973358 1.8091840744018555 -0.5580703020095825 -1.2195347547531128 -0.4451397955417633 -1.0918259620666504 -0.7946871519088745 0.14541654288768768 0.023547468706965446 0.7279535531997681 -1.3406094312667847 -1.2765519618988037 -1.569359540939331 2.3161609172821045 0.008560050278902054 0.6445590853691101 -1.425405740737915 1.4381309747695923 -0.9001697897911072 -1.2853279113769531 -1.649953842163086 0.4836876094341278 -0.35754215717315674 0.779453456401825 0.4768456816673279 1.0518907308578491 0.5151207447052002 0.3927067220211029 2.244953155517578 -1.3225667476654053 -1.4025181531906128 -0.37539201974868774 0.21492475271224976 -0.6083344221115112 1.677376627922058 0.9667555689811707 0.3113184869289398 1.0250271558761597 0.7144210934638977 0.4607583284378052 0.10381637513637543 -0.44376811385154724 -0.9068400859832764 -0.38804683089256287 0.0976400151848793 -1.2112380266189575 -1.0428820848464966 -0.5040429830551147 -0.10224317759275436 0.6333867311477661 -0.9780548810958862 0.40134522318840027 -0.6779457926750183 -0.8817020058631897 0.030905935913324356 -0.3469610810279846 -0.23933584988117218 -0.30065396428108215 2.0043063163757324 -0.4889509975910187 1.2628427743911743 -0.36443066596984863 0.2015727013349533 1.9034640789031982 -1.8768874406814575 -0.3165561258792877 -0.1189131960272789 1.0076203346252441 -0.3477797508239746 0.1590823531150818 -0.6755152940750122 2.0048375129699707 0.30786919593811035 -0.6298096179962158 -0.44143521785736084 1.0173331499099731 -1.3045275211334229 -0.10166994482278824 -1.8181134462356567 1.3945269584655762 -0.44979044795036316 0.9623596668243408 -1.1397053003311157 -0.43228304386138916 0.18388772010803223 0.27469801902770996 0.4558793306350708 1.0238360166549683 0.7043434381484985 0.9672642946243286 -0.5342363715171814 -1.8491755723953247 1.3707621097564697 0.5565133094787598 0.11448685824871063 1.3673334121704102 0.8866101503372192 0.5563303828239441 0.5493566989898682 0.2899528443813324 0.5320072770118713 1.2598587274551392 0.6156461834907532 
vec14 -1.7249736785888672 0.10003364831209183 -0.039226945489645004 -0.5804206132888794 -0.10889475792646408 -0.4881993234157562 -0.19956541061401367 -0.5957602262496948 -0.05565216764807701 -0.8965737223625183 0.5196881890296936 1.3756972551345825 -0.22508661448955536 0.1084735244512558 -1.6933482885360718 0.4981338381767273 0.7025895714759827 -0.2826436161994934 0.04973994940519333 -0.7954960465431213 -1.7846378087997437 -1.2183390855789185 -0.5897948741912842 0.8999256491661072 -0.2018873244524002 -2.0001726150512695 -0.1759367436170578 -2.0510647296905518 -0.04788273200392723 0.27267712354660034 0.20317696034908295 -0.7062370777130127 -1.435257077217102 -0.4648890495300293 2.5284347534179688 -0.4547570049762726 1.01437246799469 -0.49212968349456787 1.3171190023422241 -0.3005215525627136 0.1704452633857727 0.15848368406295776 -0.16755609214305878 0.9456443190574646 -0.47000136971473694 -0.4481874108314514 0.33385443687438965 -0.5503053069114685 0.17165695130825043 2.1172714233398438 -0.3919816315174103 -1.0493173599243164 -0.9536431431770325 1.9617477655410767 -0.9225797057151794 1.1577845811843872 -1.7956440448760986 -0.501388430595398 -2.262075424194336 -0.14430637657642365 -0.6329495310783386 -0.7691774964332581 0.8938795328140259 1.1935029029846191 -1.8621495962142944 -0.13858135044574738 -0.35201799869537354 0.5289042592048645 0.6376638412475586 -0.18464869260787964 1.8905798196792603 0.23810264468193054 0.3029802441596985 0.9166920781135559 -1.3462997674942017 -1.4402755498886108 -1.3224151134490967 -0.2786308825016022 0.878341019153595 -1.588329792022705 0.6852647662162781 1.4880257844924927 -1.6666747331619263 -0.6059300303459167 1.646261215209961 0.9247387051582336 0.7347944378852844 0.6705922484397888 -0.15071170032024384 -0.04020895063877106 0.4897491931915283 -0.3712197542190552 1.0166959762573242 0.6682446599006653 -2.6341004371643066 0.7286510467529297 2.022817611694336 -0.12788867950439453 1.6315877437591553 -1.0705839395523071 -1.526223063468933 -0.3069410026073456 -1.077560305595398 -0.7837190628051758 0.037786103785037994 -0.05671904608607292 0.7239894866943359 -0.7477683424949646 -1.1918740272521973 -1.7803620100021362 1.6294234991073608 -1.1215969324111938 0.40693140029907227 -0.5694271326065063 2.0260050296783447 0.2921251356601715 -1.2126070261001587 -1.0834472179412842 0.8119807243347168 -0.11526944488286972 0.48083123564720154 1.1940629482269287 1.299345850944519 1.2933629751205444 0.15349192917346954 1.7965179681777954 -1.6595895290374756 -1.6820675134658813 -0.7669507265090942 0.5763981938362122 -1.9730385541915894 0.9993220567703247 1.4516392946243286 -0.3068842887878418 1.7160584926605225 0.3439690172672272 1.5917059183120728 -0.740992546081543 -1.5535240173339844 -0.6290353536605835 -0.3588376045227051 -0.028538905084133148 -1.6839977502822876 -1.647194266319275 -0.46469444036483765 -0.7764571309089661 0.16868753731250763 -0.4346620440483093 0.9069045782089233 0.4723796546459198 -0.4541650116443634 -0.7900263667106628 -1.5388466119766235 -1.7280045747756958 -1.0515882968902588 1.790499210357666 -0.5367685556411743 0.3291102945804596 -1.0230730772018433 0.7609765529632568 1.1224679946899414 -1.1591801643371582 -0.8905905485153198 -0.6588021516799927 1.6287624835968018 -0.5476207733154297 0.07335671782493591 0.6458495855331421 1.944615364074707 0.510339617729187 0.4465793967247009 -0.856959342956543 0.6345610022544861 -1.1797058582305908 0.25531497597694397 -1.5503790378570557 0.9528525471687317 -0.6821495890617371 1.149263858795166 -1.2550585269927979 -0.7342362999916077 0.18346916139125824 -0.06716831773519516 -0.3989335894584656 0.4698716700077057 0.4885275065898895 1.4331203699111938 -0.8511050343513489 -0.3921789824962616 0.609461784362793 1.2344655990600586 0.7640354037284851 1.1191768646240234 0.5858022570610046 2.470461130142212 0.32347598671913147 0.6138615608215332 -0.3419223427772522 2.5978894233703613 -0.37240925431251526 
vec15 -1.073781967163086 -0.32435548305511475 -0.2867949604988098 -1.1696761846542358 -0.9992485642433167 -0.19633273780345917 -0.3189008831977844 -0.28594812750816345 -0.8676773905754089 0.003255951451137662 0.15734218060970306 1.1568553447723389 0.8375954627990723 0.7056587338447571 -0.996266782283783 0.6862162947654724 0.5767064094543457 -0.5378924608230591 0.00377463037148118 -1.525794267654419 -1.9884730577468872 -0.5668013095855713 -0.7439258098602295 0.6757864952087402 0.1566329300403595 -2.2696640491485596 0.36014795303344727 -1.5965595245361328 -0.8050082921981812 0.53786700963974 -0.8327799439430237 -0.6275495886802673 -1.4513013362884521 0.3643639385700226 2.2443861961364746 -2.008195400238037 0.750350832939148 -0.7282392978668213 0.5361405611038208 -0.059078335762023926 -0.11652204394340515 0.10826854407787323 1.1186496019363403 0.4779919683933258 -0.49769824743270874 -0.5515750050544739 0.34370648860931396 0.21767374873161316 0.3439573347568512 1.5237542390823364 -0.3720839321613312 -1.3916951417922974 -0.3980811834335327 1.820928692817688 -0.6053601503372192 0.30529919266700745 -0.713740348815918 -0.3838352560997009 -1.7783992290496826 -0.7071369290351868 -0.7867980003356934 -0.752099335193634 -0.2938314378261566 0.4753645956516266 -1.6809940338134766 0.518492579460144 -1.520593285560608 1.3501758575439453 0.06966698914766312 0.09981969743967056 1.0277836322784424 0.34028521180152893 0.46264007687568665 0.3822542726993561 -0.828411877155304 -0.7282136082649231 -1.1057246923446655 0.0966028943657875 0.5997202396392822 -2.760133743286133 0.1655750870704651 0.9624427556991577 -1.0923343896865845 -0.23282231390476227 1.3309264183044434 0.4970868229866028 -0.3540986478328705 0.9380366206169128 -1.0728455781936646 0.42686203122138977 0.8161860704421997 0.3340277075767517 1.289262056350708 1.5529237985610962 -2.780205249786377 -0.5550122857093811 1.0182923078536987 -0.9722305536270142 1.6171029806137085 -0.6834591627120972 -1.9863497018814087 -0.4132657051086426 -1.1006826162338257 0.31953585147857666 -0.2872884273529053 -0.2109934538602829 0.9107241034507751 -0.41966143250465393 -0.3792782425880432 -2.0052077770233154 1.7296850681304932 -0.5491930842399597 1.095444679260254 -1.6307729482650757 1.9146729707717896 0.198285311460495 -0.8256968259811401 -1.504377007484436 0.10667077451944351 -0.5210564136505127 0.5769355297088623 -0.22753024101257324 0.6138646006584167 0.47878310084342957 -0.11055456846952438 2.507216453552246 -1.6481246948242188 -1.983070969581604 -0.8807662129402161 0.23179805278778076 -1.990812063217163 1.1374282836914062 1.1751644611358643 -0.23940686881542206 1.5899831056594849 0.8753445744514465 0.2534966766834259 -0.7219802141189575 -0.7884102463722229 -0.17610113322734833 -0.5959240198135376 0.3792801797389984 -1.495553731918335 -1.039372444152832 -0.5808203220367432 0.041139811277389526 0.5492415428161621 -0.4326162338256836 -0.07445047050714493 0.28292471170425415 -0.9593120813369751 0.025765564292669296 -0.7370591163635254 -0.9137294888496399 -0.8384172916412354 2.1416475772857666 0.10991677641868591 0.9177165031433105 -0.5700982809066772 -0.3881288766860962 1.1315780878067017 -2.0902256965637207 -0.08571532368659973 0.6866840720176697 2.0449764728546143 -0.6751368045806885 0.3134896457195282 0.5153757929801941 1.801697850227356 -0.22617074847221375 -0.7177813053131104 -0.9802951812744141 1.8877699375152588 -1.4259151220321655 0.19406524300575256 -1.8911869525909424 0.7406504154205322 -1.6573835611343384 0.8974766135215759 -1.1455378532409668 -0.13840176165103912 -0.14497704803943634 -0.06491930782794952 -0.9751297831535339 0.8315522074699402 0.10870609432458878 1.2028251886367798 -0.6889623403549194 -0.9886184930801392 0.2822839021682739 0.35956716537475586 0.20119646191596985 1.181161880493164 0.6187612414360046 1.2041118144989014 0.08040178567171097 -0.27822956442832947 -0.2924427092075348 1.3655270338058472 -0.6970482468605042 
vec16 -1.3407020568847656 -1.0922389030456543 -1.2033026218414307 -1.2749061584472656 -1.448749303817749 -0.46660086512565613 -0.039069585502147675 -1.2709238529205322 -1.1599516868591309 -0.2354992926120758 0.24702009558677673 0.7748361229896545 0.2998845875263214 0.018830563873052597 -0.5374550223350525 0.9169406294822693 0.4867591857910156 -0.20572243630886078 -0.1583116054534912 -0.5509020090103149 -1.01291024684906 -0.735874354839325 -0.7075377106666565 1.5254064798355103 0.008801841177046299 -3.036839246749878 0.5759502649307251 -1.6249593496322632 -0.10553538054227829 0.044211246073246 -0.1271086037158966 -0.08634258806705475 -1.410085916519165 0.07729319483041763 1.9145983457565308 -0.34607282280921936 1.089477300643921 -1.1481823921203613 0.9588415026664734 -0.8363085985183716 -0.6655009984970093 -0.11754674464464188 -0.1456272006034851 0.009426785632967949 0.06328035891056061 -1.2301262617111206 0.2457764744758606 -0.5943092703819275 -0.4563826024532318 1.7084527015686035 0.21022802591323853 -0.758541464805603 -0.07459291815757751 2.301849126815796 -0.7287223935127258 0.5760786533355713 -0.8373815417289734 -0.14738985896110535 -1.6043174266815186 -1.0547330379486084 -0.41256579756736755 -0.05507000908255577 0.8824848532676697 1.1604347229003906 -1.4180423021316528 0.8140121698379517 -0.7097984552383423 1.249503254890442 0.743488073348999 0.06703553348779678 1.5699388980865479 0.7378547787666321 -0.0043808696791529655 2.1058712005615234 -0.9795355200767517 -0.28538912534713745 -1.2460505962371826 -0.3856050372123718 1.0692743062973022 -2.4328114986419678 0.8133296370506287 0.38838139176368713 -1.6183174848556519 -1.2179895639419556 0.7998501062393188 0.8962047696113586 0.29281169176101685 0.6087008714675903 -0.13689149916172028 0.005557034630328417 -0.019501764327287674 -0.23325270414352417 0.21494367718696594 0.46641799807548523 -2.766629219055176 0.12911315262317657 0.4892062544822693 0.22873464226722717 1.5874663591384888 -0.6438210606575012 -1.3189834356307983 -0.3816223740577698 -0.8007091879844666 -1.4498555660247803 0.4171815514564514 0.6083551645278931 -0.19739747047424316 -0.29061755537986755 -0.8228944540023804 -2.3502471446990967 1.8527525663375854 -0.6061551570892334 0.8024775981903076 -0.8357303142547607 1.062822699546814 -1.0847054719924927 -1.0241920948028564 -2.826561689376831 0.9047849774360657 0.25609737634658813 0.478863924741745 -0.000994138652458787 0.9561859369277954 0.5054756999015808 0.718387246131897 2.092789888381958 -2.2796053886413574 -1.3634109497070312 -0.023259762674570084 0.01742258481681347 -1.2147470712661743 0.23468561470508575 0.8435072302818298 0.04057726263999939 1.9636882543563843 0.625821053981781 1.4547200202941895 -0.38713160157203674 -0.48146623373031616 -0.24947038292884827 -0.45307838916778564 0.21627897024154663 -2.072469711303711 -1.229337453842163 -0.37504780292510986 -0.9462178349494934 0.17632697522640228 0.34752729535102844 0.4190702438354492 -0.7908014059066772 -0.3669699728488922 -0.7026065587997437 -0.5442593097686768 -0.959287703037262 -0.20746737718582153 1.0280910730361938 -0.814020574092865 0.7917526960372925 -0.25297147035598755 0.1161457896232605 1.381307601928711 -2.080857753753662 -1.1566494703292847 -0.9446414113044739 1.4672935009002686 -0.3017638623714447 -0.5820902585983276 0.06168694794178009 2.0613882541656494 -0.4907752275466919 0.40315088629722595 -1.020576000213623 0.10668479651212692 -1.201574444770813 0.27725064754486084 -1.97206711769104 0.5705558061599731 -0.42471960186958313 0.2014019936323166 -1.3481338024139404 -1.0153024196624756 0.9781094193458557 -0.055830832570791245 -0.6168143153190613 0.7872551083564758 0.9647117257118225 1.317615270614624 -0.29191237688064575 -0.7509501576423645 0.6601170301437378 0.2797977030277252 0.008245914243161678 1.8773952722549438 0.8094344139099121 0.9009972214698792 0.8655857443809509 0.2621352970600128 -0.4406433403491974 0.7795999646186829 -0.4324554204940796 
vec17 -1.4649271965026855 -0.8749183416366577 -0.24957919120788574 -0.9116123914718628 -0.9935702085494995 -0.3061600625514984 -1.285646677017212 -1.5657579898834229 -1.6785155534744263 -0.6921728253364563 0.45746663212776184 -0.01947631500661373 0.11701276898384094 0.5063111782073975 -1.4431706666946411 0.37773388624191284 0.2008175104856491 -0.18624523282051086 0.562635600566864 -1.6398489475250244 -1.903624415397644 -1.039245367050171 -0.9526968002319336 1.0923445224761963 -0.8250580430030823 -2.7396180629730225 0.2463802844285965 -2.193955183029175 -0.2111244797706604 0.35168328881263733 -0.09095585346221924 -0.10822116583585739 -1.701308012008667 -0.24953630566596985 2.5296308994293213 -0.9563325643539429 0.8436453342437744 -1.2274599075317383 0.6375079154968262 0.20506733655929565 0.043261464685201645 -0.11283108592033386 0.8664759397506714 0.9952172040939331 -0.03719203546643257 -1.115576148033142 0.7935878038406372 -1.02841317653656 0.7655750513076782 0.3622027635574341 -0.8406926989555359 -0.4671974778175354 -1.0219730138778687 1.385607361793518 -0.1713549792766571 0.31014829874038696 -0.6395962238311768 0.22661307454109192 -1.8669648170471191 -0.5333017706871033 -0.12860217690467834 -1.5876883268356323 -0.194863423705101 0.9816094040870667 -1.559488296508789 0.33377793431282043 -1.3177387714385986 0.27359649538993835 0.8152537941932678 -0.6873084306716919 1.2588222026824951 1.2795263528823853 0.1622302234172821 1.5253928899765015 -1.7365649938583374 -0.5948554277420044 -0.7881227135658264 -0.1137533038854599 -0.10822712630033493 -1.3138507604599 0.0977589339017868 1.1635558605194092 -0.9781569242477417 -1.208298683166504 0.8369373083114624 0.44580286741256714 -0.15584731101989746 -0.3615790903568268 -0.6298505663871765 0.6088690161705017 0.3541957437992096 0.12403889745473862 0.8553140163421631 1.0836656093597412 -2.2716588973999023 1.154938817024231 0.3595915734767914 -0.41431939601898193 1.1122816801071167 -0.6009562611579895 -1.7812312841415405 -0.34838417172431946 -0.8260255455970764 -0.192354217171669 -0.09087575972080231 -1.2276400327682495 0.8693010210990906 -0.7656092643737793 -0.7569841146469116 -1.389724850654602 1.2465744018554688 -0.7264242172241211 0.20302334427833557 -0.9853781461715698 1.238529920578003 0.09277389198541641 -0.9740650057792664 -1.4280555248260498 0.0516057126224041 -0.8674541115760803 0.9442973136901855 0.17385920882225037 -0.22880084812641144 0.589462399482727 -0.18507979810237885 1.3891003131866455 -1.4907106161117554 -1.0149179697036743 -0.06454388797283173 -1.1150612831115723 -1.5413395166397095 0.6895997524261475 1.2268270254135132 0.6328496932983398 1.7493526935577393 1.339233160018921 0.4378355145454407 -0.18772147595882416 -1.1694990396499634 -0.2654775083065033 -1.1551034450531006 0.18220387399196625 -0.6851606369018555 -1.7277591228485107 -0.18204820156097412 -0.4772168695926666 -0.14695455133914948 -0.07672804594039917 0.5515400171279907 -0.09370149672031403 -0.2527935802936554 0.395400732755661 -1.1004241704940796 -0.811562716960907 -0.5799506306648254 1.3463886976242065 -0.5557699203491211 0.0979766771197319 -1.2067772150039673 -0.7637923955917358 2.1221835613250732 -1.7666184902191162 -0.8696690797805786 -0.6311765909194946 1.2862344980239868 -0.2685605585575104 0.18199500441551208 0.4169282913208008 2.9238131046295166 1.1604118347167969 -0.5262766480445862 -0.7838984131813049 -0.04137631505727768 -0.6444248557090759 0.3043341636657715 -1.6764453649520874 1.162856936454773 -1.309783697128296 1.074586033821106 -1.350173830986023 0.07137942314147949 0.655867338180542 0.7552750110626221 -0.8070962429046631 0.5271191596984863 0.8151844143867493 1.6866366863250732 -0.7134686708450317 -1.430832028388977 1.1058499813079834 0.3235189616680145 -0.08296320587396622 1.4109139442443848 0.27021026611328125 0.7887561321258545 0.5358872413635254 -0.3460941016674042 -0.6189444065093994 1.7083866596221924 0.10510170459747314 
vec18 -2.380438804626465 -0.46009188890457153 -0.42903077602386475 -0.7904143929481506 -0.48140448331832886 0.6551239490509033 0.3211786150932312 -0.4714129567146301 -1.1525875329971313 -0.9729540944099426 0.5341961979866028 -0.004420707933604717 -0.19812840223312378 0.7269699573516846 -1.1312870979309082 -0.2150873839855194 0.5169306397438049 -0.6539218425750732 -0.7739654183387756 -0.5197271704673767 -2.0039055347442627 -1.1957645416259766 -0.8151146769523621 0.28485703468322754 0.06368687748908997 -3.2217650413513184 -0.4756796956062317 -2.8199734687805176 -0.9567965269088745 0.42016395926475525 -0.3308303952217102 -0.32620012760162354 -1.464650273323059 -0.323043555021286 2.1723804473876953 -1.0624539852142334 -0.1062052771449089 -0.7276991605758667 0.5120536684989929 -0.30829310417175293 0.1370028853416443 0.4045305848121643 -0.18396377563476562 1.006430745124817 -0.4293672740459442 -1.2746502161026 0.32972630858421326 -0.08117526024580002 0.002563763177022338 1.97807776927948 -0.13067467510700226 -1.2015429735183716 0.19705823063850403 0.33702248334884644 -0.34146445989608765 0.02892182022333145 -0.3124256134033203 -0.016244126483798027 -1.021600365638733 -0.4381011724472046 -0.2874910235404968 -0.3533249497413635 -0.8772627711296082 1.350764274597168 -2.3173718452453613 1.2729241847991943 -2.2496795654296875 1.0576335191726685 0.32680919766426086 -0.47574543952941895 1.2224031686782837 0.5576816201210022 0.8923341631889343 1.1262867450714111 -1.4119653701782227 -0.10992894321680069 -0.48612815141677856 -0.02283053658902645 0.6563910841941833 -1.7571382522583008 0.6260414123535156 0.9414778351783752 -1.102331280708313 -1.4681859016418457 0.8150936365127563 0.7654507756233215 0.09729789197444916 -0.21136416494846344 -0.17210476100444794 -0.9525052905082703 1.3228085041046143 -0.5163424015045166 -0.06287676095962524 1.5494004487991333 -2.4731225967407227 -0.4967310428619385 1.064138650894165 -1.470973253250122 1.3566614389419556 0.39965203404426575 -1.2517123222351074 -0.7644765377044678 -0.7646554112434387 -0.63056480884552 -0.07758680731058121 0.4014906585216522 0.20529253780841827 -0.4544246792793274 -0.7812309861183167 -1.2985892295837402 1.5301928520202637 -0.7937852740287781 1.2565587759017944 -0.9089969992637634 1.4613516330718994 -0.018396075814962387 -1.785240888595581 -1.3233141899108887 0.6598589420318604 -0.6072817444801331 0.6436575055122375 0.33123356103897095 1.3250751495361328 0.09824084490537643 -0.8378937840461731 2.8197853565216064 -1.181320309638977 -1.2282572984695435 -0.43935757875442505 -0.12214313447475433 -2.13198184967041 1.103161334991455 1.501261591911316 0.6991998553276062 1.6138997077941895 0.8852756023406982 1.0403220653533936 0.1606149971485138 -0.8555083274841309 -0.9176647663116455 -0.5404476523399353 -0.5010052919387817 -1.9529712200164795 -1.986325740814209 -1.0333160161972046 -0.9407143592834473 1.042184591293335 -0.875677227973938 -1.0629780292510986 -0.422655314207077 -1.357301950454712 0.09283068031072617 0.28523221611976624 -0.8740031719207764 -1.3975269794464111 1.1448336839675903 -0.6814292669296265 0.6897082924842834 -0.9637529253959656 -0.7447996735572815 2.201741933822632 -1.2535452842712402 -1.0259641408920288 0.054323457181453705 2.5407891273498535 -1.3898528814315796 -1.5141841173171997 -0.43968653678894043 1.5464024543762207 0.09649798274040222 -1.0840338468551636 -0.32416021823883057 0.5029222965240479 -1.2058449983596802 -0.1955985575914383 -2.672481060028076 0.9019680619239807 -1.829563021659851 0.20644129812717438 -1.5169157981872559 -0.5424755215644836 0.8242649435997009 -0.9057538509368896 -0.4258807897567749 0.047503963112831116 -0.18412849307060242 1.340488314628601 -1.0001429319381714 -1.3689886331558228 0.5434818267822266 0.6352748870849609 0.33267754316329956 1.139503002166748 0.01736288331449032 1.2073187828063965 0.8202005624771118 -0.2687878906726837 0.008634093217551708 1.9893548488616943 -0.20498143136501312 
vec19 -1.5463823080062866 -0.7513338923454285 -0.21926212310791016 -1.0751891136169434 -0.4903772175312042 -0.9476637244224548 -0.30887576937675476 -1.0950417518615723 -0.9645000100135803 -1.2297614812850952 0.9852805733680725 0.9278252124786377 0.19179992377758026 0.6440492868423462 -0.4244811236858368 0.796826183795929 1.0215060710906982 -0.0271245539188385 0.04832177609205246 -1.6699998378753662 -1.3859591484069824 -1.3034228086471558 -0.25704723596572876 0.45136699080467224 -0.5763446092605591 -2.5592288970947266 -0.27132830023765564 -2.680342435836792 -0.46089479327201843 -0.01790730282664299 -0.591875433921814 -0.8640598058700562 -1.753604531288147 -0.07125627994537354 1.8465781211853027 -0.545287013053894 0.944688081741333 -0.543780505657196 1.193446159362793 -0.42531290650367737 -0.23895670473575592 0.6775110363960266 -0.14710630476474762 0.5680606961250305 -0.5379905104637146 -0.4066813588142395 1.06022047996521 0.2939744293689728 0.07401800900697708 1.204607367515564 0.6201227903366089 -1.6112229824066162 -0.37907442450523376 1.4329520463943481 -1.670899510383606 0.3807474672794342 -0.8038632869720459 0.6498525142669678 -1.9714230298995972 -0.22397823631763458 0.004141130484640598 -0.9111015796661377 0.2899429500102997 0.730840265750885 -1.180345892906189 1.1505186557769775 -1.724569320678711 0.5058987736701965 0.9594106674194336 -0.6164690852165222 1.1109535694122314 0.3259549140930176 0.49304208159446716 1.8443695306777954 -1.0108095407485962 -0.2743164896965027 -1.7675089836120605 -0.03761552646756172 -0.006055457517504692 -1.3592751026153564 0.5819342732429504 0.21585091948509216 -1.7495465278625488 -0.07286471128463745 0.6923560500144958 0.2581794261932373 -0.5963047742843628 -0.07736578583717346 -1.499204397201538 0.09238600730895996 0.8199923634529114 -0.10306054353713989 0.7308017015457153 0.6624239087104797 -2.389070987701416 -0.23589040338993073 1.2327972650527954 -0.526741623878479 1.3525837659835815 -0.23440030217170715 -1.3262957334518433 0.7358270883560181 -1.1518499851226807 0.1933688223361969 -0.7536256313323975 -0.03170973062515259 0.39999672770500183 -0.9724928736686707 -0.824645459651947 -0.9144015312194824 2.35823130607605 -0.6285666823387146 0.4896702766418457 -0.28672361373901367 1.2139281034469604 -1.0431561470031738 -1.0662199258804321 -2.046029567718506 0.5621368288993835 -0.7466203570365906 0.6891934275627136 0.3411133885383606 0.43505236506462097 -0.12573549151420593 0.38130104541778564 1.419931173324585 -2.218289613723755 -1.8845723867416382 -1.1647330522537231 -0.22803497314453125 -1.3149714469909668 -0.16202014684677124 1.1760528087615967 0.2925134599208832 2.0192883014678955 0.20936934649944305 0.7752971649169922 -1.1730064153671265 -0.9160056710243225 -0.46071043610572815 -0.7487682104110718 0.0024878419935703278 -1.8616167306900024 -1.6366710662841797 0.026177063584327698 -0.3793557584285736 0.38520458340644836 -0.6013005971908569 0.7124648690223694 -0.6173370480537415 -0.6034759283065796 -0.48141413927078247 -0.37144821882247925 -0.17950312793254852 -1.5140488147735596 1.956130862236023 -0.5627883672714233 1.0020151138305664 0.005002198275178671 -0.21600975096225739 1.4659501314163208 -2.353245735168457 -0.809518039226532 -0.05257337540388107 1.6294991970062256 -0.6171770691871643 0.286542683839798 0.05852077528834343 1.7643457651138306 0.6266345977783203 -0.7153525352478027 -0.4568265974521637 0.8194171190261841 -1.9571471214294434 0.15051963925361633 -2.6265764236450195 1.7090154886245728 -0.9890985488891602 0.3438793122768402 -1.3525547981262207 -1.0601493120193481 1.3001371622085571 0.7192893028259277 -1.034680962562561 0.23970237374305725 0.33000460267066956 0.27012601494789124 -0.8873290419578552 -1.6654291152954102 1.000341773033142 0.5620052814483643 0.37614768743515015 0.46943145990371704 -0.5189167261123657 1.4951103925704956 0.6543506383895874 -0.3916553854942322 0.15209165215492249 1.2225371599197388 -0.25651052594184875 
vec20 -1.4384493827819824 -1.450679898262024 0.3203624486923218 -0.22753822803497314 -0.7534977793693542 -0.7223836779594421 -0.07778884470462799 -0.197363018989563 -1.0590012073516846 -0.7208832502365112 0.5151677131652832 1.110305666923523 0.29481440782546997 -0.1956234723329544 -1.27760648727417 0.4129508435726166 0.5592679977416992 -0.4991225004196167 -0.44538381695747375 -0.9159567356109619 -1.5418860912322998 -1.398477554321289 -0.7762677669525146 1.4048895835876465 -0.944197416305542 -2.261704921722412 0.5300509333610535 -1.421363353729248 -0.5773336887359619 0.8093621134757996 -0.8152703046798706 -0.2979956567287445 -1.9118207693099976 0.07184333354234695 2.5598411560058594 0.32876425981521606 0.7540980577468872 -0.4561116397380829 0.9112495183944702 -0.22466622292995453 0.05537664517760277 0.3139796853065491 0.4953305423259735 1.1606509685516357 -0.5855781435966492 -1.2445868253707886 -0.303824782371521 0.37591880559921265 0.6280903816223145 2.0983736515045166 -0.5555987358093262 -1.2460297346115112 -1.106562614440918 1.0388678312301636 -0.38167181611061096 -0.10330668836832047 0.2610704302787781 0.2599252760410309 -1.487148404121399 -0.39392420649528503 -1.1713322401046753 -0.8860262632369995 0.3872421085834503 0.10477942228317261 -1.0884579420089722 1.4572525024414062 -1.2308281660079956 0.7313917279243469 0.767585813999176 0.7427138090133667 2.4777231216430664 0.33546075224876404 0.7132331132888794 0.7353084087371826 -1.4773359298706055 -0.8510652780532837 -1.456748366355896 0.37212392687797546 1.2300987243652344 -2.72102689743042 0.6444977521896362 1.2274625301361084 -1.1642613410949707 -0.2244185209274292 1.0233911275863647 0.3342198431491852 0.034770868718624115 0.20823758840560913 -1.3775254487991333 0.12664936482906342 0.6762524843215942 -0.32095038890838623 1.120671272277832 0.23195485770702362 -2.6694977283477783 -0.5312472581863403 0.5641151666641235 -0.4323933720588684 1.0576906204223633 0.062163811177015305 -1.0237221717834473 -0.8802101016044617 0.37170541286468506 -1.130499243736267 0.5718544721603394 0.6607478857040405 0.2696191668510437 -0.8418523073196411 -2.004918336868286 -1.6798419952392578 1.826833724975586 -0.20898106694221497 0.5811853408813477 -0.5633045434951782 2.018641948699951 -0.1757963001728058 -0.7170406579971313 -1.4519795179367065 0.5365220904350281 -0.3199724853038788 0.5099331736564636 -9.866615437204018e-05 1.2898471355438232 0.21362422406673431 0.3601389527320862 1.919740080833435 -1.1258862018585205 -0.7275117039680481 0.30243930220603943 0.4432483911514282 -1.7798917293548584 1.2081319093704224 0.7092096209526062 -0.46805572509765625 2.1233901977539062 -0.07079783827066422 0.9378018379211426 -0.3603462874889374 -0.1591334342956543 -1.2310470342636108 -0.6188278198242188 0.08182433992624283 -1.4365085363388062 -1.9085426330566406 -0.9499407410621643 -0.4222330152988434 -0.22287429869174957 0.005227480549365282 -0.04810713604092598 0.355526864528656 -1.386840581893921 -0.5308548212051392 -0.8013239502906799 -0.9060032367706299 -1.8072370290756226 1.4802169799804688 -0.6665613651275635 1.693170428276062 -0.3344147205352783 -0.708122730255127 2.0469563007354736 -0.7842333316802979 -0.17528831958770752 -0.15581271052360535 1.6678333282470703 -0.14566025137901306 0.7437663078308105 1.1225987672805786 2.3339438438415527 1.1951556205749512 -0.03340552747249603 -1.1211825609207153 0.6735947132110596 -1.9911240339279175 0.11119013279676437 -2.369326591491699 1.0439664125442505 -0.6192495226860046 0.7029827833175659 -1.801934003829956 -0.3843320906162262 0.0971633642911911 -0.422953724861145 -0.29666709899902344 0.31221362948417664 0.17452183365821838 1.1076656579971313 -1.2891318798065186 -1.2490848302841187 1.1482861042022705 0.186909481883049 0.30198487639427185 1.1766548156738281 -0.008668304421007633 1.6376876831054688 0.9674657583236694 -0.07269985228776932 0.5252143740653992 1.4372546672821045 0.27229389548301697 
vec21 -1.4329192638397217 0.3059189021587372 -0.48946014046669006 -1.6084569692611694 -0.5950360894203186 -0.6440412998199463 -0.28868767619132996 -1.5546389818191528 -0.9960135221481323 -0.13394176959991455 0.5486162304878235 1.3886209726333618 0.06933771818876266 1.052700400352478 -0.34598878026008606 -0.16695526242256165 1.1467335224151611 0.05055326223373413 -0.17242588102817535 -1.3080878257751465 -1.6507198810577393 -1.1749454736709595 -0.4733998775482178 0.5753198862075806 -0.8675680160522461 -2.5344839096069336 0.20655031502246857 -2.4143834114074707 0.1286344826221466 0.4768330454826355 -0.3285028338432312 -1.1365208625793457 -1.2606009244918823 -0.8052107095718384 1.5067983865737915 0.21540740132331848 0.5790796279907227 -0.7855039834976196 0.9212972521781921 -0.13524004817008972 -0.636032223701477 0.7665960788726807 -0.15374648571014404 0.4731341600418091 -0.8588765263557434 -0.3278500437736511 0.2739829123020172 -0.03708873316645622 0.017257189378142357 1.8248968124389648 0.13474224507808685 -0.9570046067237854 -0.646933913230896 2.628293752670288 -0.7555299997329712 0.16777253150939941 -0.7717280387878418 0.18799731135368347 -1.8872532844543457 -0.3672061562538147 0.0749301165342331 -0.34197676181793213 0.5733110308647156 1.0889384746551514 -1.742173671722412 0.4562234878540039 -1.5635098218917847 0.9509121179580688 0.39097481966018677 -0.30840155482292175 2.1690378189086914 0.24950765073299408 1.4742544889450073 0.47154802083969116 -1.1277668476104736 -1.3762160539627075 -2.1323578357696533 -0.8227552175521851 0.45288628339767456 -1.9682856798171997 0.3730258643627167 0.4646542966365814 -1.4127850532531738 -1.2189222574234009 1.2036445140838623 0.15485061705112457 -0.23513847589492798 0.5936263203620911 0.4353887736797333 -0.42742621898651123 0.24650785326957703 -0.4843907654285431 0.7334104776382446 1.1714859008789062 -2.4705734252929688 0.35093292593955994 1.538049340248108 -0.08853312581777573 1.2495018243789673 -0.7565711736679077 -1.4762294292449951 -0.7364766597747803 -1.2282910346984863 -0.6721906661987305 0.5817508697509766 0.3914605975151062 0.4231145679950714 0.08196523040533066 -0.7318751215934753 -0.7685052752494812 1.642127275466919 -0.6695083975791931 1.0404832363128662 -0.7190170884132385 1.6873093843460083 -0.43384891748428345 -0.9541094899177551 -1.170365571975708 0.5674847960472107 0.025154313072562218 1.231999397277832 0.38067176938056946 0.45403292775154114 0.6159687042236328 0.29253721237182617 1.7699042558670044 -1.2226736545562744 -1.4306923151016235 -1.1452929973602295 -0.7985000014305115 -1.93128502368927 0.3783964216709137 1.5060392618179321 0.29467785358428955 1.051971435546875 0.2967844009399414 0.7463170289993286 -0.20149876177310944 -1.1720426082611084 -0.5460399389266968 -0.5085697770118713 0.32316499948501587 -1.127212643623352 -1.9977914094924927 -0.8062658905982971 -0.14374664425849915 0.2509160041809082 -0.7404746413230896 1.0129661560058594 -0.9274628162384033 -0.335048645734787 0.657347559928894 -0.607681393623352 -0.9434786438941956 -0.5171252489089966 0.9978176951408386 0.02993028052151203 1.4412789344787598 -1.0482510328292847 -0.7472848296165466 0.2952682077884674 -1.9422307014465332 -0.3612176179885864 -0.5900896787643433 1.87473464012146 -1.15309739112854 0.24549797177314758 -0.5286426544189453 1.330459475517273 0.6202611923217773 -0.09712685644626617 -0.8520416021347046 1.0436073541641235 -1.0178109407424927 0.04218272119760513 -1.8866535425186157 0.9443770051002502 -0.7575035691261292 1.0850028991699219 -0.7680834531784058 0.3444291651248932 0.03022567369043827 0.19459091126918793 -0.8541750311851501 0.006735606584697962 -0.07921919226646423 1.188586950302124 -1.5121935606002808 -1.2499887943267822 0.867698609828949 0.08736655116081238 0.5062785148620605 0.8793914318084717 -0.4713920056819916 1.4681575298309326 0.30632689595222473 0.17221033573150635 0.02687251940369606 2.3687615394592285 -1.2116762399673462 
vec22 -2.4259531497955322 -1.025617003440857 0.08504904806613922 -1.0691558122634888 -0.9952616691589355 -1.027823805809021 -0.0411972776055336 -0.45952242612838745 -1.381816029548645 -0.22474218904972076 0.27006766200065613 0.24345894157886505 0.9501528739929199 0.2413262575864792 -1.3244954347610474 0.7554052472114563 0.7268955111503601 0.20580323040485382 0.04174066334962845 -0.860357940196991 -2.0914411544799805 -1.1953932046890259 -0.14098303020000458 0.9391539692878723 -0.6138034462928772 -2.011293888092041 -0.2803041636943817 -2.155975341796875 -0.6117695569992065 -0.4189646542072296 -0.554662823677063 0.21872317790985107 -1.4743820428848267 0.43099141120910645 2.31376051902771 -0.5407965183258057 0.9300431609153748 -0.8854032754898071 1.1232244968414307 -0.3466336727142334 -0.1990557461977005 0.3680524230003357 -0.29113852977752686 -0.06055247411131859 -0.6301209926605225 -0.5619925856590271 -0.06922686100006104 -0.18848808109760284 -0.10948056727647781 1.2374720573425293 -0.5527136921882629 -0.6745061278343201 0.5224403738975525 2.05051851272583 -0.8691912293434143 0.552883505821228 0.18467819690704346 0.30071696639060974 -1.5658060312271118 0.1439761519432068 -0.9845020771026611 -0.7379100322723389 -0.29238995909690857 1.4707422256469727 -1.6406232118606567 0.2694309651851654 -1.0650290250778198 1.5092480182647705 0.772777259349823 0.06939170509576797 1.1018635034561157 -0.051924437284469604 0.6384799480438232 1.4534680843353271 -1.6111735105514526 -0.666984498500824 -0.8079128861427307 -0.5568692088127136 0.22420340776443481 -1.8283812999725342 1.4210795164108276 0.9085768461227417 -1.574151873588562 -0.2210061103105545 0.9522037506103516 0.9049455523490906 -0.872825026512146 -0.23549796640872955 -0.7945702075958252 0.7091177105903625 0.7773176431655884 0.15753598511219025 1.0850718021392822 0.8826289772987366 -2.102980136871338 0.2505590617656708 1.0040512084960938 -0.9200354814529419 1.7995944023132324 -0.419609010219574 -1.6630609035491943 -0.4485341012477875 -1.0217894315719604 -0.19446395337581635 0.8109675645828247 -0.5992706418037415 0.2304137796163559 -0.7128476500511169 -0.9261635541915894 -1.6542354822158813 2.093153715133667 0.4320639371871948 0.8479392528533936 -1.9186347723007202 1.8217823505401611 0.06164859980344772 -0.6858781576156616 -1.144614815711975 0.9981178045272827 -1.1066275835037231 0.630626380443573 0.2685737907886505 0.7738562226295471 1.2798011302947998 -0.035588957369327545 1.4477214813232422 -1.6034644842147827 -1.1657190322875977 -0.4886602759361267 -0.1690768152475357 -1.501915693283081 1.055341362953186 2.358670473098755 0.3265678286552429 0.6357923746109009 1.257720947265625 0.38642022013664246 -0.002951475093141198 -0.5199797749519348 0.1652209758758545 -0.9862271547317505 0.9547582864761353 -1.7297272682189941 -1.095022201538086 -0.6938095688819885 -0.3034316599369049 0.9548864960670471 -0.41397327184677124 1.1180331707000732 -0.5513148903846741 -1.38702392578125 0.04226625710725784 0.5882366299629211 0.11335692554712296 -0.437520831823349 1.1854181289672852 -0.31707459688186646 1.6428195238113403 -0.6048391461372375 -0.196092888712883 1.3250715732574463 -1.296244502067566 -0.3295738995075226 0.020015748217701912 1.7873352766036987 -0.8106765151023865 -0.3345997631549835 0.47078245878219604 2.110886812210083 1.0535295009613037 -1.0122253894805908 -0.7174329161643982 1.0003328323364258 -0.9686970710754395 0.5817373991012573 -2.007688045501709 1.3467466831207275 -0.80594402551651 0.6701393127441406 -1.4023934602737427 -0.4560496509075165 0.17091187834739685 0.3291514813899994 -0.2492923140525818 0.7358347177505493 0.3061616122722626 1.332814335823059 -0.1895781308412552 -0.6466028690338135 1.314398169517517 0.24897915124893188 -0.23727048933506012 1.0657087564468384 0.3975156545639038 1.3369916677474976 1.0280773639678955 -0.8095172643661499 0.48736509680747986 2.516484498977661 -0.5727798938751221 
vec23 -1.3594155311584473 -0.9980177283287048 -0.10479225963354111 -0.15082155168056488 -0.5874657034873962 -0.5495691299438477 0.4450282156467438 -0.9934689402580261 -1.2189513444900513 -0.1343439668416977 0.1852797120809555 1.1177074909210205 -0.0217887032777071 0.3907715380191803 -0.8118139505386353 0.03525485470890999 0.2642158269882202 -0.6406687498092651 -0.2583426833152771 -0.7772331237792969 -2.0070011615753174 -1.4587997198104858 -0.9691608548164368 0.3502664864063263 -0.10768720507621765 -2.0427064895629883 0.0737493559718132 -1.7947207689285278 0.23586535453796387 -0.017674382776021957 -0.3098464906215668 -0.20836815237998962 -1.4228280782699585 -0.5785393714904785 1.7171703577041626 -0.5856995582580566 0.876590371131897 -0.5601025223731995 0.3961685597896576 -0.8415294885635376 -0.2792483866214752 0.7321965098381042 0.5677645802497864 0.9052689671516418 -1.0075736045837402 -0.4854494333267212 0.30907750129699707 -0.3837986886501312 -0.19401629269123077 1.9964487552642822 0.3805277943611145 -0.824806809425354 -1.0338937044143677 0.8573012948036194 0.0848207026720047 0.5016327500343323 -0.09980247169733047 -0.5822802186012268 -1.9432207345962524 -0.1474054753780365 0.040752459317445755 -0.0089628417044878 -0.37421154975891113 0.5777859091758728 -1.3275783061981201 1.1512480974197388 -0.31908953189849854 1.0321433544158936 1.2531944513320923 -0.029233520850539207 1.2412956953048706 0.580474317073822 1.129978060722351 0.6867945790290833 -1.4137659072875977 -0.43373343348503113 -1.8132343292236328 0.15388894081115723 -0.04790833592414856 -2.0640082359313965 0.6813778281211853 0.7593832612037659 -1.4923443794250488 -1.0974552631378174 1.9297603368759155 -0.2980616092681885 -0.7611631751060486 -0.08458291739225388 -0.46666109561920166 0.14239035546779633 1.3109469413757324 -0.2670648694038391 0.9610981345176697 0.015711411833763123 -1.836345911026001 0.6930354237556458 0.7587301135063171 -0.15894648432731628 1.23637855052948 0.23094254732131958 -1.866956353187561 -0.6677029728889465 -1.1272392272949219 -0.567870557308197 -0.26440519094467163 0.577849805355072 0.5278975963592529 -0.9712750911712646 -1.2575922012329102 -1.2035393714904785 1.7663137912750244 -0.7543153762817383 0.4957454204559326 -1.7040607929229736 1.2382557392120361 -0.44108152389526367 -1.050676703453064 -1.4306964874267578 0.6052141189575195 -0.9853115081787109 1.5653948783874512 -0.21560917794704437 0.7040834426879883 0.2685765027999878 0.7024189829826355 2.2530150413513184 -2.131085157394409 -0.9232937097549438 0.2574864625930786 0.8723803758621216 -1.973474144935608 1.22537362575531 1.2720781564712524 -0.3591791093349457 1.3538514375686646 1.5395252704620361 0.4237218201160431 -0.6916865110397339 0.18790468573570251 -0.4278676509857178 -0.6410766839981079 0.9426629543304443 -1.2907079458236694 -1.4339439868927002 -0.885673463344574 -0.4033515751361847 0.08455602079629898 -0.41585394740104675 0.4993249177932739 -0.3319185972213745 -1.5715112686157227 0.019433794543147087 -0.7345597743988037 -0.26703229546546936 -0.9823030233383179 1.3402915000915527 -0.4375072419643402 0.46252498030662537 0.042888350784778595 -0.6190710663795471 2.3210201263427734 -1.1868681907653809 -0.7471103668212891 -0.5563305616378784 2.5380170345306396 -0.9189262390136719 0.1806294322013855 -0.4251845180988312 1.854744791984558 1.334564447402954 -0.2584633529186249 -0.27567175030708313 0.3932289183139801 -1.0870167016983032 0.0366089828312397 -1.9381403923034668 1.6087452173233032 -0.39962682127952576 0.6044051647186279 -0.5494540929794312 -0.8142498731613159 0.35962921380996704 0.9040654301643372 -0.36744120717048645 1.4432299137115479 0.048444103449583054 1.410670518875122 -0.20360292494297028 -1.3282116651535034 0.6649566292762756 0.9798494577407837 -0.16300669312477112 1.2127044200897217 0.37922582030296326 1.4419505596160889 0.06100422888994217 0.030918583273887634 0.37818223237991333 2.3155622482299805 0.627397894859314 
vec24 -0.967459499835968 -0.6538816690444946 -0.3184953033924103 -1.3528051376342773 0.05938878655433655 -0.6664373874664307 -0.6787770390510559 -1.3330439329147339 -1.9926966428756714 -0.39451995491981506 -0.06317196041345596 0.4348956048488617 0.8171162009239197 -0.13414856791496277 -0.29966306686401367 0.30505794286727905 0.7105228900909424 -0.19724822044372559 -0.1848198026418686 -1.3672813177108765 -1.0316708087921143 -1.875014066696167 -0.05511307716369629 0.8231116533279419 0.1759265512228012 -2.7397096157073975 -0.03868241608142853 -2.1107473373413086 0.015423626638948917 -0.16253800690174103 -0.685761570930481 -0.16675004363059998 -1.3823142051696777 -0.12051655352115631 1.8387784957885742 -0.7002394199371338 0.6554872393608093 -0.8719278573989868 0.824147641658783 -0.07498812675476074 0.4588620662689209 0.3767162263393402 0.06735045462846756 0.17491677403450012 -1.3104090690612793 -0.9375357031822205 0.1726071536540985 0.20623408257961273 -0.1377004235982895 2.2300257682800293 -0.4874741733074188 -0.3612089455127716 -0.9291255474090576 1.8942489624023438 -0.05026094987988472 -0.3645164966583252 -0.007617903873324394 -0.5189497470855713 -1.9860408306121826 -1.058001160621643 -1.424213171005249 -1.2777150869369507 0.4467726945877075 0.19972024857997894 -1.460659384727478 0.5328819751739502 -0.677143394947052 -0.25542014837265015 0.5357258915901184 -0.7313629984855652 1.4106082916259766 0.8770792484283447 0.11556212604045868 1.065924882888794 -1.2543971538543701 -0.3658748269081116 -0.8848225474357605 -0.07256969064474106 0.20122043788433075 -1.7428932189941406 0.52154141664505 0.64994215965271 -1.2384231090545654 -0.4611435532569885 1.1908811330795288 0.326559841632843 -0.5765387415885925 -0.5808698534965515 -0.47290748357772827 0.007936094887554646 0.24386398494243622 0.5352525115013123 0.24894574284553528 1.289793610572815 -2.3526885509490967 -0.15232889354228973 0.9284802079200745 -1.236142635345459 1.9631091356277466 -0.08285605907440186 -0.8385842442512512 0.042726486921310425 -0.8820034265518188 0.04589555040001869 -0.1501561850309372 0.5077539086341858 0.5826904773712158 -0.16678768396377563 -0.2872668206691742 -1.7646453380584717 1.7516679763793945 -0.9882469177246094 1.2054202556610107 -1.0565996170043945 1.6608346700668335 -0.1707354635000229 -1.7885972261428833 -1.6642160415649414 0.39314109086990356 -0.7081106901168823 1.042940378189087 0.5483042597770691 0.9384489059448242 0.6016345620155334 -0.36730027198791504 1.641916275024414 -1.0668349266052246 -0.498197466135025 -0.7083823084831238 -0.5267468094825745 -2.9170382022857666 1.306984543800354 1.800678014755249 -0.30872631072998047 1.60072660446167 0.20987243950366974 2.0682663917541504 -0.43079155683517456 -0.36953315138816833 -0.13716013729572296 -0.2359578013420105 0.24428966641426086 -1.7675890922546387 -1.9716322422027588 -0.32221636176109314 -0.19741705060005188 0.03364725410938263 -1.0043315887451172 0.792332112789154 -0.5880698561668396 -1.4354296922683716 -0.20507106184959412 -0.37669837474823 -0.07456871122121811 -0.8979504704475403 1.0642032623291016 -0.8586506843566895 -0.01383779663592577 -0.9316522479057312 -0.4075602889060974 2.1541616916656494 -1.4061897993087769 -0.8587574362754822 -0.07673675566911697 1.586248517036438 -0.5790692567825317 0.32068192958831787 0.4319734275341034 2.419552803039551 0.28862014412879944 -0.3223835527896881 0.1163342297077179 0.08912988752126694 -0.0315023735165596 -0.09002730250358582 -1.4685004949569702 0.9560096263885498 -0.9612944722175598 -0.09515665471553802 -2.38790225982666 -0.701259970664978 0.1308937817811966 0.1155523881316185 -0.8129090666770935 0.39084765315055847 0.39896565675735474 0.7835683822631836 -0.6426730751991272 -1.271482229232788 1.3762034177780151 0.09787242859601974 0.4852412939071655 1.002140998840332 0.2647494077682495 1.2539141178131104 0.35682058334350586 -0.044764548540115356 -0.23880422115325928 1.671055793762207 -0.9666856527328491 
