vec0 -0.9793798923492432 1.2814003229141235 -1.2773815393447876 -1.2178550958633423 1.086727499961853 -0.3657089173793793 1.4705334901809692 -0.0169373806566 -0.08331349492073059 -1.3818817138671875 -0.1368490606546402 -0.741645336151123 -0.5305240154266357 0.16876451671123505 -0.7997117042541504 -1.7218269109725952 0.8292452692985535 -0.9193699359893799 0.4589458703994751 -0.15519778430461884 0.6403036713600159 -1.3493565320968628 -0.566939651966095 -0.9254287481307983 -1.215039849281311 -0.35177281498908997 -2.6427793502807617 1.6241286993026733 -0.48918527364730835 -0.7664185166358948 -0.9400661587715149 -1.3678333759307861 0.6582298278808594 0.9955273270606995 1.0832690000534058 0.3043409287929535 0.4090794026851654 -0.3895059823989868 0.10998553037643433 0.05828206241130829 -0.23770487308502197 0.43361303210258484 -1.8202450275421143 -1.0815577507019043 -1.0688308477401733 0.4307316541671753 0.14531700313091278 -0.8148948550224304 1.0217695236206055 -0.3494420051574707 0.1829175502061844 -1.4690672159194946 -1.4587794542312622 -0.8443481922149658 -1.5198373794555664 0.21513663232326508 -1.132466197013855 0.41232842206954956 -1.5455063581466675 -0.8439651131629944 -2.010469913482666 0.5007702708244324 -1.8545756340026855 -0.36329135298728943 0.4883599579334259 -1.3266828060150146 0.24455560743808746 -0.013597965240478516 -0.09956900775432587 -0.754834771156311 0.059408023953437805 -0.12164048850536346 0.30789294838905334 1.515267252922058 -1.5466134548187256 0.6839218139648438 -0.6857395172119141 -0.12674027681350708 -0.22411957383155823 0.31190258264541626 -1.5883328914642334 -1.5090372562408447 -0.7313382029533386 0.635683536529541 -0.809036910533905 -0.31228139996528625 -0.6362713575363159 0.06343873590230942 1.1290557384490967 -1.779798150062561 1.463517665863037 0.6585223078727722 -1.8305026292800903 0.694232702255249 0.23792922496795654 1.0698719024658203 0.8455646634101868 0.20579221844673157 -0.5948465466499329 0.0972527489066124 2.305656671524048 -0.15775561332702637 0.04770311340689659 -0.5001080632209778 -0.4678076505661011 -0.6377151012420654 1.4726927280426025 -1.2968171834945679 0.7294203042984009 -1.7163082361221313 0.5337058305740356 -1.4095951318740845 -1.7322155237197876 -1.1053622961044312 -0.0537051260471344 0.4714701771736145 0.3270535171031952 0.17035463452339172 0.4141373634338379 0.43804821372032166 0.9208003878593445 0.46990036964416504 -0.4139746427536011 -0.20130246877670288 1.142930507659912 -0.826745867729187 1.103938102722168 -1.054373860359192 -1.7582200765609741 0.4155158996582031 -1.0249688625335693 1.2103362083435059 0.4950481653213501 0.29053643345832825 1.0162667036056519 -0.8656291961669922 2.397456407546997 -0.508690595626831 0.6089298725128174 0.5472605228424072 0.6669193506240845 -0.9095572233200073 1.6698228120803833 0.11050986498594284 -0.18631824851036072 -0.843053936958313 -0.8433315753936768 -0.02092982456088066 -1.2854340076446533 0.5762225389480591 0.7280789017677307 -0.7269604802131653 0.7076020836830139 0.8517958521842957 0.11451040208339691 -0.2565133273601532 0.8401777744293213 -2.1078062057495117 -0.12095794826745987 0.09873989969491959 0.39813435077667236 -0.1295529007911682 -0.3077004551887512 1.9294604063034058 1.1449520587921143 0.7910569906234741 0.05158758535981178 0.24174344539642334 0.5880234837532043 -1.4577065706253052 0.990939736366272 0.5529003739356995 -0.5552870035171509 1.0158393383026123 0.5149432420730591 0.31481799483299255 -0.9421207904815674 -1.644195556640625 -1.5127521753311157 -0.3328879773616791 0.2454175353050232 0.22509276866912842 1.7870466709136963 -0.30553755164146423 -0.9360841512680054 1.7943395376205444 -2.1455790996551514 -0.9177477955818176 1.5204837322235107 1.650001049041748 -0.540421724319458 -1.077453851699829 1.925308346748352 0.5313748121261597 -0.5294824242591858 0.1915157288312912 -0.6363999247550964 0.44537848234176636 1.130951166152954 -0.17039942741394043 
vec1 -0.27270424365997314 0.622843861579895 -2.0684499740600586 -0.11406297236680984 3.101250171661377 0.4414902925491333 0.14040449261665344 -0.3154808282852173 -0.2969956398010254 -0.5367335677146912 -1.2299623489379883 -1.478215217590332 -0.9475021362304688 0.5142130255699158 -0.17876331508159637 -1.1748055219650269 -0.8736082911491394 -2.2116055488586426 -0.8702316880226135 -1.774065375328064 0.23186735808849335 -0.6879099607467651 -0.11851948499679565 -0.307379812002182 -0.5159782767295837 -1.2450522184371948 -0.1912885159254074 1.2161860466003418 -0.12576180696487427 -1.0680989027023315 0.5836069583892822 -1.4104540348052979 -1.4237279891967773 0.5266144275665283 0.46595147252082825 -0.7040668725967407 1.5564051866531372 -0.45405837893486023 -0.3582276701927185 -0.0008496919763274491 -1.4906578063964844 -0.17957185208797455 -1.4779458045959473 0.04216820001602173 -0.6645662188529968 1.6351304054260254 -0.12211862206459045 0.5892865657806396 0.8889211416244507 -0.10371504724025726 -0.540215253829956 -1.3959883451461792 -2.0462114810943604 -1.2296483516693115 -1.6771283149719238 -0.7434205412864685 -0.3514571189880371 1.0246931314468384 0.18028360605239868 -0.6893463730812073 -1.1797897815704346 1.181349515914917 0.4164256155490875 -0.8679619431495667 -0.09699166566133499 1.6820045709609985 -0.7585806250572205 0.3246474862098694 -0.43210604786872864 -1.6749992370605469 -1.2888438701629639 0.0206571314483881 0.6547518968582153 1.3126994371414185 -0.04240775480866432 1.1242917776107788 0.21253041923046112 0.1326429545879364 -1.4541393518447876 0.28529101610183716 -2.4167985916137695 -1.2891374826431274 0.940079927444458 0.11767406761646271 -1.0571479797363281 -1.8103810548782349 -0.16641229391098022 -1.9555786848068237 1.81999671459198 -1.2713253498077393 1.0747880935668945 1.2507174015045166 0.4407022297382355 1.1508251428604126 -0.5821544528007507 0.40926218032836914 -0.015241369605064392 0.9882296323776245 0.0075254193507134914 -0.04004665091633797 0.4795471429824829 -0.8740778565406799 -0.772631049156189 -0.497376024723053 -0.5788341164588928 1.054276466369629 1.1508015394210815 -1.20348060131073 -0.4904049336910248 -1.2469621896743774 0.28442081809043884 -2.833702802658081 -0.49999305605888367 -1.2999043464660645 0.7550311088562012 -0.22374773025512695 -0.276807963848114 1.7936811447143555 0.19861432909965515 1.1528429985046387 -0.17155003547668457 1.979983925819397 0.42209890484809875 0.5882155895233154 0.5641118288040161 0.428992360830307 1.9339295625686646 -0.325435608625412 0.1547258198261261 -0.14538873732089996 -1.0449609756469727 0.3898634910583496 0.8031387329101562 0.24455970525741577 -1.0380066633224487 -0.3330686092376709 3.368007183074951 -0.3569229543209076 0.3220027983188629 0.2320006936788559 -0.08623479306697845 -1.0426827669143677 -0.5018999576568604 1.4025429487228394 -0.16869625449180603 -0.3898061513900757 -0.9728033542633057 0.45420870184898376 -2.5770318508148193 0.03309229388833046 1.0478897094726562 -1.3973959684371948 0.7288903594017029 0.6527242660522461 1.0988513231277466 -1.3792027235031128 0.6177926659584045 0.7848367691040039 0.14112505316734314 0.2261243760585785 0.18713624775409698 0.44555148482322693 0.015344614163041115 1.3238561153411865 0.4032195806503296 -0.6623547673225403 0.6667144894599915 0.8751673698425293 -0.31898432970046997 -0.19715286791324615 0.5494754910469055 0.47659116983413696 -1.1485724449157715 0.4727832078933716 -1.0624123811721802 -0.34112539887428284 0.022312816232442856 -0.720764696598053 0.5905073285102844 0.14908993244171143 0.1971084624528885 -0.05399305745959282 1.2823143005371094 1.9602240324020386 -0.7752655744552612 0.9028182625770569 1.4754828214645386 -0.6852759122848511 1.6405034065246582 2.3236708641052246 0.937595784664154 -1.2379120588302612 0.6278396248817444 -0.41855984926223755 0.0011442514369264245 -0.8780204057693481 -0.7263542413711548 0.9265739321708679 -1.6388529539108276 0.8702830076217651 
vec2 -1.0534714460372925 1.3034409284591675 -1.4944322109222412 0.25667059421539307 0.7845507860183716 -1.9567242860794067 0.154935821890831 1.961057186126709 -0.41827723383903503 -0.5431837439537048 -0.06623885780572891 -0.22959645092487335 -0.7590835094451904 0.15373854339122772 -1.2420289516448975 -0.955218493938446 -0.587507426738739 -1.132225513458252 -1.9241467714309692 0.6420475840568542 0.22260038554668427 -0.9406918883323669 -0.2142953872680664 -0.4137479066848755 -0.5273006558418274 -1.1019946336746216 -0.22649361193180084 0.5776521563529968 -0.5999822020530701 -1.9604800939559937 -0.13467594981193542 -0.02994599938392639 1.1318861246109009 -0.7148898839950562 -0.6583493947982788 0.5852009057998657 2.0098822116851807 0.4783549904823303 0.21294283866882324 1.11069917678833 0.12619543075561523 1.7788435220718384 -0.8896618485450745 -0.47435611486434937 0.48087215423583984 1.3889435529708862 1.110970139503479 0.7435864210128784 -0.47076988220214844 -0.7416865229606628 0.09281817078590393 -0.28156083822250366 -1.4522572755813599 0.37436237931251526 -0.8765074014663696 -1.0356942415237427 -0.5931504368782043 2.5113847255706787 -0.7179780006408691 -1.1700732707977295 -0.017963387072086334 0.8029038906097412 -0.2555474638938904 0.16913661360740662 1.8142411708831787 1.503517985343933 -0.08164148777723312 0.015333998948335648 0.05268805846571922 0.5545952916145325 -1.054439663887024 1.0333327054977417 1.0752242803573608 1.4425278902053833 -1.601047396659851 1.3329684734344482 -0.32411593198776245 -0.3300583064556122 -0.4588527977466583 -0.5138435959815979 -0.1897549331188202 1.4761320352554321 1.0471534729003906 0.7270770072937012 -0.8578087687492371 0.37058043479919434 -0.17064835131168365 0.36266207695007324 3.0558557510375977 -2.500485897064209 -0.2150999754667282 0.277814120054245 0.27265074849128723 2.009199380874634 -0.2289814054965973 1.3969292640686035 0.0852658674120903 1.5444631576538086 -1.1613144874572754 -0.7917667031288147 -0.2729492783546448 -1.3275115489959717 -1.2387683391571045 0.8368884325027466 0.9406965970993042 0.5607597827911377 -0.06514611840248108 -0.36437341570854187 0.757375180721283 -0.6624982953071594 0.6189066767692566 -0.5252587199211121 -1.6612383127212524 -0.7284345030784607 0.6583122611045837 -0.2968011498451233 0.7931568026542664 -0.7289996147155762 0.16050630807876587 1.1457520723342896 0.08611581474542618 1.0235390663146973 0.35398903489112854 0.6900208592414856 -0.2417486011981964 -0.029630696401000023 -0.1471254825592041 -1.6941462755203247 -0.6696790456771851 1.9375131130218506 -0.5249984860420227 0.16319642961025238 0.25762805342674255 -0.7436543703079224 -0.35234779119491577 1.023329257965088 0.23089931905269623 0.3978676199913025 1.1191179752349854 0.7719510793685913 0.5866172313690186 -0.5744035243988037 -1.4197423458099365 0.5208011269569397 1.1616981029510498 0.06421107798814774 -0.12468884140253067 0.6197874546051025 -0.9695669412612915 0.908065915107727 0.34963905811309814 -0.9937463998794556 -1.0424973964691162 0.8650632500648499 -0.17241652309894562 -2.681122303009033 0.6044183373451233 0.3209887146949768 0.928421676158905 -0.8514087796211243 0.5066675543785095 1.2754608392715454 0.20408858358860016 0.49447113275527954 1.0397875308990479 1.025037407875061 0.05448010563850403 0.35593608021736145 1.1502554416656494 -0.5480182766914368 0.19523021578788757 0.4937344491481781 -0.7580018639564514 -0.7717961668968201 -1.1177449226379395 0.48429784178733826 0.6366147994995117 -1.4284247159957886 -0.8135805726051331 0.1451244205236435 -0.9413712024688721 0.6714056730270386 -0.8960648775100708 1.346494436264038 -0.9332171678543091 -0.9225090146064758 -1.379095196723938 0.3207925856113434 0.462291955947876 0.4021587073802948 0.012460028752684593 -0.4782788157463074 1.1569780111312866 1.0926789045333862 0.26099058985710144 -0.19141395390033722 -0.7608565092086792 0.31992021203041077 -0.5366232991218567 0.5152268409729004 
vec3 -1.6138144731521606 1.5024278163909912 -1.3916836977005005 0.09562946856021881 1.1673063039779663 0.4833637773990631 0.20395290851593018 -0.3657868802547455 -0.38990792632102966 0.01114044152200222 -2.123493194580078 0.091160848736763 0.30503639578819275 1.0142052173614502 -0.6942571401596069 -0.732845664024353 1.1799391508102417 -0.7651335000991821 -0.020213959738612175 -1.1536198854446411 0.5637523531913757 1.1450779438018799 0.49200600385665894 -0.09796372801065445 -0.05771423503756523 0.7410157918930054 -2.088644027709961 -0.32746919989585876 -1.294175148010254 -1.3150322437286377 -0.6793041229248047 -1.029002070426941 0.6350677013397217 0.49340081214904785 -0.386394739151001 -0.05587848648428917 0.4179198741912842 -0.08980271965265274 -1.3139139413833618 -0.7704901099205017 0.05314986780285835 0.5026169419288635 0.19992798566818237 -0.9037234783172607 -0.4113224148750305 1.2631477117538452 1.3895447254180908 1.1321520805358887 1.279212236404419 -0.7634702324867249 -0.5979641675949097 -0.5397613644599915 -2.481419086456299 0.8689072728157043 -2.1887941360473633 -0.33033081889152527 0.7976142764091492 0.987872302532196 0.15110252797603607 -2.5981240272521973 1.4514570236206055 1.8096342086791992 -0.1292893886566162 -0.07539847493171692 -0.8722790479660034 0.21354292333126068 -0.6733961701393127 0.9536726474761963 -0.8064910173416138 -0.7096284627914429 -0.43393805623054504 0.8234462141990662 -0.6786879301071167 1.735809326171875 -0.22012683749198914 1.0656135082244873 1.5887439250946045 -0.055823568254709244 -0.7083969712257385 -0.20443686842918396 -1.247699499130249 -1.3218247890472412 0.7949960231781006 2.4380431175231934 -0.3895452320575714 0.20785218477249146 -1.4788529872894287 -0.06630919128656387 2.0026209354400635 -1.6727163791656494 1.3274765014648438 1.152737021446228 -0.23153410851955414 0.05477652698755264 1.186338186264038 1.3845502138137817 0.7332512736320496 0.0345258004963398 -0.6144537329673767 -0.1229490339756012 -0.07809297740459442 -1.4880914688110352 -0.18888917565345764 0.8395107388496399 0.779308557510376 0.029453296214342117 0.2578951418399811 -1.1507576704025269 -0.16758842766284943 1.5857789516448975 0.13470987975597382 -2.9751110076904297 -1.1263610124588013 0.33365073800086975 -0.1687515825033188 1.2259998321533203 1.1326162815093994 1.3740748167037964 2.009265661239624 0.027074141427874565 -0.07581468671560287 0.4300035536289215 -0.5189924836158752 0.4530692398548126 1.1643179655075073 -0.15575756132602692 0.83326256275177 -1.2889113426208496 -0.6541247963905334 0.4439989924430847 0.1101696789264679 1.4845486879348755 -0.7206271886825562 0.3340805768966675 0.2828720510005951 -0.6485321521759033 -0.19627773761749268 -0.7045657634735107 0.6934844255447388 1.1610459089279175 0.9323034286499023 -0.9578270316123962 -0.6912545561790466 1.8811862468719482 1.2834327220916748 -0.38576072454452515 1.440231442451477 -0.1410815417766571 -0.6474839448928833 -0.6845542192459106 1.2423878908157349 0.2426755577325821 0.27091994881629944 0.15356945991516113 2.183927297592163 -0.5513789057731628 0.33617544174194336 -0.309272825717926 0.7108572125434875 -0.7730250358581543 -0.47847485542297363 1.0591444969177246 1.4533758163452148 0.2966576814651489 1.0712471008300781 -0.35158517956733704 -0.23820431530475616 0.30989816784858704 -0.026731789112091064 -1.9264416694641113 1.2635807991027832 -0.4303901493549347 0.19020284712314606 -1.0846301317214966 -1.0710904598236084 -0.9647647738456726 1.41494619846344 -0.61734938621521 -1.3673310279846191 0.7905554175376892 0.4304297864437103 -0.1794596165418625 1.7934952974319458 -0.5450859665870667 1.08357572555542 -0.4315434694290161 -0.5454654693603516 -0.05194501206278801 1.4292356967926025 1.277696967124939 0.518501341342926 0.06500142067670822 0.31415626406669617 1.6283588409423828 -0.24143458902835846 -0.36172088980674744 -0.6796894073486328 1.6615805625915527 -0.9704763293266296 1.1141499280929565 
vec4 1.7095303535461426 1.811631679534912 0.04944854974746704 0.167059063911438 1.0909745693206787 -1.2739852666854858 -0.3770297169685364 -0.08133666962385178 -1.0510518550872803 -1.3213114738464355 -0.03274603560566902 -0.039338238537311554 -0.5881187915802002 1.7936166524887085 -0.18655823171138763 -0.7376205325126648 0.8967701196670532 -2.3393826484680176 -1.0269895792007446 -1.7511082887649536 1.3961360454559326 -1.479446530342102 1.098887324333191 1.128813624382019 0.36886143684387207 0.32867178320884705 -1.5575898885726929 1.0295535326004028 0.7099502682685852 -0.7666618824005127 -1.792953610420227 -0.6761044263839722 0.9059979915618896 1.4458154439926147 0.29322361946105957 -0.4907758831977844 1.8457504510879517 0.11741086095571518 1.2940952777862549 0.9403535723686218 -0.692426323890686 -0.3406413793563843 -1.1321971416473389 -0.08100441098213196 0.1538946032524109 -0.17039309442043304 0.09175080806016922 0.3257863223552704 1.3566746711730957 -1.1196143627166748 0.40636467933654785 -0.8666486144065857 -0.9055300951004028 1.6031701564788818 -1.1062703132629395 1.2347913980484009 -1.0240651369094849 0.45665475726127625 -0.5832304358482361 0.13889211416244507 1.2406787872314453 0.0766364187002182 0.13479219377040863 -2.2586584091186523 1.5900449752807617 0.35216137766838074 -0.34063029289245605 0.5131853222846985 0.6110526919364929 0.5081990957260132 -1.0267834663391113 0.20551924407482147 -0.4845035970211029 0.9022275805473328 -0.232162743806839 2.091158151626587 0.2970043420791626 -0.47326207160949707 -0.36297935247421265 -0.8533550500869751 -0.5771951675415039 -1.6098697185516357 1.4630744457244873 -0.29866650700569153 -0.5719268321990967 0.5381672382354736 0.02043275535106659 -1.4237827062606812 1.1515517234802246 -0.862053632736206 -0.889809787273407 -0.6641136407852173 -0.298970490694046 0.530681848526001 -0.18275262415409088 1.226022481918335 -0.33994945883750916 0.3012793958187103 -0.29362836480140686 -1.1089284420013428 -1.2823240756988525 -1.5999990701675415 -0.9076586961746216 -0.2979411482810974 1.866998314857483 -0.9074974060058594 -0.004486890975385904 0.9144886136054993 -0.5302371978759766 0.7299755215644836 0.3728227913379669 -1.0302332639694214 0.3175104558467865 -0.0536942221224308 0.39373573660850525 0.11179112643003464 0.31837910413742065 -0.4750034213066101 1.647311806678772 1.4437499046325684 -0.5043191909790039 1.895830512046814 -0.08829411119222641 0.25998491048812866 1.1774766445159912 -0.5331504344940186 1.861345887184143 -0.7672324776649475 1.8554974794387817 0.28853026032447815 -0.47628191113471985 0.18726512789726257 0.9176003336906433 -1.8259656429290771 0.5258508920669556 0.9181577563285828 0.2397596836090088 -0.5743123888969421 2.1335270404815674 -0.37491247057914734 -0.028575439006090164 -0.5872433185577393 -1.1283122301101685 -0.2352992594242096 -1.2146419286727905 0.145467147231102 0.8629624843597412 0.7902112603187561 -0.8436295390129089 0.40435680747032166 0.8236254453659058 0.044586144387722015 -1.1943353414535522 0.22708040475845337 -0.37284401059150696 -0.9036480188369751 -0.19790594279766083 -0.32493019104003906 0.4706309139728546 1.9791715145111084 -0.858856201171875 -0.44505152106285095 0.2006315439939499 -0.09318065643310547 1.1027746200561523 0.7753094434738159 0.8391615152359009 0.10408981144428253 -0.42569953203201294 -1.1415013074874878 0.4957289695739746 0.42073556780815125 -0.16087646782398224 1.559894323348999 -0.4976019561290741 -0.605038046836853 1.013586163520813 -0.8681920766830444 -1.8676207065582275 -0.7116711735725403 -0.48778417706489563 -0.2043159008026123 1.8482085466384888 0.32215604186058044 0.3578142523765564 0.3273179531097412 -1.5239824056625366 -0.5468659400939941 0.45995160937309265 1.0625126361846924 -0.7090922594070435 -2.039907217025757 2.561457872390747 2.4883084297180176 1.202588438987732 0.20492485165596008 -1.345025897026062 1.4780596494674683 0.5549611449241638 0.31154173612594604 
vec5 0.5803735256195068 2.5296897888183594 -2.784000873565674 -1.2343555688858032 1.3490569591522217 -1.3936595916748047 -0.06238105893135071 -1.2839572429656982 0.9352768659591675 -0.11112834513187408 -0.93384850025177 -0.4625786542892456 -0.9458783864974976 -0.7980564832687378 0.029476849362254143 0.9374819993972778 0.056194815784692764 -0.8305882811546326 -1.782388687133789 -0.5860241055488586 0.5346317291259766 -0.962692379951477 1.7563109397888184 0.6026616096496582 0.24328018724918365 0.8166365623474121 -0.5835889577865601 0.773099422454834 0.7718909978866577 -0.2385820597410202 -0.00317479413934052 -0.10364936292171478 -0.44426652789115906 1.7176433801651 0.21233877539634705 -0.7655075192451477 1.8706800937652588 0.16739974915981293 -0.3654141128063202 1.056808352470398 0.35651326179504395 0.782859206199646 -1.3524638414382935 -0.897780179977417 2.070096969604492 0.9420421123504639 -0.48438742756843567 0.32662859559059143 0.757308304309845 0.8380931615829468 2.340740442276001 -1.2705422639846802 -0.6608192920684814 0.3337081968784332 -0.2749250531196594 -0.5090162754058838 1.0404247045516968 1.6720505952835083 -0.8494699001312256 -0.7020565867424011 -0.3536670207977295 0.5177651643753052 0.058115359395742416 0.44559842348098755 0.7108102440834045 0.8348636031150818 -0.24551287293434143 1.062674641609192 -0.6109722852706909 -0.21930885314941406 -0.2797949016094208 0.33410853147506714 0.4680231809616089 0.26417213678359985 -0.7315929532051086 0.2723124623298645 0.9119271636009216 0.025114070624113083 -0.18000978231430054 -0.09819291532039642 -1.1606968641281128 -0.32937705516815186 0.3845801055431366 2.240232467651367 -1.27870512008667 -0.44414374232292175 0.3904021084308624 -1.7776519060134888 2.1625967025756836 -1.1696821451187134 0.9428676962852478 -0.19853392243385315 -0.7813705205917358 0.8429379463195801 -0.5105596780776978 2.98600435256958 0.9250368475914001 1.189716100692749 -1.0342090129852295 -0.3257036805152893 1.2240760326385498 -0.19734923541545868 -1.0449912548065186 -0.22101421654224396 -0.6120721101760864 -1.0221117734909058 1.361067771911621 -1.1551566123962402 -2.278566360473633 -2.247342348098755 -0.16039831936359406 -0.7322873473167419 0.14419437944889069 -0.20606668293476105 -0.858936071395874 1.52913236618042 -2.0556721687316895 -0.8429989814758301 1.2091724872589111 0.6089454889297485 0.529022753238678 0.5669407248497009 -0.6685517430305481 -0.15409745275974274 1.1881108283996582 0.34064823389053345 0.8251568675041199 -0.4271986484527588 0.9279943108558655 -0.4415007531642914 0.8089430332183838 0.8910898566246033 -0.316318541765213 0.03191705420613289 1.1884421110153198 0.6513568758964539 -0.6214897036552429 0.2742617726325989 0.39869850873947144 0.447439044713974 -0.0712224692106247 -1.563596487045288 -0.2914513051509857 -0.8752927780151367 1.5843825340270996 -1.125063180923462 0.31133270263671875 -0.6146818995475769 -0.9347248077392578 0.6743042469024658 0.8768344521522522 -0.9768847227096558 -0.20512135326862335 2.574237108230591 0.28878137469291687 -0.5214993357658386 -0.9359067678451538 0.18047739565372467 1.055181860923767 -0.47615113854408264 0.36875274777412415 0.8485593795776367 0.8320099711418152 0.7350646257400513 2.0860755443573 -0.2925034761428833 0.7480160593986511 0.6668378710746765 -0.46322017908096313 -0.6807482838630676 0.317488431930542 0.6570243239402771 0.5192345976829529 -0.21361996233463287 0.7195641398429871 0.026068968698382378 2.769122838973999 -1.5532395839691162 -1.2182499170303345 0.35539960861206055 -0.9897838234901428 0.018141143023967743 1.506569504737854 0.43824154138565063 0.6897348165512085 1.333351969718933 0.500262439250946 -1.0823376178741455 1.259818434715271 1.8652667999267578 0.11816784739494324 -1.095015287399292 -0.41909125447273254 1.1808205842971802 0.8733956217765808 0.3309704661369324 0.7499309182167053 1.0976943969726562 -1.4564146995544434 0.4619884192943573 
vec6 -0.5041326880455017 1.175529956817627 -1.9472795724868774 -1.2892621755599976 1.7392789125442505 0.4164232015609741 0.7929551601409912 0.1337304413318634 0.41964250802993774 -1.5636581182479858 -0.7164222002029419 -1.3748650550842285 -1.6282002925872803 0.3043546676635742 -0.4264717698097229 -1.3775314092636108 1.2225524187088013 -0.5226665735244751 -1.3243350982666016 0.34998592734336853 0.8906351923942566 -0.016595272347331047 0.29809141159057617 -0.8614509701728821 -0.947117805480957 0.15449662506580353 -1.9007601737976074 -0.002693643793463707 -0.6545614004135132 -0.3984653055667877 -0.20380060374736786 -0.2030126303434372 -1.0955266952514648 0.5187101364135742 0.44834092259407043 0.930709958076477 0.9248608350753784 -0.1631283164024353 -0.4433310031890869 0.5628233551979065 -0.19853703677654266 0.8682064414024353 0.17240360379219055 -0.8213348984718323 0.875377893447876 0.41888192296028137 -0.26877450942993164 0.8440600037574768 -0.5528419017791748 -0.13661780953407288 1.1040364503860474 -0.9165486693382263 -1.681889295578003 0.23300400376319885 -0.9819614887237549 -0.02597866766154766 0.9675089120864868 0.31162482500076294 -0.6739822626113892 0.24988719820976257 0.4668700695037842 0.17422744631767273 0.11471088975667953 -1.2406749725341797 1.6043896675109863 1.8357672691345215 -0.9423345923423767 1.4578471183776855 -0.9347032904624939 0.5754307508468628 -2.256662607192993 1.624490737915039 1.2823987007141113 0.1364944577217102 -0.02149902656674385 1.3551230430603027 -0.7753320336341858 0.21126587688922882 -0.8655426502227783 -0.8270875811576843 -1.7868551015853882 -0.5669047832489014 0.2539539039134979 0.5278763771057129 -1.480502724647522 -1.2387913465499878 0.4647321403026581 -0.4983477294445038 2.1337311267852783 -1.4583357572555542 -0.8124980330467224 0.8603641390800476 -1.4536924362182617 -0.0009761719848029315 1.035295009613037 0.5957406163215637 1.8938696384429932 -0.2692192792892456 -0.5614506006240845 0.8084829449653625 0.6893945932388306 -0.21422600746154785 -1.750184416770935 -0.1230233907699585 -0.17223875224590302 0.1605340540409088 1.2526017427444458 -0.5665702223777771 -1.4669437408447266 -1.5797340869903564 0.1770871877670288 -2.1835834980010986 -0.4938761591911316 0.38351961970329285 1.3543190956115723 0.7451305985450745 -0.1776094287633896 0.4919417202472687 1.1422010660171509 0.6546417474746704 -0.3636534512042999 0.6631786227226257 -0.25983986258506775 0.4539545476436615 1.340376853942871 0.23136726021766663 0.1832742542028427 -1.0865139961242676 -0.11612334847450256 0.2356603443622589 -0.30579686164855957 -0.5890129804611206 0.5649964213371277 -1.9551951885223389 0.504730224609375 -0.22856345772743225 2.2890071868896484 -0.3810344934463501 1.0478588342666626 0.12266641855239868 1.0052541494369507 -0.17275069653987885 -1.2760547399520874 2.2077815532684326 -1.833828330039978 -1.1421462297439575 0.5268937349319458 -0.11471817642450333 -0.06361827254295349 -0.035518109798431396 -0.047395750880241394 -0.31293541193008423 0.7227616906166077 1.2520105838775635 -0.27730247378349304 -2.143786907196045 -1.5845998525619507 -0.6363021731376648 0.5905651450157166 1.534023404121399 -0.9825375080108643 0.8916316628456116 2.361132860183716 0.005423405673354864 2.3735275268554688 0.241513192653656 1.9617501497268677 1.5948967933654785 0.8791670799255371 -2.8353335857391357 0.36521658301353455 -0.01414911262691021 -0.2963019907474518 0.22297529876232147 -1.2583450078964233 -0.13166062533855438 -0.48105332255363464 -0.6681956052780151 -1.085329294204712 0.23956741392612457 0.1655123233795166 2.3749992847442627 2.345414876937866 0.9115340709686279 0.5392590761184692 0.24965885281562805 -0.12392008304595947 -1.3241320848464966 0.8432967662811279 0.7014956474304199 0.31887900829315186 -1.0252596139907837 0.11950571835041046 1.5519200563430786 0.04507771506905556 -0.6075026988983154 0.1384071260690689 -0.416309118270874 0.20156612992286682 0.40891605615615845 
vec7 -0.5634558796882629 -0.2848665416240692 -0.9589270949363708 -0.5707470178604126 1.239563226699829 1.2900649309158325 -0.7388876676559448 0.7184386849403381 -0.2001645714044571 -0.7034797668457031 -0.9627346396446228 -0.7932261824607849 -0.42186239361763 0.6152588725090027 -0.30296051502227783 -1.8016901016235352 -2.229715585708618 -1.2152221202850342 -1.4874249696731567 -0.7389582395553589 1.5676840543746948 -1.9865022897720337 1.05153489112854 0.08917611837387085 -0.3012595772743225 0.20918045938014984 -1.0677101612091064 0.578445315361023 -0.4092104136943817 -0.0984584167599678 -0.052131664007902145 0.2528665363788605 -0.24690929055213928 -0.4290298521518707 -0.06603586673736572 -0.8354835510253906 0.8873790502548218 -0.4881771504878998 0.7500659227371216 1.0139029026031494 -0.8732771873474121 0.4509229063987732 0.1273413598537445 0.03432537615299225 1.2702564001083374 1.7827876806259155 0.6616596579551697 0.29272133111953735 -0.29096555709838867 -0.26033809781074524 0.9267761707305908 -1.5058566331863403 -0.2994979918003082 -0.3816272020339966 -0.9033117294311523 0.3731013238430023 -0.37695327401161194 1.0428504943847656 1.9084081649780273 -0.003956535365432501 -0.1954755336046219 -0.6220353245735168 -0.025908228009939194 -2.402451992034912 0.5918659567832947 2.2366743087768555 0.34160202741622925 0.21136021614074707 -1.2972420454025269 0.0010969850700348616 -1.8172415494918823 -0.5599330067634583 1.7279397249221802 0.8949458003044128 -0.09396992623806 1.2561521530151367 1.2649447917938232 1.786116600036621 -0.7522898316383362 0.5256379842758179 -1.5632222890853882 0.022337399423122406 -0.3406583368778229 -0.9743947386741638 -1.7227892875671387 -0.3410915732383728 0.43440505862236023 1.4117215871810913 1.2768900394439697 -1.8605613708496094 0.3780960440635681 1.5145500898361206 1.3873097896575928 0.2996008098125458 -0.18012072145938873 0.005549637135118246 -0.2709794044494629 0.41774195432662964 -1.5266656875610352 0.6846144795417786 0.8753305077552795 0.39803215861320496 -0.9464406371116638 -0.5538762807846069 0.9786852598190308 1.3233306407928467 -0.19882243871688843 -0.38796865940093994 0.37142300605773926 -0.20556725561618805 -0.7803505659103394 -1.9364639520645142 0.4318946897983551 -0.9059156179428101 0.3466365337371826 1.8576340675354004 -0.5536742806434631 0.5361120700836182 1.349224328994751 0.9059472680091858 -0.7593958377838135 0.9381994605064392 1.0691206455230713 1.0545463562011719 0.5524395108222961 0.06124136969447136 1.377690076828003 0.14203274250030518 1.0072914361953735 0.5172277688980103 0.17815545201301575 0.8766880035400391 0.13326919078826904 -0.6513491868972778 1.618034839630127 -0.7140792608261108 0.2362043857574463 0.35589149594306946 1.7238290309906006 0.4027347266674042 0.7114562392234802 -1.4936751127243042 0.52702397108078 0.18098539113998413 0.2091684490442276 -0.8880096673965454 -0.16249358654022217 0.18858321011066437 -0.6686088442802429 0.19643816351890564 0.6607134938240051 0.7064139246940613 -0.6240740418434143 0.803904116153717 1.3490092754364014 -0.23637020587921143 -0.5048767328262329 -0.6832793354988098 1.2701740264892578 -0.6589586138725281 0.5941936373710632 0.5604040026664734 0.3270424008369446 0.05270299315452576 1.3865488767623901 -0.9143847227096558 0.005882879253476858 1.5711660385131836 -2.469413995742798 -1.440569281578064 -1.342279314994812 0.23044638335704803 -0.2084205150604248 -0.7402861714363098 1.09498131275177 -0.820348858833313 0.13241176307201385 -0.8615818619728088 -0.7895844578742981 1.3497538566589355 -0.419126033782959 -0.4000978171825409 0.9546235203742981 1.5532159805297852 -0.2821710407733917 -0.47126200795173645 -0.013230218552052975 -0.19266214966773987 -0.2635548412799835 -0.30126839876174927 0.5899603962898254 -0.5344461798667908 1.2399717569351196 0.26169461011886597 0.4988764226436615 -0.2431916445493698 0.5580992698669434 1.2877674102783203 0.12991280853748322 0.3330637812614441 
vec8 0.6741467118263245 1.4551811218261719 -1.5380805730819702 0.3629924952983856 1.598252534866333 -1.0995908975601196 -0.5703575015068054 -1.156598448753357 -0.7316604852676392 -2.0608036518096924 0.5474667549133301 -1.665029764175415 -0.7964760065078735 0.8641489744186401 -1.2469412088394165 -0.6239435076713562 0.6176154613494873 -1.4844874143600464 -0.7324480414390564 -2.2929787635803223 1.3373202085494995 0.4647543430328369 0.1352369636297226 -0.7571958899497986 0.6253458261489868 0.06945033371448517 -2.470327854156494 0.9301308393478394 -2.0601725578308105 -0.6126725673675537 -0.28174924850463867 -0.8630006313323975 0.1162555068731308 -0.2125699371099472 1.9354621171951294 -0.905763566493988 1.0634468793869019 -0.3632906675338745 -0.49758851528167725 -0.5065873861312866 -0.9107406139373779 0.4776664674282074 -0.7123051881790161 -0.7765692472457886 1.0584945678710938 -0.5128024816513062 -0.11952201277017593 1.1095701456069946 1.1808133125305176 -0.886768102645874 -0.972129762172699 -0.7031634449958801 -0.8693801164627075 -0.5121662616729736 -1.047071099281311 0.5942778587341309 -0.2506084740161896 0.6171886920928955 -0.5242773294448853 0.061744533479213715 -0.7302886247634888 -0.44506150484085083 0.488458514213562 -1.0012385845184326 1.7187291383743286 -0.1885591596364975 0.06172383204102516 -0.594295859336853 0.4406394064426422 -1.2904301881790161 -0.5219023823738098 1.3530551195144653 0.5178583860397339 3.225231170654297 0.49477502703666687 0.9426946043968201 0.17629660665988922 0.2061534821987152 0.5191196203231812 -0.6691744327545166 -1.8883147239685059 -0.10929800570011139 1.4672822952270508 -0.7406342029571533 -1.98634934425354 1.3053923845291138 -1.1062335968017578 -0.7151895761489868 2.458585262298584 -1.975988507270813 0.3872581422328949 1.5629907846450806 0.33444467186927795 1.0680644512176514 -0.2771454155445099 0.8674881458282471 0.07120851427316666 1.691960334777832 -1.172051191329956 -0.2728300392627716 -0.5957610607147217 0.054779764264822006 0.21590213477611542 -1.444555640220642 -0.39877617359161377 -1.2061030864715576 -0.08403345942497253 -0.2850647568702698 -2.4551432132720947 0.15054872632026672 0.7724823355674744 -1.7883738279342651 -0.37065720558166504 -0.26261991262435913 0.4610224962234497 1.6660526990890503 -1.046675205230713 0.5794603824615479 -0.5002890825271606 1.256066083908081 -1.2399111986160278 0.9477352499961853 -0.5532183647155762 1.3281159400939941 1.7758312225341797 0.9754788279533386 -0.522533118724823 -0.5684106349945068 -0.9745156168937683 -0.058708902448415756 0.32980406284332275 0.6134562492370605 -0.47384223341941833 -0.8870034217834473 -0.11899302154779434 0.3501191735267639 0.31170859932899475 -0.48704156279563904 1.3807058334350586 2.0577995777130127 1.6637202501296997 -0.31898796558380127 0.045673683285713196 0.0681937113404274 1.3037645816802979 -1.3186954259872437 0.2530704736709595 0.39343953132629395 -0.10497981309890747 0.3004453778266907 1.1215214729309082 -0.9026874899864197 -0.36302995681762695 0.9036819338798523 1.228925108909607 0.27977892756462097 0.8628855347633362 0.2887313961982727 0.4345555901527405 0.7204068899154663 -0.41961944103240967 -0.18299509584903717 -0.7630190253257751 1.4406766891479492 1.547348976135254 -0.9949551820755005 1.244654655456543 -0.7793264985084534 -0.9922953844070435 -1.379721760749817 1.1598204374313354 1.340248465538025 -0.45814162492752075 0.410036563873291 -0.33180901408195496 -1.3799797296524048 0.32514259219169617 -0.9529069066047668 -0.9442223906517029 -0.6910843849182129 -0.42968112230300903 -0.3194575905799866 1.8852076530456543 -0.27162522077560425 -0.8368822932243347 1.415453314781189 -0.14145901799201965 1.1142269372940063 1.0653486251831055 1.2659533023834229 -0.5068945288658142 -0.11747931689023972 0.5590679049491882 0.5918782949447632 0.2682898938655853 -1.5775176286697388 0.6850128173828125 0.3808121681213379 -0.16344641149044037 -0.454028844833374 
vec9 -1.3378939628601074 0.9673817753791809 -1.4845449924468994 1.2252357006072998 1.2716054916381836 0.15697214007377625 0.7154385447502136 -0.33394330739974976 -0.6183792352676392 -1.0688281059265137 -0.469765305519104 -0.6620242595672607 -1.429481863975525 1.8537360429763794 -2.4327986240386963 0.17023414373397827 1.2837167978286743 -2.378340721130371 -0.017132548615336418 -0.15470612049102783 0.41196945309638977 0.28568124771118164 1.1371123790740967 -0.4838937520980835 -0.49313873052597046 0.9779015183448792 -2.5555403232574463 0.3420279622077942 -0.45201537013053894 -1.4835768938064575 -0.5334328413009644 -0.23307916522026062 -0.704711377620697 -0.17932668328285217 1.5614566802978516 -1.7981411218643188 0.0625927671790123 -0.34188738465309143 0.5003979802131653 -0.40712770819664 -0.022263672202825546 0.024830639362335205 -1.5646809339523315 -1.1559226512908936 0.6937798261642456 -0.2561813294887543 0.11200807988643646 0.41187942028045654 0.30659598112106323 -0.5680049657821655 0.9868191480636597 -1.5239962339401245 -1.4740455150604248 -0.030409349128603935 0.6773567199707031 -0.3187987506389618 1.0350641012191772 0.8662051558494568 -0.6118238568305969 -0.505503237247467 -0.37232574820518494 -0.11958178132772446 -1.1415798664093018 -0.8791835308074951 0.7420623898506165 0.13162904977798462 0.5005319714546204 1.2393174171447754 1.1770004034042358 -0.9645984768867493 -1.205135703086853 0.621679425239563 0.7518832683563232 -0.16944999992847443 -0.5886799693107605 0.3310670554637909 1.0017437934875488 -0.2843296527862549 -1.2283360958099365 0.7172205448150635 -1.1753681898117065 0.3555227518081665 -0.3354603350162506 0.619767427444458 -1.7499579191207886 0.10167032480239868 -0.6255967020988464 -1.7911041975021362 2.3595595359802246 -1.3575955629348755 1.0031969547271729 0.26667520403862 -0.27227354049682617 2.4837355613708496 0.5930362343788147 0.06375537067651749 1.380868911743164 -1.0102596282958984 -0.12309496849775314 0.780429482460022 -0.09852449595928192 0.16459210216999054 0.05366965010762215 0.7750080227851868 -0.504894495010376 0.3640345633029938 -0.31435438990592957 -2.203907012939453 -0.5263394713401794 -0.4755469262599945 0.9270454049110413 -2.6649539470672607 0.1803625375032425 -1.0846426486968994 0.2920641601085663 0.010661373846232891 -0.6180906295776367 -0.18035411834716797 1.6918236017227173 0.36962080001831055 0.4191306233406067 -0.3524336814880371 -1.0465940237045288 1.2166703939437866 1.6929138898849487 -0.970195472240448 1.1127116680145264 -1.0373703241348267 0.1736045479774475 0.36136704683303833 -0.8891974091529846 0.06173224374651909 -0.055972855538129807 -1.6458511352539062 -0.7681421041488647 0.9987279176712036 1.5677711963653564 0.6440319418907166 0.21395373344421387 1.6932998895645142 2.0832598209381104 -0.1315145045518875 -0.7249714732170105 0.2553446590900421 0.6802423596382141 -0.727697491645813 0.5706028938293457 0.6288933157920837 -1.3132753372192383 1.2985197305679321 -0.02666790597140789 -0.6702132821083069 -1.6356912851333618 0.9054247140884399 0.005291517358273268 -0.3509812653064728 -0.04327789694070816 0.7945137619972229 1.2918806076049805 -0.7916702628135681 -1.8111271858215332 1.234135627746582 -0.7028284668922424 -0.12983474135398865 1.5408393144607544 -1.6443628072738647 1.1187316179275513 -0.5890582799911499 0.10717951506376266 -1.4322075843811035 -0.928045928478241 -0.14271923899650574 0.5047100186347961 -0.03739827126264572 -1.2786049842834473 -0.19764158129692078 -1.1270462274551392 0.0031319884583353996 -1.8473314046859741 0.8322571516036987 -1.092812180519104 0.07290536165237427 0.9798831343650818 1.0785837173461914 0.6945183277130127 0.5835585594177246 0.09279018640518188 -0.36273911595344543 0.21643595397472382 1.4120932817459106 1.9035224914550781 0.07500510662794113 1.8423244953155518 2.0736024379730225 -0.964638352394104 0.3012516498565674 -0.7920560240745544 0.1985946148633957 1.392295241355896 -0.2302757054567337 
vec10 -0.11855245381593704 1.7918165922164917 -0.35088393092155457 -0.029264532029628754 0.9269055724143982 0.2565876245498657 0.14285705983638763 -0.5360877513885498 0.26714399456977844 -1.4739083051681519 0.2869175970554352 -2.179865598678589 0.45917752385139465 1.1377251148223877 -0.150929793715477 -0.9825419783592224 -0.4423729181289673 -1.9404090642929077 -1.1175537109375 -0.45380282402038574 0.5275317430496216 -0.22843483090400696 0.8167632222175598 0.9442009925842285 -0.2717168927192688 -0.17396073043346405 -2.592750072479248 -0.27250146865844727 -1.2185560464859009 -0.6123362183570862 -0.9887117743492126 -1.7878811359405518 -0.348360538482666 0.44129475951194763 -0.35013824701309204 -0.47505226731300354 0.5962896347045898 0.28872185945510864 0.5863680839538574 0.5505648851394653 0.5526566505432129 2.2710914611816406 -2.262514591217041 -0.3291546702384949 0.1827985793352127 1.2534250020980835 -1.196071982383728 0.2891523838043213 -0.16584259271621704 -0.5376848578453064 0.005410074722021818 -0.046087488532066345 -2.7920796871185303 -0.4892227351665497 -1.1329277753829956 -0.31834831833839417 1.6000486612319946 0.8890271186828613 -0.5349189043045044 0.8604584336280823 -0.986602246761322 -0.3671804964542389 -0.3660706579685211 -0.878699541091919 -0.9582627415657043 0.8189628720283508 -0.6651280522346497 0.12735876441001892 0.5232698917388916 -1.1965458393096924 -1.983464002609253 0.19034191966056824 0.41922056674957275 0.2698732614517212 0.02142082341015339 0.46373650431632996 -0.4482294023036957 -1.261768102645874 -0.05600738152861595 0.4863230586051941 0.05737507343292236 0.8479668498039246 1.2388662099838257 2.081207275390625 -0.36087876558303833 -0.10027847439050674 -0.2217341512441635 0.5243246555328369 1.2176326513290405 -0.07881543785333633 0.20387808978557587 -0.7608774304389954 -1.066086769104004 0.5736606121063232 -0.09731674939393997 1.251621127128601 1.0714117288589478 0.9789947271347046 -0.6332647204399109 0.4269781708717346 1.3622474670410156 0.4730449914932251 -0.28649529814720154 -1.0519767999649048 0.5301307439804077 -0.9052958488464355 0.28158438205718994 0.387734979391098 -0.4438338875770569 -0.26480814814567566 0.21042367815971375 -1.8304065465927124 -1.330338478088379 0.5851715803146362 1.445105791091919 0.586710512638092 -0.6696045398712158 -0.2744923233985901 0.2056320458650589 0.1222267597913742 -1.423476219177246 0.4503554701805115 1.1689114570617676 0.013270236551761627 1.4027693271636963 -0.6780479550361633 1.284471035003662 -1.435606837272644 0.3767138719558716 0.5599948763847351 -1.2559797763824463 0.7521951794624329 0.8678719401359558 -1.1557332277297974 0.23503977060317993 0.18018148839473724 0.09109564870595932 -0.87241131067276 0.7770146131515503 -0.3859449625015259 2.3943774700164795 -0.8482117652893066 -0.2980124056339264 0.4220428764820099 1.126544713973999 -1.5219684839248657 0.11286401748657227 0.23497378826141357 0.4357938766479492 0.2545720934867859 2.1512367725372314 0.964580774307251 0.15464217960834503 0.5061963200569153 1.122344970703125 -2.1331372261047363 -0.8604651689529419 -1.29318368434906 1.6604746580123901 0.1808265745639801 0.38068753480911255 1.7352890968322754 0.8473381400108337 0.2835172712802887 0.7588682770729065 0.0035424239467829466 -0.9015467166900635 1.3695476055145264 -0.5075355768203735 -0.19490212202072144 2.380885601043701 0.46378451585769653 0.7601892948150635 -0.8690648078918457 1.3105758428573608 -0.5083664059638977 2.047837972640991 -0.4479600191116333 0.2804722487926483 -1.0506561994552612 -0.17299319803714752 0.36963704228401184 1.63912832736969 -0.12938283383846283 0.1608101725578308 -0.47603046894073486 -0.19414256513118744 -0.33436286449432373 0.4777708947658539 0.03647719696164131 -1.7261425256729126 -0.8406285047531128 2.840416431427002 1.0235600471496582 0.8556311726570129 0.01774352416396141 -1.4245922565460205 -0.7919804453849792 1.410330057144165 0.3796023726463318 
vec11 -0.5224189162254333 0.7854909896850586 1.1661453247070312 0.6163601875305176 0.8323535919189453 1.1349961757659912 0.8709641695022583 -0.12689097225666046 -2.0279653072357178 0.39583101868629456 0.41578105092048645 -0.5667215585708618 -0.24846339225769043 0.641623854637146 0.08831328898668289 -0.9373723268508911 0.1887451559305191 -2.2749195098876953 -0.5367305278778076 -0.22092324495315552 1.100585699081421 0.05774194002151489 -1.0574076175689697 -0.0015696031041443348 0.22685140371322632 0.7379348278045654 -1.6271705627441406 -0.6037220358848572 -0.9124088287353516 -1.3284411430358887 -0.8971955180168152 -0.4232856333255768 0.48427608609199524 0.8084300756454468 -0.1735679656267166 -0.8386451005935669 0.40407294034957886 -1.3184068202972412 0.0847015231847763 0.06467176228761673 0.3859444558620453 -1.2771961688995361 -1.3738219738006592 -1.7787034511566162 1.4645956754684448 0.3189898729324341 0.5244102478027344 2.3009674549102783 1.1258387565612793 -2.0003812313079834 0.6423230767250061 -0.7648568153381348 -1.2229862213134766 0.3867631256580353 -1.4270824193954468 -0.4071196913719177 1.0144680738449097 1.6319867372512817 -0.20640720427036285 0.2596021592617035 0.058955952525138855 0.043125178664922714 0.40360742807388306 -2.1256351470947266 0.32713234424591064 -1.9538172483444214 -0.46140506863594055 1.6078331470489502 0.08436664938926697 -0.22769193351268768 -0.9543545842170715 1.4942948818206787 -0.27003344893455505 0.521783173084259 0.8162835836410522 1.8409092426300049 0.40289950370788574 0.5767179131507874 -0.06782348453998566 0.4263775050640106 -0.7383782863616943 -0.1668395847082138 1.0090155601501465 1.1521838903427124 -0.4586055278778076 0.077921062707901 0.07808668166399002 0.501380443572998 1.0522221326828003 -1.0232150554656982 0.7034534215927124 -0.9648257493972778 -1.004245638847351 1.137524962425232 -0.6671421527862549 1.3615671396255493 0.7738808393478394 -1.0874483585357666 -1.5112512111663818 1.020922303199768 1.085318684577942 -0.9431585669517517 -0.771000325679779 -1.2930662631988525 0.9828346967697144 0.2291972041130066 0.28530290722846985 -0.6129119992256165 0.5053873062133789 1.649145245552063 1.1208990812301636 -2.1522216796875 -0.42938369512557983 -0.39701032638549805 1.524086833000183 1.0470203161239624 0.019004639238119125 -0.4834993779659271 1.3064854145050049 0.419740229845047 -0.09656669944524765 0.5868573188781738 -0.30732882022857666 1.778140902519226 1.110297679901123 0.5747308731079102 0.5742886662483215 -0.658888578414917 -0.3657946288585663 -1.0286376476287842 -0.5332643985748291 0.912674605846405 -0.1887788027524948 -0.9237887263298035 1.2432719469070435 0.602419376373291 0.16301755607128143 -0.1856623739004135 -0.32966893911361694 0.7836612462997437 2.0728049278259277 1.370022177696228 -0.6831054091453552 -0.5324958562850952 1.3538997173309326 0.24926845729351044 0.920111358165741 -0.4017232656478882 0.34389567375183105 1.4715478420257568 2.0207128524780273 -0.11756907403469086 -1.314761757850647 0.5279926657676697 1.3333377838134766 -1.6439224481582642 0.2990550994873047 1.1042438745498657 1.1285351514816284 0.9816537499427795 -0.6093547344207764 1.6887496709823608 0.3012440502643585 -0.2506188452243805 1.8838684558868408 -0.12073945254087448 1.2311067581176758 -0.2692319452762604 0.21296676993370056 -0.5186136364936829 1.4953410625457764 1.4313842058181763 -0.045979417860507965 1.3970979452133179 -0.19398736953735352 0.18771004676818848 -0.09663780778646469 -1.0957218408584595 -0.711036741733551 0.7733861207962036 0.19172707200050354 0.8652787804603577 1.926272988319397 0.694068193435669 -0.14537610113620758 -0.12255126237869263 -1.0996893644332886 0.6459212899208069 -0.17662137746810913 1.6949658393859863 0.4774927794933319 -0.7907679677009583 2.5361828804016113 1.6721059083938599 -1.5240505933761597 0.0830192044377327 0.7425079345703125 1.1255412101745605 0.4817638695240021 0.9295195937156677 
vec12 -0.22868528962135315 2.3316502571105957 -1.3386123180389404 0.2849889397621155 1.359839916229248 -1.6632808446884155 1.255274772644043 -0.7144298553466797 -0.34974929690361023 -1.2812576293945312 -1.4191123247146606 -1.1410140991210938 1.2357842922210693 0.16940021514892578 0.3620273768901825 -1.4973808526992798 0.7543554306030273 -0.5681653618812561 -0.23136232793331146 -0.5028164386749268 1.1104981899261475 0.5369709134101868 0.2122504860162735 -0.0609259307384491 0.06070736423134804 0.7369681000709534 -1.5717898607254028 0.25978884100914 -1.9420620203018188 -2.8905532360076904 -0.35774898529052734 -1.0132249593734741 -1.3425990343093872 0.6085988879203796 0.3737417757511139 -1.1552354097366333 0.42014363408088684 1.287663221359253 -0.2785470485687256 0.5072936415672302 0.7205631136894226 -0.010102118365466595 -0.6583855748176575 -0.5979705452919006 -1.0955675840377808 0.9200102686882019 0.20052437484264374 -0.19483055174350739 0.6901727318763733 -0.5710012316703796 -0.26544949412345886 -1.074868083000183 -1.4169737100601196 -1.0875663757324219 -0.0633486658334732 -2.7167320251464844 1.6001617908477783 0.8506650924682617 -0.5550967454910278 0.046967823058366776 -0.6452107429504395 0.24030785262584686 -0.5919433832168579 -1.165130376815796 0.24097557365894318 -0.06839261949062347 0.39007315039634705 0.2496211975812912 -0.8965272903442383 1.0587245225906372 0.1253364235162735 -0.6084603667259216 1.7960125207901 0.4735798239707947 -0.4572664499282837 0.8087615966796875 0.8884095549583435 -0.9007256031036377 0.17011873424053192 -0.2775789499282837 -0.7714950442314148 -0.34629520773887634 0.36986348032951355 1.6430106163024902 -1.626438856124878 -1.4930588006973267 -0.3492075502872467 -0.26619118452072144 1.239575743675232 -0.8305267095565796 1.1109802722930908 1.921661138534546 -0.6378223896026611 1.3672724962234497 -1.0694468021392822 -0.8138183355331421 0.13089442253112793 0.0028388050850480795 -1.2649970054626465 0.4108167588710785 -0.12742909789085388 -0.10619205981492996 -1.577206015586853 -1.13677179813385 0.7634432911872864 -0.16236263513565063 -0.06635767221450806 -1.3696680068969727 -0.830442488193512 0.8898246884346008 0.10068249702453613 -0.487369567155838 -0.7893404364585876 -1.2149739265441895 2.35589861869812 0.3825360834598541 -1.0726958513259888 0.19415056705474854 0.45984265208244324 0.3858538866043091 -1.6577848196029663 1.9733588695526123 -0.8891672492027283 0.3863677978515625 1.4312580823898315 -0.37409210205078125 1.829129695892334 -0.921046793460846 0.6209030151367188 1.2759143114089966 1.9643523693084717 0.5779041051864624 0.20297500491142273 -0.4067613184452057 -0.35061532258987427 0.3279363214969635 2.2838666439056396 -1.2428330183029175 1.8633652925491333 0.13491491973400116 1.8534507751464844 -1.3011975288391113 -1.0773226022720337 -0.08318156749010086 0.8462828993797302 0.5096285343170166 1.406369924545288 -0.3520309329032898 -0.43036317825317383 0.29891496896743774 0.9185512065887451 -0.6418606042861938 1.1127996444702148 0.593997597694397 0.016201376914978027 -0.9673763513565063 -1.2924962043762207 0.17985598742961884 1.4108184576034546 1.0672844648361206 0.4895893335342407 -0.6281155347824097 0.161868155002594 -0.40011465549468994 0.35857442021369934 -1.3056259155273438 -0.02132011018693447 -0.3622814416885376 1.040455937385559 -1.0240339040756226 0.8247199058532715 0.36427271366119385 0.39818447828292847 0.8797716498374939 -0.6227334141731262 -0.32751694321632385 2.0071589946746826 -0.2361479550600052 -0.6759918332099915 0.8302739262580872 -0.6159602999687195 0.9737298488616943 1.8911747932434082 0.32671022415161133 0.8280006051063538 -0.061277709901332855 -0.2956535220146179 -0.2192559838294983 0.20450474321842194 0.7656800150871277 -0.8394126892089844 0.4779791533946991 1.6543031930923462 0.9968674778938293 -0.360713392496109 0.8279903531074524 -1.0546571016311646 1.454304814338684 -1.0719858407974243 0.7207463979721069 
vec13 0.9112798571586609 1.978348731994629 -0.22467824816703796 -0.6992647647857666 1.8380149602890015 -0.05101611837744713 -0.07357621192932129 0.12530851364135742 -0.8640092015266418 0.5005030035972595 -0.6263851523399353 -1.3470661640167236 -0.030906977131962776 1.135545253753662 -1.1533055305480957 -1.6754982471466064 -0.8001534938812256 -0.627224326133728 -0.9274387955665588 -2.8777260780334473 1.0277726650238037 -1.98859441280365 1.8885835409164429 -0.34116265177726746 -0.9751724004745483 1.02289617061615 -1.7331006526947021 1.427377700805664 0.07629795372486115 -0.445321261882782 -0.8598215579986572 -1.305582046508789 1.4124568700790405 0.12465722113847733 0.8872272968292236 -0.44039568305015564 0.42533743381500244 -0.5269926190376282 -0.06226517632603645 -1.0761451721191406 0.19644588232040405 0.48268213868141174 -1.9369375705718994 -0.3887663781642914 0.3517811894416809 0.2015717327594757 -0.2765994071960449 1.117891550064087 1.2326027154922485 0.3129652142524719 0.6367621421813965 -0.6817619800567627 -1.3912396430969238 -0.6568922400474548 -1.0186702013015747 -0.5195930600166321 0.5813155770301819 1.1013462543487549 -0.4947268068790436 -1.2551746368408203 -0.6941356062889099 0.46426141262054443 -0.5393280386924744 -1.7581534385681152 -0.44125065207481384 0.32493826746940613 0.9891200661659241 0.10322832316160202 -1.2462235689163208 -0.9348934888839722 -0.3867405652999878 1.2882139682769775 -0.44128721952438354 0.8404939770698547 0.6900549530982971 -0.6418293714523315 0.5381407141685486 0.5164205431938171 0.09476000815629959 -1.5164934396743774 -0.13421811163425446 -1.206662654876709 0.7803629636764526 0.5475586652755737 -0.31561848521232605 0.2428569793701172 0.022735323756933212 -0.6415228843688965 2.0270566940307617 -0.5147573351860046 2.3423044681549072 -0.8054859638214111 -0.4551679491996765 0.9866825938224792 2.1527528762817383 0.6729444265365601 1.8620185852050781 1.3810927867889404 -0.9357563853263855 0.07180337607860565 -0.6396661400794983 0.047602783888578415 -0.43294546008110046 0.05343711003661156 0.564922571182251 -1.2224130630493164 0.9784586429595947 -0.7261226773262024 -0.7415181994438171 0.1884160190820694 -0.4591452181339264 -0.24978812038898468 0.6710739731788635 -1.710307002067566 0.8865433931350708 -0.4327504336833954 0.23207274079322815 -0.5365405678749084 0.4559688866138458 0.44930213689804077 0.486453115940094 1.1591025590896606 -0.9607352614402771 -1.0192782878875732 -0.17565983533859253 -0.1812087595462799 0.3304869532585144 -1.0743345022201538 1.6364754438400269 1.119472861289978 -0.24745509028434753 -1.064386248588562 1.0852035284042358 -0.2554129958152771 2.1769235134124756 -0.3730853199958801 1.614512324333191 -0.49707111716270447 1.9088189601898193 -1.1715476512908936 1.4526052474975586 -0.6172761917114258 -0.10990439355373383 2.163686513900757 1.8947865962982178 0.48569244146347046 0.7580297589302063 -1.2123441696166992 -0.44815728068351746 0.42252686619758606 1.6978671550750732 -0.5239142775535583 0.06432786583900452 1.3953020572662354 0.8783679008483887 -0.5177114605903625 0.5521666407585144 0.2543013095855713 1.379142165184021 2.146311044692993 -0.37454676628112793 0.16910411417484283 0.3052217662334442 1.1261687278747559 0.4703535735607147 -0.33039459586143494 -0.4845469295978546 0.3917284607887268 -0.35911431908607483 0.49621859192848206 0.8603287935256958 -0.9578572511672974 -0.15507696568965912 -0.1831124871969223 0.31040167808532715 -0.6045395135879517 1.8890634775161743 -0.21990564465522766 1.395434021949768 0.49676257371902466 -0.20379164814949036 0.9532269239425659 1.9411982297897339 0.45709168910980225 0.49924951791763306 -0.05236396566033363 -0.3275440037250519 -2.515576124191284 0.2635766267776489 0.09243489056825638 1.4186820983886719 -1.1805788278579712 2.648214101791382 1.7033140659332275 0.36351466178894043 -1.1336560249328613 -0.5569928288459778 0.1358671933412552 -0.13229236006736755 0.17036978900432587 
vec14 -0.8082964420318604 0.8770840764045715 -1.257106900215149 -1.7666417360305786 1.8840194940567017 -1.1169496774673462 0.3735734224319458 1.0495672225952148 0.41196879744529724 -0.39162391424179077 -1.8327134847640991 -2.035944938659668 0.059371720999479294 -0.08771821856498718 -0.44464701414108276 0.012008446268737316 0.7434865832328796 -1.4687992334365845 -0.5436661243438721 0.263898640871048 -0.3445765972137451 0.37912625074386597 1.549062728881836 -1.2885042428970337 -2.012185573577881 -0.1583099067211151 -1.4417643547058105 1.783915400505066 -0.5417577624320984 -0.23665283620357513 0.522502064704895 0.6972693204879761 -1.5537109375 1.1280202865600586 0.72182697057724 -0.09490614384412766 2.208510398864746 -0.9652265310287476 -1.4008127450942993 0.2335875779390335 -0.01952981762588024 1.5279184579849243 0.28310126066207886 -0.40811285376548767 -1.1791584491729736 0.6763164401054382 -0.5354901552200317 0.6090590357780457 -0.10283639281988144 -1.7382112741470337 -0.013685552403330803 -0.08580721169710159 -1.170678734779358 0.7469919323921204 -0.5212300419807434 -0.033962272107601166 -0.8206304907798767 2.7272045612335205 -0.09298941493034363 -0.3887021839618683 0.20566903054714203 0.6285662651062012 -0.31555718183517456 0.1771610677242279 1.0003947019577026 0.6366421580314636 1.0163326263427734 0.38586199283599854 -0.8155263066291809 -1.0254838466644287 -0.054224126040935516 1.9310204982757568 0.5244540572166443 0.7013183236122131 -1.033947229385376 2.1294825077056885 -0.6051985621452332 0.06585629284381866 -0.2523172199726105 0.21452508866786957 -0.5218141078948975 0.8085025548934937 0.37444496154785156 1.554673671722412 -1.3375548124313354 -0.31071192026138306 -0.9173648357391357 -0.19253744184970856 1.2962698936462402 -0.5863977074623108 -0.8680527806282043 0.6686882376670837 -0.762348473072052 1.6986209154129028 -0.8358640670776367 1.415811538696289 0.5729067921638489 -0.3424749970436096 -0.9499382376670837 -0.7851258516311646 0.6816708445549011 -0.5409712791442871 -0.4646534025669098 -0.9338523745536804 0.4063447415828705 0.8692147135734558 0.02776380255818367 -1.4654905796051025 0.3098941445350647 -0.7660534977912903 0.5090221762657166 -0.156773179769516 -0.23572459816932678 -0.7515255212783813 1.0166540145874023 0.5656129121780396 0.17989258468151093 1.4231593608856201 0.9811553955078125 1.6459131240844727 0.38848379254341125 0.04461629316210747 0.3626367449760437 -0.5583117008209229 1.7428491115570068 0.46011728048324585 -0.15153975784778595 0.8403685092926025 -0.46333882212638855 0.660319447517395 -0.7066131234169006 1.0034630298614502 -0.9330652952194214 -0.537482738494873 -1.8859132528305054 1.6622871160507202 0.948590099811554 0.959722638130188 0.7082871794700623 0.022613968700170517 1.1037654876708984 -1.3322443962097168 1.152348518371582 -0.06599059700965881 0.5421943068504333 -1.4971189498901367 -0.06000303477048874 -0.25449132919311523 -0.41630634665489197 0.9434828758239746 -0.32224249839782715 -0.6277443766593933 1.170141339302063 1.6233922243118286 1.558504581451416 -0.28695765137672424 -1.0941941738128662 0.5744405388832092 0.42921704053878784 0.8158425688743591 0.13271911442279816 0.8018515110015869 -0.04464429244399071 1.0093193054199219 1.1787251234054565 -0.04782741144299507 0.9126906991004944 -1.4389561414718628 -0.32782965898513794 0.32228097319602966 -0.778846025466919 0.5223308205604553 0.27683138847351074 -0.26353663206100464 0.23367077112197876 0.11476103961467743 -0.4943568706512451 -0.5187782645225525 -0.19651488959789276 0.6594197154045105 0.32563772797584534 0.4331692159175873 2.260683536529541 0.591891884803772 0.8886653780937195 0.3496142029762268 -0.24316538870334625 0.6082852482795715 -1.1864246129989624 0.8720912337303162 0.1102360412478447 -0.5960657000541687 1.8870899677276611 1.2563204765319824 -0.22968532145023346 0.6738484501838684 0.2012667953968048 0.8002125024795532 0.8210393190383911 -0.7799343466758728 
vec15 -0.44761407375335693 2.01665997505188 -2.109724760055542 -1.133257508277893 2.340146541595459 -1.1034579277038574 2.524132013320923 0.400829941034317 -1.5431920289993286 -0.9279060363769531 0.48138129711151123 0.4824386239051819 -1.31035578250885 1.7028838396072388 -1.5915708541870117 -0.9975382685661316 -1.1359691619873047 -0.5256459712982178 -0.24243533611297607 -1.015100359916687 0.8955222964286804 0.051569368690252304 -0.04321199283003807 0.7847802639007568 -0.682210385799408 0.26007726788520813 -1.5762797594070435 0.09939046949148178 -0.9262654781341553 -1.7398971319198608 0.7757799625396729 -0.5324805378913879 -0.8204023838043213 0.6372284293174744 0.5478695034980774 -0.1412956714630127 -0.32554203271865845 -1.9339263439178467 0.30680057406425476 0.9172597527503967 1.479177474975586 2.4617972373962402 -1.8327041864395142 -2.2758560180664062 -0.3747616410255432 0.3903178870677948 0.6537134051322937 0.3144313395023346 1.1843605041503906 -0.9206784963607788 0.7213903665542603 -0.92852783203125 -0.11726775020360947 0.055974412709474564 -1.9019429683685303 -0.20829416811466217 -1.0827468633651733 1.700621247291565 -0.19696782529354095 -0.4751800298690796 -0.19293555617332458 -0.5463052988052368 0.3188072443008423 -1.0241767168045044 0.7763810157775879 0.9993689656257629 -0.7714903354644775 0.9540567398071289 -0.5126417875289917 -0.1298176497220993 -1.4238098859786987 0.6737833619117737 0.6740276217460632 0.2396150380373001 -0.8368960022926331 0.4965810179710388 -0.5818629860877991 0.6021331548690796 1.174241304397583 -0.552003800868988 -1.635103464126587 -0.48328256607055664 0.5708861351013184 1.1637485027313232 -0.9710037112236023 -1.7672557830810547 0.0002983196754939854 0.8677194118499756 1.2810003757476807 -1.3490291833877563 2.34363055229187 0.9184979200363159 -0.39119765162467957 -0.7543349266052246 0.3870038688182831 -0.37155604362487793 1.4304691553115845 1.5242656469345093 -0.9694303274154663 0.27556920051574707 0.6099962592124939 -0.790774941444397 0.5423641204833984 -0.6561070084571838 1.0383728742599487 0.6122922897338867 0.6655101180076599 -0.39541545510292053 -0.6575238704681396 0.08930735290050507 0.9559721946716309 -0.7841214537620544 -0.43609532713890076 -0.980735182762146 1.3028422594070435 0.8438459634780884 -0.4024888277053833 0.6284697651863098 1.6670423746109009 -0.09856943786144257 -0.5324879288673401 0.26971662044525146 0.6430739164352417 1.6257244348526 0.759093165397644 0.8745265603065491 -0.028456740081310272 -1.6572359800338745 -1.2135415077209473 0.22301200032234192 -0.44496825337409973 0.6775879263877869 0.8381916880607605 0.22957897186279297 -0.49512818455696106 -0.22643806040287018 0.36911967396736145 -0.5702747106552124 0.0712231919169426 -0.6971967816352844 1.131777048110962 -0.23714040219783783 -0.8924456834793091 0.5502800941467285 -0.6746875643730164 -0.8697342276573181 1.1254409551620483 -0.10477354377508163 0.5450079441070557 0.8335961103439331 -0.7360129952430725 0.3301863670349121 -1.832026720046997 1.9199261665344238 2.87221097946167 -1.984902024269104 -0.38646379113197327 -0.25236305594444275 1.5005853176116943 -0.17242947220802307 -0.9336690902709961 0.605483889579773 -0.5666504502296448 1.4044967889785767 1.2331146001815796 0.5471577048301697 0.5488831400871277 0.39366546273231506 -0.6984965205192566 0.5341684222221375 -1.0687634944915771 -0.3536318242549896 0.21815411746501923 -0.5307002663612366 0.12023165076971054 -1.0207161903381348 1.0902894735336304 -0.42343172430992126 -0.9001506567001343 0.7642132639884949 -0.5402228832244873 0.515380322933197 -0.011140423826873302 1.365068793296814 0.330450177192688 -0.4303246736526489 -0.5058236122131348 -1.0052133798599243 0.5111261010169983 1.1724374294281006 0.26263266801834106 -1.1447557210922241 0.5285146832466125 -0.49195045232772827 -1.0873197317123413 -0.3262856900691986 -0.2518376410007477 1.1847366094589233 -1.4801371097564697 0.7269247174263 
vec16 -0.6106238961219788 1.1886979341506958 -1.6728500127792358 1.537784457206726 0.6943018436431885 0.907137393951416 0.7212256789207458 0.1361982822418213 0.08781604468822479 0.3389234244823456 -0.3932611346244812 -0.6742519736289978 -0.7478747963905334 0.9634628891944885 -1.8934800624847412 -1.6407617330551147 1.0811595916748047 -2.2953007221221924 0.7565082311630249 -2.596771240234375 -0.7195690274238586 -0.5571790933609009 0.6547419428825378 -1.2439749240875244 -0.4408854842185974 -0.3977715075016022 -2.192028522491455 0.42910781502723694 -0.33678683638572693 -1.0991086959838867 -0.6159655451774597 -1.254728078842163 -1.4907073974609375 0.03812142461538315 -0.08127027750015259 -0.855392336845398 1.4362585544586182 0.39931991696357727 -0.641620934009552 0.12009449303150177 -0.6828696131706238 -0.21122750639915466 -0.6507319808006287 -0.30442625284194946 -1.2348830699920654 0.5923580527305603 1.9435702562332153 0.44252124428749084 2.0019466876983643 -0.9781174659729004 -0.3798096179962158 -1.5942689180374146 -2.7267885208129883 0.4997057318687439 -1.539656162261963 0.1844375878572464 0.46354347467422485 0.8738936185836792 -0.5650039911270142 -0.6684390902519226 -0.6568682193756104 0.7031828165054321 -1.7212984561920166 -0.5345736145973206 0.9983361959457397 1.0644748210906982 -0.4061756432056427 1.5136293172836304 -0.6122140884399414 0.43226099014282227 0.3136197626590729 -0.7038200497627258 0.4533611536026001 2.712090492248535 1.0568934679031372 1.9498740434646606 -1.4629905223846436 0.556736409664154 -0.33337903022766113 1.3407524824142456 0.011606365442276001 -0.4579632878303528 -0.3628856837749481 0.8857389092445374 -1.019244909286499 -0.8583256602287292 0.2204645574092865 0.04013196378946304 2.3242545127868652 -2.0600006580352783 0.5527430772781372 0.19594724476337433 -1.044581651687622 -0.03524785488843918 -0.39573580026626587 -0.07287918031215668 -0.2597726583480835 0.6526051163673401 -2.0525431632995605 -0.1900770515203476 -0.33453330397605896 0.03925371542572975 -1.4661773443222046 1.3387365341186523 0.9198164939880371 0.22962506115436554 -0.8698093891143799 -1.006474494934082 -0.5114543437957764 -0.8626567721366882 -0.5164632797241211 -0.37675875425338745 0.23782426118850708 -0.9588442444801331 -1.071747064590454 1.5567840337753296 -0.08814319968223572 -0.19327983260154724 0.9025124311447144 -0.726037859916687 0.4760656952857971 0.8068121075630188 -0.27390170097351074 -0.6799497008323669 1.0388011932373047 -0.9737178683280945 0.7445564866065979 -1.2849842309951782 0.606080174446106 -1.3467700481414795 -0.5988420248031616 -0.7034828066825867 -1.2521311044692993 0.6150823831558228 1.7621885538101196 1.0658549070358276 -0.21530188620090485 -1.9480630159378052 1.815259337425232 -0.8551336526870728 1.0387543439865112 -1.5299071073532104 -1.1159588098526 0.9822419881820679 0.3739912807941437 -1.2136896848678589 0.267575204372406 -1.2620054483413696 0.7679150104522705 -1.3882763385772705 0.44851112365722656 0.2633756101131439 -0.43220406770706177 0.1620173454284668 -0.5217293500900269 -1.759342074394226 0.9648606777191162 1.4285777807235718 0.5578629374504089 -0.5322285890579224 0.3814280927181244 1.170067548751831 0.08108777552843094 0.12812089920043945 2.039896249771118 0.30413925647735596 2.1320548057556152 0.5915181636810303 -0.37154024839401245 -1.125493049621582 1.2180540561676025 1.2580183744430542 0.04775990545749664 0.4127528667449951 -0.7828895449638367 -0.21972090005874634 0.1992965191602707 -0.5351765155792236 -0.7242221236228943 0.15294691920280457 -0.2917851209640503 0.6015838980674744 1.5337295532226562 1.2130802869796753 0.5469506978988647 0.23442280292510986 -0.585495114326477 -0.22670477628707886 -1.0709718465805054 0.7443972826004028 -0.4846363663673401 -0.4371715188026428 1.8678838014602661 0.28268787264823914 1.3917783498764038 -0.3854884207248688 -1.448454737663269 -0.11419378966093063 0.3673993647098541 -1.0496299266815186 
vec17 0.8668120503425598 1.228661298751831 -1.5470329523086548 1.1577562093734741 0.8488907217979431 -0.8689184784889221 0.24898026883602142 1.2122803926467896 -0.5987977981567383 -1.4911510944366455 -0.0843929797410965 -0.7155614495277405 -0.4502701759338379 2.124948024749756 -1.4541289806365967 -2.2823283672332764 0.24582158029079437 -1.5621238946914673 -0.6275901794433594 -0.8129405379295349 1.3192076683044434 0.23750844597816467 0.6802440285682678 -0.12512601912021637 -1.0525084733963013 0.8374260067939758 -1.344051718711853 0.4549500346183777 -0.6293445825576782 -0.19504298269748688 0.3481428623199463 -1.3659183979034424 -2.0975089073181152 1.2247886657714844 -1.3683667182922363 -0.7934753894805908 0.05508752912282944 0.9211407899856567 0.5500545501708984 1.0649011135101318 -0.8012356758117676 0.5305881500244141 -0.9488053321838379 -1.6566405296325684 -0.1860366016626358 0.015021689236164093 0.09641759842634201 -1.4443142414093018 1.0714402198791504 -1.1116199493408203 -0.8048461079597473 -1.846560001373291 -2.394103527069092 0.8695511817932129 -1.406833291053772 0.012170296162366867 -0.7616193294525146 0.05070898309350014 -0.07255279272794724 -0.825821578502655 -1.293477177619934 0.44581934809684753 0.6704831123352051 -0.25033020973205566 1.5790492296218872 0.7274501323699951 1.0935202836990356 0.0057679214514791965 1.2944635152816772 -0.005907007027417421 -0.8153567314147949 -0.5867103338241577 1.0154550075531006 -0.10992646962404251 0.8642635941505432 0.9962418079376221 -1.015370488166809 -0.2853648364543915 -0.9318411946296692 -0.27679479122161865 -1.3311333656311035 -2.476163864135742 0.5337818264961243 1.6581586599349976 0.5656145811080933 -0.9684551358222961 -1.633725643157959 0.4524557292461395 2.233098030090332 0.29528921842575073 0.25229039788246155 0.7755304574966431 -0.8593398928642273 0.9897438883781433 -1.152848482131958 0.625288724899292 1.0593584775924683 1.2671630382537842 -1.5224822759628296 1.4357191324234009 1.1520960330963135 -1.1378623247146606 -1.3496840000152588 -0.8785091042518616 -1.6003670692443848 -0.2556520104408264 0.8082807660102844 -0.39986467361450195 -0.8100200891494751 0.2878856658935547 -0.2257234752178192 -0.428498238325119 0.7139635682106018 -1.1476505994796753 1.5110446214675903 -0.35928618907928467 0.20777614414691925 -0.9031971096992493 0.2339155077934265 1.722814917564392 0.14306248724460602 0.6651269793510437 0.8178141117095947 -0.2589627206325531 0.766892671585083 0.24014464020729065 1.6746935844421387 -0.16680027544498444 -0.2570533752441406 -0.6494191884994507 -0.35724660754203796 0.0761665478348732 -0.08664818108081818 -0.6354162096977234 -0.3454204499721527 0.0829949826002121 -0.9147990942001343 0.23095785081386566 1.7320977449417114 1.1155658960342407 1.1829909086227417 -0.7109163403511047 0.5213707089424133 -0.2726133167743683 2.198215961456299 -0.08999858796596527 1.1039941310882568 0.03828871622681618 0.24839912354946136 0.20112283527851105 -0.17236986756324768 -0.2798163890838623 0.07178603112697601 0.24395185708999634 -0.5921666622161865 0.5645747184753418 0.7171457409858704 0.3546706736087799 0.8445082306861877 0.9559794068336487 -0.3518536388874054 0.31533798575401306 0.38979607820510864 2.135216474533081 1.1172199249267578 -0.6545076370239258 1.241875171661377 0.2046925574541092 -0.16275744140148163 -0.8552220463752747 0.15757130086421967 0.8122987747192383 -0.25336146354675293 -0.2842547297477722 0.6188408136367798 -0.4448833763599396 0.008284270763397217 -1.798539161682129 -0.35165029764175415 -1.6299515962600708 -1.0259982347488403 -0.351606547832489 1.5972135066986084 0.8904174566268921 0.5299404859542847 -1.2308284044265747 -0.7355335354804993 -0.5967198610305786 0.9226256012916565 0.6893393993377686 -0.487202525138855 -1.5366899967193604 1.8772457838058472 1.2079888582229614 0.6540746688842773 0.2362544983625412 0.19533781707286835 1.281583309173584 1.3766663074493408 -1.194897174835205 
vec18 0.8615347743034363 2.0739388465881348 -1.038427710533142 -0.2935723066329956 0.27964502573013306 -0.9188340902328491 -1.0603821277618408 0.9146032333374023 -1.41046941280365 0.1188092902302742 -1.7659180164337158 -0.501691460609436 -0.6740331649780273 1.840856671333313 -0.36436405777931213 -0.6626478433609009 -0.3762081563472748 -0.4877084195613861 -0.8691865801811218 -0.9005740880966187 1.7619214057922363 -1.8660120964050293 0.7096682190895081 0.16090664267539978 0.47830402851104736 0.050443876534700394 -1.6017680168151855 0.3790279030799866 0.8636310696601868 -1.8325797319412231 -0.5044237971305847 -0.45572614669799805 0.3909669518470764 1.2830862998962402 0.06253372877836227 -1.8552416563034058 0.8295883536338806 -0.0222349651157856 -0.6601594686508179 0.30022040009498596 -0.9719656109809875 -0.8626259565353394 -1.150663137435913 -1.3857896327972412 -0.8934164643287659 0.8346841335296631 0.6337262988090515 1.0042380094528198 0.1285494565963745 -0.5259325504302979 -0.9616503715515137 -0.3536149561405182 -1.305279016494751 1.7943766117095947 -0.8409077525138855 -0.06862818449735641 -0.5841574668884277 0.8058274388313293 -1.1766201257705688 -2.131192684173584 -0.24411939084529877 0.19772225618362427 -0.37055525183677673 -0.3197043836116791 -0.4171563684940338 0.2754553556442261 0.8141347169876099 1.7860088348388672 0.25449350476264954 -0.035154152661561966 -0.4414787292480469 0.24224385619163513 0.5736908912658691 1.4303220510482788 -0.5161960124969482 0.49856024980545044 1.297541618347168 -0.5868200063705444 0.03282768651843071 -1.2500481605529785 -1.8981623649597168 -0.39953726530075073 0.20816808938980103 0.6241531372070312 -0.5637039542198181 -1.4986833333969116 -1.1793124675750732 0.7503764629364014 2.8055083751678467 -1.3022892475128174 1.0571582317352295 -0.03692670166492462 -1.4874852895736694 0.11257033050060272 0.24334348738193512 -0.7180006504058838 -1.8204792737960815 -0.2556418478488922 -0.366710901260376 -0.3845224678516388 -0.5069130659103394 0.1826881468296051 -1.0174596309661865 0.7123320698738098 -0.8138121962547302 0.5568262934684753 0.33677321672439575 -0.7596850991249084 -0.12470090389251709 -0.1204947829246521 -0.5000771880149841 -0.5078903436660767 0.47176969051361084 0.11136165261268616 0.8517717123031616 -0.03159945830702782 -0.359714150428772 -1.8377866744995117 0.3967328369617462 1.8683842420578003 -0.17993725836277008 0.4905247688293457 -1.022929072380066 0.497780442237854 0.7785189747810364 -1.2957137823104858 1.877442479133606 -1.7315309047698975 1.8258342742919922 0.6642656326293945 0.34559166431427 -0.3802620470523834 -1.1178499460220337 -1.7859432697296143 0.8576792478561401 0.22802068293094635 1.2918202877044678 -0.9914538264274597 0.6219414472579956 -0.7784653306007385 1.5033279657363892 -1.6498702764511108 0.5253700017929077 0.15643459558486938 0.1258501559495926 -0.19787448644638062 0.5467190742492676 -0.9666618704795837 -0.8621466755867004 -0.5373778939247131 0.40251174569129944 -1.0584431886672974 0.17457807064056396 1.184895396232605 0.34601494669914246 -0.3508932292461395 -0.7094202041625977 0.09389373660087585 0.5313867330551147 -0.16692125797271729 0.9133570790290833 1.290529489517212 0.7752669453620911 0.6962038278579712 1.1349048614501953 -1.124549388885498 1.439549207687378 0.4905250072479248 -0.7757807374000549 -0.07347935438156128 1.3978956937789917 -0.1261598765850067 -0.05518321320414543 0.3113417327404022 1.3344191312789917 0.6649181246757507 0.8987548351287842 -1.8512613773345947 0.6316589713096619 -0.38764500617980957 -0.8226891160011292 1.7343870401382446 0.2901145815849304 0.6259589791297913 0.10978854447603226 -0.6182852387428284 -0.8526777625083923 -1.9378830194473267 0.4527057111263275 0.3407392203807831 0.206003800034523 -0.10268624871969223 0.3555571436882019 0.205662801861763 -0.9653822183609009 1.2037941217422485 1.0751378536224365 1.4995245933532715 0.9475830793380737 0.4862305819988251 
vec19 -0.6050050854682922 0.07232354581356049 -0.21000109612941742 0.09127853810787201 3.0240094661712646 -0.6924305558204651 1.7650229930877686 -0.3812909424304962 0.008007870055735111 -0.9830371141433716 0.5134040713310242 -0.5227742791175842 -1.1929084062576294 -0.013199386186897755 -1.1578688621520996 -2.3168137073516846 0.6306660771369934 -1.193442940711975 -0.7901591658592224 -1.1297467947006226 0.7742981910705566 -0.46334171295166016 1.17122483253479 -0.5076053142547607 -1.9030665159225464 0.715362012386322 -2.4470317363739014 0.13132382929325104 -0.3579956889152527 -0.5753346681594849 -1.2544236183166504 -1.0547707080841064 0.48567837476730347 -0.4101102948188782 -0.519048810005188 -0.7464292049407959 1.0127485990524292 -1.798340916633606 -0.8068881630897522 -1.4320276975631714 -0.44430503249168396 -0.7565252780914307 -1.4982126951217651 0.1115310862660408 0.014107798226177692 0.4007408320903778 -0.22828541696071625 0.5597643256187439 -0.06442642956972122 -2.1118717193603516 0.25855737924575806 -0.7837706208229065 -1.171685814857483 0.5529471635818481 -1.1842652559280396 0.12026550620794296 0.9282654523849487 0.33283162117004395 0.6395395398139954 -1.3961056470870972 -0.5857983827590942 0.8371952176094055 -0.6714358329772949 0.6695473790168762 0.7797651886940002 0.19090504944324493 -0.7032721638679504 0.7130829691886902 0.9374685287475586 1.1806344985961914 -2.568500280380249 -0.7092047929763794 0.8404607176780701 0.6873156428337097 0.8522419929504395 1.0937840938568115 0.015286033973097801 -0.14462170004844666 -1.9221168756484985 0.46859073638916016 -1.5233187675476074 -0.34797462821006775 -1.0779234170913696 2.033621072769165 -0.07049289345741272 -0.00342426891438663 0.48626798391342163 1.7674351930618286 0.5947893261909485 -0.724936306476593 1.6423885822296143 -1.0425782203674316 -0.7844205498695374 0.008021111600100994 -0.14465080201625824 -0.5961824059486389 1.5497756004333496 -0.6818825602531433 0.5968809127807617 0.4692205786705017 1.0473430156707764 -0.19838576018810272 -0.3485616445541382 -0.013550112023949623 0.014487706124782562 0.18860562145709991 0.26112988591194153 -0.997901976108551 -0.7895351052284241 -0.24706444144248962 0.34286871552467346 0.2800031006336212 -0.20948617160320282 0.9352512359619141 1.1566263437271118 0.8278377652168274 0.11352165043354034 0.4053313732147217 0.9174919724464417 0.5440018773078918 -0.5857222080230713 0.11697788536548615 -0.3897168040275574 0.13822726905345917 1.44369637966156 -0.5113402605056763 0.8858775496482849 -1.1509933471679688 -0.33619025349617004 -1.5426851511001587 -0.03360096737742424 1.9529924392700195 1.0323814153671265 -1.2832319736480713 -0.5592164397239685 -0.2859281897544861 1.639124870300293 -0.5217156410217285 0.8950359225273132 -1.0744277238845825 2.6781604290008545 -0.8102627396583557 -0.22956965863704681 -1.4450618028640747 -0.35299643874168396 0.06273234635591507 0.3902214765548706 0.455364853143692 0.749351978302002 -0.5925039649009705 1.2183864116668701 0.25986576080322266 0.29673337936401367 -1.216856598854065 2.4068939685821533 -0.6429914236068726 -1.0924302339553833 0.6014277935028076 0.7301404476165771 0.29924318194389343 -1.1898916959762573 0.1508253961801529 0.870127260684967 1.378251552581787 -0.44389083981513977 0.20842255651950836 0.2103624790906906 -0.5210784077644348 -1.2869422435760498 -0.43815070390701294 2.4851536750793457 0.28142690658569336 -0.087988942861557 -0.13678942620754242 0.8818535804748535 0.2007819563150406 0.8223536014556885 -1.641117811203003 0.21727889776229858 -0.06916959583759308 -1.9097075462341309 -1.0690397024154663 -0.007900622673332691 0.47742530703544617 1.2766590118408203 -0.9178460836410522 0.4147970378398895 -0.680107057094574 0.3263179361820221 -0.33619773387908936 -0.7982848882675171 -1.9488465785980225 2.05288028717041 1.870368242263794 0.800739049911499 0.4192104935646057 -0.4947187304496765 2.308974027633667 0.5812339782714844 0.12862981855869293 
vec20 0.6313579082489014 1.6056796312332153 -2.033339262008667 -0.994426965713501 0.2703988552093506 -2.9139089584350586 -0.040112338960170746 0.33736690878868103 0.1070576012134552 -0.8734472990036011 -0.0905928984284401 -0.2641412317752838 0.46459200978279114 0.7864893078804016 -1.2311140298843384 -1.0885416269302368 -0.8390777111053467 -0.4668217599391937 -0.10638636350631714 -0.012973308563232422 1.940345287322998 -1.003470778465271 0.5422775149345398 -0.6385794878005981 0.43823620676994324 0.5381983518600464 -1.922296404838562 1.9372327327728271 -0.9813708066940308 -0.03714089095592499 0.22446000576019287 -0.53453528881073 -0.987049400806427 1.118221402168274 1.1738325357437134 -1.0037599802017212 2.563204765319824 -0.2861974537372589 0.8087531328201294 0.17722146213054657 0.27250024676322937 0.4863290786743164 -0.9674892425537109 0.4383949637413025 -0.008297835476696491 1.6575220823287964 0.4365861713886261 1.3991847038269043 1.7235997915267944 -0.6783629059791565 -0.350211501121521 -1.5055547952651978 -2.065593719482422 0.9475781321525574 -0.7441035509109497 -0.4003201425075531 -0.030147183686494827 1.5976186990737915 -0.3972417116165161 -1.804339051246643 -0.41173431277275085 0.9516454339027405 -0.6245394349098206 -1.338365077972412 1.723638892173767 0.44944003224372864 -0.10306321084499359 0.28381240367889404 -1.422797441482544 -0.9353942275047302 -0.8607584834098816 -0.10982799530029297 1.029545545578003 0.668716549873352 -1.0123776197433472 0.7182906866073608 -0.6043301224708557 1.189697265625 0.7817074656486511 0.8688534498214722 -0.5570339560508728 1.3269118070602417 1.1988945007324219 0.08431732654571533 -0.8827928304672241 1.6885510683059692 -0.40307778120040894 2.6166274547576904 1.9218100309371948 -0.45949694514274597 -0.2817709743976593 0.8101621270179749 -1.876746416091919 0.11886109411716461 0.23406220972537994 0.0996364951133728 0.04952637851238251 -1.1578559875488281 -0.75114506483078 -1.2222840785980225 -1.1439554691314697 -0.9192110300064087 -1.3877748250961304 -2.079620361328125 -0.24938377737998962 2.5574519634246826 -0.27235767245292664 -1.4470210075378418 -0.7452365159988403 -0.299948126077652 0.0324573777616024 -1.9151142835617065 0.10358473658561707 -0.1424981653690338 2.3196089267730713 0.5814753770828247 -0.27296966314315796 0.29787343740463257 0.6155216693878174 0.7986646294593811 -0.5356526374816895 0.7397246360778809 -0.45864400267601013 0.31788769364356995 0.7237710952758789 -0.41703522205352783 2.47163724899292 -1.1585205793380737 -1.5905685424804688 1.3632959127426147 -0.12165239453315735 1.0960646867752075 -1.566721796989441 -1.3120150566101074 1.0439714193344116 -0.6440867781639099 0.7780160903930664 -0.3120962083339691 1.3371855020523071 0.031497057527303696 -0.28592032194137573 0.7488581538200378 0.21185995638370514 0.22623108327388763 1.1488542556762695 0.4404504895210266 1.7017340660095215 -0.8304990530014038 -1.5839149951934814 -0.43443313241004944 0.6442331671714783 -1.0725573301315308 0.6737514138221741 1.753889799118042 0.19002565741539001 -0.2538529932498932 -0.7236455678939819 0.44729557633399963 -0.7782851457595825 0.7993565201759338 0.3259636461734772 -0.6316778659820557 -0.7419567108154297 0.42161235213279724 2.0047972202301025 1.0811147689819336 0.273946076631546 -0.2696436643600464 -0.31435415148735046 -1.0188279151916504 1.1089699268341064 -0.47622618079185486 -0.7212245464324951 0.6565401554107666 -2.5363337993621826 -0.23281334340572357 0.8666388392448425 -0.18571338057518005 -0.9522730112075806 -1.5122828483581543 -0.4315410852432251 0.881958544254303 1.4470206499099731 0.8146308660507202 -1.1285048723220825 -0.1842552274465561 -1.6643990278244019 0.12707611918449402 0.649653971195221 0.39838936924934387 0.17717018723487854 -0.3458292484283447 2.96217942237854 1.1650567054748535 0.5270774364471436 0.8542163372039795 0.13862080872058868 0.709662675857544 0.5627920031547546 0.5960741639137268 
vec21 0.5448004603385925 0.6345442533493042 -1.6900392770767212 -1.847458839416504 1.2099428176879883 -1.1434615850448608 0.032471511512994766 0.806006908416748 -1.7458560466766357 -1.7803065776824951 -1.5096710920333862 -1.4616883993148804 -1.1933649778366089 2.0326149463653564 -0.01158330962061882 -1.0054949522018433 -0.6255964040756226 -0.8218967914581299 -0.04329109564423561 -1.225918173789978 1.1911205053329468 -1.1763231754302979 0.30275413393974304 -0.973888635635376 -0.4849146008491516 1.192366123199463 -2.0133163928985596 0.39394083619117737 -0.49578461050987244 -0.20357610285282135 -1.063661813735962 -1.6772716045379639 -0.4885331392288208 0.19662390649318695 0.3023490309715271 -0.9523409008979797 1.7915730476379395 -2.3072092533111572 0.40183427929878235 0.09645386040210724 0.2683912515640259 0.8502143025398254 -0.07139033079147339 -1.5375916957855225 0.6422059535980225 0.1310887634754181 0.6394548416137695 0.9406287670135498 -0.29042547941207886 -0.030240856111049652 0.5672619342803955 -1.1834843158721924 -1.0416613817214966 0.34830954670906067 -1.067785382270813 0.11943671107292175 0.3748532831668854 -0.2960379421710968 -0.6527367234230042 -1.6349527835845947 -2.1974937915802 0.3078726828098297 -0.08409745246171951 0.8324531316757202 1.3137154579162598 -0.7832962870597839 0.8098136186599731 -0.5218386054039001 -0.8784868717193604 -0.05275311693549156 -0.3748363256454468 0.12612777948379517 1.3414596319198608 0.13184742629528046 -1.9105942249298096 0.43438291549682617 0.1388196051120758 -0.2910654544830322 0.34000322222709656 0.08910468965768814 -1.6068334579467773 -0.3758213222026825 -0.4958171844482422 1.0009865760803223 -0.22201187908649445 -2.3111019134521484 0.09038456529378891 0.16798973083496094 1.1657618284225464 -1.2501548528671265 1.8191521167755127 0.7597376704216003 1.007106065750122 0.7239579558372498 -0.44501179456710815 0.9398956894874573 1.7832129001617432 -0.39246854186058044 -1.220245361328125 0.12129891663789749 -0.1387573778629303 -1.3855351209640503 -0.3702029883861542 -0.5713473558425903 -0.32210463285446167 -0.20353221893310547 -1.2811589241027832 -1.42421555519104 -0.03856378421187401 -0.0374823734164238 0.36106401681900024 0.10637051612138748 0.5301903486251831 -0.3764204978942871 1.6695200204849243 0.554115355014801 0.13406464457511902 1.5958882570266724 1.13933527469635 -0.24723027646541595 -0.013338238000869751 0.5789093375205994 0.5911365747451782 -0.06124096363782883 1.0053176879882812 0.4871635437011719 0.5689006447792053 -1.9696685075759888 -0.49313122034072876 0.12301862239837646 -0.07514013350009918 1.583253264427185 -0.363617867231369 -0.27537959814071655 1.3184881210327148 0.3516179323196411 0.17971093952655792 -0.7029656171798706 1.6782547235488892 1.241624116897583 -0.38923344016075134 -1.3787659406661987 -0.6640666127204895 -0.01888391375541687 1.048654317855835 -0.23959247767925262 0.24833330512046814 -1.1544557809829712 -0.015845783054828644 0.2522275745868683 -0.32977432012557983 -0.8059800863265991 0.788469672203064 1.231495976448059 0.08342692255973816 -0.29371368885040283 -0.13636846840381622 -0.27039894461631775 0.6132182478904724 2.091240644454956 -0.2839451730251312 -0.5350745916366577 0.8140928149223328 0.06921012699604034 2.18985652923584 -0.005963199771940708 1.554483413696289 0.3948608338832855 -1.4299670457839966 0.268615186214447 0.5325765013694763 -0.8776947855949402 -0.18954041600227356 0.689354419708252 -0.5916550755500793 -0.10265776515007019 -0.06504765897989273 -0.1224440187215805 -1.5299429893493652 0.8418439030647278 1.145210862159729 0.17050068080425262 1.3276766538619995 1.1608948707580566 -0.17525416612625122 -0.02797333523631096 -0.9118927121162415 0.8318080306053162 0.1088128536939621 -0.007979688234627247 -0.27133065462112427 -0.4000079035758972 1.2107882499694824 1.183264970779419 -0.2762705385684967 0.05014640465378761 0.6285563111305237 0.8038432598114014 -0.8936679363250732 1.381216049194336 
vec22 -0.7350234389305115 -0.32610681653022766 0.23448829352855682 -0.1547422707080841 1.5952155590057373 -0.2959364652633667 0.1792999655008316 0.3577719032764435 -1.3994992971420288 -0.4450991749763489 -0.03730107471346855 -1.5979597568511963 -0.5471147298812866 1.130275845527649 -0.34753185510635376 -1.4866909980773926 -0.7011075615882874 -0.3937186896800995 0.8301685452461243 -0.4939643442630768 -0.11840105056762695 -1.2741010189056396 0.754533052444458 -0.42553529143333435 -1.9383454322814941 0.2355491816997528 -3.398568630218506 -0.09370464831590652 -0.3768381178379059 -1.4439221620559692 0.09521299600601196 -1.7486827373504639 -1.6756426095962524 0.4014342129230499 1.4719703197479248 -1.2597675323486328 -0.20207388699054718 0.349028080701828 0.20404531061649323 -0.20487086474895477 -0.07187393307685852 1.6870425939559937 -0.5958068370819092 -0.3054433763027191 -0.6989918351173401 -0.13667528331279755 -1.2457330226898193 1.0993080139160156 1.4615694284439087 -1.4222792387008667 0.8229659199714661 -2.7250547409057617 -2.8170688152313232 -0.28967994451522827 -0.2331756353378296 -0.9873624444007874 -0.6446675658226013 1.3162180185317993 0.3792962431907654 -0.052501481026411057 0.16295689344406128 1.4955344200134277 -1.3262717723846436 -0.5799601078033447 2.375446319580078 0.8451813459396362 0.46409887075424194 0.31727471947669983 0.08786210417747498 -1.0403945446014404 -1.1362392902374268 0.26501137018203735 1.51510751247406 2.098513126373291 -1.1284000873565674 1.400301218032837 -0.220311239361763 0.29861411452293396 -0.6750529408454895 1.6417734622955322 0.033648259937763214 -1.0862470865249634 1.2127126455307007 1.1286345720291138 -1.8253601789474487 0.2680742144584656 -0.6978474259376526 -0.7113131284713745 1.7686623334884644 -0.4879310429096222 -0.8544890284538269 0.49336597323417664 -0.5500670671463013 1.3943339586257935 0.9007031321525574 0.3234221041202545 -0.19281144440174103 1.8394092321395874 -0.5651155710220337 -1.2932111024856567 0.3256481885910034 -1.0856733322143555 -1.439439296722412 1.013327717781067 -1.3991986513137817 1.4902489185333252 1.474592685699463 -1.5546528100967407 -0.6386131048202515 -1.4800868034362793 -0.033875323832035065 0.07429257780313492 -0.7958422303199768 -0.07331659644842148 1.3940141201019287 0.3395378589630127 -2.0245139598846436 1.3423662185668945 0.739597499370575 0.5998148918151855 0.3120707869529724 1.0122387409210205 -1.188303828239441 -0.3820926547050476 1.338464617729187 0.36399343609809875 0.6242165565490723 -0.6811460256576538 -0.22205853462219238 -0.7706188559532166 -0.28289005160331726 0.5109471678733826 1.6237796545028687 -0.2514618933200836 0.3199497163295746 0.22134529054164886 0.5068793892860413 -0.9304274320602417 2.0295581817626953 0.43796929717063904 1.2487109899520874 -0.41353675723075867 1.0462615489959717 -0.2204471230506897 0.5275563597679138 -0.39892691373825073 0.9498358964920044 0.608776867389679 -0.8544251322746277 1.020429015159607 -1.029055118560791 0.3741952180862427 0.2363920956850052 1.7662830352783203 1.6840287446975708 -1.769506573677063 -1.240660548210144 -0.23214274644851685 0.8926568627357483 -0.5572217106819153 -0.6221925616264343 0.6690795421600342 1.4202089309692383 0.5891618728637695 1.3069398403167725 0.659530758857727 1.079825520515442 -0.1302715390920639 -0.2948934733867645 -2.2734622955322266 -0.8345465660095215 1.0861111879348755 0.031074173748493195 0.17772027850151062 -0.13847748935222626 -1.0561788082122803 2.2960364818573 -0.8557949066162109 -0.30790379643440247 0.6534664034843445 -1.7927088737487793 0.2670880854129791 2.6044769287109375 0.5239764451980591 -1.3429274559020996 0.08731002360582352 -0.8048158288002014 -0.20351168513298035 1.8963018655776978 0.5708069205284119 -1.0455970764160156 -0.28743621706962585 3.400167465209961 1.3648802042007446 1.830037236213684 -0.04317203164100647 0.9210124611854553 1.5919091701507568 1.3284646272659302 -0.3866102397441864 
vec23 -0.31338003277778625 1.1200876235961914 -0.9667560458183289 -1.4878431558609009 1.7403792142868042 -0.5376510620117188 -0.6892894506454468 0.8404000401496887 -0.013043146580457687 -1.7936763763427734 -0.4962548315525055 -1.4452075958251953 -0.21100451052188873 -0.4836820662021637 -0.7423372268676758 -0.37615782022476196 -0.6978957056999207 -0.9886937141418457 -1.005371332168579 -0.7993111610412598 1.5497229099273682 -1.761671781539917 1.951543927192688 -0.2075619101524353 0.12451555579900742 0.0200244951993227 -0.9618270993232727 0.603324830532074 1.2523001432418823 -0.3086329996585846 -0.33706316351890564 0.022329218685626984 0.12653347849845886 -0.26945140957832336 0.03911970555782318 0.36436620354652405 0.8225439786911011 -0.15991421043872833 -0.7455281615257263 0.7256969213485718 1.144378662109375 0.8401329517364502 0.8260615468025208 -1.352022409439087 1.1828908920288086 1.043363094329834 0.13177531957626343 0.09079574793577194 -1.1895959377288818 -1.222318172454834 -0.3527185320854187 0.010632742196321487 -1.089565396308899 1.5406767129898071 -0.4350292980670929 -0.24713437259197235 0.9243329763412476 1.6145052909851074 -0.6009360551834106 -0.21871395409107208 -1.5228437185287476 -0.48725828528404236 -1.3299752473831177 0.39091217517852783 0.06940366327762604 1.0829609632492065 -0.28398773074150085 0.5041080713272095 0.2450023889541626 -0.8001961708068848 -0.5231989026069641 1.2160552740097046 0.6098402738571167 0.13983571529388428 -1.2331970930099487 2.0398945808410645 -0.25478437542915344 1.0618515014648438 0.012823650613427162 0.570673942565918 -0.5166947245597839 -0.9505113959312439 0.5514562129974365 0.7549487352371216 -0.45913881063461304 -0.6850496530532837 0.9649924635887146 -0.4586906433105469 2.3100473880767822 -0.46939241886138916 0.6636746525764465 0.8988390564918518 -0.8203187584877014 0.4233216941356659 0.4359278976917267 0.5376620888710022 0.3863406479358673 0.9973865151405334 -0.5777388215065002 0.3016548752784729 2.2633347511291504 -0.8275661468505859 -0.8372694849967957 -1.0987628698349 -0.7752624154090881 0.05054490268230438 0.21186739206314087 -0.749387800693512 0.931723952293396 -0.33842113614082336 -0.44768208265304565 -0.5481782555580139 -0.45128563046455383 -1.2859610319137573 0.9568146467208862 0.16246725618839264 0.5501540899276733 0.5395920872688293 -0.13955725729465485 1.2854777574539185 -1.6056724786758423 0.0613243505358696 -1.0654230117797852 -0.005661171395331621 1.4675596952438354 -1.0909017324447632 1.2239811420440674 -1.2295780181884766 -0.9095481634140015 -0.6524186730384827 -1.173231601715088 0.6788740158081055 -0.00737941637635231 -1.694812536239624 0.3059738278388977 -0.7674746513366699 0.9228131771087646 -0.26400840282440186 0.6222249269485474 -0.8423064351081848 0.6052631139755249 0.05195201560854912 0.9517373442649841 1.1117607355117798 0.6347029805183411 -0.43807142972946167 -0.8961118459701538 -1.6092984676361084 -0.8400083184242249 -0.46184444427490234 0.5370542407035828 -0.6200745105743408 -0.1680990308523178 0.4460349380970001 0.4017993211746216 -0.9832227230072021 0.04598807916045189 -0.6037619113922119 1.231832504272461 0.5747812390327454 -0.5940174460411072 0.23047755658626556 0.5601602792739868 -0.3189994692802429 1.6480571031570435 -0.8786496520042419 1.037566065788269 -1.31456458568573 -0.6195672154426575 -1.2899577617645264 0.5193807482719421 -0.8292858004570007 -0.06404773890972137 2.130821943283081 -0.0599508211016655 0.10876636952161789 0.9858633875846863 0.4140917956829071 -1.5913360118865967 -0.4332067668437958 -0.933194637298584 -0.21809473633766174 -1.0194568634033203 1.0821614265441895 -0.38932162523269653 0.08050481230020523 -1.2708314657211304 -0.8141210675239563 0.46399158239364624 0.9961584806442261 0.0947360247373581 -0.9148772954940796 0.7962378263473511 1.2837265729904175 0.0918368250131607 0.16567979753017426 -1.3807390928268433 0.2860528826713562 0.15921121835708618 0.0349867008626461 
vec24 -0.4430375397205353 1.7650172710418701 -1.082754135131836 -0.5735459327697754 0.006594154983758926 -1.1469711065292358 1.14023756980896 -0.3187060058116913 -1.4195985794067383 -2.192878484725952 -1.2071913480758667 0.5222817659378052 -0.6022734045982361 0.12170127034187317 0.843661367893219 -0.4130992889404297 0.1954956203699112 -0.7313892841339111 -0.47633489966392517 0.33358854055404663 0.9417722821235657 -2.0147078037261963 -0.8128199577331543 -1.0162185430526733 0.521420419216156 -0.9354134798049927 -1.611863136291504 0.3418900966644287 -1.3005154132843018 -1.1010560989379883 1.1942881345748901 -0.9241600632667542 -0.7073819041252136 1.3752944469451904 1.052809238433838 -1.3915228843688965 2.297700881958008 -0.06502417474985123 -1.196068286895752 0.41071635484695435 -0.3603983521461487 0.1753125637769699 -1.4086389541625977 0.5019512176513672 1.199203610420227 0.9862799048423767 0.8885529041290283 0.524810791015625 1.7266656160354614 -0.2831414043903351 0.9643872976303101 -2.202322006225586 -1.988038182258606 -0.27987971901893616 -1.0461407899856567 -0.37255316972732544 0.8709737062454224 1.4411190748214722 -0.7360073328018188 -1.0364619493484497 -0.5495506525039673 0.1954004168510437 -0.6870537400245667 -1.5389113426208496 -0.1920074224472046 -0.6176788210868835 1.0696229934692383 1.9350409507751465 -0.08050714433193207 0.3171621561050415 -2.2149791717529297 -0.2816847562789917 0.6125463843345642 1.6215264797210693 -0.5133890509605408 1.63534414768219 1.3046191930770874 -0.20049722492694855 0.6864651441574097 -0.15486006438732147 -1.9362139701843262 -1.468043327331543 -0.8678364157676697 1.2033995389938354 -0.4539618194103241 -1.9652605056762695 -0.27687540650367737 -0.0017704972997307777 0.8788193464279175 -0.8382896780967712 0.010627297684550285 0.08487475663423538 -0.5906705856323242 1.3845350742340088 0.29661825299263 0.8893718719482422 0.6451708078384399 1.4465395212173462 -1.926628828048706 -0.8027260899543762 -1.2320631742477417 0.16101261973381042 0.21309979259967804 1.0510283708572388 -1.2626057863235474 1.0011937618255615 -1.2636762857437134 -1.1174273490905762 -0.3430135250091553 0.40494978427886963 0.18816222250461578 -1.499544620513916 -0.6851128339767456 -1.2958385944366455 1.108646273612976 1.3366570472717285 -0.5040003657341003 0.6543154716491699 0.48200905323028564 0.6698727011680603 -0.45717883110046387 -0.10265907645225525 -0.7411161661148071 0.15462321043014526 0.6687643527984619 -1.176276445388794 0.9471634030342102 -1.8427947759628296 0.9591511487960815 1.6720738410949707 -0.17012448608875275 1.3193992376327515 0.10178332030773163 0.3135277330875397 -0.3928322196006775 0.7208227515220642 0.27613312005996704 0.5581103563308716 0.6822050213813782 -0.37384724617004395 1.205152153968811 0.8880087733268738 -0.8894685506820679 -1.2907822132110596 -0.6554517149925232 0.1316378265619278 0.029954686760902405 0.7920616865158081 0.4342481791973114 1.0471107959747314 1.794595718383789 0.31903699040412903 -0.4454343318939209 1.3677490949630737 0.483810156583786 -0.6366606950759888 0.2337339222431183 -1.6229851245880127 0.45617711544036865 0.30708736181259155 0.12423262000083923 0.15359829366207123 -0.08800686150789261 1.4002472162246704 -1.0024054050445557 0.9537339210510254 0.8213481307029724 0.5779367685317993 -0.1624165028333664 -2.1822128295898438 -0.9590471386909485 -0.2139301300048828 -0.5772388577461243 0.3683141767978668 -0.5433262586593628 0.7841366529464722 0.15177445113658905 -1.005642056465149 -0.9313271641731262 0.13557885587215424 -1.1940635442733765 -0.1790725737810135 0.7412413358688354 1.6869416236877441 1.1477724313735962 0.5376342535018921 -0.8356204032897949 -1.3788881301879883 -0.03891526162624359 1.253021001815796 -0.2029971182346344 -0.7442312240600586 0.03489566966891289 1.5755730867385864 2.003357410430908 -0.8096426129341125 -0.6083284020423889 -0.2997142970561981 0.5374287962913513 0.08854025602340698 
